tree
version=v4
num_class=3
num_tree_per_iteration=3
label_index=0
max_feature_idx=24
objective=multiclass num_class:3
feature_names=Column_0 Column_1 Column_2 Column_3 Column_4 Column_5 Column_6 Column_7 Column_8 Column_9 Column_10 Column_11 Column_12 Column_13 Column_14 Column_15 Column_16 Column_17 Column_18 Column_19 Column_20 Column_21 Column_22 Column_23 Column_24
feature_infos=[-4.484860897064209:4.5339574813842773] [-1.4656859636306763:0.96318382024765015] [-3.9416635036468506:1.4257572889328003] [-2.4992103576660156:1.1555712223052979] [-1.3072386980056763:13.109793663024902] [-0.7053254246711731:1.1137219667434692] [-0.82788926362991333:7.2467751502990723] [-11.069380760192871:0] [-1.1869001388549805:1.9507030248641968] [-1.1054755449295044:8.9604148864746094] [-2.6206436157226562:2.6920473575592041] [-24.292688369750977:12.922369956970215] [-0.25050920248031616:1.2159959077835083] [-8.5681600570678711:7.4223775863647461] [-1.2384406328201294:18.221990585327148] [-4.4628896713256836:2.0596117973327637] [-2.154036283493042:1.4098033905029297] [-1.1279069185256958:1.4651161432266235] [-3.7883901596069336:2.2314162254333496] [-1:1] [-0.72860157489776611:1.0570732355117798] [-1.0635589361190796:7.208214282989502] [-5.9562301635742188:4.3041138648986816] [-0.80883967876434326:1.4453037977218628] [-11.75127124786377:9.6786832809448242]
tree_sizes=3798 3923 3712 4096 5388 4504 3973 5369 3881 4860 4837 3989 4519 5039 3989 4525 4829 4098 4105 5381 3984 4094 4842 4714 4103 5270 5676 4426 4956 3570 4392 5715 3887 4408 4420 3769 3995 4754 4513 3899 4620 3881 4409 4828 4491 4328 5692 2391 3889 5485 4494 4016 4544 4063 4630 4313 4853 5269 4185 3133 3895 4316 5701 4295 4629 4946 3896 4321 5903 3249 4946 3349 4401 5585 5244 3247 5892 3435 4641 4747 3786 3662 5493 4617 4306 5256 4624 4318 5177 4292 4212 4636 4954 4111 4747 3132 4195 4937 3557 4623 5069 4325 3034 4205 4428 4001 4873 4317 4534 4633 4593 4734 4737 4738 4014 6006 3247 4841 4847 4419 4847 5064 4728 3467 3981 3881 4727 4981 3876 4007 3894 4863 4642 4003 5374 4414 4324 3358 4651 4860 3975 4845 3904 3979 3886 4311 4208 4115 4002 3458 4324 4725 4194 4648 3779 5286 4638 4762 4415 3045 4761 5811 2493 4312 4198 3357 3778 4739 3143 3475 3356 3573 3777 3780 4220 4859 4193 4423 4115 4742 3887 5076 3773 4113 3569 5280 2087 3458 4737 4317 3690 4223 4097 4975 4108 4090 3901 3142 3581 4637 4309 2912 3161 4097 3791 3462 4208 3790 4525 3362 4026 4095 4416 3043 4005 3143 5184 4223 3035 3576 2821 5060 3156 4430 3032 3137 4555 5591 3776 2722 2912 3125 4653 3883 2827 5074 3249 4214 5400 4650 3902 5391 3151 3559 3675 2603 3468 4215 4349 4640 4650 2278 2517 4537 3789 4121 4219 2722 3474 4529 4331 3474 4112 3034 3471 2733 3787 4733 3781 5392 4242 3582 3572 2933 3370 3894 2917 2625 2400 3146 3362 3356 4231 4753 4330 3249 5188 4555 2832 3699 4846 2824 3672 3572 3787 4546 4002 3563 4973 4211 2932 2403 5713 2608 3472 5277 3135 3357 2827 3151 4217 3681 2928 2727 3153 4537 3673 4121 3269 4227 3251 4115 3903 4213 4109 4971 4551 3138 3047 2381 3471 2714 4754 3786 3270 1643 3380 3149 2717 4095 2949 4114 4339 3047 5832 4203 3255 3243 2829 4651 1759 3903 3781 2720 3791 4438 2403 3478 2517 4093 2823 3369 4531 3883 3576 4232 3679 3475 4006 4434 3136 3585 3791 2925 2716 4231 3258 3244 3160 3149 1539 4234 3360 5211 3367 2509 4857 3563 3052 4123 4346 3670 2386 3261 3699 1424 3134 3686 3785 4212 3148 2827 3042 3791 4226 2511 2831 3892 3146 3157 2936 3247 2620 2611 3044 3146 3467 2193 3149 3591 3360 2724 5171 3144 3266 2087 3382 3155 4951 3467 4558 4330 3168 2398 4410 2837 2837 2923 3364 3147 4099 2828 3256 3765 3363 4533 4544 2511 2083 1641 4017 2736 4853 3042 4441 2710 3800 3277 2392 3470 3899 1750 2194 3262 4123 3276 2400 4759 3365 3053 2078 3908 2731 4114 3489 3139 2935 2518 2718 3660 2501 2934 3365 2821 3891 4543 3583 3044 2719 3138 4957 3470 3567 2838 5491 3148 2284 2288 2195 2412 3348 2627 2408 1861 2611 4746 4437 2740 2510 3458 2821 3043 4431 2615 3271 4847 2288 5391 3052 2073 2193 2954 3258 4739 2829

Tree=0
num_leaves=36
num_cat=0
split_feature=7 20 12 18 2 6 6 9 3 20 9 20 20 18 9 18 15 12 20 8 8 15 20 3 18 9 9 18 18 8 2 9 24 2 9
split_gain=21.3808 15.7902 20.9764 13.524 15.9645 23.3811 14.0106 11.8741 9.82667 9.85863 9.73921 9.37468 9.83984 8.4548 8.3191 8.31874 10.6754 7.89622 18.492 7.46067 7.05055 9.76571 6.45072 5.97466 3.44521 3.05369 4.43581 4.97379 3.03152 2.87034 2.79117 1.82023 1.69283 0.502827 0.144516
threshold=-3.0112408399581905 -0.54602733254432667 -0.16450210660696027 0.78333413600921642 0.57383218407630932 0.97502052783966076 0.42821846902370458 -0.52223962545394886 -0.096922941505908952 0.63378208875656139 -0.67108348011970509 -0.5166339874267577 -0.45706410706043238 -0.7237473428249358 -0.36624525487422938 0.83374723792076122 -0.61221742630004872 1.0731754899024966 0.5991208851337434 0.57333800196647655 0.86351081728935253 -0.39714702963829035 0.70457673072814953 -0.13636755943298337 0.095694933086633696 -0.42549879848957056 0.10508519783616067 -0.32227338850498194 0.83891466259956371 1.559742331504822 -0.85403144359588612 0.53689873218536388 0.75535321235656749 -0.3808209747076034 -0.18346323817968366
decision_type=2 2 2 2 2 2 2 2 2 2 2 2 2 2 2 2 2 2 2 2 2 2 2 2 2 2 2 2 2 2 2 2 2 2 2
left_child=25 13 7 4 17 10 8 23 28 -10 -6 19 24 20 15 16 -15 18 -4 -9 21 -2 -19 -3 -13 -1 27 -27 -5 31 -22 34 33 -28 -16
right_child=1 2 3 6 5 -7 -8 11 9 -11 -12 12 -14 14 29 -17 -18 22 -20 -21 30 -23 -24 -25 -26 26 32 -29 -30 -31 -32 -33 -34 -35 -36
leaf_value=-1.163461145880734 -1.1233267887401599 -1.1576550188339654 -1.1496903956596802 -1.1454039362319237 -1.1277790011393547 -1.1176157043839323 -1.1226303919690752 -1.1531414962284356 -1.1466198473200495 -1.1216053200430938 -1.1462960857946212 -1.1131927992904407 -1.1395402021844261 -1.1580942280766833 -1.1607037050149924 -1.1589770700183268 -1.1321298176927515 -1.1587091399923117 -1.1343360812550967 -1.1324742672807688 -1.1609824892874914 -1.1478448837919069 -1.143873814147041 -1.1373964356231647 -1.126894662353576 -1.1607037050149924 -1.1578363431988281 -1.1431116682454407 -1.1610983884892847 -1.150193452644352 -1.14662370734921 -1.1549918350458734 -1.1517126943493574 -1.163461145997108 -1.1634611460417816
leaf_weight=14.310149461030958 7.0354216396808615 9.1184533238410932 230.6754442602396 5.8639069199562091 8.407839819788931 9.6234392523765546 11.669784218072889 8.5505000650882703 9.4309055060148257 7.5893231928348532 77.108524814248085 9.478849411010744 11.066222757101064 6.576450020074847 6.4000043720006934 11.806869268417357 11.828425765037538 37.137227177619934 23.025186657905579 10.251351729035376 7.1198386698961258 11.30080482363701 9.9106893390417081 6.7706997692584983 10.1349720954895 6.4000043720006969 6.2749346345663097 13.008416995406149 7.4690843671560287 7.9807240068912497 7.3368302285671216 10.418576583266256 6.0084967613220206 13.092834025621416 24.465826973319057
leaf_count=47 21 27 741 19 24 27 33 26 30 21 230 27 32 20 19 35 34 115 65 31 24 35 29 21 30 19 23 37 24 24 21 30 19 40 78
internal_value=-1.1475 -1.1466 -1.14537 -1.14666 -1.14759 -1.14176 -1.13784 -1.13674 -1.14369 -1.13547 -1.14448 -1.13279 -1.12722 -1.15214 -1.15502 -1.14827 -1.14141 -1.14944 -1.1483 -1.14187 -1.14516 -1.13844 -1.15558 -1.14902 -1.12027 -1.15689 -1.15479 -1.14891 -1.1542 -1.15916 -1.1537 -1.1609 -1.15929 -1.16164 -1.16289
internal_weight=674.647 615.552 503.282 437.911 395.888 95.1398 42.023 65.371 30.3532 17.0202 85.5164 49.4819 30.68 112.27 79.4769 30.2117 18.4049 300.749 253.701 18.8019 32.7929 18.3362 47.0479 15.8892 19.6138 59.0948 44.7847 19.4084 13.333 49.2651 14.4567 41.2844 25.3763 19.3678 30.8658
internal_count=2078 1893 1552 1358 1231 281 127 194 94 51 254 146 89 341 240 89 54 950 806 57 101 56 144 48 57 185 138 56 43 151 45 127 82 63 97
is_linear=0
shrinkage=1


Tree=1
num_leaves=37
num_cat=0
split_feature=6 0 5 24 13 18 6 18 0 15 18 18 24 8 18 15 6 0 0 15 15 15 9 15 8 17 0 8 5 21 17 13 24 18 5 13
split_gain=35.5503 14.5489 9.13146 8.33799 9.00023 10.1331 7.37444 6.78313 12.3772 7.96472 6.31822 13.7037 6.13095 5.4704 5.06682 4.81254 3.96088 6.21927 5.2567 7.38139 4.08204 4.07108 4.74388 3.89465 3.78226 3.34297 4.80282 1.98149 1.90402 1.50345 1.50067 1.31102 1.29975 1.24259 0.735055 0.696501
threshold=0.61707386374473583 -0.53441771864891041 -0.53664168715476979 1.6082606315612795 0.11756599694490434 -0.89074620604515065 -0.7570684254169463 0.49993649125099188 0.63405880331993114 0.40270830690860754 0.36760982871055609 0.2439188361167908 -0.87726581096649159 0.39461715519428259 0.55084493756294262 0.37512391805648809 1.2149327397346499 1.8231276869773867 -0.85580608248710621 0.061790004372596748 -0.44433383643627161 0.49897083640098577 -0.43661977350711817 -0.044630771502852433 0.093242831528186812 -0.42151160538196558 -1.4100800156593321 1.1995866894721987 0.35903277993202215 -0.27748376131057734 0.33430224657058721 -0.37933753430843348 -1.4437042474746702 0.42463228106498724 0.39845350384712225 0.1789740473031998
decision_type=2 2 2 2 2 2 2 2 2 2 2 2 2 2 2 2 2 2 2 2 2 2 2 2 2 2 2 2 2 2 2 2 2 2 2 2
left_child=1 2 -1 4 5 31 14 10 9 -9 11 -6 -8 16 -7 23 17 20 19 34 28 22 -22 25 -17 -4 -27 32 -2 -25 -30 -3 -15 -20 -18 -23
right_child=13 3 15 -5 7 6 12 8 -10 -11 -12 -13 -14 27 -16 24 18 -19 33 -21 21 35 -24 29 -26 26 -28 -29 30 -31 -32 -33 -34 -35 -36 -37
leaf_value=-1.0596880467982623 -1.0876633472661523 -1.0876633471958412 -1.0664815195281305 -1.0848697466513881 -1.0637513003203856 -1.0672613123379815 -1.0630871915276165 -1.0719133339750497 -1.0876633472382926 -1.0574702603451676 -1.0537918824839971 -1.0851372866962148 -1.0727352777991386 -1.0800000712630868 -1.0566680196527205 -1.0777869412779004 -1.0768948109358825 -1.0589378942630026 -1.0876633474709427 -1.0603714282261076 -1.0804103905984368 -1.084446073155221 -1.0666186352152258 -1.0876633472239152 -1.0631585811177053 -1.0685762416306575 -1.0831337994779835 -1.0758487703475863 -1.0720695756259748 -1.0794894928844705 -1.0824501171066518 -1.0777813163155963 -1.0876633474172579 -1.0799148267678507 -1.0846793635508838 -1.0766980745862849
leaf_weight=9.1288149952888471 7.8325800299644497 8.0453291535377485 8.0377495884895307 7.6180471479892722 157.5304209291935 44.854176789522171 20.782855153083801 29.726903736591339 9.2923869490623456 15.506832122802733 15.079438984394072 8.4248882234096509 114.04972898960114 8.3313372433185595 16.478699386119843 8.6192402243614215 5.9288777410984057 6.667814999818801 16.760015249252323 7.018048256635665 8.8026635348796791 6.6148480474948865 27.304152220487598 14.188962042331697 10.421700835227965 8.9198556542396528 18.793733239173893 7.2052613496780387 6.8238073885440818 10.414561927318571 8.1645272970199567 6.4607505500316611 20.303157985210419 8.2396811544895154 7.1320023834705353 5.8225031793117523
leaf_count=24 27 27 23 23 443 126 59 88 31 40 39 29 345 26 44 26 20 17 57 20 27 22 78 45 29 26 60 23 20 35 24 20 67 24 24 20
internal_value=-1.07109 -1.0691 -1.07516 -1.06792 -1.06763 -1.07009 -1.06911 -1.06544 -1.07049 -1.06696 -1.06392 -1.06484 -1.07125 -1.07789 -1.06442 -1.07694 -1.07625 -1.07403 -1.08011 -1.07388 -1.07544 -1.07276 -1.06998 -1.0792 -1.06978 -1.07576 -1.07845 -1.08351 -1.08114 -1.0842 -1.07772 -1.08326 -1.08543 -1.08511 -1.08115 -1.08082
internal_weight=701.326 542.375 88.5246 453.85 446.232 210.672 196.165 235.561 54.5261 45.2337 181.035 165.955 134.833 158.951 61.3329 79.3958 123.112 78.0329 45.0786 20.0789 71.3651 48.5442 36.1068 60.3549 19.0409 35.7513 27.7136 35.8398 22.8209 24.6035 14.9883 14.5061 28.6345 24.9997 13.0609 12.4374
internal_count=2078 1582 268 1314 1291 621 574 670 159 128 511 472 404 496 170 244 380 235 145 64 218 147 105 189 55 109 86 116 71 80 44 47 93 81 44 42
is_linear=0
shrinkage=1


Tree=2
num_leaves=35
num_cat=0
split_feature=14 10 15 2 15 7 4 15 8 15 4 12 12 14 2 19 16 8 4 2 0 6 4 4 2 8 2 0 14 4 4 8 0 24
split_gain=20.8222 11.2462 12.8453 10.05 13.2424 10.994 9.5314 8.66824 7.28643 6.71585 9.27602 7.84718 10.7463 8.38193 7.85425 6.50755 6.42448 6.28148 7.84831 6.92847 7.60155 5.61907 4.74952 7.12257 4.49837 4.43468 4.28837 3.91072 5.12244 7.87108 5.06233 3.5948 0.110276 0.0583828
threshold=0.86453869938850414 -0.19086836278438565 0.91244104504585277 0.60792905092239391 -0.29612511396408076 -1.1584922075271604 0.46103323996067053 1.0977147221565249 -0.91980531811714161 -2.5892937183380123 2.2071267366409306 -0.20449157804250714 0.51000282168388378 2.0483278036117558 0.48272143304347997 1.0000000180025095e-35 -0.65101635456085194 0.49643978476524359 -0.78137677907943714 -0.11488680168986319 0.48134648799896246 0.085643567144870772 -0.61953043937683094 -0.5028901696205138 0.21595421433448794 -0.13531444966793058 0.70672526955604564 1.3338375687599184 0.27500690519809728 1.3995370864868166 0.89471942186355602 0.94941565394401561 -0.82781425118446339 0.50100958347320568
decision_type=2 2 2 2 2 2 2 2 2 2 2 2 2 2 2 2 2 2 2 2 2 2 2 2 2 2 2 2 2 2 2 2 2 2
left_child=1 2 3 4 22 24 15 9 -7 -2 11 31 14 -14 -13 17 -17 18 -3 -19 -21 -8 -1 -24 -6 -20 33 28 30 -30 -23 -11 -12 -18
right_child=7 6 -4 -5 5 8 21 -9 -10 10 32 12 13 -15 -16 16 26 19 25 20 -22 27 23 -25 -26 -27 -28 -29 29 -31 -32 -33 -34 -35
leaf_value=-1.093833961584149 -1.056907538692702 -1.0661316150505509 -1.0540096747458965 -1.0912362451816056 -1.0523251999702601 -1.0593474057085999 -1.0891467737156411 -1.0903180680083782 -1.0772626750234504 -1.090271957377136 -1.0839418862022363 -1.0599194041186095 -1.0719716881632078 -1.0919150737954983 -1.0751504483655385 -1.0778472454470756 -1.0954899886913869 -1.0738088407843136 -1.0843127224901972 -1.0905637457040269 -1.0775878949206574 -1.0870730673067581 -1.0661026885048352 -1.0817397377319899 -1.068074994190612 -1.0784161560359429 -1.0831458460574532 -1.0833589517614262 -1.0585048849259089 -1.0798482178645699 -1.0710322832545882 -1.0745091643918212 -1.0868723640373317 -1.0938149620004693
leaf_weight=7.5504688620567313 7.4538258612155905 9.7957356274127942 6.0287762880325309 14.69738060235977 7.2418845593929317 6.5731814801692954 7.8848204016685477 7.2528823912143698 77.51700633764267 7.1887905001640311 6.4965358972549438 34.097453504800797 28.70972540974617 6.9952870309352866 12.295043647289274 11.33953073620796 21.696553528308872 10.957526892423628 66.002081900835037 55.840343356132507 15.365973085165022 8.9133141934871691 8.5096464753150922 90.025550872087479 14.594964057207106 70.304225653409958 11.142251968383787 10.307261645793913 12.846888840198519 7.1944534480571738 12.781019896268843 8.3434698283672315 7.2547700405120832 7.4648236930370322
leaf_count=19 27 32 22 39 27 23 21 20 234 19 19 120 91 19 38 34 57 33 187 146 46 24 28 260 47 209 32 29 46 22 41 26 21 20
internal_value=-1.07899 -1.08031 -1.07755 -1.07817 -1.07727 -1.07318 -1.08221 -1.07298 -1.07586 -1.07192 -1.07293 -1.07116 -1.06914 -1.07588 -1.06396 -1.08347 -1.08871 -1.08229 -1.08026 -1.0859 -1.08776 -1.07629 -1.08135 -1.08039 -1.06285 -1.08127 -1.09177 -1.07435 -1.07212 -1.06617 -1.07762 -1.0818 -1.08549 -1.09506
internal_weight=698.663 572.576 232.739 226.71 212.013 105.927 339.837 126.088 84.0902 118.835 111.381 97.6298 82.0975 35.705 46.3925 279.909 51.6432 228.266 146.102 82.1638 71.2063 59.9278 106.086 98.5352 21.8368 136.306 40.3036 52.0429 41.7357 20.0413 21.6943 15.5323 13.7513 29.1614
internal_count=2078 1678 699 677 638 331 979 400 257 380 353 313 268 110 158 796 143 653 428 225 192 183 307 288 74 396 109 162 133 68 65 45 40 77
is_linear=0
shrinkage=1


Tree=3
num_leaves=37
num_cat=0
split_feature=7 19 10 21 17 17 15 2 17 15 9 17 21 16 10 15 5 2 8 2 2 5 5 15 9 15 5 11 16 15 5 15 15 21 21 16
split_gain=20.8494 18.1174 21.2083 19.3684 19.3685 14.0451 17.4504 11.3969 10.1606 17.6585 11.356 10.3265 11.6274 11.0081 10.7792 8.84494 8.5831 10.1057 10.0345 8.28494 7.66212 8.87719 7.5566 7.19555 6.95429 5.77008 5.66491 3.50641 3.04758 4.28303 3.55049 2.54597 1.33365 0.206159 6.30627e-05 2.92603e-06
threshold=-3.0112408399581905 1.0000000180025095e-35 0.94447162747383129 -0.45188955962657923 1.1540696024894717 -0.64244180917739857 0.4772657454013825 0.95442408323287975 -0.11918606236577033 0.29578639566898351 -0.031996607780456536 0.76453477144241344 -0.67008292675018299 -1.0554265379905698 0.51917496323585521 0.4772657454013825 -0.4859675914049148 -0.8329901099205016 0.65655970573425304 -0.64893016219139088 0.62067115306854259 0.2643472701311112 -0.44254358112812037 0.036709213629364974 -0.51615881919860829 0.70149981975555431 0.57633244991302501 -0.14569048583507535 0.56601771712303173 -0.35398399829864496 -0.49363067746162409 0.036709213629364974 -0.52706933021545399 -0.30835151672363276 0.13541220128536227 0.34700939059257513
decision_type=2 2 2 2 2 2 2 2 2 2 2 2 2 2 2 2 2 2 2 2 2 2 2 2 2 2 2 2 2 2 2 2 2 2 2 2
left_child=28 2 3 4 16 6 24 8 9 10 -3 13 -13 27 -15 -11 18 -18 -2 -4 26 -22 -21 -24 -5 -25 -7 -10 29 30 -1 -12 -14 -31 -35 -36
right_child=1 7 19 5 -6 20 -8 -9 11 15 31 12 32 14 -16 -17 17 -19 -20 22 21 -23 23 25 -26 -27 -28 -29 -30 33 -32 -33 -34 34 35 -37
leaf_value=-0.011831863334476125 -0.015929044862503652 0.0076731804310486741 -0.0034526277499006839 0.020929702223312634 -0.014449328651069838 -0.0079391115056268013 -0.014165761219617894 0.02424300554041197 0.0053061728736934505 0.022645363290525133 -0.013406665027487785 0.014152451504593875 -0.0037657476176484665 0.017868355198975554 0.0055170436010902636 0.00067087218865859741 -0.0055179202530059677 0.013863788278877888 0.01082234744124246 0.029948521210837246 0.0098751531624493571 -0.0070818663578681293 0.021573349362950352 -0.0067999770831942133 0.0047740542348612318 0.011710651421813078 -0.00099070542526983078 -0.0085583700703932026 -0.0015817839250964623 -0.013160411913025517 0.0030919769851520383 -0.0018940689853694222 -0.01276140074368386 -0.015915673428422962 -0.015841295128098155 -0.015858383139973342
leaf_weight=8.6780094653368014 7.7477065622806531 11.179036036133764 9.8752977252006513 11.469575390219687 12.036848038434981 183.24941396713257 9.813185438513754 7.8850309103727332 9.9405965507030505 10.038809999823572 27.930687174201012 8.2042552530765551 7.2465113997459456 41.667404696345329 34.452391430735588 9.5302258729934675 8.4662025868892652 47.273230120539665 7.2395497411489487 6.1423402875661841 17.066546216607094 15.933012485504149 9.3996424973011035 7.6887380778789547 18.716239467263225 10.819565400481222 37.772384837269783 9.5422504246234876 11.098181828856466 12.913805842399599 8.3478601872920972 6.2797428518533698 11.193654462695118 6.004351511597636 5.4519761055707914 6.325821578502655
leaf_count=30 27 33 34 34 39 567 32 22 30 29 101 23 25 122 104 31 25 139 21 18 47 51 26 25 57 30 115 29 32 38 25 19 38 20 20 20
internal_value=-1.05429e-07 0.00088754 -0.00102071 -0.00227314 0.00470837 -0.00423836 0.00476002 0.00500264 0.00419225 -0.00102907 -0.00662208 0.0069667 -0.00202763 0.00947342 0.0122781 0.0119437 0.00796878 0.0109199 -0.00300686 0.00972237 -0.00565527 0.00168788 0.0135434 0.00993275 0.0109126 0.00402095 -0.00675164 -0.00148436 -0.00929307 -0.0110864 -0.00451464 -0.0112934 -0.00922634 -0.0147315 -0.0158725 -0.0158505
internal_weight=674.62 615.8 420.709 376.784 82.7635 294.02 39.999 195.091 187.206 64.9585 45.3895 122.247 26.6444 95.6026 76.1198 19.569 70.7267 55.7394 14.9873 43.9256 254.021 32.9996 34.0503 27.9079 30.1858 18.5083 221.022 19.4828 58.82 47.7218 17.0259 34.2104 18.4402 30.696 17.7821 11.7778
internal_count=2078 1893 1287 1154 251 903 123 606 584 213 153 371 86 285 226 60 212 164 48 133 780 98 99 81 91 55 682 59 185 153 55 120 63 98 60 40
is_linear=0
shrinkage=0.0163373


Tree=4
num_leaves=49
num_cat=0
split_feature=6 1 20 1 22 1 20 20 9 9 20 21 12 20 18 8 1 20 22 4 11 24 8 18 11 22 8 18 1 6 8 20 9 18 20 8 18 18 23 24 11 4 6 11 9 18 24 24
split_gain=34.4991 12.4869 11.9611 12.0283 10.7393 11.3779 9.92069 7.37547 6.70237 8.46718 8.75994 6.40682 6.75722 6.00209 5.82124 5.36342 6.26695 8.4337 5.19028 4.97426 4.62796 4.60428 4.44092 6.7585 4.43728 3.94459 3.62964 3.62674 3.00406 3.2557 4.17796 2.96933 2.89482 2.53902 2.46482 2.45423 2.32244 2.02232 1.99236 1.79039 1.742 1.71682 1.65483 1.06167 1.7327 7.97799e-05 2.4506e-05 1.88935e-05
threshold=0.61707386374473583 -0.94723156094551075 -0.53390526771545399 -1.0587606430053709 0.47250442206859594 0.48569814860820776 -0.52811968326568592 -0.46063020825386042 0.19043723493814471 -0.65607118606567372 -0.18872196972370145 0.65783035755157482 1.0731754899024966 -0.52665555477142323 -0.41962330043315882 0.39461715519428259 0.36855629086494451 0.43245646357536321 -0.038285160437226289 0.46103323996067053 -0.49969774484634394 0.72963407635688793 -0.38606376945972437 -0.14725095778703687 -0.069879893213510499 0.13253535330295566 0.65038323402404796 0.447029858827591 -0.27716907858848566 1.1314849853515627 -0.084804449230432496 -0.55733188986778248 -0.43661977350711817 0.59601256251335155 0.50849899649620067 0.23477328568696978 0.38225215673446661 -0.44228710234165186 0.095027688890695586 -0.0046975843142718068 0.36865091323852545 -0.038413420319557183 0.056546736508607871 0.08157783001661302 0.60623395442962658 0.51897829771041881 -0.73084393143653859 -0.1135907433927059
decision_type=2 2 2 2 2 2 2 2 2 2 2 2 2 2 2 2 2 2 2 2 2 2 2 2 2 2 2 2 2 2 2 2 2 2 2 2 2 2 2 2 2 2 2 2 2 2 2 2
left_child=1 2 3 22 7 6 21 13 9 10 -9 12 -8 14 26 16 28 -18 31 -19 -11 41 -1 24 -24 -16 -3 42 36 30 37 39 -15 35 -21 -10 -2 -30 40 -5 -17 -6 -7 46 -45 -34 -31 -40
right_child=15 4 -4 18 5 27 11 8 33 20 -12 -13 -14 32 25 38 17 19 -20 34 -22 -23 23 -25 -26 -27 -28 -29 29 43 -32 -33 45 -35 -36 -37 -38 -39 47 -41 -42 -43 -44 44 -46 -47 -48 -49
leaf_value=0.011973245912862536 -0.0072167322433301555 -0.012345900429589822 -0.011362886527704915 0.026388472607932301 -0.013651848787793314 -0.0070272395244401339 0.0057691280733863709 0.0035521749146121464 -0.0068380642004245203 -0.0014984785451134237 -0.014017525318216333 0.022917190551344301 0.018319611774184029 -0.0035594125405832011 0.0095621950784900607 -0.0041771140578007659 0.015130192367604088 0.0041290958545915548 0.0058773336861937748 -0.016537799207748297 0.0047267637878766868 0.0074303062263119174 -0.0034468145949727246 -0.016587466654608422 0.0099067348626616994 -0.0062765646229113207 0.0019641567572766042 -0.014030849239385197 -0.0047376507248290435 -0.016510088230679752 0.0034575802202445895 0.012014967194515303 -0.016450419381208573 -0.013688027924017491 -0.0044204153743386222 0.00096885416338121871 0.0064028576547504627 -0.01346308024642684 -0.016488067546195636 0.016367995406877559 -0.014043452116702415 -0.0025210124038871984 0.0035931025147308503 -0.0038916179003627761 -0.014475955888605648 -0.016525139225732496 -0.016465220943608399 -0.016452600887135991
leaf_weight=11.176610946655272 6.885905057191847 15.076519310474398 8.2957910597324354 12.358331114053728 7.2460069954395303 6.6700092554092469 62.77901691198349 13.729109078645708 24.08171871304512 42.352021723985672 16.894498467445374 8.6138473749160749 14.00417250394821 6.5655715167522457 13.019406020641329 10.37677523493767 8.04816025495529 13.361553013324736 11.344180852174757 7.0446096658706692 128.83397078514099 7.972154736518859 12.942590355873106 5.4353686273098019 13.642873644828795 6.1931662559509268 6.8941792845726004 8.3924371898174268 14.447571605443953 7.4575638175010681 9.5826892256736773 11.142940282821657 6.7671282887458792 7.4295787811279288 12.309661924839018 19.410646051168442 6.4927031695842743 13.921447992324827 7.4940064847469356 7.7397100627422324 8.8498489558696729 7.5545493960380563 9.4839419126510602 6.7526275515556362 10.621493786573408 8.8141598105430585 5.8815364539623278 8.9142676889896375
leaf_count=31 23 43 23 30 24 22 175 41 76 125 55 22 37 21 37 32 21 38 32 24 367 22 39 21 37 21 20 26 43 24 30 32 21 26 35 56 19 46 25 21 28 24 27 23 34 28 20 31
internal_value=5.90111e-08 0.00195767 0.00736938 0.00918092 0.000823195 0.00472329 0.00700201 -0.00081448 0.000434812 0.00177124 -0.00614072 0.00955696 0.00805816 -0.00580003 -0.00211177 -0.0067071 -0.00508794 0.000147807 0.0153424 -0.00353789 0.00318662 -0.00257901 0.00310683 1.20741e-05 0.00340583 0.00445658 -0.00785555 -0.00531842 -0.00768937 -0.00906927 -0.00586904 0.0187793 -0.0126585 -0.00486161 -0.00883093 -0.00335384 -0.000607079 -0.00901946 -0.0122872 0.0225296 -0.0087185 -0.00797041 -0.000792065 -0.0130237 -0.0103622 -0.0164927 -0.0164903 -0.0164688
internal_weight=701.299 542.856 94.0784 85.7826 448.778 132.716 108.17 316.062 252.732 201.81 30.6236 85.397 76.7832 63.3301 41.1833 158.442 122.808 40.764 42.5852 32.7158 171.186 22.7727 43.1974 32.0208 26.5855 19.2126 21.9707 24.5464 82.0435 68.6649 37.9517 31.241 22.1469 50.9219 19.3543 43.4924 13.3786 28.369 35.6349 20.098 19.2266 14.8006 16.154 30.7132 17.3741 15.5813 13.3391 16.4083
internal_count=2078 1582 266 243 1316 379 304 937 746 588 96 234 212 191 121 496 380 118 115 97 492 70 128 97 76 58 63 75 262 220 119 83 70 158 59 132 42 89 116 51 60 48 49 101 57 49 44 56
is_linear=0
shrinkage=0.0163373


Tree=5
num_leaves=41
num_cat=0
split_feature=2 12 5 3 8 5 16 2 9 8 23 0 12 0 3 5 5 16 1 0 10 5 5 12 16 2 8 8 10 3 2 9 8 2 5 1 8 0 3 2
split_gain=15.4574 16.211 24.6506 12.9606 11.7384 9.69581 12.2068 9.49827 8.14572 6.9909 12.7409 10.0264 6.26262 5.99073 5.82824 13.2412 6.66931 8.2939 5.79145 13.1478 5.10069 4.75385 4.7458 7.58227 8.2618 6.76885 10.6761 4.63135 9.98683 3.94041 3.47179 3.24345 3.09572 3.01716 1.55423 1.25616 0.935732 0.910555 0.181501 1.69664e-05
threshold=0.54459428787231456 -0.20449157804250714 0.55613163113594066 -0.96770480275154103 -1.0506446957588194 -0.53914126753807057 0.22014205157756808 0.23263905197381976 1.6117115616798403 -0.63938063383102406 0.24088399857282641 0.29485444724559789 1.1943364143371584 -0.0072718975134193889 -0.72408711910247792 -0.54400891065597523 -0.49089871346950525 -0.91545253992080677 0.27674882113933569 -0.58882299065589894 -0.40842045843601221 -0.57500386238098133 0.90470910072326671 0.19425779581069949 0.50884610414505016 0.77893725037574779 0.71240347623825084 0.74220272898674022 0.24979987740516665 0.10373373702168466 0.045846024528145797 -0.031996607780456536 -0.70830145478248585 -0.85403144359588612 -0.11829113587737082 -0.79134941101074208 0.51101544499397289 0.69688025116920482 -0.082481078803539262 0.61374205350875866
decision_type=2 2 2 2 2 2 2 2 2 2 2 2 2 2 2 2 2 2 2 2 2 2 2 2 2 2 2 2 2 2 2 2 2 2 2 2 2 2 2 2
left_child=1 14 4 7 -3 6 35 -4 22 11 -11 -7 18 -14 15 31 17 20 19 -5 -16 -8 23 24 25 26 -2 28 -19 -27 -17 -1 -20 -29 -26 -6 -36 39 -18 -25
right_child=8 2 3 12 5 9 21 -9 -10 10 -12 -13 13 -15 16 30 38 27 32 -21 -22 -23 -24 37 34 29 -28 33 -30 -31 -32 -33 -34 -35 36 -37 -38 -39 -40 -41
leaf_value=0.024532160708802896 0.0070047650692457216 0.0231027133739127 0.028708219835225136 0.020053225283332986 0.020959162689356041 -0.0056305244138948798 -0.0015884390823167999 -8.2553413115167408e-05 0.0095308547099872461 0.0097274134032035199 0.0012707212316243133 0.0093664205366903522 -0.0036894843960717321 0.018287832758764201 0.00040856612952211717 -0.013632810473461683 -0.016443357494358414 -0.0054469123021936962 0.003541306749588215 -0.0075795467355689464 0.018901092544290329 0.01568220966603363 0.006369721753018252 -0.016471772366991572 -0.015584636239568529 -0.0011741687527585237 -0.013529775543073861 -0.0010250760315457369 0.015033247125751433 -0.015332081420123152 0.001877624025421526 0.0080629385110235242 -0.0090383348629694601 -0.012264405162547464 -0.0036098376614483213 0.031596065875664298 -0.01182226201612965 -0.0096950825470045725 -0.012933302679888856 -0.016440298368585411
leaf_weight=5.7841340899467468 31.92291048169136 9.7722356617450696 5.5269996523857099 6.8378038108348873 5.6565427482128143 40.179811775684357 10.881609022617342 6.8476033806800842 9.6038993597030622 91.41098952293396 99.102446585893631 16.904843777418137 7.8173332810401917 5.742130368947981 11.841909945011141 8.872825086116789 8.7924899160861951 40.71450811624527 5.6083736121654502 14.01684048771858 5.9971701502799979 6.984203189611434 7.6700251400470725 7.9316269159317079 14.497772067785265 9.7985033690929431 8.5723857879638654 8.098168730735777 7.5304840803146353 11.295231878757475 6.8066834807395926 7.1211243867874163 75.666274785995483 29.958560168743134 6.8120335638523093 6.2236736118793505 8.1140052676200849 7.365048259496688 7.1127638816833487 11.241660147905348
leaf_count=21 101 35 21 24 20 114 31 20 31 296 299 55 22 20 35 23 22 113 17 39 21 24 24 20 37 28 23 24 25 29 20 22 209 78 20 24 21 20 20 30
internal_value=4.2554e-08 0.00118838 0.00284588 -0.00311473 0.00550452 0.00488444 0.0136974 0.0127766 -0.00496935 0.00382567 0.00532836 -0.00118938 -0.00481454 0.00561742 -0.00344162 0.00318818 -0.00502027 -0.00351538 -0.00619957 0.00148066 0.00662541 0.0051631 -0.00608145 -0.00689387 -0.00465333 -0.00125111 0.00265784 -0.00561154 -0.0022502 -0.00875542 -0.00689952 0.0154444 -0.00817027 -0.00987277 -0.0117748 0.0265315 -0.00807423 -0.0145777 -0.0148737 -0.0164533
internal_weight=698.636 563.811 415.18 128.063 287.116 277.344 29.746 12.3746 134.825 247.598 190.513 57.0847 115.689 13.5595 148.631 28.5848 120.046 104.141 102.129 20.8546 17.8391 17.8658 125.221 117.551 91.0128 61.589 40.4953 86.3017 48.245 21.0937 15.6795 12.9053 81.2746 38.0567 29.4238 11.8802 14.926 26.5383 15.9053 19.1733
internal_count=2078 1694 1270 372 898 863 99 41 384 764 595 169 331 42 424 86 338 296 289 63 56 55 353 329 259 181 124 240 138 57 43 43 226 102 78 44 41 70 42 50
is_linear=0
shrinkage=0.0163373


Tree=6
num_leaves=36
num_cat=0
split_feature=0 7 6 18 23 3 0 8 3 9 23 23 3 3 23 8 18 3 16 9 9 9 9 18 8 0 8 7 0 3 8 11 9 23 16
split_gain=21.214 23.089 21.176 10.5908 8.45823 10.7083 8.40697 11.0287 10.3983 8.13241 13.621 10.8425 8.69228 7.8436 7.67056 7.34648 6.84009 5.54906 4.9942 4.04204 9.53822 3.70207 3.7279 3.88241 2.59559 2.54761 1.95982 1.87295 1.87003 1.80509 1.37916 0.608198 0.167358 0.131587 0.119311
threshold=0.82643732428550731 -2.8288799524307247 -0.21465835720300672 0.95024758577346813 -0.74917119741439808 0.60587027668952953 -0.32571691274642939 0.6200682818889619 -1.2178236246109007 -0.65197631716728199 -0.64751377701759327 -0.74917119741439808 0.91136363148689281 -1.0023097395896909 1.2928175926208498 1.429182827472687 -0.14725095778703687 -0.28052933514118189 0.4983328133821488 -0.58922553062438954 -0.21993213891983029 -0.42549879848957056 0.10508519783616067 -0.32227338850498194 -0.064111910760402666 2.3913165330886845 0.53036722540855419 -1.9426158666610716 0.92711469531059276 -0.43165150284767145 -0.016653032973408696 -0.06989459320902823 1.9193093180656435 -1.0000000180025095e-35 0.18142806738615039
decision_type=2 2 2 2 2 2 2 2 2 2 2 2 2 2 2 2 2 2 2 2 2 2 2 2 2 2 2 2 2 2 2 2 2 2 2
left_child=1 21 6 9 5 -2 19 8 -8 11 16 -4 -12 -9 -10 -15 -11 18 -6 31 24 33 23 -23 -21 27 -24 -19 -29 -22 -25 -3 -30 -1 -28
right_child=4 2 3 -5 17 -7 7 13 14 10 12 -13 -14 15 -16 -17 -18 25 -20 20 29 22 26 30 -26 -27 34 28 32 -31 -32 -33 -34 -35 -36
leaf_value=-0.015833556638512342 -0.0063139239798497924 -0.010085233421339584 0.024981347861448157 0.021891724648666334 -0.0096655818025827359 0.020387158608239194 0.015678187714408581 -0.0088288612241001971 -0.0050526775137185852 0.0027704194429941445 0.005058529490467617 0.0017313123559175281 0.016959763009815238 0.013652957540002765 0.011993144648936992 -0.0010198349014669819 -0.0067889175435107817 -0.0044567007027204479 0.00600981664773828 -0.00093994307826207721 -0.015879507103575208 -0.010879210722916567 -0.0040322559271683527 -0.0011481733871197238 0.012963752907850901 -0.0019706058781518015 -0.01265545374542747 -0.0065951605714154454 -0.015893035153671957 -0.0049813335617313603 0.0090310808019543748 -0.015852822970796036 -0.012897156553415858 -0.012837883947917754 -0.015787797675495232
leaf_weight=11.340455219149591 11.057544052600862 9.1389467865228671 11.581650435924532 9.748603627085684 11.280855044722559 6.2888862490653983 7.791147753596305 7.5225543975830069 100.86246335506439 41.410660311579704 168.35783262550831 9.9553002566099149 18.145176693797112 30.307643294334412 7.5753280669450751 13.020625025033949 38.60229529440403 6.1613715589046469 10.45030330121517 7.0416851937770844 10.986602857708933 7.1129664182662991 7.4540303051471737 7.155000016093255 7.297788470983507 6.3335470408201209 5.5498962402343732 7.5758810192346564 33.862582430243492 6.4309207946062079 7.0559478253126118 10.471396192908285 5.8343847990036002 5.9760135412216178 7.8172991871833801
leaf_count=39 38 28 32 28 34 19 24 25 308 132 518 33 54 84 22 36 122 19 29 23 36 21 26 20 20 20 20 24 108 20 20 34 21 19 22
internal_value=-3.34052e-07 0.00120015 0.00231053 0.00514441 -0.0069924 0.00336646 -0.00155281 0.000224277 -0.00255205 0.00457763 0.00379729 0.0142342 0.00621642 0.00657009 -0.00386188 0.00924362 -0.00184149 -0.0091972 -0.00212743 -0.00733303 -0.00373173 -0.00844017 -0.00582717 -0.00102588 0.00613607 -0.0117677 -0.0107444 -0.012929 -0.0140332 -0.0118557 0.00390598 -0.013165 -0.0154527 -0.0147997 -0.0144873
internal_weight=674.556 575.71 516.249 297.802 98.8454 17.3464 218.447 167.08 116.229 288.053 266.516 21.537 186.503 50.8508 108.438 43.3283 80.013 81.4989 21.7312 51.3673 31.757 59.4616 42.1451 21.3239 14.3395 59.7678 20.8212 53.4342 47.2728 17.4175 14.2109 19.6103 39.697 17.3165 13.3672
internal_count=2078 1766 1579 919 312 57 660 499 354 891 826 65 572 145 330 120 254 255 63 161 99 187 129 61 43 192 68 172 153 56 40 62 129 58 42
is_linear=0
shrinkage=0.0163373


Tree=7
num_leaves=49
num_cat=0
split_feature=6 1 16 1 15 5 10 1 5 18 9 5 8 2 14 2 3 8 10 14 3 3 2 15 2 1 9 14 16 14 14 24 8 18 1 14 16 8 5 18 2 3 24 14 10 18 9 18
split_gain=33.5469 12.0341 19.7356 13.5057 12.8816 11.8833 9.3722 8.68817 12.6253 9.16069 8.57719 10.2173 7.57098 6.18659 5.79256 5.77216 6.2273 5.27775 6.72403 6.38231 9.43699 5.06823 5.80678 15.2799 6.39524 4.38836 4.54844 4.21836 4.49463 4.52935 4.01493 3.97954 3.7688 3.11027 3.04715 2.07272 1.98421 1.98157 1.60627 1.37839 1.34062 1.66808 1.2823 0.87172 0.198943 3.83095e-05 2.71097e-05 1.3982e-05
threshold=0.61707386374473583 -0.94723156094551075 0.29693999886512762 0.48569814860820776 0.54188081622123729 -0.3906418234109878 0.19279135763645175 -1.0587606430053709 -0.50418776273727406 0.019830790348351005 0.63372573256492626 0.2643472701311112 -0.1651882007718086 0.69670590758323681 -0.34577079117298121 -0.44263115525245661 0.21682169288396838 0.39461715519428259 -0.25875702500343317 1.2226223945617678 0.89172095060348522 -1.5505213737487791 0.017792332917451862 -0.52706933021545399 -0.49037343263626093 0.48569814860820776 0.067736186087131514 -0.13646382838487622 -0.24915874749422071 -0.60074427723884571 0.57297992706298839 0.016202682629227642 0.27662922441959387 0.20702239125967029 0.4045922458171845 -0.25082089006900782 -0.15296878665685651 1.1995866894721987 -0.51854321360588063 -0.16513312608003614 -0.64893016219139088 0.87520462274551403 -1.4437042474746702 1.1035996675491335 0.57727977633476268 -0.51746770739555348 2.5484179258346562 -0.44228710234165186
decision_type=2 2 2 2 2 2 2 2 2 2 2 2 2 2 2 2 2 2 2 2 2 2 2 2 2 2 2 2 2 2 2 2 2 2 2 2 2 2 2 2 2 2 2 2 2 2 2 2
left_child=1 7 4 5 21 6 14 9 27 15 11 -6 13 -7 -4 16 31 18 35 20 25 -3 24 -24 -23 26 -20 28 -9 -30 -14 -1 -13 -5 40 -2 -18 42 -8 -22 41 -21 -19 45 -35 -37 47 -44
right_child=17 2 3 33 10 12 38 8 -10 -11 -12 32 30 -15 -16 -17 36 37 19 34 39 22 23 -25 -26 -27 -28 -29 29 -31 -32 -33 -34 44 -36 43 -38 -39 -40 -41 -42 -43 46 -45 -46 -47 -48 -49
leaf_value=0.00089233396312477528 -0.0041966941102706398 -0.016516159933557439 -0.007675591434420594 -3.47713546710447e-05 0.025445095696421508 0.0076997516505919461 -0.0038902591703404684 0.027545864361721427 -0.0050405681886581261 -0.016491589077424779 -0.0090348300506667527 -0.0018584357077247229 0.014858327225056258 -0.0074132138730680008 0.0090808301298399494 0.016571479849532202 0.0029442820927741485 -0.0087025252112485664 -0.0021891898445246289 -0.013630145553185527 -0.016405928424467264 -0.0020762293424249506 0.024749417746566305 -0.0018474998767177176 -0.0096006837241913532 -0.0053867543668423981 0.010041974119079212 0.0069766275435244589 0.0049811243558576315 0.021570503144908354 0.0029358620525011033 -0.016624323068878056 0.0098362357271429227 -0.01350094675218126 -8.9315245133444245e-05 -0.016464863732987712 0.014114192037387644 -0.0044864557568090766 -0.014296513096188889 -0.0060215060324794421 -0.016431155289939183 -0.0020085479375956303 -0.016383330455229085 -0.009022264628443067 -0.009470398282762367 -0.01641121206262015 -0.016322883940875107 -0.016349226358597327
leaf_weight=8.5280548334121722 6.9545933604240444 7.8540911674499503 7.1460848152637508 11.558436095714571 8.081541180610655 33.234056711196899 6.7071707248687771 11.035789757966993 9.2538629174232465 6.0874527096748343 8.4701961576938611 13.030742198228838 56.659029304981232 9.2394315898418409 23.997845530509949 8.9627296328544599 8.6938654184341448 8.2643730938434619 11.881577670574186 7.4987030923366582 7.7284040153026581 66.161750376224518 6.1754634380340567 86.786055624485016 55.38735094666481 11.462819665670393 25.598076641559601 9.8648099601268751 7.8365719616413108 9.9957895576953941 8.6958800554275495 5.826990693807601 16.886361300945282 7.1149768233299238 7.765161156654357 5.4581066370010403 8.2943073511123639 7.1395559608936301 9.6624439954757673 6.1080257892608625 9.9880654215812683 5.882257878780365 5.6426101028919238 5.7881948053836814 6.0461363792419434 10.398877203464506 6.5964320302009574 7.8075428605079651
leaf_count=26 21 28 23 35 19 94 19 26 27 22 29 40 148 25 68 23 25 26 38 26 24 197 15 262 173 32 70 28 24 24 25 20 45 22 23 20 21 23 29 20 34 18 20 20 20 34 23 24
internal_value=2.20215e-07 0.00192704 0.000812118 0.00499777 -0.00199138 0.00678263 -2.44554e-05 0.00722987 0.0121037 0.00218864 0.00583165 0.00914551 0.0097821 0.00441217 0.00523601 0.00500994 0.00170387 -0.00662658 -0.00502021 -0.00290808 9.12032e-05 -0.00362621 -0.00315426 -8.06581e-05 -0.00550496 0.0034591 0.00616452 0.0161997 0.0193514 0.0142802 0.013272 -0.00621802 0.00474249 -0.00621857 -0.00895582 -0.0119558 0.00839788 -0.012178 -0.0100327 -0.0118218 -0.011902 -0.0085213 -0.0141177 -0.0144488 -0.0116493 -0.0164297 -0.0163502 -0.0163635
internal_weight=701.239 543.275 448.895 180.061 268.834 155.342 47.5135 94.3802 47.9868 46.3934 46.4688 37.9986 107.828 42.4735 31.1439 40.3059 31.3432 157.963 122.513 93.9131 62.7789 222.365 214.511 92.9615 121.549 48.9425 37.4797 38.733 28.8682 17.8324 65.3549 14.355 29.9171 24.7195 31.1342 28.5998 16.9882 35.4505 16.3696 13.8364 23.369 13.381 28.311 21.6452 13.1611 15.857 20.0466 13.4502
internal_count=2078 1582 1316 508 808 431 139 266 129 137 133 104 292 119 91 115 92 496 380 285 184 675 647 277 370 140 108 102 74 48 173 46 85 77 101 95 46 116 48 44 78 44 93 74 42 54 67 44
is_linear=0
shrinkage=0.0163373


Tree=8
num_leaves=35
num_cat=0
split_feature=14 17 1 2 0 14 24 1 12 1 12 8 14 15 24 19 21 22 14 8 2 15 15 22 17 8 21 23 23 8 17 14 8 24
split_gain=19.7928 16.7993 11.5877 11.0938 10.1534 8.34895 8.12779 7.59303 5.87635 11.0625 9.63969 8.86691 9.36669 10.7156 7.67981 6.65519 5.99878 5.63362 5.32109 4.6753 6.562 10.4397 4.66155 4.63643 6.00889 15.9307 4.38477 3.24962 2.88885 2.36685 2.13823 1.17435 0.78098 0.0434349
threshold=0.86453869938850414 -1.0261626839637754 0.39792902767658239 0.54459428787231456 0.82643732428550731 1.3802897930145266 -0.73084393143653859 0.54500058293342601 -0.20449157804250714 -0.56777051091194142 -0.13942427188158033 0.87369024753570568 0.3094747662544251 -0.25550881028175348 0.86962878704071056 1.0000000180025095e-35 -0.90205979347228993 -0.51200160384178151 -0.0071643870323896399 0.70356178283691417 0.77118155360221874 0.50453805923461925 -1.4832385182380674 -0.48686464130878443 0.54941856861114513 0.51101544499397289 0.48377826809883123 0.3248619288206101 0.39999996125698095 0.6200682818889619 -0.26453489065170283 1.8523861169815066 1.4984816908836367 0.072082933038473143
decision_type=2 2 2 2 2 2 2 2 2 2 2 2 2 2 2 2 2 2 2 2 2 2 2 2 2 2 2 2 2 2 2 2 2 2
left_child=1 26 4 8 5 6 -2 19 11 14 -11 12 13 -3 15 -10 -12 -13 -9 20 21 -5 -6 24 25 -7 -1 -4 29 -8 -22 -25 -19 -21
right_child=2 3 27 7 22 23 28 18 9 10 16 17 -14 -15 -16 -17 -18 32 -20 33 30 -23 -24 31 -26 -27 -28 -29 -30 -31 -32 -33 -34 -35
leaf_value=0.0035837287261842846 -0.00035833720919996098 -0.0075806048544669324 0.0032480489087468073 -0.0059916743822547606 0.028536602324029711 0.024336229715228076 0.023794024339340865 0.012249432599812926 0.015163816406672125 -0.014465622086259842 -0.011234913719787177 0.00084834610246774331 0.015448713928168515 0.0040079737902108505 -0.0067723193703756422 -0.00068962494195253161 0.00062099200722386333 -0.015674793408466389 -0.00636865356498685 -0.016337374589013732 -0.014376802549356561 0.014380176609016132 0.011969114777209671 -0.0095903642269272206 -0.0082155480707545286 -0.0011305358189810982 0.020762704089270598 -0.011227222764482497 0.0080377321317872692 0.010961741054118268 -0.004274835041497828 -0.0010195409675657326 -0.0099942187846840252 -0.014706224564121927
leaf_weight=6.1878544986248043 10.793445616960524 47.916567087173462 6.3446345031261471 39.532014667987823 7.7377715110778835 10.371896356344225 12.978800088167196 9.1320309937000292 27.963522106409073 12.832068651914595 11.963519573211668 9.3846776783466321 8.6011486351490003 38.335247755050659 7.6862337887287131 9.4580697417259199 237.92089959979057 18.892400473356251 7.4314600229263297 10.177134215831758 24.78440460562706 8.0876980125904065 10.944141387939451 9.0716593265533465 7.4996168315410605 17.820382326841354 11.042355358600615 11.90941461920738 7.6137756109237662 5.4462136030197135 7.222034513950347 8.0561102628707868 9.8160651326179487 7.6194499135017386
leaf_count=19 32 132 20 111 29 38 47 30 95 34 33 28 29 117 21 28 710 47 21 26 64 27 36 25 21 53 39 32 25 18 21 24 26 20
internal_value=1.0152e-07 -0.00129359 0.00584563 -0.00178702 0.00787462 0.00559148 0.0115618 -0.00633007 -0.000612152 0.000627538 -0.000655787 -0.00348254 -0.000808759 -0.00242998 0.00810187 0.011157 5.33761e-05 -0.0101403 0.00389615 -0.0080687 -0.00637672 -0.00253173 0.0188311 0.00142823 0.00478128 0.00823865 0.0145932 -0.00619599 0.0165029 0.020001 -0.0120974 -0.00555905 -0.0137325 -0.015639
internal_weight=698.575 571.987 126.588 554.757 108.334 89.6519 36.8322 113.986 440.77 307.824 262.716 132.946 94.853 86.2518 45.1078 37.4216 249.884 38.0931 16.5635 97.4227 79.6262 47.6197 18.6819 52.8197 35.6919 28.1923 17.2302 18.254 26.0388 18.425 32.0064 17.1278 28.7085 17.7966
internal_count=2078 1678 400 1620 348 283 122 320 1300 921 777 379 278 249 144 123 743 101 51 269 223 138 65 161 112 91 58 52 90 65 85 49 73 46
is_linear=0
shrinkage=0.0163373


Tree=9
num_leaves=44
num_cat=0
split_feature=0 6 17 19 0 8 8 0 15 18 4 12 17 15 18 0 4 19 12 6 17 16 23 18 23 15 18 17 12 18 4 24 11 23 16 15 4 15 12 18 15 15 11
split_gain=20.6704 18.5981 11.4403 11.7538 14.9661 11.0358 16.3815 10.1767 16.7084 9.74216 11.6108 10.5241 8.98393 8.13301 9.63114 7.51456 6.82235 11.2224 7.96751 6.66812 6.57205 6.3561 5.95268 5.86606 5.52086 6.61047 6.12162 5.05753 7.09311 8.3257 4.95912 4.87791 7.68231 2.0853 1.97239 1.01942 0.917635 0.892123 0.000282843 7.42796e-05 5.62558e-05 2.55198e-05 1.38515e-05
threshold=0.82643732428550731 -0.21465835720300672 0.20639527589082721 1.0000000180025095e-35 -1.7078887224197385 -0.36995866894721979 0.69523268938064586 -0.54231193661689747 -0.46843692660331721 0.92963045835495006 -0.34926527738571161 0.02665221551433206 -0.86918598413467396 -0.10431145131587981 -0.85302308201789845 0.081418141722679152 0.12183324247598649 1.0000000180025095e-35 -0.16450210660696027 0.9113367795944215 -1.0029068887233732 -0.56806805729866017 0.90828728675842296 -0.75213795900344838 1.2795579433441164 -0.65425571799278248 0.14838708937168124 0.18895342946052554 0.80352622270584118 -0.55341950058937062 -0.1908989995718002 -0.62562373280525196 0.18988701701164248 -0.16132596135139463 0.71190854907035839 -0.86733621358871449 0.28859558701515203 -0.53784981369972218 0.44724072515964514 0.10004044324159624 0.57090771198272716 -0.74938231706619252 0.17141186445951465
decision_type=2 2 2 2 2 2 2 2 2 2 2 2 2 2 2 2 2 2 2 2 2 2 2 2 2 2 2 2 2 2 2 2 2 2 2 2 2 2 2 2 2 2 2
left_child=1 16 9 7 -5 21 -7 8 -4 10 11 33 20 14 -12 -13 17 24 -19 -15 -2 -6 -10 -18 25 35 -27 34 29 -29 -30 -9 -33 -3 38 -1 -25 -32 39 42 -39 -38 -14
right_child=12 2 3 4 5 6 -8 31 22 -11 13 15 27 19 -16 -17 23 18 -20 -21 -22 -23 -24 36 -26 26 -28 28 30 -31 37 32 -34 -35 -36 -37 41 40 -40 -41 -42 -43 -44
leaf_value=-0.0075339884372914705 -0.0053532791473003593 -0.0090476801078263318 -0.010772288582517844 -0.0080452739026241893 -0.0059668046969121036 0.02631704083358772 0.0052327926888061501 -0.012443027067472705 0.00770156257055153 0.016719617745905548 0.0051692129370834797 0.019381997518487307 -0.015771636357298419 -0.0014256949686142484 -0.010299043496709702 -0.00050609220939583518 0.0026498249892579762 0.023595961224583281 0.00025159961294171125 0.0087809417665110825 0.016009720054476092 0.013284988466526768 0.027597524177254293 -0.0095162824559668954 0.0083753895987241402 0.0012636773012493002 -0.0050212157985307527 -0.0083462286849563163 0.0015596054872983015 0.016837607600663506 -0.0097003697164368633 0.0072380026103732575 -0.0091098086694244105 0.0036131555426736446 -0.0063016897930356433 -0.015830306586329421 -0.015814138976987933 -0.015753615104215059 -0.015881845368246845 -0.015719193174242956 -0.015818035012827591 -0.015769777183728718 -0.015805257752459865
leaf_weight=6.3579088598489788 8.3190265446901304 7.7171576768159866 6.7467453926801708 8.7758015096187574 8.7527239918708819 29.08191129565239 14.861753180623053 10.016114726662634 6.6677356064319637 10.188217997550963 14.181446388363836 19.376431435346607 6.7739765048027092 63.129532217979431 44.320077955722809 6.8682069182395926 8.5348786860704404 7.9784170836210251 7.6380909830331785 23.423118278384209 7.1444856226444236 9.59504786133766 10.08342808485031 11.146553739905359 12.305200204253195 81.159069746732712 84.361453667283058 7.0489210784435272 8.0698352009057945 6.9666465818881971 11.520985126495358 18.97568936645985 12.880260720849035 6.3122367560863477 7.4081915616989127 10.451579734683035 6.4768671095371229 7.1817142963409495 8.0420975834131223 6.0855184495449057 7.3641154915094376 7.608210876584053 6.5719427019357681
leaf_count=21 30 25 22 27 28 83 46 31 20 29 45 56 22 191 156 21 25 22 23 70 21 28 29 33 36 243 259 21 25 21 36 58 42 19 20 34 20 23 29 20 25 24 19
internal_value=-3.64241e-07 0.00118236 0.00369938 0.00733003 0.011929 0.014743 0.0191863 0.00233028 0.0109351 0.00116579 0.00031074 0.00807127 -0.00691646 -0.00184396 -0.00654936 0.0141773 -0.00224169 -0.00114696 0.0121781 0.00133645 0.0045169 0.00410101 0.019678 -0.0090582 -0.00221609 -0.0029309 -0.00193957 -0.00904571 -0.00561399 0.00417177 -0.00963176 -0.0024986 0.000628121 -0.0033512 -0.013783 -0.0126924 -0.0130186 -0.0130964 -0.0158003 -0.0157666 -0.0157862 -0.0157902 -0.0157882
internal_weight=674.469 575.972 331.954 136.437 71.0672 62.2914 43.9437 65.37 23.4979 195.516 185.328 40.274 98.4975 145.054 58.5015 26.2446 244.018 210.252 15.6165 86.5527 15.4635 18.3478 16.7512 33.7665 194.635 182.33 165.521 83.0339 48.1522 14.0156 34.1367 41.8721 31.856 14.0294 34.8817 16.8095 25.2316 26.0668 27.4735 19.4314 14.5458 14.0851 13.3459
internal_count=2078 1766 1026 414 212 185 129 202 71 612 583 121 312 462 201 77 740 638 45 261 51 56 49 102 593 557 502 261 151 42 109 131 100 44 110 55 77 84 90 61 48 44 41
is_linear=0
shrinkage=0.0163373


Tree=10
num_leaves=44
num_cat=0
split_feature=6 0 14 1 15 0 1 1 4 14 4 6 7 1 18 14 11 15 7 3 6 10 15 11 6 4 10 18 3 3 4 18 18 15 0 3 5 0 10 15 14 15 18
split_gain=32.5508 13.4327 10.1294 9.57186 16.5281 10.5477 11.6513 11.368 9.11874 8.44016 6.9505 6.0456 5.64377 5.01095 7.46031 4.63029 4.52059 4.40706 4.33739 6.40279 4.16675 3.45166 4.0517 4.03936 3.43192 3.32253 3.16948 2.98977 2.67574 3.82735 2.50218 2.02918 1.97242 1.86283 1.33077 1.1032 0.671576 0.473259 0.376581 0.662933 0.183521 0.000408084 4.23007e-05
threshold=0.61707386374473583 -0.53441771864891041 0.76716208457946788 0.48800122737884527 0.54188081622123729 0.9534079134464265 -0.94723156094551075 -0.53891912102699269 0.18299183994531634 0.29551002383232122 -0.14689020812511441 0.10156466811895372 -1.2897685170173643 0.36855629086494451 0.19737779349088672 -0.013725659344345329 0.59314194321632396 0.086329746991395964 -0.27770030498504633 -0.25388324260711664 0.98764759302139293 -0.25875702500343317 -1.1064376235008238 -1.2660889625549314 1.1671699881553652 -0.33425928652286524 -0.10313092917203902 0.447029858827591 -0.3451253324747085 0.22876814007759097 -0.020300502888858315 -0.032096527516841881 0.46841457486152654 0.37512391805648809 0.85890641808509838 -0.53329753875732411 0.62713947892189037 -0.92274728417396534 0.12631317228078845 -0.36724752187728876 0.87695914506912243 -0.30281795561313624 -0.077602367848157869
decision_type=2 2 2 2 2 2 2 2 2 2 2 2 2 2 2 2 2 2 2 2 2 2 2 2 2 2 2 2 2 2 2 2 2 2 2 2 2 2 2 2 2 2 2
left_child=1 2 18 4 5 6 9 -8 30 -3 26 -4 -10 15 20 17 21 -2 19 -1 -15 40 37 -24 -22 -5 -6 34 -12 -30 -7 -20 -16 36 -27 -28 -33 -23 39 -18 -17 42 -40
right_child=13 3 11 25 10 8 7 -9 12 -11 28 -13 -14 14 32 16 38 -19 31 -21 24 22 23 -25 -26 27 35 -29 29 -31 -32 33 -34 -35 -36 -37 -38 -39 41 -41 -42 -43 -44
leaf_value=0.011659705468831622 -0.010139345394503368 0.0087520403216303864 0.017652203240565462 0.0022613076849724379 0.0093841358556703367 0.012304907539759883 -0.0054398639990482995 0.0020801417323858496 -0.0068755772516916865 -0.008789191312857823 -0.0011290443321009054 -0.001927600948072242 0.011125993004145121 -0.0043342247134479147 -0.016396767058313059 -0.016304773619830293 -0.016316330765046634 0.0040749050963534011 -0.0030881950299575275 -0.0070968663239290401 0.017005212592554803 -0.0098315405154934896 -0.011240752866580458 0.0022665361759250371 0.0021337956496408506 -0.0097911740974428313 0.018108957055648578 -0.016439328822164603 0.014017794957779245 0.0015926530966397059 0.024599235258767917 -0.011221556980330441 -0.0054725075748214749 -0.0055291873576277335 0.00039826871080035414 0.02646202760039881 -0.016430488466377107 -0.016261630427824619 -0.016286847677623822 -0.0084573120880179608 -0.012370523182045869 -0.0164002895089801 -0.01622411416552285
leaf_weight=7.5239235460758236 10.237514615058901 70.052653104066849 8.0711184442043322 10.183012574911116 7.3362227380275753 8.0670216977596301 78.738189548254013 168.42261677980423 8.7348306179046649 8.1757844388484937 8.2337200045585615 8.7961559593677503 9.9362308382987958 12.201739460229875 8.0840189754962939 7.5167439281940442 6.1288829743862152 13.497651696205137 11.066339969635008 13.707272469997404 6.9547138512134579 6.5188637375831604 8.3072123527526838 20.47178685665131 10.240445286035536 6.2789078056812304 8.521168470382694 8.7698382735252363 17.984408378601078 10.468522876501082 9.7691195309162122 16.24340516328812 9.7100585103034955 11.603507339954374 7.5164002776145935 8.3607187271118129 11.134908825159071 5.7497133910655958 5.7587023973464948 5.3791153430938703 5.4657700657844543 9.4256126582622546 5.7950001358985901
leaf_count=22 33 194 22 29 21 22 240 484 28 27 23 28 29 37 25 25 22 39 33 39 17 20 27 63 30 20 21 28 49 31 24 53 29 35 24 20 36 21 21 18 20 29 20
internal_value=1.37396e-07 0.00189441 -0.00394338 0.00302399 0.00368307 0.00235795 0.00142372 -0.000315512 0.0106847 0.00691878 0.011557 0.00744148 0.00270437 -0.00654131 -0.00208637 -0.00844814 -0.0102018 -0.00205602 -0.00663745 -0.000449901 0.0029674 -0.00730598 -0.00498372 -0.00163242 0.00814865 -0.00548512 0.0183497 -0.00898087 0.00707282 0.00944628 0.0190387 -0.0092623 -0.0104355 -0.011015 -0.00423944 0.0222458 -0.0133401 -0.012845 -0.0150178 -0.0126428 -0.0146484 -0.0163205 -0.0162554
internal_weight=701.14 543.696 88.1466 455.549 422.801 361.896 325.389 247.161 36.5072 78.2284 60.9048 16.8673 18.6711 157.444 47.191 110.253 86.5174 23.7352 71.2794 21.2312 29.3969 54.0301 41.0476 28.779 17.1952 32.7482 24.2181 22.5651 36.6867 28.4529 17.8361 50.0482 17.7941 38.9818 13.7953 16.8819 27.3783 12.2686 32.4873 11.508 12.9825 20.9793 11.5537
internal_count=2078 1582 268 1314 1213 1048 945 724 103 221 165 50 57 496 138 358 286 72 218 61 84 176 131 90 47 101 62 72 103 80 46 157 54 124 44 41 89 41 110 40 45 70 41
is_linear=0
shrinkage=0.0163373


Tree=11
num_leaves=36
num_cat=0
split_feature=4 18 8 18 16 16 8 18 1 8 18 24 23 7 7 0 16 16 7 11 21 21 8 23 4 3 3 21 7 23 21 3 18 20 3
split_gain=14.6908 15.4071 10.8574 10.1875 10.856 8.45531 10.6106 10.4343 15.8454 11.1781 10.265 9.59833 8.48402 7.7071 13.2244 12.1358 10.1766 7.95483 7.11754 6.92398 8.90621 6.48542 6.27362 6.15947 6.12259 6.02869 8.83605 5.3855 5.06614 4.29584 3.66351 2.78902 2.1165 1.61481 0.509531
threshold=0.33238661289215093 0.78333413600921642 -0.98396113514900196 -0.99974527955055226 0.44541205465793615 -0.24915874749422071 0.70356178283691417 0.046863067895174033 -0.56777051091194142 -0.0775790400803089 -0.52805292606353749 -0.21207299828529355 0.23646411299705508 -2.8288799524307247 -0.21804917603731153 0.83935412764549266 -1.3505692481994627 0.65198931097984325 -0.13924999535083768 -0.25342771410942072 0.44489838182926184 -0.80587023496627797 -0.024429112672805783 0.019889535382390026 -0.2560639083385467 0.26534019410610205 -0.36945006251335138 -0.44353562593460077 -4.6354980468749991 -0.15469610691070554 -0.12040729448199271 0.93090897798538219 -0.15444319695234296 -0.57164186239242543 -0.62717741727828968
decision_type=2 2 2 2 2 2 2 2 2 2 2 2 2 2 2 2 2 2 2 2 2 2 2 2 2 2 2 2 2 2 2 2 2 2 2
left_child=3 2 -2 4 -1 10 7 11 9 -9 19 22 33 31 25 16 -16 -17 -10 -5 -21 -12 -7 27 -25 26 -15 -23 -13 -27 -14 -4 -32 -8 -35
right_child=1 -3 13 5 -6 6 12 8 18 -11 21 28 30 14 15 17 -18 -19 -20 20 -22 23 -24 24 -26 29 -28 -29 -30 -31 32 -33 -34 34 -36
leaf_value=0.024327775258158938 0.025370676267270832 -0.014354626232981581 0.0089177994754825688 0.0010744266820945185 -0.0015178681213256196 -0.0018916587802454796 -0.0077679864866568903 0.028472961418037148 0.0043326745769965355 0.005771821745704629 -0.012890864719414563 0.0063011617730805167 -0.0099989814087922211 -0.0095259962321947375 0.02086345334945644 0.019465115434772168 0.001141912979278389 0.0010697843984757165 -0.0051262805725843068 0.031438512143585541 0.0048521298652635615 -0.011046988241472537 0.016213623117731758 0.013046061291067097 0.00079892659322308235 0.00041710549154015084 0.01362641838285792 -0.00019167199492257543 -0.0085563277692916346 -0.010524046801845438 -0.0017941576311049016 0.022268350080528198 0.010970675500572557 -0.011468897863157771 -0.016229041191607462
leaf_weight=8.2219720780849475 6.5142902433872214 12.102402567863463 10.283046811819078 10.655524134635927 9.181478023529051 15.414628416299822 10.276383996009825 7.7454515695571926 31.774882972240448 22.924207508563995 10.686632066965101 6.554571032524108 7.7672827541828182 7.2589587271213558 7.665097087621688 23.857301205396652 78.545537650585175 8.5134703516960126 63.995609670877457 7.0176951587200147 6.4577770233154297 16.238518059253693 7.6399556100368491 16.040513753890991 33.963258445262909 14.731009960174559 11.169851660728453 49.028089135885239 93.587061107158661 27.381849110126495 7.6465945243835458 7.0329520404338828 6.3426946401596043 7.7580234110355368 26.514791756868362
leaf_count=30 24 33 33 32 26 45 28 29 97 71 29 20 22 20 27 83 236 25 180 27 20 44 26 54 103 45 37 144 255 76 22 25 21 20 69
internal_value=2.13842e-07 0.00355256 0.00462039 -0.00158005 0.0106925 -0.00203836 -0.00355508 -0.00201207 0.00128489 0.0115049 0.00115442 -0.00539585 -0.00936439 0.00393227 0.00292613 0.00609797 0.00289538 0.0146272 -0.00198797 0.0109158 0.0186977 -0.000715675 0.00410817 0.000413078 0.00472764 -0.00328645 0.00450687 -0.00289251 -0.00758386 -0.00669685 -0.00100202 0.0143402 0.00399337 -0.0134483 -0.0151515
internal_weight=698.489 215.056 202.953 483.434 17.4035 466.03 315.942 249.636 126.44 30.6697 150.088 123.196 66.3058 196.439 179.123 118.581 86.2106 32.3708 95.7705 24.131 13.4755 125.957 23.0546 115.27 50.0038 60.5417 18.4288 65.2666 100.142 42.1129 21.7566 17.316 13.9893 44.5492 34.2728
internal_count=2078 664 631 1414 56 1358 905 723 377 100 453 346 182 607 549 371 263 108 277 79 47 374 71 345 157 178 57 188 275 121 65 58 43 117 89
is_linear=0
shrinkage=0.0163373


Tree=12
num_leaves=41
num_cat=0
split_feature=19 18 20 2 17 9 22 6 23 1 2 19 2 9 1 23 22 2 20 1 18 2 6 2 18 2 9 17 18 3 22 13 17 13 2 20 9 1 20 3
split_gain=18.7797 21.5325 14.8137 13.5936 11.6659 23.9856 13.6812 13.5087 11.2468 11.0436 13.3309 11.0182 17.1118 11.144 12.7591 11.407 9.4784 11.0426 10.4522 9.26736 7.04881 5.22703 4.26538 4.17864 6.86614 6.83559 7.60992 4.0955 6.15264 3.17911 2.66779 2.54356 1.68883 3.56469 1.33418 1.12576 0.594231 1.15055 0.000206819 6.65175e-05
threshold=1.0000000180025095e-35 0.70676639676094066 -0.54114931821823109 0.95442408323287975 0.17732553929090503 1.0000000180025095e-35 0.30434212088584905 1.0535272955894472 0.38232041895389562 -0.80779004096984852 -0.26168678700923914 -1.0000000180025095e-35 -0.64893016219139088 0.38787305355072027 0.48800122737884527 -0.74475130438804615 -1.2758291363716123 0.34156049787998205 0.43245646357536321 -0.8582974076271056 -0.12522613629698751 0.5027374029159547 0.30798786878585821 0.22267698496580127 -0.41962330043315882 -0.73880913853645314 -0.22454832494258878 -0.4680232554674148 0.1650025472044945 -0.12898436933755872 0.64697870612144481 -0.20103290677070615 0.24709305167198184 -0.27610601484775538 1.0000000180025095e-35 -0.25504241883754725 -0.36624525487422938 -1.0179829001426695 -0.55562281608581532 -0.21793510019779203
decision_type=2 2 2 2 2 2 2 2 2 2 2 2 2 2 2 2 2 2 2 2 2 2 2 2 2 2 2 2 2 2 2 2 2 2 2 2 2 2 2 2
left_child=2 3 23 4 5 20 35 -8 19 10 -4 12 -11 14 15 -13 18 -18 -10 -6 29 -16 -21 24 25 32 -27 39 -29 -2 36 -12 33 -1 -3 -7 37 -26 -38 -15
right_child=1 34 9 -5 8 6 7 -9 16 11 31 13 -14 27 21 -17 17 -19 -20 22 -22 -23 -24 -25 30 26 -28 28 -30 -31 -32 -33 -34 -35 -36 -37 38 -39 -40 -41
leaf_value=-0.012342550779665947 0.010551857341643349 0.017531560110574846 -0.0082739206409583287 0.023302596204289937 -0.0023460079984107141 -0.010535126399235767 -0.0085290418584999337 0.021260355010552769 -0.00042890306951425965 -0.0049977217932184147 0.025245855213686035 0.0052702273267933985 0.022641785023338353 -0.015716824654951923 0.0031900110467453029 -0.0032738139705515267 -0.0052869151022133598 0.017013213399603957 0.026602299764836756 0.026151167001597829 -0.0019431775253797672 0.019970334274409151 0.012372268885482606 0.0038915411896702076 -0.015722865066724406 0.015394562904540342 -0.0061222850295491902 -0.00015038055166929378 -0.011553454388679864 0.025239762535520207 -0.0031564529088820934 0.012288032899034186 -0.015722523220770532 0.0031280876633284944 0.026606671226373592 -0.015848970449898719 -0.015723483704629979 -0.007471129912100619 -0.015831364095341725 -0.01578875047643102
leaf_weight=10.210892111063007 8.6062186360359192 10.434911489486696 6.9612946510314968 8.0196329057216627 7.7007693499326697 20.086175605654716 9.5723376870155352 7.059392884373664 7.8819840550422651 11.279082834720613 8.0846607089042699 53.788272216916084 12.721803814172743 6.3282967358827591 9.1809705495834368 185.6814579218626 41.40365132689476 6.9168439507484427 7.4048827439546585 10.382097929716112 7.518409237265586 10.763143286108969 14.194797202944754 8.0159704238176328 9.5843849033117312 8.4451267123222369 9.1301470696926099 25.760451138019562 24.775623649358749 7.2436862885952005 6.9474165737628928 8.088553830981251 7.3347041606903067 6.5094710737466821 7.3831447362899771 22.629865884780884 17.74735888838768 8.5182260274887032 6.4848654717207017 7.5660320818424207
leaf_count=33 24 30 22 22 24 68 30 21 25 39 22 158 36 21 27 571 134 20 21 29 22 31 41 23 28 25 26 77 82 21 24 22 23 20 20 84 60 24 20 28
internal_value=-5.81638e-07 0.00413282 -0.00179886 0.00249451 0.00156018 -0.00293531 -0.00845572 0.00411517 0.00543824 -0.000300938 0.0106291 -0.00102788 0.00965275 -0.00181944 -0.000309078 -0.0013547 0.00145245 -0.00209476 0.0126649 0.0132928 0.0110847 0.0122458 0.0181929 -0.00741605 -0.00841306 -0.00352807 0.00421681 -0.00790057 -0.00574081 0.0172645 -0.0125396 0.0187654 -0.00918668 -0.00631961 0.021292 -0.0133503 -0.0140794 -0.01184 -0.0157524 -0.015756
internal_weight=674.347 204.439 469.908 186.621 178.601 82.7161 59.3478 16.6317 95.885 370.98 23.1345 347.845 24.0009 323.844 259.414 239.47 63.6074 48.3205 15.2869 32.2777 23.3683 19.9441 24.5769 98.9286 90.9126 41.6303 17.5753 64.4304 50.5361 15.8499 49.2823 16.1732 24.0551 16.7204 17.8181 42.716 42.3348 18.1026 24.2322 13.8943
internal_count=2078 636 1442 586 564 270 203 51 294 1136 66 1070 75 995 787 729 200 154 46 94 67 58 70 306 283 127 51 208 159 45 156 44 76 53 50 152 132 52 80 49
is_linear=0
shrinkage=0.0163373


Tree=13
num_leaves=46
num_cat=0
split_feature=6 1 20 1 22 1 20 2 5 18 18 6 22 21 6 7 6 22 1 20 9 24 17 24 2 18 20 20 18 21 6 9 1 2 1 9 18 24 1 24 1 9 6 23 9
split_gain=31.5711 11.2548 11.3059 10.991 9.82586 10.563 9.18423 8.06463 8.85084 6.46878 6.39964 6.60201 6.1218 5.94682 6.17126 5.73511 5.27334 5.01136 4.9123 9.53051 4.69191 4.40765 4.26653 4.1435 3.64752 2.89283 3.84035 2.775 2.71328 4.2314 3.2783 2.29676 2.13146 4.41998 2.6373 2.10448 1.94684 1.64365 1.5433 1.18286 1.29621 0.503857 0.190477 0.190348 0.000132727
threshold=0.61707386374473583 -0.94723156094551075 -0.53390526771545399 -1.0587606430053709 0.47250442206859594 0.48569814860820776 -0.52811968326568592 -0.080752149224281297 -0.43748041987419123 0.62878218293190014 -0.41962330043315882 -0.45621749758720392 -0.40553967654705042 0.65783035755157482 -0.39253373444080347 -0.33934234082698816 -0.075212784111499772 -0.038285160437226289 0.36855629086494451 0.43245646357536321 -0.61541020870208729 0.72963407635688793 -0.52034881711006153 1.08132940530777 0.93141844868659984 0.19737779349088672 0.50849899649620067 -0.55733188986778248 0.42463228106498724 0.48377826809883123 1.1314849853515627 -0.15051065385341642 -0.073608551174402223 0.60792905092239391 -0.17894430458545682 -0.37097893655300135 0.46841457486152654 -0.0046975843142718068 -0.75034096837043751 -1.4437042474746702 -0.14031986147165296 0.60623395442962658 1.0760361552238467 0.93922647833824169 1.2974495291709902
decision_type=2 2 2 2 2 2 2 2 2 2 2 2 2 2 2 2 2 2 2 2 2 2 2 2 2 2 2 2 2 2 2 2 2 2 2 2 2 2 2 2 2 2 2 2 2
left_child=1 2 3 15 7 6 21 9 -9 10 31 -12 22 14 -8 -1 -14 27 23 -20 -17 38 -10 28 43 26 -21 37 30 -30 32 -3 34 -34 -2 -22 -27 -5 -6 40 -32 -41 -25 -7 -44
right_child=18 4 -4 17 5 24 13 8 12 -11 11 -13 16 -15 -16 20 -18 -19 19 25 35 -23 -24 42 -26 36 -28 -29 29 -31 39 -33 33 -35 -36 -37 -38 -39 -40 41 -42 -43 44 -45 -46
leaf_value=-0.01053559670404829 -0.0029523442616763247 -0.016520938438321406 -0.011283578179463637 0.025134323591979531 -0.0028609459869483218 -0.0092215486474653014 0.015166471288971388 -0.012611365287408829 0.018388867262028995 -0.016371414857171619 0.0097994541124169273 -0.0025708636479632695 0.0038293308820457105 0.021864419440780231 0.0048326846282861387 -0.0032987107742941156 -0.0022286056857218376 0.0053035038824405913 0.013766663118983332 -0.010764717808063002 0.016584272975240857 0.0071929778273148665 0.0039607633232677511 -0.012669437398404388 0.0012710922942165818 -0.016275665446834689 0.0038167436146049312 0.011389064273381044 0.006382030946367653 -0.010327813574123912 -0.002626110702464492 -0.0065184693447007695 -0.006844965099191659 0.00823042710944028 -0.016263062453211245 0.0063157181483738277 -0.0053929872798615837 0.015611868527417061 -0.013451765411653034 -0.011045914116238202 -0.013021143677982284 -0.016206176923685835 -0.016233619984681747 -0.01325350556685142 -0.016131776766372962
leaf_weight=7.0873394906520835 7.9473054111003876 8.567840129137041 8.2649837434291822 12.605631977319719 7.7796986997127533 5.9089265167713183 21.259682416915894 11.379103958606718 9.721158981323244 10.312528520822523 13.66715747117996 73.135490357875824 85.198516368865967 8.7683884203433973 56.198193520307541 11.13844752311706 69.751849383115768 11.498625159263609 8.369141757488249 7.4775932729244259 7.6513780355453482 8.0156331360340101 12.510154366493223 5.8891526162624386 11.905235052108763 8.0234681069850939 13.568938493728636 11.288349598646166 9.3209410011768359 7.1456660330295554 6.223809540271759 21.509077370166779 15.687177360057833 7.7580309212207785 7.9445826113224012 17.53560250997544 9.6818918287754041 7.8514346778392783 6.955974757671358 8.1414979696273821 6.5937671661376935 13.301743388175963 6.2007309794425947 6.6337198615074158 7.6405028402805328
leaf_count=24 26 25 23 30 25 20 54 37 25 35 39 223 245 22 158 33 206 32 22 24 20 22 37 20 34 25 38 32 26 23 20 65 50 21 28 51 29 21 23 29 22 46 22 21 25
internal_value=1.75797e-07 0.00186207 0.00697341 0.00871469 0.000781922 0.00449907 0.0066763 -0.000788806 0.00135558 -0.00396783 -0.00287343 -0.000623146 0.00225257 0.00911252 0.00766897 0.00290768 0.00110231 0.0145443 -0.00645586 -0.00204349 0.00553056 -0.00255683 0.0102698 -0.00834953 -0.00520605 -0.00545797 -0.00136388 0.0178915 -0.00686407 -0.000869188 -0.00820534 -0.00936782 -0.00498747 -0.00185651 -0.00960656 0.00943513 -0.0103246 0.0214796 -0.00786034 -0.0119 -0.00797364 -0.0142469 -0.0151303 -0.011354 -0.0161774
internal_weight=701.016 544.1 94.9218 86.6568 449.178 133.425 108.978 315.753 188.561 127.192 116.88 86.8026 177.182 86.2263 77.4579 43.4128 154.95 43.244 156.916 47.121 36.3254 22.7513 22.2313 109.795 24.4479 38.7519 21.0465 31.7454 90.0645 16.4666 73.5979 30.0769 39.3371 23.4452 15.8919 25.187 17.7054 20.4571 14.7357 34.2608 12.8176 21.4432 19.7304 12.5426 13.8412
internal_count=2078 1582 266 243 1316 379 304 937 550 387 352 262 513 234 212 128 451 115 496 138 104 70 62 358 75 116 62 83 291 49 242 90 125 71 54 71 54 51 48 117 42 75 67 41 47
is_linear=0
shrinkage=0.0163373


Tree=14
num_leaves=36
num_cat=0
split_feature=17 9 11 7 20 8 3 0 21 16 8 9 20 8 19 11 12 16 20 7 17 8 12 11 3 17 20 20 20 20 18 18 7 0 21
split_gain=16.9301 9.4971 10.9879 9.84127 8.80671 13.0631 12.1693 8.70709 8.64719 7.84818 7.35761 7.90454 11.8762 7.42616 6.44625 7.19561 6.39986 6.08825 6.08529 9.46648 8.64103 4.81762 4.44576 3.69812 3.46117 5.19523 3.33023 2.96475 2.64154 5.41743 2.24627 1.7336 1.37787 1.39131 1.35018
threshold=-1.0203487277030943 0.26061117649078375 0.76804798841476452 -3.8087706565856929 -0.57164186239242543 0.49643978476524359 -0.89665615558624256 0.17538151890039447 0.53816416859626781 0.35056461393833166 -0.18075302243232724 -0.62093341350555409 -0.45202763378620142 -1.0506446957588194 1.0000000180025095e-35 -0.12021308019757269 -0.20449157804250714 -0.22995407134294507 0.51126316189765941 -0.21235629171133039 0.57848834991455089 -0.10911707952618598 0.71387577056884777 0.33415390551090246 0.94886469841003429 0.22383711487054828 -0.16252015531063077 -0.46063020825386042 -0.53180506825447071 -0.59280702471733082 -0.57625043392181385 0.10004044324159624 -0.93044981360435475 0.30104424059391027 0.094550259411335005
decision_type=2 2 2 2 2 2 2 2 2 2 2 2 2 2 2 2 2 2 2 2 2 2 2 2 2 2 2 2 2 2 2 2 2 2 2
left_child=8 4 3 -3 6 10 7 -2 23 24 13 12 -12 -6 15 -8 28 27 19 -18 -20 -13 -15 -1 25 -4 -10 -7 29 -5 -17 -27 -19 -34 -11
right_child=1 2 9 16 5 17 14 -9 26 34 11 21 -14 22 -16 30 18 32 20 -21 -22 -23 -24 -25 -26 31 -28 -29 -30 -31 -32 -33 33 -35 -36
leaf_value=0.011517099202530792 0.030865522896431557 0.015123786631202422 0.026809615048506961 -0.0082627208192055102 0.0099179984692902515 -0.0058902850906345748 0.013624650546541644 0.003952569199435263 0.027596105915697576 -0.005824905321039929 0.00085215515439023655 0.008908488737261834 0.031196152440580872 -0.0061088518380590564 -0.014476371937075259 -0.0081160609301525084 -0.0026040111702869064 -0.016193711985033356 -0.0103560835625684 0.0082989891813147806 0.0031125822103111704 -0.0010612057583229706 -0.00040181551952334332 -0.0038561511449193243 0.0049106091593225402 0.016601756165914083 0.01239343404556326 0.0077099644703399898 -0.013072404445371898 0.0086730865693909077 0.0036187552316422804 0.0047695476750557663 -0.011676580501323117 -0.0035501954580996207 0.0044870573502259481
leaf_weight=7.9553305804729488 6.815327584743498 11.359692782163618 9.178530186414724 18.540080845355988 10.350101470947264 11.903910785913469 10.785594105720518 6.06285360455513 8.1244198679923993 7.0603895187377912 8.6038364768028242 14.74610787630081 5.738963544368743 117.23503851890564 6.9296982884407035 10.519958347082138 36.906439423561096 14.31017956137657 24.74743190407753 50.118152290582657 26.146198838949203 105.43880099058151 52.85830345749855 8.7923630475997907 8.1105941236019117 6.7546513080596906 7.302771568298339 6.6781666576862326 11.567664533853529 6.9240036010742214 7.4279257357120558 6.4715625941753387 32.594491839408875 6.795667201280593 6.5172262787818909
leaf_count=26 26 38 34 50 33 33 36 18 30 20 25 47 22 332 19 28 108 36 68 160 80 307 159 26 26 23 24 21 31 22 22 20 88 20 20
internal_value=3.85195e-07 -0.000558629 0.00212406 0.000388419 -0.00197696 -0.0027992 0.00458279 0.0181953 0.0115751 0.00945782 -0.00136177 0.00153008 0.0129937 -0.00351777 -0.000332772 0.00307826 -0.000568364 -0.00906281 0.00105077 0.00367511 -0.00343666 0.000162028 -0.00433533 0.0034463 0.0140554 0.0173659 0.0203996 -0.00100253 -0.00659856 -0.00365766 -0.00325948 0.0108123 -0.0118519 -0.0102746 -0.000875185
internal_weight=698.372 666.198 230.403 186.31 435.795 387.254 48.5414 12.8782 32.1749 44.093 314.971 134.528 14.3428 180.443 35.6632 28.7335 174.95 72.2824 137.918 87.0246 50.8936 120.185 170.093 16.7477 30.5153 22.4047 15.4272 18.5821 37.0317 25.4641 17.9479 13.2262 53.7003 39.3902 13.5776
internal_count=2078 1972 700 557 1272 1123 149 44 106 143 925 401 47 524 105 86 519 198 416 268 148 354 491 52 103 77 54 54 103 72 50 43 144 108 40
is_linear=0
shrinkage=0.0163373


Tree=15
num_leaves=41
num_cat=0
split_feature=0 7 10 6 9 12 0 8 23 8 22 23 10 14 23 2 0 0 18 23 7 11 22 0 18 8 2 12 9 18 9 8 11 11 6 9 11 6 10 9
split_gain=19.8975 22.1023 19.882 12.471 10.7141 11.3106 10.1228 8.87364 14.8857 8.80797 8.54755 8.14111 8.13075 9.32025 7.14066 6.82659 6.04321 5.95835 5.48726 4.69364 8.17425 5.88559 4.03273 5.2837 3.1716 3.31503 3.05549 2.99774 2.99519 4.05461 1.84508 1.02618 0.909035 0.792158 0.590245 0.159715 0.141767 0.000516234 0.00049688 8.44131e-05
threshold=0.82643732428550731 -2.8288799524307247 0.95723563432693493 -0.21465835720300672 -0.58114674687385548 0.053282124921679504 -0.95626589655876149 0.37516650557518011 1.2397788763046267 0.67539149522781383 -0.017783754505217072 -0.74917119741439808 -0.60381072759628285 -0.72442772984504689 0.40441985428333288 0.39736209809780126 -0.21676573902368543 1.2737003564834597 0.48241131007671362 0.29834251105785375 -1.0744258165359495 -0.35090072453021998 -0.5668635070323943 0.47321800887584692 -0.74309623241424549 -0.13531444966793058 -0.40429233014583582 -0.09176482260227202 0.34331192076206213 0.19737779349088672 0.20343201607465747 0.62463086843490612 0.90874159336090099 0.60656970739364635 0.7653033733367921 1.639131546020508 -0.24239843338727948 -0.070820808410644517 -0.23910810798406598 0.84120261669158947
decision_type=2 2 2 2 2 2 2 2 2 2 2 2 2 2 2 2 2 2 2 2 2 2 2 2 2 2 2 2 2 2 2 2 2 2 2 2 2 2 2 2
left_child=1 22 3 12 5 -5 28 8 -6 -9 -7 17 24 18 16 -15 -8 -2 -14 33 -21 -22 26 31 -3 -26 -1 -18 -4 -30 -16 36 34 35 -23 38 -24 -38 -13 -40
right_child=11 2 6 4 7 10 14 9 -10 -11 -12 19 13 15 30 -17 27 -19 -20 20 21 32 23 -25 25 -27 -28 -29 29 -31 -32 -33 -34 -35 -36 -37 37 -39 39 -41
leaf_value=-0.0081716935855424746 -0.0070105807090876399 0.00052256147603461011 -0.0050701052837808722 -0.0017963888725468537 -0.0020863600411355006 0.027707241303430438 0.011660475472010755 0.014308753232356025 0.014312122099214951 0.0022178877180797757 0.0061272427399354868 -0.015562633022008646 -0.00034162831995384387 -0.00042691390266488203 0.01144589682430202 0.008360780919629442 0.018624805023988424 0.012202418163187363 -0.013895110134148823 0.010091518986648252 0.0013846601023697446 -0.015734104153975852 -0.012854730599878631 0.001024142069868738 -0.0041256579165504167 -0.015659032664725177 0.0071904239471548359 0.03282968055949477 -0.0025816642326743681 0.015137562193980032 -0.00050299777059525377 -0.0090363185220919337 -0.0069594866462432629 -0.0091237487533785341 -0.0096876102742542644 -0.012520332460884635 -0.01565251583735024 -0.015822430399457906 -0.015694616843763276 -0.015776857920784593
leaf_weight=7.0014785528182983 7.9910218268632915 7.5216539949178687 9.6207699626684207 9.8524418920278567 121.86810186505318 12.821085423231127 13.265650883316995 27.195237934589386 16.813128009438515 39.349891036748886 7.9282483905553809 6.9971507191658047 13.620451912283896 116.18605378270149 7.0184433162212354 29.607089519500732 7.1013619005680111 9.347922742366789 19.228185132145882 7.4186801910400382 11.24545346200466 16.246887147426612 5.9799649268388704 8.3962953239679319 10.544138893485071 18.018718242645264 6.8236695080995542 8.979185074567793 6.5106793344020826 7.3244699537754059 6.7824252396821976 10.563152998685835 5.9982952177524558 7.9732621759176245 5.8644844740629187 5.4211392849683753 12.616731062531469 7.6826466321945288 7.2717873901128787 6.1839836835861206
leaf_count=26 28 24 31 31 386 35 38 80 50 121 26 22 41 349 19 83 21 29 61 23 34 51 19 26 35 58 20 25 21 23 21 29 19 25 19 21 40 27 20 21
internal_value=-9.17394e-07 0.00115632 0.00223763 0.00100603 0.00359962 0.0126175 0.0105692 0.00225495 -9.82771e-05 0.00715911 0.0194616 -0.006808 -0.00184244 -0.000413643 0.0152652 0.00135766 0.019823 0.0033477 -0.00827526 -0.00899215 -0.00563887 -0.00860414 -0.00831158 -0.0106715 -0.00891592 -0.0114014 -0.000589423 0.0265566 0.00193077 0.00679908 0.00557362 -0.0133369 -0.0126002 -0.0136261 -0.0141304 -0.0150135 -0.0150655 -0.0157168 -0.0156743 -0.0157324
internal_weight=674.181 576.221 517.157 450.554 235.828 30.6018 66.603 205.226 138.681 66.5451 20.7493 97.9601 214.726 178.642 43.1471 145.793 29.3462 17.3389 32.8486 80.6211 46.7738 39.3551 59.0639 45.2388 36.0845 28.5629 13.8251 16.0805 23.4559 13.8351 13.8009 36.8425 28.1097 33.8473 22.1114 25.8741 26.2793 20.2994 20.4529 13.4558
internal_count=2078 1766 1579 1380 729 92 199 637 436 201 61 312 651 534 124 432 84 57 102 255 146 123 187 141 117 93 46 46 75 44 40 115 89 109 70 84 86 67 63 41
is_linear=0
shrinkage=0.0163373


Tree=16
num_leaves=44
num_cat=0
split_feature=4 0 10 1 10 5 8 5 0 4 15 11 0 1 4 18 24 10 11 2 15 7 11 7 5 18 4 4 8 7 0 2 2 15 17 4 0 0 8 11 4 11 8
split_gain=19.0659 14.1838 11.8387 10.1515 9.20681 8.15919 7.88189 7.84636 6.53776 17.0256 8.31187 6.39417 5.78822 5.7706 7.41836 6.95882 5.53773 5.38694 4.86359 4.84223 3.67762 5.02981 3.86728 4.68311 3.2579 3.76536 3.19614 6.34416 3.02186 4.4032 2.72532 2.3996 1.58746 1.36185 1.26805 1.00198 0.97423 0.782019 0.740214 0.63356 0.219347 0.190936 0.000426278
threshold=1.0604561567306521 -0.53441771864891041 -0.70995891094207753 -0.93319752812385548 0.20873273909091952 -0.4961648136377334 -0.39966756105422968 -0.43252004683017725 0.9534079134464265 0.18299183994531634 0.54188081622123729 0.37679153680801397 -1.4507325291633604 -1.0587606430053709 -0.2063418850302696 0.019830790348351005 1.1551930308341982 0.62840235233306896 -1.2660889625549314 -0.10197285562753676 -1.1064376235008238 -1.6754868626594541 0.40920391678810125 -1.0000000180025095e-35 0.65282270312309276 -0.051612526178359978 -0.96964946389198292 -0.66215160489082325 -0.67051360011100758 -0.13206578791141507 0.37671180069446569 -0.43394298851490015 -0.087134566158056245 -1.1679523587226865 0.79941844940185558 1.5973907113075259 -0.64640361070632923 1.0039516687393191 0.07530552521348001 -0.42480656504631037 0.49327264726161962 0.39840528368949896 0.22885388880968097
decision_type=2 2 2 2 2 2 2 2 2 2 2 2 2 2 2 2 2 2 2 2 2 2 2 2 2 2 2 2 2 2 2 2 2 2 2 2 2 2 2 2 2 2 2
left_child=1 5 6 13 8 -1 34 32 10 -10 -5 30 24 14 15 -4 18 -9 33 36 21 -20 23 -22 25 -7 -15 -28 -21 -30 39 -24 -6 -2 40 -23 38 42 -14 -8 -3 -37 -18
right_child=16 2 3 4 7 12 11 17 9 -11 -12 -13 19 26 -16 -17 37 -19 20 28 22 35 31 -25 -26 -27 27 -29 29 -31 -32 -33 -34 -35 -36 41 -38 -39 -40 -41 -42 -43 -44
leaf_value=0.0091301597630498166 -0.0075669184228973462 -0.016442094955123207 0.0042257777585338503 0.0013339704102970369 -0.0029267884420960451 -0.00400010752550171 -0.0060486261383097192 -0.0029560929210650116 0.023601445885795987 -0.0025855670299584567 0.0094232835620228529 0.009609279349789274 -0.016282428026203985 0.022662705009921878 0.017195937044832701 -0.01642368476078325 -0.016284825291801856 0.0041102311332204154 0.0060370394017075025 -0.013602033623390172 0.013596084659102536 -0.0064112314142155515 0.0016092058425819929 -0.0017120344215134026 -0.0075857808699549938 0.011498212748911458 0.0026651923551139277 0.018386861970568796 0.0062230659316270523 -0.0056756921044560432 0.003162995350023714 -0.011311711009304271 -0.012571967523146351 -0.016292483837739284 -0.0062389302509481817 -0.016216031011123688 -0.0068053733304665534 -0.009182864879618665 -0.010679992668433868 -0.013323762776319718 -0.012382478162271806 -0.012007823004053219 -0.016106095553681879
leaf_weight=11.52013039588928 9.7579467892646807 9.9911865293979663 20.252005457878116 149.42082403600216 6.2851042449474361 6.8963095098733964 6.0441984534263637 57.726963549852371 14.685861468315126 12.075101763010023 43.852642670273781 12.106337815523146 14.278520256280901 7.9970179498195639 8.7447782754898054 5.549506574869155 8.2664753794670123 57.45288972556591 5.6876283586025265 7.8218820691108695 9.8789905011653882 6.4960755854845074 7.0849105715751639 11.593782350420954 7.3002018630504599 10.638476520776747 13.036211669445038 14.438171029090881 11.243351191282271 31.71819531917572 6.3942366540431967 8.3665176630020124 16.540671169757843 9.3476589918136579 6.1645270586013785 6.6966463625431043 6.6812521815299979 5.9659840613603583 11.257078438997267 6.7775629460811642 5.5123174786567679 5.0463024228811264 6.2654734551906577
leaf_count=34 29 34 56 439 20 23 20 170 36 40 123 33 50 19 21 20 28 160 18 23 28 19 21 36 22 29 37 37 32 97 19 28 48 31 18 24 22 20 35 22 19 18 20
internal_value=3.63836e-07 0.00110255 0.00235333 0.00325508 0.0021425 -0.00393858 -0.00493101 -0.0011655 0.00421727 0.0117853 0.00316939 0.000309568 -0.00533472 0.00894435 0.00419182 -0.000215603 -0.00658728 0.000568662 -0.0046451 -0.00740517 -0.00238734 -0.00737669 0.000845735 0.00533078 0.00158485 0.00540283 0.0135729 0.0109271 -0.00426218 -0.0025617 -0.00554938 -0.00538711 -0.00991616 -0.011836 -0.0125065 -0.0115596 -0.0123595 -0.0141631 -0.0138127 -0.00989425 -0.0149987 -0.0144076 -0.0162078
internal_weight=700.858 600.404 481.048 428.058 358.04 119.355 52.9904 138.006 220.034 26.761 193.273 31.3223 107.835 70.0177 34.5463 25.8015 100.454 115.18 79.9565 83.0003 60.8509 23.9267 36.9242 21.4728 24.835 17.5348 35.4714 27.4744 50.7834 42.9615 19.216 15.4514 22.8258 19.1056 21.668 18.239 32.2169 20.4979 25.5356 12.8218 15.5035 11.7429 14.5319
internal_count=2078 1758 1391 1226 1036 367 165 398 638 76 562 94 333 190 97 76 320 330 252 259 192 79 113 64 74 52 93 74 152 129 61 49 68 60 71 61 107 68 85 42 53 42 48
is_linear=0
shrinkage=0.0163373


Tree=17
num_leaves=37
num_cat=0
split_feature=17 10 15 9 17 5 4 19 20 17 9 3 15 13 1 4 3 5 12 15 1 1 5 5 1 13 16 10 15 17 15 12 3 13 12 9
split_gain=16.3192 13.7516 11.5364 12.3292 10.806 11.4612 12.53 10.2812 9.97259 9.34773 9.26925 8.69211 8.65044 8.1564 9.10107 9.1968 14.3595 8.093 7.86616 8.55231 7.12867 14.0658 11.0583 6.66139 5.98468 4.65143 4.63928 3.72649 3.08411 4.81199 3.06918 4.23792 2.98968 2.45965 2.1629 0.0518687
threshold=-1.0203487277030943 0.13510376214981082 0.29578639566898351 -0.031996607780456536 0.17732553929090503 1.0000000180025095e-35 0.19265691936016086 1.0000000180025095e-35 -0.25138458609580988 -0.53779071569442738 1.8603479862213137 0.93090897798538219 -0.078501861542463289 0.02320941258221865 0.36087846755981451 -0.41524754464626307 0.41536481678485876 0.87877237796783458 1.0731754899024966 -2.1662517786025997 -0.81388241052627552 -0.057258483022451394 -0.62639755010604847 0.58148351311683666 0.39792902767658239 0.95341724157333385 -0.63246113061904896 0.20151071995496753 0.82464036345481884 0.62499988079071056 -0.52706933021545399 0.29035231471061712 -0.90861752629280079 0.37964491546154028 1.1618815064430239 -0.49256555736064905
decision_type=2 2 2 2 2 2 2 2 2 2 2 2 2 2 2 2 2 2 2 2 2 2 2 2 2 2 2 2 2 2 2 2 2 2 2 2
left_child=1 33 3 7 5 8 -7 9 11 30 13 -5 -3 14 15 27 -17 28 19 -6 22 -22 -11 -16 -21 -8 -9 -4 32 -30 -2 -32 -15 -1 -25 -28
right_child=2 12 10 4 18 6 25 26 -10 20 -12 -13 -14 17 23 16 -18 -19 -20 24 21 -23 -24 34 -26 -27 35 -29 29 -31 31 -33 -34 -35 -36 -37
leaf_value=0.029945345484342242 -0.016467680410221879 0.015970064314914795 0.0008882864904943943 0.0039781623400261083 0.013007139385572205 0.002741169842448269 0.030223944724188243 -0.0027233345961501189 -0.0099473032063058971 0.0088258442027629742 0.015490083353639663 0.022277007887604242 -0.0081393432860292613 -0.0013942441605047378 0.0070806283048553305 0.011873431454339424 -0.0089433657786997228 0.0096400630857936837 0.014497852056135822 -0.0009116179568549504 0.018249939184607142 0.0015131251856994631 -0.005967871494123503 -0.014864648671479392 -0.013280106570515218 0.014367523636238515 -0.014491591667572884 -0.012810319999846742 -0.0078200546052376134 0.0081115882206247193 -0.0016641144010031879 -0.01631932349633837 -0.010969570588431121 0.016800088971162395 -0.00488130870030934 -0.016257306655565906
leaf_weight=6.6411597430706015 8.2278123497962934 6.4389727413654354 10.075055509805681 43.108348786830902 10.505094110965727 12.26328009366989 11.906849443912508 12.743083178997042 11.44064688682556 17.720346659421921 6.5891454219818106 8.2552691996097547 10.368135899305342 9.8927898406982404 6.3649932444095603 35.133965849876404 11.819879025220869 7.1621915698051444 9.6556583940982801 77.80883452296257 16.083116799592972 80.404383212327957 56.443819403648376 17.480104774236683 12.059989124536513 8.4364517331123334 7.4571263492107418 11.184320598840712 17.576986283063892 7.1057860851287833 22.067359745502475 6.9174818396568289 72.373848974704742 8.8781278133392316 8.6626689434051496 10.976535081863402
leaf_count=25 20 22 30 131 35 37 45 38 32 56 22 29 29 29 20 116 33 23 32 232 56 241 157 47 32 28 20 29 49 23 66 18 193 30 24 29
internal_value=5.20613e-07 0.0113364 -0.000549784 0.000967938 0.00390297 0.00792666 0.0157851 -0.00155453 0.00384673 -0.000242364 -0.00359645 0.00691919 0.00109721 -0.00418186 -0.000793544 0.00259665 0.00663314 -0.00717256 0.000413867 -0.000940968 0.00137546 0.00430292 -0.00243315 -0.00790742 -0.00257141 0.0236482 -0.0103031 -0.0063184 -0.00829847 -0.00323358 -0.00766149 -0.00516171 -0.00981811 0.0224253 -0.0115566 -0.015543
internal_weight=698.23 32.3264 665.903 444.481 205.44 95.4108 32.6066 239.041 62.8043 207.864 221.422 51.3636 16.8071 214.833 100.721 68.2132 46.9538 114.112 110.03 100.374 170.652 96.4875 74.1642 32.5078 89.8688 20.3433 31.1767 21.2594 106.949 24.6828 37.2127 28.9848 82.2666 15.5193 26.1428 18.4337
internal_count=2078 106 1972 1334 633 302 110 701 192 614 638 160 51 616 299 208 149 317 331 299 510 297 213 91 264 73 87 59 294 72 104 84 222 55 71 49
is_linear=0
shrinkage=0.0163373


Tree=18
num_leaves=37
num_cat=0
split_feature=7 19 10 4 8 18 3 14 15 15 18 20 3 7 20 8 18 18 3 7 20 8 15 15 10 3 8 24 18 22 15 20 18 6 14 24
split_gain=19.0725 16.6601 19.0249 18.556 23.595 18.554 17.1033 12.8121 14.1138 12.7142 12.974 11.1273 10.7932 9.29783 15.0231 8.54828 6.7253 6.04762 5.53296 10.2737 7.02522 5.48518 5.06999 4.66628 10.0175 7.03183 3.90325 3.36484 3.14594 2.79093 1.30542 1.23073 2.74522 0.473859 0.14792 0.000106976
threshold=-2.8288799524307247 1.0000000180025095e-35 0.95723563432693493 -0.038413420319557183 -0.18075302243232724 0.70676639676094066 -0.23640334606170652 0.23231728374958041 0.53381243348121654 1.1520512700080874 -1.9572997093200681 -0.53651693463325489 0.40652370452880865 -0.30083385109901423 0.32683822512626654 -0.43546320497989649 0.095694933086633696 0.72523599863052379 -0.21793510019779203 -0.42808121442794794 0.58384922146797191 0.18785233795642856 -1.5867230892181394 0.036709213629364974 1.4524471759796145 -0.15139391273260114 0.65655970573425304 1.0283138751983645 0.10309619456529619 -0.82149985432624806 1.0000000180025095e-35 -0.10430798679590224 -0.10525186359882353 1.0000000180025095e-35 -0.10738028585910796 -0.043920801952481263
decision_type=2 2 2 2 2 2 2 2 2 2 2 2 2 2 2 2 2 2 2 2 2 2 2 2 2 2 2 2 2 2 2 2 2 2 2 2
left_child=27 2 3 4 13 7 26 8 15 10 -9 -8 -12 28 -15 16 -3 18 20 -20 -5 -17 -4 -24 25 -25 -6 29 -2 -1 -7 34 -33 -34 35 -31
right_child=1 5 22 17 6 30 11 9 -10 -11 12 -13 -14 14 -16 21 -18 -19 19 -21 -22 -23 23 24 -26 -27 -28 -29 -30 31 -32 32 33 -35 -36 -37
leaf_value=-0.00239403026009327 0.020490826978165153 0.013195048264156638 -0.0033349485093374133 0.0015733006450831342 -0.010117201413496058 0.016284039445006934 -0.0068211728746231451 0.017853095809321869 -0.008942178561575042 0.018303729123688991 -0.010788060179071673 0.0080135591945745613 0.00070012661006335565 -0.003805891817005073 0.011925844129869823 0.023860022827661191 -0.0077174131095764896 0.00693813413197579 0.0014830438989633927 -0.012950776817196936 -0.015805378745481512 0.011384492500526521 0.020074882147950342 0.024847280784491121 -0.0086539536557173613 0.0035796163721548667 -0.0029389903840451388 0.00039661790968687454 0.0075439562309029496 -0.015544213626273866 0.025075141560969474 -0.0020692177010120049 -0.0098760240263708107 -0.015719782068835637 -0.01248843820131995 -0.015632873607499598
leaf_weight=10.515516206622122 15.349970400333406 7.8156651258468655 7.0337028801441184 26.379780441522598 62.339202165603638 9.1454327106475848 19.790809854865074 8.2241504341363889 10.018905594944952 9.1297730654478055 34.637505799531937 42.425862476229668 59.020365536212921 32.105213388800621 32.707714289426804 15.358766227960585 8.644013434648512 7.6388362199068061 16.187002792954445 70.431213960051537 8.1193816363811475 24.272349894046783 12.134291306138037 8.5715610682964343 7.0812725573778144 8.0429477244615573 29.924024790525436 9.8477214872837049 7.4360012263059607 6.9145304262638101 8.8918116092681867 8.9440220147371274 6.0897748321294847 9.4519945383071882 5.7031831741332963 7.6931689679622659
leaf_count=36 43 25 25 79 201 25 60 24 33 26 115 124 188 101 96 43 27 22 48 226 26 69 34 24 22 24 90 31 24 21 25 27 20 31 19 24
internal_value=-1.28509e-06 0.000897758 -0.000958387 -0.0021495 0.000515739 0.00483243 -0.00332509 0.00322492 0.00891876 -0.000165877 -0.00182096 0.00329471 -0.00354855 0.007289 0.0041331 0.0121091 0.0022126 -0.00716051 -0.00804971 -0.0102534 -0.00251677 0.0162193 0.00934652 0.011836 0.00761695 0.0145518 -0.00778907 -0.00840199 0.0162657 -0.00996849 0.0206178 -0.0117465 -0.00928021 -0.01343 -0.0147198 -0.0155909
internal_weight=674.017 608.858 413.699 370.835 242.079 195.159 154.48 177.121 66.1097 111.012 101.882 62.2167 93.6579 87.5989 64.8129 56.0908 16.4597 128.756 121.117 86.6182 34.4992 39.6311 42.8638 35.8301 23.6958 16.6145 92.2632 65.1599 22.786 55.3122 18.0372 44.7967 24.4858 15.5418 20.3109 14.6077
internal_count=2078 1869 1269 1140 739 600 475 550 197 353 327 184 303 264 197 164 52 401 379 274 105 112 129 104 70 48 291 209 67 178 50 142 78 51 64 45
is_linear=0
shrinkage=0.0163373


Tree=19
num_leaves=49
num_cat=0
split_feature=6 13 20 4 15 18 18 8 9 13 16 8 9 9 8 4 7 14 6 9 15 7 6 15 16 18 15 15 4 9 23 6 4 4 14 20 14 14 16 16 23 21 21 7 6 21 15 21
split_gain=29.9785 12.649 12.5254 9.30476 9.08951 7.97923 7.50473 5.51608 5.42815 7.69536 5.96559 5.27832 7.15839 12.1492 5.06226 4.35568 4.48141 4.28594 6.31418 4.12133 3.95111 3.87507 3.66892 4.92734 6.70042 3.15036 3.79438 8.5195 3.24878 3.10505 3.09741 4.58884 4.42833 3.23583 4.7118 3.00642 2.97512 2.85197 2.81887 2.50299 1.98222 1.92154 1.52932 1.49642 0.416571 0.000274953 0.000216827 0.000122393
threshold=0.61707386374473583 0.11756599694490434 -0.54200237989425648 1.0106779932975771 0.54188081622123729 -0.7675437033176421 0.10004044324159624 -0.28539602458477015 -0.62093341350555409 0.33524842560291296 0.14417134970426562 0.44094559550285345 -0.10479239001870154 0.53689873218536388 0.39461715519428259 -0.35519066452980036 -0.6063651144504546 -0.079770352691411958 -0.25089222192764277 0.077151201665401473 0.36338132619857794 -1.0000000180025095e-35 1.2149327397346499 0.14855521917343142 -0.65101635456085194 -0.88018402457237233 -0.52706933021545399 -0.72834238409996022 -0.7229291796684264 0.57470545172691356 -0.74917119741439808 0.98764759302139293 0.49327264726161962 1.0288125276565554 1.0000000180025095e-35 0.58384922146797191 0.61532336473464977 -0.43737740814685816 -0.22328864783048627 0.010713355150073768 0.095027688890695586 0.094550259411335005 2.9690029621124272 -1.822440981864929 1.6294263005256655 0.4727784544229508 -1.4106253385543821 0.26471410691738134
decision_type=2 2 2 2 2 2 2 2 2 2 2 2 2 2 2 2 2 2 2 2 2 2 2 2 2 2 2 2 2 2 2 2 2 2 2 2 2 2 2 2 2 2 2 2 2 2 2 2
left_child=1 2 5 6 25 19 8 -7 -3 29 -11 15 -13 -14 22 37 -17 18 -6 -1 21 -9 30 43 -25 -4 27 -27 -28 -10 33 32 -32 34 -2 -19 -5 -8 -33 -34 42 -20 -16 -24 45 -45 -42 -36
right_child=14 3 4 36 17 7 11 20 9 10 -12 12 13 -15 40 16 -18 35 41 -21 -22 -23 23 24 -26 26 28 -29 -30 -31 31 38 39 -35 47 -37 -38 -39 -40 -41 46 -43 -44 44 -46 -47 -48 -49
leaf_value=-0.011924104292206408 -0.0017689162929540544 -0.0024260683556813429 -0.013794329112897645 -0.012361149188855025 0.019043132932636549 -0.0050451330358924915 -0.016541601659866789 0.0076189985817934581 0.017235200661477872 -0.004424625773436509 0.0080673997970865611 0.017177097488331319 -0.009599850905545021 0.013193754139705118 -0.012191728208513027 -0.0053915521081055158 0.0052759417025096149 -0.0080566610532571484 0.0069469408702038061 0.004660628243215106 -0.0013730233316415726 0.017458179828407767 -0.0049244652215895603 0.010755611576299022 -0.010987180872082811 -0.0040603684609749275 0.0016392473800344069 0.013316808847556063 -0.0059381005317155761 0.0060616814509135515 0.0026554692242950276 0.0005254325345422445 -0.016240694128244391 0.0038620282275957942 -0.016160593078857768 0.0050618357127334389 0.0012187325068095756 -0.0028677898529058539 0.013307944909573828 -0.0024571379814829946 -0.015983587803636696 -0.0042795898475275155 -0.0027601577379630171 -0.01621560165581766 -0.011699724767912433 -0.016068491033205311 -0.016104141508279306 -0.016058944401872211
leaf_weight=9.2570628225803393 11.680241465568548 11.975238323211668 8.5494109690189344 10.621347635984423 9.4575355947017687 7.3354026377201071 6.0405025780200985 24.289554625749588 31.797234028577805 12.168736577033995 63.17775696516037 12.47205728292465 12.241593122482302 12.733639299869536 10.884107142686846 15.232395797967909 33.912333548069 9.8846508264541644 9.9640252888202685 7.0412210524082175 6.8883535861968985 19.072736620903015 5.6530192941427222 7.0107653439044944 8.2164855897426587 25.621352642774582 17.431348383426666 10.664830297231672 113.03446783125401 8.3896263539791089 13.352688282728197 10.06602603197098 8.3054828941822034 6.2805705666542044 5.6662020683288556 8.8261528015136701 7.2419076263904563 12.487935662269591 8.4871269166469556 6.0982493907213202 8.2369662374258024 6.8784055411815634 7.9333462417125693 6.696242839097982 9.6363208889961225 6.8844908177852631 7.7283556014299384 7.1904772967100143
leaf_count=30 34 36 28 34 23 23 23 67 79 37 172 30 36 33 37 48 96 34 28 20 22 48 19 20 25 79 52 29 346 25 39 28 27 19 20 24 22 38 22 21 31 20 23 24 32 25 25 25
internal_value=4.93747e-07 0.00180899 -0.000488282 0.00450708 -0.00244043 0.00533274 0.00537961 0.00818899 0.00804395 0.00912918 0.00604989 0.00214784 0.00706916 0.00202148 -0.00631375 -0.0005754 0.00196955 0.00410842 0.00836061 -0.00475913 0.0101209 0.0119467 -0.00473735 -0.00849617 -0.000976601 -0.00412193 -0.00362602 0.00104694 -0.0049257 0.0149026 -0.00258825 8.25281e-05 -0.00412205 -0.00660165 -0.00927998 -0.00186848 -0.00685576 -0.00732562 0.00637278 -0.010405 -0.0118078 0.00236205 -0.00821542 -0.0124623 -0.0142976 -0.016141 -0.0160419 -0.0161037
internal_weight=700.696 544.689 294.197 250.492 220.312 73.8843 232.629 57.586 127.509 115.533 75.3465 105.12 37.4473 24.9752 156.007 67.6732 49.1447 45.0108 26.3 16.2983 50.2506 43.3623 121.224 44.0973 15.2273 175.301 166.752 36.2862 130.466 40.1869 77.1271 46.3096 27.7564 30.8175 24.5369 18.7108 17.8633 18.5284 18.5532 14.4037 34.7828 16.8424 18.8175 28.8701 23.2171 13.5807 15.9653 12.8567
internal_count=2078 1582 873 709 663 210 653 160 349 313 209 304 99 69 496 205 144 129 71 50 137 115 380 145 45 534 506 108 398 104 235 137 87 98 79 58 56 61 50 48 116 48 60 100 81 49 56 45
is_linear=0
shrinkage=0.0163373


Tree=20
num_leaves=36
num_cat=0
split_feature=17 2 10 22 12 20 5 17 10 4 1 4 17 18 4 17 4 10 23 18 8 8 5 8 22 12 2 1 8 1 20 22 22 10 5
split_gain=15.8903 14.9845 13.3174 12.6298 11.4672 18.9976 10.9796 9.26059 13.835 8.96452 7.86982 13.3065 7.49837 7.41857 10.7356 6.41867 5.59647 5.34327 8.76878 6.43243 24.4216 10.3587 5.1332 4.64399 4.54556 4.25755 6.63359 3.86756 2.95157 2.48084 2.3419 1.69779 1.59866 1.00033 0.494655
threshold=-1.0203487277030943 0.54459428787231456 0.13510376214981082 -0.55562022328376759 -0.20449157804250714 0.50061640143394481 0.86639371514320385 -0.60755813121795643 -0.48413325846195215 0.41188584268093115 0.27674882113933569 0.0064133000560104856 0.84593018889427196 0.41009305417537695 0.41188584268093115 1.1715114116668703 1.0604561567306521 -0.70995891094207753 0.14806630462408069 0.14838708937168124 0.79276004433631908 -0.0775790400803089 0.90470910072326671 0.70356178283691417 -0.4433025568723678 0.19425779581069949 0.8838220238685609 -1.0134679079055784 0.70356178283691417 0.53464448451995861 -0.56651058793067921 0.92487168312072765 -1.0642364621162412 -0.0080877181608229858 -0.0065966171678155652
decision_type=2 2 2 2 2 2 2 2 2 2 2 2 2 2 2 2 2 2 2 2 2 2 2 2 2 2 2 2 2 2 2 2 2 2 2
left_child=2 4 31 -4 17 7 10 13 12 -10 11 -7 -9 14 -6 -12 22 18 28 24 21 -21 23 25 27 26 -3 -19 -2 -27 -22 -1 -20 -26 -25
right_child=1 16 3 -5 5 6 -8 8 9 -11 15 -13 -14 -15 -16 -17 -18 19 32 20 30 -23 -24 34 33 29 -28 -29 -30 -31 -32 -33 -34 -35 -36
leaf_value=0.025819463965475659 0.01859949344142163 -0.00099510340619115884 0.019920272392503071 -0.0095648508613346284 -0.0036088632806368587 0.021093273301770372 0.01540588809562529 0.020721424469340222 0.0017279705780416077 0.0096680395873459182 -0.0064977482752461976 -0.0040712397671727532 0.0024172036897835716 -0.014019994346433966 0.016036724880630307 0.0094478937189670879 0.0057158310975578422 0.0041697812394676992 -0.00058428659586507272 0.030600635127616242 -0.0050641769615990566 0.0053206235458271378 0.0061889526822057608 -0.016017901581418352 -0.010174492586994726 -0.015430440562207968 -0.015039291142072458 -0.007825012989225083 0.0036455830286575576 -0.0036566487856720901 -0.015989420485344602 0.014372380523304489 -0.011178427995504489 -0.016156477031662345 -0.011235344032656431
leaf_weight=10.447999358177183 8.1370206177234667 49.509600758552551 6.0673269331455257 10.743138432502745 27.236989289522171 8.6011785566806811 8.552461236715315 24.284665495157242 107.8872683942318 58.548069924116135 106.35135233402252 16.11906224489212 7.9220466017723075 10.118338525295256 10.206399768590925 7.1935797631740561 10.601308256387709 11.508257418870928 7.9152462184429169 5.5246716737747219 7.9002393782138851 19.943432092666626 7.7018608450889579 13.706758618354799 28.407253295183182 15.72616568207741 10.964674919843672 19.053963869810104 6.2126967012882224 6.8604870140552512 15.533195227384565 5.1692196130752555 7.3154063522815687 10.11909559369087 9.9713104069232923
leaf_count=38 28 145 21 30 80 31 29 85 324 189 300 46 23 27 35 23 33 35 23 21 22 60 24 36 76 41 29 54 19 20 39 17 20 27 28
internal_value=7.45188e-07 -0.000543304 0.0111683 0.00107708 0.000635594 0.00209362 -0.00255773 0.00486734 0.00641774 0.0045211 -0.00366888 0.00468452 0.016219 -0.00160794 0.00174617 -0.00548752 -0.00564001 -0.00324753 0.00296122 -0.00480408 -0.000270033 0.0108045 -0.00669197 -0.0076214 -0.00801332 -0.00580196 -0.00354147 -0.00330835 0.0121252 -0.0118543 -0.0123061 0.0220305 -0.00567274 -0.0117457 -0.0140039
internal_weight=698.062 665.634 32.4277 16.8105 540.592 393.021 146.818 246.204 198.642 166.435 138.265 24.7202 32.2067 47.5617 37.4434 113.545 125.042 147.57 29.5804 117.99 48.9015 25.4681 114.441 106.739 69.0886 83.0609 60.4743 30.5622 14.3497 22.5867 23.4334 15.6172 15.2307 38.5263 23.6781
internal_count=2078 1972 106 51 1616 1192 429 763 621 513 400 77 108 142 115 323 356 424 90 334 142 81 323 299 192 235 174 89 47 61 61 55 43 103 64
is_linear=0
shrinkage=0.0163373


Tree=21
num_leaves=37
num_cat=0
split_feature=0 10 3 21 21 15 9 2 20 23 15 2 23 23 3 10 0 3 2 10 3 15 21 3 15 0 0 15 15 23 23 0 9 20 20 10
split_gain=19.1695 20.057 17.0643 12.8599 14.0565 18.5073 10.6508 9.93796 9.52843 9.20095 8.95357 9.04021 8.24903 7.9164 9.46557 7.04263 6.82876 7.30255 6.73387 6.42837 8.97113 6.34909 5.65339 5.28355 5.53008 5.1575 4.66419 5.50104 4.31242 4.26882 2.84986 2.51298 2.45549 1.24007 1.00547 0.634562
threshold=0.82643732428550731 1.0445703864097597 -0.15139391273260114 -0.45536342263221735 1.2175014019012453 0.24187090992927554 -0.67108348011970509 0.20599754899740222 0.048214357346296317 1.3546960353851321 -1.0020174384117124 0.088390089571475997 0.38232041895389562 -0.74917119741439808 0.60587027668952953 -1.0071793198585508 0.26089861989021307 -0.38308477401733393 0.58091259002685558 -0.022102816030383107 -1.13395220041275 -0.2192747965455055 -0.53598177433013905 -0.28052933514118189 0.27641056478023535 -1.9627526402473447 -0.21676573902368543 0.80008065700531017 -1.3343653678894041 1.2265192270278933 0.30276238918304449 2.3913165330886845 -0.089694861322641359 -0.59944340586662281 0.5444963574409486 1.2438998222351076
decision_type=2 2 2 2 2 2 2 2 2 2 2 2 2 2 2 2 2 2 2 2 2 2 2 2 2 2 2 2 2 2 2 2 2 2 2 2
left_child=1 2 15 6 5 8 -4 12 -5 22 28 -12 25 14 -2 -1 19 21 -7 29 -21 -18 -8 24 -15 -3 27 -9 -6 -17 -27 33 -19 -25 35 -35
right_child=13 7 3 4 10 18 9 26 -10 -11 11 -13 -14 23 -16 16 17 32 -20 20 -22 -23 -24 31 -26 30 -28 -29 -30 -31 -32 -33 -34 34 -36 -37
leaf_value=0.014658811050558423 -0.0059910385672866887 -8.9781622417234262e-05 0.029886475630582207 -0.0084307584658548269 0.0090963123928712811 0.00199646483474706 -0.0013428521875181122 0.00086968513719516184 0.00084723084838351267 0.023837803269841383 -0.0011907885145433425 0.019714367251981339 -0.0071032574863619689 -0.0087956483589411109 0.018974937873648061 -0.0096994823711806736 0.018287330515303155 -0.0025451355200826085 0.012611072869796956 0.0087198451925074479 -0.0049650228583111803 0.001573077219170308 0.012083608161204939 -0.0066145894678104854 0.0080518701568309519 0.0090238460546159544 0.025130605219083616 0.019924989597683854 0.026064425451260174 0.0024160628441138158 0.023664781919913568 -0.0016309595652232655 -0.01565455049956508 -0.015576392737367642 -0.0077513850727467144 -0.0097022142389950657
leaf_weight=5.7059528529644004 10.889599144458773 8.8587966412305814 6.4580712616443625 71.967606768012047 6.90718646347523 42.013742461800575 21.515659898519512 7.2187553942203584 50.119223147630692 7.4744639545679084 22.667975336313251 7.2989483028650275 11.755526989698408 12.816577374935152 6.4565356671810141 78.340271309018135 7.2018404752016059 7.9432618618011475 25.716029688715935 16.377012431621552 58.305178374052048 38.458500951528549 13.700284227728845 7.8707237541675559 8.7506534457206708 7.6918415725231188 11.447077691555021 9.1933661401271802 9.4907757937908155 8.6158086955547315 6.5875612199306488 6.2516900748014441 7.3351740986108762 32.016673192381859 6.5693611502647391 5.7971333116292945
leaf_count=17 38 28 18 237 20 123 65 20 159 21 70 20 38 38 19 253 21 22 74 49 176 115 38 24 25 26 32 25 27 28 18 20 26 106 22 20
