{"learner":{"attributes":{"scikit_learn":"{\"_estimator_type\": \"classifier\"}"},"feature_names":[],"feature_types":[],"gradient_booster":{"model":{"cats":{"enc":[],"feature_segments":[],"sorted_idx":[]},"gbtree_model_param":{"num_parallel_tree":"1","num_trees":"324"},"iteration_indptr":[0,3,6,9,12,15,18,21,24,27,30,33,36,39,42,45,48,51,54,57,60,63,66,69,72,75,78,81,84,87,90,93,96,99,102,105,108,111,114,117,120,123,126,129,132,135,138,141,144,147,150,153,156,159,162,165,168,171,174,177,180,183,186,189,192,195,198,201,204,207,210,213,216,219,222,225,228,231,234,237,240,243,246,249,252,255,258,261,264,267,270,273,276,279,282,285,288,291,294,297,300,303,306,309,312,315,318,321,324],"tree_info":[0,1,2,0,1,2,0,1,2,0,1,2,0,1,2,0,1,2,0,1,2,0,1,2,0,1,2,0,1,2,0,1,2,0,1,2,0,1,2,0,1,2,0,1,2,0,1,2,0,1,2,0,1,2,0,1,2,0,1,2,0,1,2,0,1,2,0,1,2,0,1,2,0,1,2,0,1,2,0,1,2,0,1,2,0,1,2,0,1,2,0,1,2,0,1,2,0,1,2,0,1,2,0,1,2,0,1,2,0,1,2,0,1,2,0,1,2,0,1,2,0,1,2,0,1,2,0,1,2,0,1,2,0,1,2,0,1,2,0,1,2,0,1,2,0,1,2,0,1,2,0,1,2,0,1,2,0,1,2,0,1,2,0,1,2,0,1,2,0,1,2,0,1,2,0,1,2,0,1,2,0,1,2,0,1,2,0,1,2,0,1,2,0,1,2,0,1,2,0,1,2,0,1,2,0,1,2,0,1,2,0,1,2,0,1,2,0,1,2,0,1,2,0,1,2,0,1,2,0,1,2,0,1,2,0,1,2,0,1,2,0,1,2,0,1,2,0,1,2,0,1,2,0,1,2,0,1,2,0,1,2,0,1,2,0,1,2,0,1,2,0,1,2,0,1,2,0,1,2,0,1,2,0,1,2,0,1,2,0,1,2,0,1,2,0,1,2,0,1,2,0,1,2,0,1,2,0,1,2,0,1,2,0,1,2,0,1,2,0,1,2,0,1,2],"trees":[{"base_weights":[-5.7328627E-3,2.7283324E-2,-3.6645722E-1,-5.52501E-2,1.6839382E-1,-4.6319184E-1,8.8306256E-2,-1.2170408E-1,3.1153244E-1,4.0394825E-1,-5.7446394E-2,-1.7051645E-1,-6.1493796E-1,-3.883945E-1,-5.3196613E-2,-1.2562649E-1,9.8484504E-1,2.026979E-1,9.820152E-1,-1.9020845E-1,4.9285617E-1,-1.597937E-1,1.5915698E-1,-7.1524173E-1,-6.79988E-2,-1.3469775E-1,-3.9165102E-2,1.5634099E-2,-4.5822017E-2,8.292887E-2,-1.05082475E-1,9.223417E-2,2.579049E-1,-1.4418164E-1,7.583696E-2,1.0935161E-1,3.073712E-1,8.2013935E-2,-6.408101E-2,2.353366E-1,-4.8502E-2,-1.27747E-1,2.3073089E-1,-1.598914E-1,-1.1729516E-1],"categories":[],"categories_nodes":[],"categories_segments":[],"categories_sizes":[],"default_left":[0,0,0,0,0,0,0,0,0,0,0,0,0,0,0,0,0,0,0,0,0,0,0,0,0,0,0,0,0,0,0,0,0,0,0,0,0,0,0,0,0,0,0,0,0],"id":0,"left_children":[1,3,5,7,9,11,-1,13,15,17,19,21,23,25,27,29,31,33,35,37,39,-1,41,43,-1,-1,-1,-1,-1,-1,-1,-1,-1,-1,-1,-1,-1,-1,-1,-1,-1,-1,-1,-1,-1],"loss_changes":[9.012381E0,8.074118E0,4.799653E0,1.0662242E1,1.3610542E1,2.5072632E0,0E0,6.7660475E0,1.9751015E1,1.4567585E1,9.543688E0,3.6953025E0,1.0994396E0,3.7870789E0,6.060169E0,7.7338743E0,3.3164043E0,1.259813E1,7.006405E0,6.737549E0,1.1238796E1,0E0,8.66695E0,1.640749E-1,0E0,0E0,0E0,0E0,0E0,0E0,0E0,0E0,0E0,0E0,0E0,0E0,0E0,0E0,0E0,0E0,0E0,0E0,0E0,0E0,0E0],"parents":[2147483647,0,0,1,1,2,2,3,3,4,4,5,5,7,7,8,8,9,9,10,10,11,11,12,12,13,13,14,14,15,15,16,16,17,17,18,18,19,19,20,20,22,22,23,23],"right_children":[2,4,6,8,10,12,-1,14,16,18,20,22,24,26,28,30,32,34,36,38,40,-1,42,44,-1,-1,-1,-1,-1,-1,-1,-1,-1,-1,-1,-1,-1,-1,-1,-1,-1,-1,-1,-1,-1],"split_conditions":[1.094303E0,1.8023251E-1,1.5197552E0,1.8678124E-1,9.406791E-1,-4.7173753E-1,8.8306256E-2,-5.363225E-1,-6.864277E-2,-2.3537274E-1,8.284113E-1,-4.300845E-1,3.2173166E-1,-2.0657387E-1,-2.320641E-1,5.6307316E-1,2.2381881E-1,-8.967655E-1,-6.802547E-1,-5.217277E-1,5.364937E-1,-1.597937E-1,3.6757407E-1,9.2483455E-1,-6.79988E-2,-1.3469775E-1,-3.9165102E-2,1.5634099E-2,-4.5822017E-2,8.292887E-2,-1.05082475E-1,9.223417E-2,2.579049E-1,-1.4418164E-1,7.583696E-2,1.0935161E-1,3.073712E-1,8.2013935E-2,-6.408101E-2,2.353366E-1,-4.8502E-2,-1.27747E-1,2.3073089E-1,-1.598914E-1,-1.1729516E-1],"split_indices":[0,2,15,1,10,20,0,18,15,16,20,3,13,14,20,13,1,1,1,3,3,0,17,11,0,0,0,0,0,0,0,0,0,0,0,0,0,0,0,0,0,0,0,0,0],"split_type":[0,0,0,0,0,0,0,0,0,0,0,0,0,0,0,0,0,0,0,0,0,0,0,0,0,0,0,0,0,0,0,0,0,0,0,0,0,0,0,0,0,0,0,0,0],"sum_hessian":[7.567115E2,6.932644E2,6.3447094E1,4.3742477E2,2.5583961E2,5.6462833E1,6.9842596E0,3.7033188E2,6.7092896E1,1.25224236E2,1.3061537E2,1.9283525E1,3.7179306E1,7.5682205E1,2.946497E2,4.068348E1,2.640942E1,9.289259E1,3.233164E1,1.05231926E2,2.538345E1,6.9782386E0,1.2305286E1,2.7742489E1,9.436819E0,3.4393467E1,4.128874E1,1.6546129E2,1.2918839E2,1.695812E1,2.3725359E1,7.735078E0,1.8674341E1,1.3818087E1,7.907451E1,1.6098621E1,1.6233017E1,1.7022272E1,8.8209656E1,1.3707848E1,1.1675602E1,6.759659E0,5.545627E0,2.264126E1,5.1012287E0],"tree_param":{"num_deleted":"0","num_feature":"25","num_nodes":"45","size_leaf_vector":"1"}},{"base_weights":[8.5356105E-3,-2.7047995E-1,4.680319E-2,-6.433074E-1,-4.4789854E-2,-3.1653056E-1,8.386401E-2,-1.6415717E-1,-5.8946837E-2,-5.9159464E-1,1.764928E-1,-7.763594E-2,-5.7310414E-1,2.0875938E-1,-9.919048E-3,-8.828155E-2,-1.640738E-1,6.224354E-1,-1.1157692E-1,-3.562088E-1,1.9257173E-1,-1.5806362E-2,-7.0873284E-1,-1.1227918E-1,3.018081E-1,-2.0876804E-1,1.2852117E-1,2.1166638E-1,2.3416355E-2,2.358263E-2,-1.640364E-1,-1.6410133E-1,-1.1638466E-2,-1.6414209E-1,-1.0128169E-1,-1.640985E-1,5.755233E-3,-8.783147E-2,7.4136406E-2,-6.3805446E-2,1.03521794E-1,1.397906E-1,1.6693396E-2],"categories":[],"categories_nodes":[],"categories_segments":[],"categories_sizes":[],"default_left":[0,0,0,0,0,0,0,0,0,0,0,0,0,0,0,0,0,0,0,0,0,0,0,0,0,0,0,0,0,0,0,0,0,0,0,0,0,0,0,0,0,0,0],"id":1,"left_children":[1,3,5,7,9,11,13,-1,-1,15,17,19,21,23,25,-1,-1,27,29,31,-1,-1,33,35,37,39,41,-1,-1,-1,-1,-1,-1,-1,-1,-1,-1,-1,-1,-1,-1,-1,-1],"loss_changes":[8.26018E0,7.850986E0,9.160925E0,1.6563787E0,7.0341964E0,3.8595157E0,7.231087E0,0E0,0E0,5.2992153E-1,5.3171387E0,8.93607E0,2.0535402E0,7.9091578E0,9.706724E0,0E0,0E0,3.103366E0,3.6926973E0,3.1842234E0,0E0,0E0,3.483591E-1,5.467495E0,6.8748055E0,9.192371E0,5.498538E0,0E0,0E0,0E0,0E0,0E0,0E0,0E0,0E0,0E0,0E0,0E0,0E0,0E0,0E0,0E0,0E0],"parents":[2147483647,0,0,1,1,2,2,3,3,4,4,5,5,6,6,9,9,10,10,11,11,12,12,13,13,14,14,17,17,18,18,19,19,22,22,23,23,24,24,25,25,26,26],"right_children":[2,4,6,8,10,12,14,-1,-1,16,18,20,22,24,26,-1,-1,28,30,32,-1,-1,34,36,38,40,42,-1,-1,-1,-1,-1,-1,-1,-1,-1,-1,-1,-1,-1,-1,-1,-1],"split_conditions":[0E0,9.2289245E-1,-6.693763E-1,1.0922964E0,-1.2055562E-1,-1.3004161E-1,-1.6644722E-1,-1.6415717E-1,-5.8946837E-2,-4.2834285E-1,2.2537693E-1,-7.359943E-2,-8.3511895E-1,-7.6640564E-1,1.5798208E-1,-8.828155E-2,-1.640738E-1,1.2820984E0,1.2785535E-1,-4.8679382E-1,1.9257173E-1,-1.5806362E-2,2.4389249E-1,-1.0950729E0,-9.2288727E-1,1.0790715E0,-8.923167E-1,2.1166638E-1,2.3416355E-2,2.358263E-2,-1.640364E-1,-1.6410133E-1,-1.1638466E-2,-1.6414209E-1,-1.0128169E-1,-1.640985E-1,5.755233E-3,-8.783147E-2,7.4136406E-2,-6.3805446E-2,1.03521794E-1,1.397906E-1,1.6693396E-2],"split_indices":[23,5,7,17,24,4,4,0,0,4,15,16,7,21,0,0,0,18,1,12,0,0,4,11,18,11,1,0,0,0,0,0,0,0,0,0,0,0,0,0,0,0,0],"split_type":[0,0,0,0,0,0,0,0,0,0,0,0,0,0,0,0,0,0,0,0,0,0,0,0,0,0,0,0,0,0,0,0,0,0,0,0,0,0,0,0,0,0,0],"sum_hessian":[7.736112E2,9.330085E1,6.8031036E2,3.5177742E1,5.812311E1,6.2965702E1,6.1734467E2,2.602256E1,9.155181E0,1.674207E1,4.138104E1,3.261038E1,3.035532E1,2.6475302E2,3.525916E2,8.465918E0,8.276153E0,1.623758E1,2.5143461E1,2.5414177E1,7.1962023E0,6.491761E0,2.386356E1,5.94918E1,2.0526123E2,1.4471985E2,2.0787177E2,9.392974E0,6.844606E0,1.8807365E1,6.336096E0,1.068161E1,1.4732568E1,1.8750324E1,5.1132345E0,1.0373123E1,4.9118675E1,1.26204195E1,1.9264081E2,1.2793224E2,1.6787603E1,1.7952526E1,1.8991925E2],"tree_param":{"num_deleted":"0","num_feature":"25","num_nodes":"43","size_leaf_vector":"1"}},{"base_weights":[1.6319811E-2,-3.6452536E-3,7.478347E-1,2.769338E-1,-1.3261892E-2,1.067361E0,3.3403166E-2,-2.5390254E-2,8.021833E-1,1.070511E-1,3.4013954E-1,4.1661236E-2,-1.9524555E-1,3.4005693E-1,4.8048978E-4,-1.8559204E-2,3.481283E-2,2.8944883E-2,-6.315034E-2],"categories":[],"categories_nodes":[],"categories_segments":[],"categories_sizes":[],"default_left":[0,0,0,0,0,0,0,0,0,0,0,0,0,0,0,0,0,0,0],"id":2,"left_children":[1,3,5,-1,7,9,-1,11,13,-1,-1,15,17,-1,-1,-1,-1,-1,-1],"loss_changes":[1.0439941E1,8.7396E0,3.5837393E0,0E0,6.8317895E0,3.6940718E0,0E0,7.7519803E0,6.4545608E0,0E0,0E0,7.6806335E0,6.4950414E0,0E0,0E0,0E0,0E0,0E0,0E0],"parents":[2147483647,0,0,1,1,2,2,4,4,5,5,7,7,8,8,11,11,12,12],"right_children":[2,4,6,-1,8,10,-1,12,14,-1,-1,16,18,-1,-1,-1,-1,-1,-1],"split_conditions":[1.9248804E0,-1.0348479E0,5.2428526E-1,2.769338E-1,1.2069513E0,-5.5384878E-2,3.3403166E-2,2.0665422E-1,9.948803E-1,1.070511E-1,3.4013954E-1,-5.94671E-1,-9.7012484E-1,3.4005693E-1,4.8048978E-4,-1.8559204E-2,3.481283E-2,2.8944883E-2,-6.315034E-2],"split_indices":[0,1,6,0,1,11,0,1,4,0,0,1,12,0,0,0,0,0,0],"split_type":[0,0,0,0,0,0,0,0,0,0,0,0,0,0,0,0,0,0,0],"sum_hessian":[7.148242E2,6.958389E2,1.8985271E1,5.08016E0,6.907588E2,1.2317762E1,6.6675086E0,6.8064136E2,1.0117409E1,5.9868813E0,6.330881E0,4.8800336E2,1.9263799E2,5.064705E0,5.052704E0,2.373104E2,2.5069296E2,4.5251766E1,1.4738622E2],"tree_param":{"num_deleted":"0","num_feature":"25","num_nodes":"19","size_leaf_vector":"1"}},{"base_weights":[-2.8530352E-3,-2.2414255E-1,3.749178E-2,-6.2726367E-1,1.3352112E-1,2.9934892E-1,-5.7468307E-3,-3.457775E-2,-6.7615944E-1,2.0083044E-1,7.2341138E-3,-3.7788354E-2,7.619205E-1,8.8049285E-2,-1.19120985E-1,-8.358934E-2,-7.1932745E-1,-1.20773725E-1,1.8601E-1,-2.599894E-1,4.1840747E-1,4.1038862E-1,1.0547668E0,6.478032E-2,2.617554E-1,-1.5076023E-1,1.5752403E-1,-1.1585321E-1,-1.5785906E-1,1.5447618E-1,-5.6647662E-2,-1.4246066E-1,5.1094354E-3,1.1865677E-2,2.3174725E-1,-1.2943901E-2,1.5922122E-1,1.4524172E-1,2.846402E-1,1.05191514E-1,2.679782E-3,-8.945644E-2,-1.2941292E-2],"categories":[],"categories_nodes":[],"categories_segments":[],"categories_sizes":[],"default_left":[0,0,0,0,0,0,0,0,0,0,0,0,0,0,0,0,0,0,0,0,0,0,0,0,0,0,0,0,0,0,0,0,0,0,0,0,0,0,0,0,0,0,0],"id":3,"left_children":[1,3,5,7,9,11,13,-1,15,-1,17,19,21,23,25,-1,27,29,-1,31,33,35,37,39,-1,41,-1,-1,-1,-1,-1,-1,-1,-1,-1,-1,-1,-1,-1,-1,-1,-1,-1],"loss_changes":[6.79605E0,1.6924845E1,7.2897263E0,1.2530861E0,6.370326E0,1.4229903E1,5.876393E0,0E0,6.083126E-1,0E0,5.9783463E0,5.351273E0,3.9572983E0,8.042202E0,6.807749E0,0E0,1.7178154E-1,5.7894993E0,0E0,4.133735E0,4.209629E0,2.7898653E0,2.208149E0,6.6485186E0,0E0,5.8559575E0,0E0,0E0,0E0,0E0,0E0,0E0,0E0,0E0,0E0,0E0,0E0,0E0,0E0,0E0,0E0,0E0,0E0],"parents":[2147483647,0,0,1,1,2,2,3,3,4,4,5,5,6,6,8,8,10,10,11,11,12,12,13,13,14,14,16,16,17,17,19,19,20,20,21,21,22,22,23,23,25,25],"right_children":[2,4,6,8,10,12,14,-1,16,-1,18,20,22,24,26,-1,28,30,-1,32,34,36,38,40,-1,42,-1,-1,-1,-1,-1,-1,-1,-1,-1,-1,-1,-1,-1,-1,-1,-1,-1],"split_conditions":[-6.044569E-1,-3.8611954E-1,-6.4939755E-1,-4.7466466E-1,-6.5483546E-1,-1.1104756E-1,7.111783E-2,-3.457775E-2,-8.817257E-1,2.0083044E-1,6.2830067E-1,3.2031158E-1,-3.4464008E-1,5.4395262E-2,1.9535714E0,-8.358934E-2,-5.532228E-1,-3.3606422E-1,1.8601E-1,-1.0305786E0,-4.292569E-1,9.675972E-2,5.165677E-2,-9.1666657E-1,2.617554E-1,-9.583333E-1,1.5752403E-1,-1.1585321E-1,-1.5785906E-1,1.5447618E-1,-5.6647662E-2,-1.4246066E-1,5.1094354E-3,1.1865677E-2,2.3174725E-1,-1.2943901E-2,1.5922122E-1,1.4524172E-1,2.846402E-1,1.05191514E-1,2.679782E-3,-8.945644E-2,-1.2941292E-2],"split_indices":[5,3,3,11,7,15,0,0,1,0,11,0,5,0,15,0,7,20,0,20,15,0,6,22,0,22,0,0,0,0,0,0,0,0,0,0,0,0,0,0,0,0,0],"split_type":[0,0,0,0,0,0,0,0,0,0,0,0,0,0,0,0,0,0,0,0,0,0,0,0,0,0,0,0,0,0,0,0,0,0,0,0,0,0,0,0,0,0,0],"sum_hessian":[7.6120386E2,1.1737571E2,6.438282E2,5.5179054E1,6.2196655E1,9.123914E1,5.52589E2,5.2562795E0,4.9922775E1,8.375193E0,5.3821465E1,5.277825E1,3.8460896E1,3.024056E2,2.501834E2,6.6144667E0,4.3308308E1,4.690571E1,6.915756E0,3.5493145E1,1.7285107E1,1.74858E1,2.0975096E1,2.9637823E2,6.027374E0,2.4131004E2,8.873352E0,5.073344E0,3.8234962E1,6.876312E0,4.0029396E1,1.45220995E1,2.0971045E1,1.1228291E1,6.056816E0,7.310388E0,1.0175412E1,9.091065E0,1.1884029E1,3.20715E1,2.6430673E2,6.028114E1,1.810289E2],"tree_param":{"num_deleted":"0","num_feature":"25","num_nodes":"43","size_leaf_vector":"1"}},{"base_weights":[-9.108742E-4,1.1769393E-1,-9.708473E-2,3.47801E-1,-7.792963E-2,-2.5925854E-1,5.5753615E-2,4.1826862E-1,-6.212616E-1,-1.9410951E-1,2.549203E-1,-4.8368597E-1,-1.6040945E-1,-4.8491007E-1,1.139725E-1,6.2038594E-1,2.2876628E-1,-9.950302E-2,-1.6095242E-1,-2.502353E-1,3.2432535E-1,5.3240042E-2,7.634086E-1,-3.082393E-1,-1.5788577E-1,-1.1273888E-1,-1.5952878E-1,-6.71387E-1,2.2497227E-2,4.9776712E-1,4.68308E-2,1.7578259E-1,3.396112E-2,-1.4767721E-2,1.13218166E-1,4.1086663E-2,-6.673188E-2,-5.326027E-2,1.5941295E-1,1.928347E-1,-2.9149193E-2,2.629497E-1,1.0006092E-1,-1.24893285E-1,-8.2701435E-3,-4.460464E-2,9.2389494E-2,-9.811375E-2,-1.6332605E-1,5.1849555E-2,2.6553673E-1,1.20142594E-1,-3.6630656E-3],"categories":[],"categories_nodes":[],"categories_segments":[],"categories_sizes":[],"default_left":[0,0,0,0,0,0,0,0,0,0,0,0,0,0,0,0,0,0,0,0,0,0,0,0,0,0,0,0,0,0,0,0,0,0,0,0,0,0,0,0,0,0,0,0,0,0,0,0,0,0,0,0,0],"id":4,"left_children":[1,3,5,7,9,11,13,15,17,19,21,23,25,27,29,31,33,-1,-1,35,37,39,41,43,-1,45,-1,47,-1,49,51,-1,-1,-1,-1,-1,-1,-1,-1,-1,-1,-1,-1,-1,-1,-1,-1,-1,-1,-1,-1,-1,-1],"loss_changes":[8.78256E0,1.5519709E1,1.0538769E1,1.0819885E1,7.206627E0,4.575966E0,6.8904643E0,5.6557827E0,2.212367E-1,4.020027E0,4.944645E0,2.8628464E0,4.0265284E0,2.3445783E0,5.0922675E0,6.790409E0,6.904044E0,0E0,0E0,3.5157084E0,3.3011694E0,5.6110325E0,1.8938699E0,2.8268178E0,0E0,7.037109E0,0E0,3.26272E-1,0E0,5.6092997E0,5.5833282E0,0E0,0E0,0E0,0E0,0E0,0E0,0E0,0E0,0E0,0E0,0E0,0E0,0E0,0E0,0E0,0E0,0E0,0E0,0E0,0E0,0E0,0E0],"parents":[2147483647,0,0,1,1,2,2,3,3,4,4,5,5,6,6,7,7,8,8,9,9,10,10,11,11,12,12,13,13,14,14,15,15,16,16,19,19,20,20,21,21,22,22,23,23,25,25,27,27,29,29,30,30],"right_children":[2,4,6,8,10,12,14,16,18,20,22,24,26,28,30,32,34,-1,-1,36,38,40,42,44,-1,46,-1,48,-1,50,52,-1,-1,-1,-1,-1,-1,-1,-1,-1,-1,-1,-1,-1,-1,-1,-1,-1,-1,-1,-1,-1,-1],"split_conditions":[-1.3207386E-1,-2.1896933E-1,1.743038E-1,5.176311E-1,6.111111E-1,-2.2343962E-1,-5.492263E-1,-5.555554E-2,2.0377544E-1,3.294875E-1,-5.4009235E-1,1.8731823E-2,1.1661177E0,6.5171206E-1,-1.1944444E0,8.1395334E-1,-2.4157612E-1,-9.950302E-2,-1.6095242E-1,-1.4373525E0,3.1403476E-1,9.0277773E-1,-5.1005596E-1,-2.4954668E-1,-1.5788577E-1,8.8892996E-1,-1.5952878E-1,-5.445416E-2,2.2497227E-2,8.13365E-1,-8.817257E-1,1.7578259E-1,3.396112E-2,-1.4767721E-2,1.13218166E-1,4.1086663E-2,-6.673188E-2,-5.326027E-2,1.5941295E-1,1.928347E-1,-2.9149193E-2,2.629497E-1,1.0006092E-1,-1.24893285E-1,-8.2701435E-3,-4.460464E-2,9.2389494E-2,-9.811375E-2,-1.6332605E-1,5.1849555E-2,2.6553673E-1,1.20142594E-1,-3.6630656E-3],"split_indices":[4,9,0,8,22,9,9,22,1,1,0,3,24,17,22,2,17,0,0,16,5,22,0,18,0,24,0,4,0,14,1,0,0,0,0,0,0,0,0,0,0,0,0,0,0,0,0,0,0,0,0,0,0],"split_type":[0,0,0,0,0,0,0,0,0,0,0,0,0,0,0,0,0,0,0,0,0,0,0,0,0,0,0,0,0,0,0,0,0,0,0,0,0,0,0,0,0,0,0,0,0,0,0,0,0,0,0,0,0],"sum_hessian":[7.6993646E2,3.4476242E2,4.2517407E2,1.5841646E2,1.8634598E2,2.0628493E2,2.1888913E2,1.47681E2,1.0735456E1,1.3813362E2,4.821236E1,6.3068905E1,1.4321602E2,2.1274357E1,1.9761478E2,7.1455124E1,7.6225876E1,5.0529866E0,5.68247E0,1.2464298E2,1.3490638E1,3.452545E1,1.3686909E1,3.7597164E1,2.5471743E1,1.3251353E2,1.0702489E1,1.6169212E1,5.1051445E0,2.9417742E1,1.6819702E2,4.9350502E1,2.2104622E1,3.8461388E1,3.776449E1,1.5631169E1,1.0901181E2,5.7385974E0,7.752041E0,6.290145E0,2.8235308E1,5.2245307E0,8.462378E0,1.8460136E1,1.9137026E1,1.1255939E2,1.9954151E1,5.1101384E0,1.1059074E1,2.1990623E1,7.4271173E0,1.8499664E1,1.4969736E2],"tree_param":{"num_deleted":"0","num_feature":"25","num_nodes":"53","size_leaf_vector":"1"}},{"base_weights":[-2.7974462E-3,2.1435171E-1,-1.3506649E-2,2.1652009E-1,-2.1837782E-2,1.0176494E-1,-8.812942E-2,1.4015903E-2,6.573441E-1,-1.3201863E-1,3.1527117E-1,1.2239559E-1,-1.1456107E-2,2.2842401E-1,-4.2360805E-2,-3.8978487E-2,5.539903E-2,1.5598486E-1,-2.9465448E-2],"categories":[],"categories_nodes":[],"categories_segments":[],"categories_sizes":[],"default_left":[0,0,0,0,0,0,0,0,0,0,0,0,0,0,0,0,0,0,0],"id":5,"left_children":[1,-1,3,-1,5,7,9,11,13,15,17,-1,-1,-1,-1,-1,-1,-1,-1],"loss_changes":[8.001896E0,0E0,6.287266E0,0E0,5.9452295E0,1.2348529E1,8.361885E0,8.340795E0,1.2338852E1,8.576431E0,8.798528E0,0E0,0E0,0E0,0E0,0E0,0E0,0E0,0E0],"parents":[2147483647,0,0,2,2,4,4,5,5,6,6,7,7,8,8,9,9,10,10],"right_children":[2,-1,4,-1,6,8,10,12,14,16,18,-1,-1,-1,-1,-1,-1,-1,-1],"split_conditions":[-1.0348479E0,2.1435171E-1,-1.1119351E0,2.1652009E-1,-8.720935E-2,-3.6046508E-1,1.171577E0,-6.888729E-1,9.96372E-1,1.0058138E0,8.0890256E-1,1.2239559E-1,-1.1456107E-2,2.2842401E-1,-4.2360805E-2,-3.8978487E-2,5.539903E-2,1.5598486E-1,-2.9465448E-2],"split_indices":[1,0,18,0,2,2,0,16,15,2,4,0,0,0,0,0,0,0,0],"split_type":[0,0,0,0,0,0,0,0,0,0,0,0,0,0,0,0,0,0,0],"sum_hessian":[7.391565E2,7.74261E0,7.314139E2,5.852593E0,7.255613E2,2.5329037E2,4.722709E2,2.187474E2,3.4542976E1,4.2593427E2,4.6336643E1,2.3587788E1,1.9515962E2,2.3233395E1,1.1309582E1,3.7671536E2,4.921892E1,2.4110477E1,2.2226168E1],"tree_param":{"num_deleted":"0","num_feature":"25","num_nodes":"19","size_leaf_vector":"1"}},{"base_weights":[-1.7354934E-2,8.497503E-2,-9.4770156E-2,-1.3404465E-2,3.0390415E-1,-6.7815584E-1,-6.502529E-2,-4.957488E-1,5.999157E-2,5.53012E-1,-3.685533E-1,-1.14080176E-1,-1.5420204E-1,-4.1965693E-2,-6.1971545E-1,-6.837212E-1,-1.0039049E-2,-6.1758395E-2,3.938435E-1,-2.9420725E-1,7.37003E-1,-5.7009715E-1,1.2501161E-2,-4.215233E-1,-6.5979487E-3,-1.5866616E-1,-7.344254E-2,-1.0788069E-1,-1.5733196E-1,4.6720482E-2,-6.258247E-2,-3.9518025E-2,1.30623E-1,-1.5720242E-1,-6.0025003E-4,1.9112062E-1,2.6856052E-2,-7.5541556E-2,-1.5511881E-1,6.267395E-2,-1.20312884E-1,5.5812392E-2,-1.2151489E-2],"categories":[],"categories_nodes":[],"categories_segments":[],"categories_sizes":[],"default_left":[0,0,0,0,0,0,0,0,0,0,0,0,0,0,0,0,0,0,0,0,0,0,0,0,0,0,0,0,0,0,0,0,0,0,0,0,0,0,0,0,0,0,0],"id":6,"left_children":[1,3,5,7,9,11,13,15,17,19,21,-1,-1,23,25,27,-1,29,31,33,35,37,-1,39,41,-1,-1,-1,-1,-1,-1,-1,-1,-1,-1,-1,-1,-1,-1,-1,-1,-1,-1],"loss_changes":[5.9837947E0,7.00692E0,7.461803E0,7.9467635E0,1.6897629E1,1.3657665E-1,5.2334814E0,2.49929E0,7.919154E0,1.1474604E1,2.3488119E0,0E0,0E0,5.2735567E0,5.6496525E-1,2.0469856E-1,0E0,9.346005E0,6.6543484E0,1.703725E0,5.9750023E0,6.3296986E-1,0E0,3.4617863E0,4.8879666E0,0E0,0E0,0E0,0E0,0E0,0E0,0E0,0E0,0E0,0E0,0E0,0E0,0E0,0E0,0E0,0E0,0E0,0E0],"parents":[2147483647,0,0,1,1,2,2,3,3,4,4,5,5,6,6,7,7,8,8,9,9,10,10,13,13,14,14,15,15,17,17,18,18,19,19,20,20,21,21,23,23,24,24],"right_children":[2,4,6,8,10,12,14,16,18,20,22,-1,-1,24,26,28,-1,30,32,34,36,38,-1,40,42,-1,-1,-1,-1,-1,-1,-1,-1,-1,-1,-1,-1,-1,-1,-1,-1,-1,-1],"split_conditions":[-1.52263E-1,1.7441857E-1,-2.2755117E0,-2.9217628E-1,7.4504787E-1,-5.966063E-1,1.5416666E0,2.8600618E-1,2.4916458E-1,-1.083272E0,-4.412892E-1,-1.14080176E-1,-1.5420204E-1,-7.5726485E-1,9.8715514E-1,-3.7256336E-1,-1.0039049E-2,-5.556502E-1,-3.305753E-1,2.7906975E-1,9.406791E-1,-8.023005E-1,1.2501161E-2,-1.4331205E0,-6.7311925E-1,-1.5866616E-1,-7.344254E-2,-1.0788069E-1,-1.5733196E-1,4.6720482E-2,-6.258247E-2,-3.9518025E-2,1.30623E-1,-1.5720242E-1,-6.0025003E-4,1.9112062E-1,2.6856052E-2,-7.5541556E-2,-1.5511881E-1,6.267395E-2,-1.20312884E-1,5.5812392E-2,-1.2151489E-2],"split_indices":[0,2,12,19,5,3,22,9,15,14,0,0,0,15,6,21,0,17,17,2,10,0,0,12,3,0,0,0,0,0,0,0,0,0,0,0,0,0,0,0,0,0,0],"split_type":[0,0,0,0,0,0,0,0,0,0,0,0,0,0,0,0,0,0,0,0,0,0,0,0,0,0,0,0,0,0,0,0,0,0,0,0,0,0,0,0,0,0,0],"sum_hessian":[7.553363E2,3.253187E2,4.3001764E2,2.2445966E2,1.00859024E2,2.085496E1,4.091627E2,2.9639502E1,1.9482016E2,7.359669E1,2.7262339E1,5.2175903E0,1.5637369E1,3.9283823E2,1.6324446E1,2.0884134E1,8.755367E0,1.4276224E2,5.2057926E1,1.3130627E1,6.046606E1,1.852403E1,8.738308E0,3.3479305E1,3.5935892E2,1.1166082E1,5.1583633E0,5.0606666E0,1.5823468E1,6.458799E1,7.817425E1,1.4343282E1,3.7714645E1,5.191322E0,7.939305E0,4.7798607E1,1.2667454E1,7.8986254E0,1.0625405E1,5.612402E0,2.7866903E1,5.6828674E1,3.0253024E2],"tree_param":{"num_deleted":"0","num_feature":"25","num_nodes":"43","size_leaf_vector":"1"}},{"base_weights":[-7.552275E-3,1.6342872E-1,-1.51262E-2,-1.6236047E-1,3.13443E-2,3.4681344E-1,-2.1050887E-1,3.13319E-1,-3.9026827E-2,-4.832847E-2,6.674115E-1,-2.9097927E-1,1.1189077E-1,3.734982E-1,-3.124293E-1,2.5402498E-1,-7.361059E-2,7.106276E-2,2.1533939E-1,-4.8553873E-2,-1.5921962E-1,1.9442458E-1,-8.278993E-3,-5.6931823E-2,9.27378E-2,-9.957188E-2,-3.1756967E-2,3.261896E-2,2.116102E-1,2.7749097E-2,-3.3091426E-2],"categories":[],"categories_nodes":[],"categories_segments":[],"categories_sizes":[],"default_left":[0,0,0,0,0,0,0,0,0,0,0,0,0,0,0,0,0,0,0,0,0,0,0,0,0,0,0,0,0,0,0],"id":7,"left_children":[1,-1,3,5,7,9,11,13,15,-1,17,19,21,23,25,27,29,-1,-1,-1,-1,-1,-1,-1,-1,-1,-1,-1,-1,-1,-1],"loss_changes":[4.5689774E0,0E0,5.266604E0,4.5276394E0,1.1609716E1,2.9376678E0,4.3772516E0,4.401078E0,4.7455544E0,0E0,1.1760826E0,3.8706455E0,4.0794525E0,4.2823296E0,2.602005E-1,3.6850288E0,7.010957E0,0E0,0E0,0E0,0E0,0E0,0E0,0E0,0E0,0E0,0E0,0E0,0E0,0E0,0E0],"parents":[2147483647,0,0,2,2,3,3,4,4,5,5,6,6,7,7,8,8,10,10,11,11,12,12,13,13,14,14,15,15,16,16],"right_children":[2,-1,4,6,8,10,12,14,16,-1,18,20,22,24,26,28,30,-1,-1,-1,-1,-1,-1,-1,-1,-1,-1,-1,-1,-1,-1],"split_conditions":[-1.736111E0,1.6342872E-1,-4.376982E-1,-8.660774E-1,-2.0183156E-1,-2.6123592E-1,9.930122E-1,5.498992E-1,-1.7663612E0,-4.832847E-2,-2.9217628E-1,1.025585E0,-1.5383255E0,-6.977871E-1,-3.8198575E-1,8.4662557E-1,-7.554258E-1,7.106276E-2,2.1533939E-1,-4.8553873E-2,-1.5921962E-1,1.9442458E-1,-8.278993E-3,-5.6931823E-2,9.27378E-2,-9.957188E-2,-3.1756967E-2,3.261896E-2,2.116102E-1,2.7749097E-2,-3.3091426E-2],"split_indices":[22,0,15,3,15,0,7,0,12,0,19,9,15,7,11,1,1,0,0,0,0,0,0,0,0,0,0,0,0,0,0],"split_type":[0,0,0,0,0,0,0,0,0,0,0,0,0,0,0,0,0,0,0,0,0,0,0,0,0,0,0,0,0,0,0],"sum_hessian":[7.7723486E2,7.505381E0,7.697295E2,1.8465738E2,5.8507214E2,1.5949666E1,1.6870772E2,1.16847435E2,4.682247E2,5.715915E0,1.023375E1,1.3501009E2,3.3697636E1,1.0659821E2,1.0249217E1,4.9419563E1,4.188051E2,5.214188E0,5.0195622E0,1.1876925E2,1.6240828E1,5.32662E0,2.8371016E1,9.483813E0,9.71144E1,5.234985E0,5.0142326E0,4.351864E1,5.9009237E0,1.2004367E2,2.9876144E2],"tree_param":{"num_deleted":"0","num_feature":"25","num_nodes":"31","size_leaf_vector":"1"}},{"base_weights":[6.2579787E-3,6.954233E-2,-1.4211084E-1,-9.662402E-2,1.7042978E-1,-2.558398E-1,1.7001526E-1,-4.671576E-1,3.055133E-2,2.1820623E-1,-2.7604836E-1,3.5750327E-1,-3.536582E-1,4.589885E-1,-2.6041076E-1,4.7658462E-2,-5.542295E-1,4.1197962E-1,-1.5299585E-1,7.138879E-1,1.7708476E-1,-5.255478E-1,1.0825118E-1,-3.639981E-1,1.0571694E0,-7.601109E-2,-4.3435147E-1,-1.2194699E-1,6.464594E-1,8.031538E-2,-4.4551432E-1,-1.3231349E-1,-4.5173645E-2,1.6023134E-1,-8.7579645E-2,9.6796066E-2,-5.634794E-2,6.968308E-2,2.911765E-1,2.9431377E-2,1.568935E-1,-6.1068144E-2,-1.4096123E-1,1.3905595E-1,-8.339855E-2,-1.1964254E-1,-2.9742755E-2,8.7051205E-2,3.4361443E-1,1.7096427E-1,-5.7832904E-2,9.296668E-3,-1.0129898E-1,9.6771576E-2,3.0911705E-1,-1.4193597E-1,3.8995936E-3],"categories":[],"categories_nodes":[],"categories_segments":[],"categories_sizes":[],"default_left":[0,0,0,0,0,0,0,0,0,0,0,0,0,0,0,0,0,0,0,0,0,0,0,0,0,0,0,0,0,0,0,0,0,0,0,0,0,0,0,0,0,0,0,0,0,0,0,0,0,0,0,0,0,0,0,0,0],"id":8,"left_children":[1,3,5,7,9,11,13,15,17,19,21,23,25,27,29,-1,31,33,35,37,39,41,43,45,47,49,51,-1,53,-1,55,-1,-1,-1,-1,-1,-1,-1,-1,-1,-1,-1,-1,-1,-1,-1,-1,-1,-1,-1,-1,-1,-1,-1,-1,-1,-1],"loss_changes":[6.840202E0,8.561165E0,7.7324634E0,9.091375E0,6.778487E0,9.579349E0,7.2366676E0,2.9680796E0,1.0056379E1,5.850089E0,2.9456968E0,1.1089453E1,3.0847683E0,6.7400074E0,2.7617216E0,0E0,1.0171118E0,1.3133635E1,6.606801E0,5.562731E0,5.7476797E0,6.0871696E-1,3.3054948E0,4.811436E-1,4.0325994E0,5.350093E0,2.1445026E0,0E0,4.547268E0,0E0,1.8658862E0,0E0,0E0,0E0,0E0,0E0,0E0,0E0,0E0,0E0,0E0,0E0,0E0,0E0,0E0,0E0,0E0,0E0,0E0,0E0,0E0,0E0,0E0,0E0,0E0,0E0,0E0],"parents":[2147483647,0,0,1,1,2,2,3,3,4,4,5,5,6,6,7,7,8,8,9,9,10,10,11,11,12,12,13,13,14,14,16,16,17,17,18,18,19,19,20,20,21,21,22,22,23,23,24,24,25,25,26,26,28,28,30,30],"right_children":[2,4,6,8,10,12,14,16,18,20,22,24,26,28,30,-1,32,34,36,38,40,42,44,46,48,50,52,-1,54,-1,56,-1,-1,-1,-1,-1,-1,-1,-1,-1,-1,-1,-1,-1,-1,-1,-1,-1,-1,-1,-1,-1,-1,-1,-1,-1,-1],"split_conditions":[1.9528686E-1,-1.6650394E-1,1.1463851E0,2.5E-1,1.2338115E0,-6.1048204E-1,4.8973703E-1,-7.555679E-1,-8.5685945E-1,-2.1519814E0,0E0,9.4389E-3,-5.1483E-1,-9.7222215E-1,9.542601E-1,4.7658462E-2,7.330617E-1,-4.0458268E-1,-5.119589E-1,-2.7391076E-1,1.6725741E-1,9.055691E-1,2.2805631E-1,-4.902449E-1,-7.831137E-1,-5.280873E-1,-8.926421E-1,-1.2194699E-1,3.2031158E-1,8.031538E-2,1.5348054E0,-1.3231349E-1,-4.5173645E-2,1.6023134E-1,-8.7579645E-2,9.6796066E-2,-5.634794E-2,6.968308E-2,2.911765E-1,2.9431377E-2,1.568935E-1,-6.1068144E-2,-1.4096123E-1,1.3905595E-1,-8.339855E-2,-1.1964254E-1,-2.9742755E-2,8.7051205E-2,3.4361443E-1,1.7096427E-1,-5.7832904E-2,9.296668E-3,-1.0129898E-1,9.6771576E-2,3.0911705E-1,-1.4193597E-1,3.8995936E-3],"split_indices":[1,10,10,22,6,21,9,4,1,12,22,20,20,22,14,0,0,13,8,0,1,14,20,19,4,8,6,0,0,0,7,0,0,0,0,0,0,0,0,0,0,0,0,0,0,0,0,0,0,0,0,0,0,0,0,0,0],"split_type":[0,0,0,0,0,0,0,0,0,0,0,0,0,0,0,0,0,0,0,0,0,0,0,0,0,0,0,0,0,0,0,0,0,0,0,0,0,0,0,0,0,0,0,0,0,0,0,0,0,0,0,0,0,0,0,0,0],"sum_hessian":[7.284881E2,5.1067233E2,2.178158E2,1.9292157E2,3.1775076E2,1.596467E2,5.8169094E1,4.9291443E1,1.4363013E2,2.870387E2,3.0712072E1,2.1956722E1,1.3768997E2,3.480311E1,2.3365984E1,5.5129237E0,4.377852E1,4.6659573E1,9.697055E1,2.198068E1,2.65058E2,1.86207E1,1.2091372E1,1.0811129E1,1.1145594E1,3.1008596E1,1.0668138E2,5.3462334E0,2.9456875E1,5.25242E0,1.8113564E1,3.650771E1,7.2708116E0,3.2984806E1,1.3674766E1,1.5076914E1,8.189363E1,1.383745E1,8.143231E0,2.4796469E2,1.7093325E1,6.815066E0,1.1805635E1,5.783325E0,6.308046E0,5.7261124E0,5.085016E0,5.166769E0,5.978825E0,5.644015E0,2.5364582E1,8.623403E0,9.8057976E1,2.3820156E1,5.6367207E0,1.2248866E1,5.864698E0],"tree_param":{"num_deleted":"0","num_feature":"25","num_nodes":"57","size_leaf_vector":"1"}},{"base_weights":[2.64619E-2,5.5369996E-2,-2.2767979E-1,-1.553807E-2,1.9047083E-1,-3.1674117E-1,1.2630291E-1,7.073463E-1,-4.466382E-2,-2.1382341E-1,2.659389E-1,-4.257792E-1,5.8002356E-2,9.6525186E-1,2.9823905E-2,-1.4315091E-2,-4.637544E-1,1.5191811E-1,-4.7229025E-1,-1.4958234E-1,2.9916564E-1,2.857008E-2,-5.138648E-1,9.919337E-2,-5.3277444E-2,2.7695647E-1,1.2128499E-1,-2.6320634E-2,3.223776E-2,-1.4416479E-1,-3.2194253E-2,-9.310693E-2,1.1669273E-1,-2.7255785E-2,-1.442688E-1,4.4465102E-2,1.2528244E-1,-1.3314396E-1,1.7523455E-2],"categories":[],"categories_nodes":[],"categories_segments":[],"categories_sizes":[],"default_left":[0,0,0,0,0,0,0,0,0,0,0,0,0,0,0,0,0,0,0,0,0,0,0,0,0,0,0,0,0,0,0,0,0,0,0,0,0,0,0],"id":9,"left_children":[1,3,5,7,9,11,-1,13,15,17,19,21,23,25,-1,27,29,31,33,-1,35,-1,37,-1,-1,-1,-1,-1,-1,-1,-1,-1,-1,-1,-1,-1,-1,-1,-1],"loss_changes":[5.445269E0,6.3751364E0,5.54058E0,9.188966E0,6.9892025E0,2.7909384E0,0E0,2.471366E0,5.3359E0,3.4068956E0,6.218772E0,2.6108274E0,1.9416637E0,1.5424948E0,0E0,7.1057205E0,1.8949852E0,3.4951077E0,1.4975963E0,0E0,4.873623E0,0E0,3.0614595E0,0E0,0E0,0E0,0E0,0E0,0E0,0E0,0E0,0E0,0E0,0E0,0E0,0E0,0E0,0E0,0E0],"parents":[2147483647,0,0,1,1,2,2,3,3,4,4,5,5,7,7,8,8,9,9,10,10,11,11,12,12,13,13,15,15,16,16,17,17,18,18,20,20,22,22],"right_children":[2,4,6,8,10,12,-1,14,16,18,20,22,24,26,-1,28,30,32,34,-1,36,-1,38,-1,-1,-1,-1,-1,-1,-1,-1,-1,-1,-1,-1,-1,-1,-1,-1],"split_conditions":[9.046032E-1,1.9025967E-1,1.4635353E0,-8.717337E-1,-5.090033E-1,7.736611E-1,1.2630291E-1,-2.553322E-1,8.774597E-1,-3.859941E-1,-8.611496E-1,-8.967655E-1,8.774597E-1,-4.376667E-1,2.9823905E-2,-1.6644722E-1,2.5253388E-1,-9.2957133E-1,-2.7391076E-1,-1.4958234E-1,3.1944442E-1,2.857008E-2,8.3657134E-1,9.919337E-2,-5.3277444E-2,2.7695647E-1,1.2128499E-1,-2.6320634E-2,3.223776E-2,-1.4416479E-1,-3.2194253E-2,-9.310693E-2,1.1669273E-1,-2.7255785E-2,-1.442688E-1,4.4465102E-2,1.2528244E-1,-1.3314396E-1,1.7523455E-2],"split_indices":[0,17,6,13,6,24,0,9,21,21,1,1,21,6,0,4,20,6,0,0,22,0,20,0,0,0,0,0,0,0,0,0,0,0,0,0,0,0,0],"split_type":[0,0,0,0,0,0,0,0,0,0,0,0,0,0,0,0,0,0,0,0,0,0,0,0,0,0,0,0,0,0,0,0,0,0,0,0,0,0,0],"sum_hessian":[7.411642E2,6.6547284E2,7.56913E1,4.3642123E2,2.2905162E2,6.829275E1,7.3985553E0,1.6897259E1,4.19524E2,3.6028717E1,1.930229E2,5.2899837E1,1.5392909E1,1.1611938E1,5.2853208E0,3.9120126E2,2.8322712E1,1.4919487E1,2.1109228E1,6.3925743E0,1.8663034E2,7.187953E0,4.5711884E1,6.6225066E0,8.770403E0,6.255382E0,5.3565564E0,2.3570139E2,1.5549988E2,1.6795746E1,1.1526966E1,6.00091E0,8.918577E0,7.912981E0,1.3196247E1,1.4241902E2,4.4211308E1,3.846735E1,7.2445364E0],"tree_param":{"num_deleted":"0","num_feature":"25","num_nodes":"39","size_leaf_vector":"1"}},{"base_weights":[5.655643E-3,9.64835E-2,-6.8874106E-2,3.029915E-2,3.585169E-1,-1.4635834E-1,2.0849748E-1,-2.5526512E-1,1.2570882E-1,-6.9681495E-2,4.2035642E-1,-5.1201236E-1,-9.178931E-2,6.436238E-1,1.4958943E-2,-8.820366E-2,-6.087438E-1,4.4672048E-1,5.272652E-3,2.3010135E-1,3.4781623E-1,-1.1232825E-2,-5.9849846E-1,2.3032938E-1,-1.3719411E-1,-2.058052E-2,8.732997E-1,1.4384621E-1,-8.362897E-2,6.1257143E-2,-6.513041E-2,-1.5706094E-1,-4.393318E-2,2.6536858E-2,1.5003817E-1,-2.4905948E-2,5.7098553E-2,-9.84412E-3,9.600796E-2,-1.5524802E-1,-1.0061738E-1,-6.6384025E-2,9.557554E-2,4.8142083E-2,-3.824337E-2,2.5429115E-1,8.429394E-2,-1.298845E-1,1.0697256E-2],"categories":[],"categories_nodes":[],"categories_segments":[],"categories_sizes":[],"default_left":[0,0,0,0,0,0,0,0,0,0,0,0,0,0,0,0,0,0,0,0,0,0,0,0,0,0,0,0,0,0,0,0,0,0,0,0,0,0,0,0,0,0,0,0,0,0,0,0,0],"id":10,"left_children":[1,3,5,7,9,11,13,15,17,-1,19,21,23,25,27,29,31,33,35,-1,37,-1,39,41,43,-1,45,-1,47,-1,-1,-1,-1,-1,-1,-1,-1,-1,-1,-1,-1,-1,-1,-1,-1,-1,-1,-1,-1],"loss_changes":[5.1695423E0,5.9691916E0,9.015354E0,7.4872375E0,2.946128E0,6.541994E0,7.713485E0,4.0637484E0,7.963573E0,0E0,3.0542307E0,1.690628E0,4.1730447E0,4.79572E0,4.1354337E0,3.8364236E0,1.1526928E0,4.682926E0,4.826921E0,0E0,2.3455424E0,0E0,5.8872414E-1,4.1918573E0,3.8789415E0,0E0,3.3080387E0,0E0,3.896892E0,0E0,0E0,0E0,0E0,0E0,0E0,0E0,0E0,0E0,0E0,0E0,0E0,0E0,0E0,0E0,0E0,0E0,0E0,0E0,0E0],"parents":[2147483647,0,0,1,1,2,2,3,3,4,4,5,5,6,6,7,7,8,8,10,10,11,11,12,12,13,13,14,14,15,15,16,16,17,17,18,18,20,20,22,22,23,23,24,24,26,26,28,28],"right_children":[2,4,6,8,10,12,14,16,18,-1,20,22,24,26,28,30,32,34,36,-1,38,-1,40,42,44,-1,46,-1,48,-1,-1,-1,-1,-1,-1,-1,-1,-1,-1,-1,-1,-1,-1,-1,-1,-1,-1,-1,-1],"split_conditions":[-1.3004161E-1,4.8085842E-2,8.214042E-1,-1.5277775E-1,-5.161682E-1,-5.492263E-1,9.7041255E-1,-6.6466436E-2,-4.2893255E-1,-6.9681495E-2,-4.1946974E-1,-1.6094707E-1,-1.8357636E0,7.170984E-2,-1.5193404E-1,-4.9592707E-1,-7.753481E-2,3.8482383E-2,4.178147E-1,2.3010135E-1,-4.3954375E-1,-1.1232825E-2,-3.7356153E-1,-3.5485306E-1,-1.1944444E0,-2.058052E-2,5.162415E-1,1.4384621E-1,-2.8757108E-2,6.1257143E-2,-6.513041E-2,-1.5706094E-1,-4.393318E-2,2.6536858E-2,1.5003817E-1,-2.4905948E-2,5.7098553E-2,-9.84412E-3,9.600796E-2,-1.5524802E-1,-1.0061738E-1,-6.6384025E-2,9.557554E-2,4.8142083E-2,-3.824337E-2,2.5429115E-1,8.429394E-2,-1.298845E-1,1.0697256E-2],"split_indices":[4,14,17,22,5,9,17,11,9,0,5,21,12,15,7,19,19,11,5,0,9,0,1,20,22,0,15,0,9,0,0,0,0,0,0,0,0,0,0,0,0,0,0,0,0,0,0,0,0],"split_type":[0,0,0,0,0,0,0,0,0,0,0,0,0,0,0,0,0,0,0,0,0,0,0,0,0,0,0,0,0,0,0,0,0,0,0,0,0,0,0,0,0,0,0,0,0,0,0,0,0],"sum_hessian":[7.636536E2,3.4419217E2,4.1946146E2,2.7479214E2,6.940003E1,3.2787262E2,9.158884E1,6.8815285E1,2.0597685E2,5.734864E0,6.3665165E1,4.256993E1,2.853027E2,2.819179E1,6.339705E1,4.6735043E1,2.208024E1,5.6190197E1,1.4978665E2,6.280749E0,5.7384415E1,6.748702E0,3.5821228E1,3.52439E1,2.5005879E2,6.6754603E0,2.1516329E1,8.218007E0,5.5179043E1,1.7147621E1,2.9587421E1,1.668554E1,5.3947E0,2.5050062E1,3.1140137E1,1.0224871E2,4.753795E1,1.1954087E1,4.543033E1,1.7456837E1,1.8364391E1,1.013961E1,2.5104288E1,2.6254442E1,2.2380435E2,1.2828739E1,8.687591E0,1.1174072E1,4.400497E1],"tree_param":{"num_deleted":"0","num_feature":"25","num_nodes":"49","size_leaf_vector":"1"}},{"base_weights":[-8.146253E-3,7.593876E-2,-1.4088194E-1,4.1795218E-1,3.6491413E-2,-3.932857E-1,4.2168587E-2,7.39278E-1,-3.0744237E-1,1.8113738E-1,1.5758382E-2,9.086616E-2,-4.5376235E-1,-2.2481984E-1,1.9773053E-1,1.3767903E0,-2.5530427E-3,3.053689E-2,-1.4831729E-1,1.7594106E-1,2.2346855E-3,-1.18108734E-1,2.2549021E-1,-5.1676863E-1,-9.242837E-2,1.01733685E-1,-2.938939E-1,6.582078E-1,7.7801734E-2,2.543569E-1,3.0951887E-1,-1.1542761E-1,1.11180365E-1,9.622828E-2,-4.6588304E-3,-6.94656E-2,-1.2608369E-1,4.412805E-2,-1.2180677E-1,-3.172176E-2,-1.19760886E-1,2.4150655E-1,5.073026E-2,-2.189927E-2,8.022801E-2],"categories":[],"categories_nodes":[],"categories_segments":[],"categories_sizes":[],"default_left":[0,0,0,0,0,0,0,0,0,0,0,0,0,0,0,0,0,0,0,0,0,0,0,0,0,0,0,0,0,0,0,0,0,0,0,0,0,0,0,0,0,0,0,0,0],"id":11,"left_children":[1,3,5,7,9,11,13,15,17,-1,19,21,23,25,27,29,31,-1,-1,-1,33,-1,-1,35,37,-1,39,41,43,-1,-1,-1,-1,-1,-1,-1,-1,-1,-1,-1,-1,-1,-1,-1,-1],"loss_changes":[8.138157E0,6.0222754E0,1.3064952E1,1.0760826E1,6.7658067E0,3.4807262E0,6.8079834E0,1.5129761E1,2.4945822E0,0E0,4.284304E0,8.27831E0,2.4054222E0,2.932298E0,5.7192616E0,2.341919E-1,4.200903E0,0E0,0E0,0E0,4.174258E0,0E0,0E0,1.3018112E0,2.2627861E0,0E0,2.1412215E0,4.286806E0,4.449812E0,0E0,0E0,0E0,0E0,0E0,0E0,0E0,0E0,0E0,0E0,0E0,0E0,0E0,0E0,0E0,0E0],"parents":[2147483647,0,0,1,1,2,2,3,3,4,4,5,5,6,6,7,7,8,8,10,10,11,11,12,12,13,13,14,14,15,15,16,16,20,20,23,23,24,24,26,26,27,27,28,28],"right_children":[2,4,6,8,10,12,14,16,18,-1,20,22,24,26,28,30,32,-1,-1,-1,34,-1,-1,36,38,-1,40,42,44,-1,-1,-1,-1,-1,-1,-1,-1,-1,-1,-1,-1,-1,-1,-1,-1],"split_conditions":[2.1511619E-1,-8.5685945E-1,6.220929E-1,-1.7539497E-1,-1.2204088E0,-7.517786E-1,4.211382E-1,4.7037867E-1,2.7004844E-1,1.8113738E-1,-1.230031E0,-1.825015E-1,1.171577E0,-1.3850664E0,-4.8483917E-1,-8.233134E-1,-5.3173876E-1,3.053689E-2,-1.4831729E-1,1.7594106E-1,-7.89227E-1,-1.18108734E-1,2.2549021E-1,-5.6738675E-1,9.076364E-1,1.01733685E-1,7.728125E-1,1.0135208E-1,4.878697E-1,2.543569E-1,3.0951887E-1,-1.1542761E-1,1.11180365E-1,9.622828E-2,-4.6588304E-3,-6.94656E-2,-1.2608369E-1,4.412805E-2,-1.2180677E-1,-3.172176E-2,-1.19760886E-1,2.4150655E-1,5.073026E-2,-2.189927E-2,8.022801E-2],"split_indices":[2,1,2,3,4,11,3,15,19,0,3,0,0,12,6,12,19,0,0,0,5,0,0,16,17,0,4,17,0,0,0,0,0,0,0,0,0,0,0,0,0,0,0,0,0],"split_type":[0,0,0,0,0,0,0,0,0,0,0,0,0,0,0,0,0,0,0,0,0,0,0,0,0,0,0,0,0,0,0,0,0,0,0,0,0,0,0,0,0,0,0,0,0],"sum_hessian":[7.291426E2,4.463761E2,2.827665E2,4.6154186E1,4.002219E2,1.1886272E2,1.6390378E2,3.1985546E1,1.4168639E1,9.918245E0,3.9030365E2,1.3198387E1,1.0566433E2,6.034014E1,1.0356364E2,1.7199476E1,1.478607E1,6.5724974E0,7.5961413E0,6.3904386E0,3.839132E2,7.9209576E0,5.277429E0,8.997295E1,1.56913805E1,5.3932805E0,5.494686E1,2.1393536E1,8.2170105E1,5.2568316E0,1.1942645E1,7.289805E0,7.4962645E0,1.9531298E1,3.6438193E2,2.5752548E1,6.4220406E1,9.662087E0,6.0292935E0,3.5748417E1,1.9198444E1,1.0001156E1,1.139238E1,5.124209E1,3.0928015E1],"tree_param":{"num_deleted":"0","num_feature":"25","num_nodes":"45","size_leaf_vector":"1"}},{"base_weights":[1.1494201E-2,-1.6133371E-1,5.216179E-2,-4.6924534E-1,6.450025E-2,4.208463E-1,1.5740395E-2,-7.450456E-2,-5.534625E-1,-6.0831822E-2,7.2472954E-1,6.3673764E-1,-1.7234987E-1,1.5969704E-3,1.7510109E-1,-1.53576E-1,1.1968248E-1,-6.021547E-1,-2.8781245E-2,-1.6805393E-1,3.335285E-2,-2.3466555E-2,2.7056208E-1,4.5083186E-1,9.800982E-1,-1.2015437E-1,2.1567358E-2,9.295704E-2,-1.1854819E-1,-1.0258145E-1,-1.5083319E-1,9.377427E-2,-5.5959456E-2,1.4098103E-1,-3.08406E-2,2.698526E-1,1.0497969E-1,1.4271651E-2,1.4985518E-1,-1.0631229E-1,-9.726061E-3],"categories":[],"categories_nodes":[],"categories_segments":[],"categories_sizes":[],"default_left":[0,0,0,0,0,0,0,0,0,0,0,0,0,0,0,0,0,0,0,0,0,0,0,0,0,0,0,0,0,0,0,0,0,0,0,0,0,0,0,0,0],"id":12,"left_children":[1,3,5,7,9,11,13,15,17,19,21,23,25,27,-1,-1,-1,29,-1,-1,31,-1,-1,33,35,-1,-1,37,39,-1,-1,-1,-1,-1,-1,-1,-1,-1,-1,-1,-1],"loss_changes":[5.1861534E0,9.773879E0,8.020776E0,1.9767799E0,6.710252E0,6.8781204E0,6.210416E0,4.3225145E0,9.973202E-1,4.6831355E0,5.918209E0,2.5106192E0,1.5415595E0,5.8645267E0,0E0,0E0,0E0,5.612688E-1,0E0,0E0,7.298139E0,0E0,0E0,3.2316222E0,1.9393253E0,0E0,0E0,4.797505E0,6.408865E0,0E0,0E0,0E0,0E0,0E0,0E0,0E0,0E0,0E0,0E0,0E0,0E0],"parents":[2147483647,0,0,1,1,2,2,3,3,4,4,5,5,6,6,7,7,8,8,9,9,10,10,11,11,12,12,13,13,17,17,20,20,23,23,24,24,27,27,28,28],"right_children":[2,4,6,8,10,12,14,16,18,20,22,24,26,28,-1,-1,-1,30,-1,-1,32,-1,-1,34,36,-1,-1,38,40,-1,-1,-1,-1,-1,-1,-1,-1,-1,-1,-1,-1],"split_conditions":[-5.5998003E-1,-3.958421E-1,-5.57395E-1,-3.531423E-1,1.6906664E-2,5.634413E-1,1.121507E0,-3.227267E-1,1.1771147E0,-9.853671E-1,2.460081E-1,2.2400226E-1,-2.1809402E-1,7.111783E-2,1.7510109E-1,-1.53576E-1,1.1968248E-1,-7.313376E-2,-2.8781245E-2,-1.6805393E-1,-2.110327E-1,-2.3466555E-2,2.7056208E-1,-9.676549E-2,-5.220264E-1,-1.2015437E-1,2.1567358E-2,1.1661177E0,-8.05367E-2,-1.0258145E-1,-1.5083319E-1,9.377427E-2,-5.5959456E-2,1.4098103E-1,-3.08406E-2,2.698526E-1,1.0497969E-1,1.4271651E-2,1.4985518E-1,-1.0631229E-1,-9.726061E-3],"split_indices":[5,3,9,11,17,3,20,9,16,24,8,17,16,0,0,0,0,14,0,0,0,0,0,19,13,0,0,24,17,0,0,0,0,0,0,0,0,0,0,0,0],"split_type":[0,0,0,0,0,0,0,0,0,0,0,0,0,0,0,0,0,0,0,0,0,0,0,0,0,0,0,0,0,0,0,0,0,0,0,0,0,0,0,0,0],"sum_hessian":[7.378622E2,1.4054779E2,5.973144E2,5.9464622E1,8.108317E1,5.369619E1,5.436182E2,1.0457979E1,4.900664E1,6.815146E1,1.2931709E1,3.9367958E1,1.4328234E1,5.3426935E2,9.348873E0,5.186331E0,5.271649E0,4.3892284E1,5.114359E0,7.787625E0,6.036383E1,5.123882E0,7.807827E0,2.5549143E1,1.3818814E1,5.882969E0,8.445265E0,3.0349158E2,2.3077777E2,2.074967E1,2.3142614E1,2.5417418E1,3.4946415E1,1.8839859E1,6.709284E0,8.66236E0,5.156454E0,2.9119934E2,1.2292241E1,3.698518E1,1.9379259E2],"tree_param":{"num_deleted":"0","num_feature":"25","num_nodes":"41","size_leaf_vector":"1"}},{"base_weights":[-9.639855E-3,8.130469E-2,-8.065299E-2,4.2446595E-2,4.275673E-1,-3.6525673E-1,-3.6880285E-2,-2.660239E-1,1.1612224E-1,1.9286165E-1,2.7355444E-1,1.1798496E-2,-4.4269666E-1,3.569407E-1,-7.198308E-2,-3.4397152E-1,5.632905E-2,7.2720736E-2,5.484657E-1,-2.8373078E-1,7.287702E-1,-5.9917384E-1,-2.9170913E-1,7.435347E-1,-1.747993E-2,-1.446534E-1,-5.1082525E-2,-5.4178145E-3,-1.0302376E-1,-1.3113223E-1,2.1463703E-2,-3.6980767E-2,1.9248882E-1,-1.6672954E-1,6.514076E-2,2.2074288E-1,1.023886E-1,-6.723359E-2,-1.5333796E-1,2.8819493E-3,-1.2650016E-1,1.0719654E-1,2.2978644E-1,-1.1644824E-1,6.1244227E-2,-6.7962953E-3,-1.499926E-1],"categories":[],"categories_nodes":[],"categories_segments":[],"categories_sizes":[],"default_left":[0,0,0,0,0,0,0,0,0,0,0,0,0,0,0,0,0,0,0,0,0,0,0,0,0,0,0,0,0,0,0,0,0,0,0,0,0,0,0,0,0,0,0,0,0,0,0],"id":13,"left_children":[1,3,5,7,9,11,13,15,17,-1,19,-1,21,23,25,27,-1,29,31,33,35,37,39,41,43,-1,45,-1,-1,-1,-1,-1,-1,-1,-1,-1,-1,-1,-1,-1,-1,-1,-1,-1,-1,-1,-1],"loss_changes":[4.924034E0,4.4979935E0,5.333561E0,6.8314238E0,2.4890532E0,1.8596244E0,5.129921E0,2.3989043E0,4.552637E0,0E0,6.4798903E0,0E0,1.1376724E0,4.3959913E0,4.331476E0,2.261859E0,0E0,4.2904024E0,5.7056856E0,3.3928928E0,1.072165E0,8.152237E-1,2.2715755E0,1.2025461E0,2.5006557E0,0E0,4.120866E0,0E0,0E0,0E0,0E0,0E0,0E0,0E0,0E0,0E0,0E0,0E0,0E0,0E0,0E0,0E0,0E0,0E0,0E0,0E0,0E0],"parents":[2147483647,0,0,1,1,2,2,3,3,4,4,5,5,6,6,7,7,8,8,10,10,12,12,13,13,14,14,15,15,17,17,18,18,19,19,20,20,21,21,22,22,23,23,24,24,26,26],"right_children":[2,4,6,8,10,12,14,16,18,-1,20,-1,22,24,26,28,-1,30,32,34,36,38,40,42,44,-1,46,-1,-1,-1,-1,-1,-1,-1,-1,-1,-1,-1,-1,-1,-1,-1,-1,-1,-1,-1,-1],"split_conditions":[-1.557249E-1,3.8093728E-1,-4.2300105E-2,-1.8055554E-1,-6.055118E-1,-6.4439255E-1,-8.8979757E-1,-2.1421017E-2,7.8133345E-1,1.9286165E-1,-2.8543353E-1,1.1798496E-2,1.519918E-1,2.8752124E-1,-9.1072756E-1,-1.1245884E0,5.632905E-2,-9.663623E-1,-5.6395346E-1,-5.227708E-2,-8.830951E-2,-4.618406E-1,6.1035687E-1,2.491385E-1,4.6584177E-1,-1.446534E-1,1.7870216E0,-5.4178145E-3,-1.0302376E-1,-1.3113223E-1,2.1463703E-2,-3.6980767E-2,1.9248882E-1,-1.6672954E-1,6.514076E-2,2.2074288E-1,1.023886E-1,-6.723359E-2,-1.5333796E-1,2.8819493E-3,-1.2650016E-1,1.0719654E-1,2.2978644E-1,-1.1644824E-1,6.1244227E-2,-6.7962953E-3,-1.499926E-1],"split_indices":[4,1,24,22,4,18,1,6,3,0,16,0,18,6,3,14,0,18,2,5,24,3,18,24,6,0,24,0,0,0,0,0,0,0,0,0,0,0,0,0,0,0,0,0,0,0,0],"split_type":[0,0,0,0,0,0,0,0,0,0,0,0,0,0,0,0,0,0,0,0,0,0,0,0,0,0,0,0,0,0,0,0,0,0,0,0,0,0,0,0,0,0,0,0,0,0,0],"sum_hessian":[7.624277E2,3.3429904E2,4.2812863E2,3.00575E2,3.3724026E1,5.706364E1,3.7106497E2,5.7946053E1,2.4262897E2,8.19216E0,2.5531868E1,8.870481E0,4.819316E1,3.0363024E1,3.4070197E2,5.052981E1,7.4162436E0,2.2050085E2,2.2128117E1,1.1480036E1,1.4051831E1,2.365734E1,2.4535822E1,1.4935702E1,1.54273205E1,1.1310829E1,3.293911E2,1.5472311E1,3.50575E1,8.665789E0,2.1183507E2,7.316792E0,1.4811325E1,6.2111316E0,5.2689047E0,6.2332754E0,7.818556E0,7.131429E0,1.652591E1,1.2229283E1,1.2306539E1,8.742545E0,6.1931577E0,5.6381817E0,9.789139E0,3.200451E2,9.346019E0],"tree_param":{"num_deleted":"0","num_feature":"25","num_nodes":"47","size_leaf_vector":"1"}},{"base_weights":[2.6863497E-3,2.259764E-1,-6.672881E-3,9.96619E-2,-6.407903E-2,7.0594853E-1,5.683744E-2,-4.3043283E-1,-2.3953464E-2,2.4687019E-1,5.0943363E-2,-1.7197493E-1,1.3885853E-1,1.0449137E-1,-5.533494E-1,5.5353326E-1,-5.0006058E-2,2.495826E-2,-7.634905E-2,9.285873E-3,1.2985703E-1,-1.3492589E-1,-3.8640838E-2,2.4061477E-1,3.920427E-2,-1.9941695E-2,5.023764E-2],"categories":[],"categories_nodes":[],"categories_segments":[],"categories_sizes":[],"default_left":[0,0,0,0,0,0,0,0,0,0,0,0,0,0,0,0,0,0,0,0,0,0,0,0,0,0,0],"id":14,"left_children":[1,-1,3,5,7,9,11,13,15,-1,-1,17,19,-1,21,23,25,-1,-1,-1,-1,-1,-1,-1,-1,-1,-1],"loss_changes":[7.080088E0,0E0,4.318106E0,6.4389243E0,6.752968E0,3.4704638E0,4.347625E0,5.140008E0,6.229465E0,0E0,0E0,3.3093505E0,7.658823E0,0E0,1.206603E0,3.8126903E0,4.964956E0,0E0,0E0,0E0,0E0,0E0,0E0,0E0,0E0,0E0,0E0],"parents":[2147483647,0,0,2,2,3,3,4,4,5,5,6,6,7,7,8,8,11,11,12,12,14,14,15,15,16,16],"right_children":[2,-1,4,6,8,10,12,14,16,-1,-1,18,20,-1,22,24,26,-1,-1,-1,-1,-1,-1,-1,-1,-1,-1],"split_conditions":[-1.5161601E0,2.259764E-1,-8.720935E-2,-5.478181E-1,-7.5408065E-1,-6.510088E-1,-2.1722601E-1,-8.576686E-1,-8.638388E-1,2.4687019E-1,5.0943363E-2,-3.009906E-1,-4.7674417E-1,1.0449137E-1,2.5077885E-1,-3.149133E-1,1.171577E0,2.495826E-2,-7.634905E-2,9.285873E-3,1.2985703E-1,-1.3492589E-1,-3.8640838E-2,2.4061477E-1,3.920427E-2,-1.9941695E-2,5.023764E-2],"split_indices":[4,0,2,13,3,5,3,6,19,0,0,19,2,0,5,6,0,0,0,0,0,0,0,0,0,0,0],"split_type":[0,0,0,0,0,0,0,0,0,0,0,0,0,0,0,0,0,0,0,0,0,0,0,0,0,0,0],"sum_hessian":[7.136179E2,6.239396E0,7.0737854E2,2.4799908E2,4.5937943E2,1.635519E1,2.316439E2,4.5341652E1,4.1403778E2,8.273438E0,8.081753E0,6.1123142E1,1.7052075E2,5.332302E0,4.000935E1,1.7867104E1,3.961707E2,2.4002396E1,3.7120747E1,1.4190065E2,2.8620106E1,3.283227E1,7.1770782E0,6.958522E0,1.0908583E1,3.4362634E2,5.2544327E1],"tree_param":{"num_deleted":"0","num_feature":"25","num_nodes":"27","size_leaf_vector":"1"}},{"base_weights":[1.8020177E-3,-1.5291645E-1,4.337014E-2,-4.1678086E-1,2.1976696E-2,3.8737616E-1,1.4322518E-2,4.3159384E-2,-4.9522534E-1,-1.015837E-1,3.9847714E-1,-4.590199E-3,7.301098E-1,1.2315265E-3,1.6246668E-1,-5.6822467E-1,4.284312E-2,1.7953558E-1,-1.8034703E-1,7.8756845E-1,-5.1662657E-2,-4.0757158E-1,9.873487E-2,1.015048E0,4.8426226E-2,-1.1520177E-2,1.6714352E-1,-1.402369E-1,-9.211085E-2,-6.175753E-2,1.07311405E-1,2.2559793E-1,7.959222E-2,-1.2402021E-1,9.45356E-2,-4.1418023E-2,-1.2426534E-1,2.4030942E-1,1.8704091E-1,8.975557E-3,-3.6957484E-2],"categories":[],"categories_nodes":[],"categories_segments":[],"categories_sizes":[],"default_left":[0,0,0,0,0,0,0,0,0,0,0,0,0,0,0,0,0,0,0,0,0,0,0,0,0,0,0,0,0,0,0,0,0,0,0,0,0,0,0,0,0],"id":15,"left_children":[1,3,5,7,9,11,13,-1,15,17,19,21,23,25,-1,27,-1,-1,29,31,33,35,-1,37,-1,39,-1,-1,-1,-1,-1,-1,-1,-1,-1,-1,-1,-1,-1,-1,-1],"loss_changes":[4.813824E0,7.3150067E0,5.8953953E0,3.0723953E0,4.4351635E0,6.171399E0,5.339712E0,0E0,2.853261E0,5.34888E0,4.1261644E0,4.0519104E0,3.506796E0,5.351435E0,0E0,6.240978E-1,0E0,0E0,4.998454E0,1.4251051E0,2.8842528E0,4.3320775E-1,0E0,2.3756981E-1,0E0,4.5881767E0,0E0,0E0,0E0,0E0,0E0,0E0,0E0,0E0,0E0,0E0,0E0,0E0,0E0,0E0,0E0],"parents":[2147483647,0,0,1,1,2,2,3,3,4,4,5,5,6,6,8,8,9,9,10,10,11,11,12,12,13,13,15,15,18,18,19,19,20,20,21,21,23,23,25,25],"right_children":[2,4,6,8,10,12,14,-1,16,18,20,22,24,26,-1,28,-1,-1,30,32,34,36,-1,38,-1,40,-1,-1,-1,-1,-1,-1,-1,-1,-1,-1,-1,-1,-1,-1,-1],"split_conditions":[-5.0923586E-1,-3.958421E-1,-5.7907754E-1,-6.1785483E-1,4.8320183E-1,-1.1576975E-1,1.121507E0,4.3159384E-2,-5.43713E-1,-3.470295E-1,1.6085963E-1,-3.0819768E-1,2.6778236E-1,2.25776E0,1.6246668E-1,-2.0473376E-1,4.284312E-2,1.7953558E-1,9.7893673E-1,-2.8980228E-1,-1.1368277E0,-3.5255668E-1,9.873487E-2,1.2785475E-1,4.8426226E-2,5.414081E-1,1.6714352E-1,-1.402369E-1,-9.211085E-2,-6.175753E-2,1.07311405E-1,2.2559793E-1,7.959222E-2,-1.2402021E-1,9.45356E-2,-4.1418023E-2,-1.2426534E-1,2.4030942E-1,1.8704091E-1,8.975557E-3,-3.6957484E-2],"split_indices":[5,3,9,7,19,21,20,0,5,3,20,7,10,8,0,19,0,0,3,17,16,5,0,14,0,3,0,0,0,0,0,0,0,0,0,0,0,0,0,0,0],"split_type":[0,0,0,0,0,0,0,0,0,0,0,0,0,0,0,0,0,0,0,0,0,0,0,0,0,0,0,0,0,0,0,0,0,0,0,0,0,0,0,0,0],"sum_hessian":[7.4848065E2,1.5850412E2,5.899765E2,6.317797E1,9.532615E1,4.5932255E1,5.4404425E2,7.0971065E0,5.6080864E1,7.177529E1,2.3550858E1,2.142996E1,2.4502295E1,5.347139E2,9.330372E0,5.07632E1,5.317668E0,5.512509E0,6.626278E1,1.2629559E1,1.09213E1,1.1525831E1,9.90413E0,1.5630518E1,8.871776E0,5.261708E2,8.543147E0,3.027379E1,2.0489408E1,5.709118E1,9.171605E0,7.5953035E0,5.0342546E0,5.2724094E0,5.6488905E0,5.2369504E0,6.2888803E0,8.425007E0,7.205511E0,3.9529684E2,1.3087392E2],"tree_param":{"num_deleted":"0","num_feature":"25","num_nodes":"41","size_leaf_vector":"1"}},{"base_weights":[7.875463E-3,-4.653932E-1,1.8525949E-2,-4.1637523E-3,-1.5521725E-1,1.5714958E-1,1.2424014E-2,1.8291947E-2,-1.5030694E-1,9.3067106E-4,3.1994304E-1,1.6559247E-2,-1.64442E-2,1.05378896E-1,-1.01477586E-1],"categories":[],"categories_nodes":[],"categories_segments":[],"categories_sizes":[],"default_left":[0,0,0,0,0,0,0,0,0,0,0,0,0,0,0],"id":16,"left_children":[1,3,5,-1,-1,-1,7,9,-1,11,13,-1,-1,-1,-1],"loss_changes":[3.7496297E0,1.9309862E0,3.198543E0,0E0,0E0,0E0,3.0450058E0,3.747542E0,0E0,4.074894E0,5.4541206E0,0E0,0E0,0E0,0E0],"parents":[2147483647,0,0,1,1,2,2,6,6,7,7,9,9,10,10],"right_children":[2,4,6,-1,-1,-1,8,10,-1,12,14,-1,-1,-1,-1],"split_conditions":[-9.663623E-1,-5.7041204E-1,-1.736111E0,-4.1637523E-3,-1.5521725E-1,1.5714958E-1,1.7515513E0,1.1617697E0,-1.5030694E-1,-7.359943E-2,1.0054446E0,1.6559247E-2,-1.64442E-2,1.05378896E-1,-1.01477586E-1],"split_indices":[18,17,22,0,0,0,16,16,0,16,14,0,0,0,0],"split_type":[0,0,0,0,0,0,0,0,0,0,0,0,0,0,0],"sum_hessian":[7.438789E2,1.6366083E1,7.275128E2,6.0977726E0,1.0268311E1,6.103147E0,7.2140967E2,7.1557806E2,5.831593E0,6.766408E2,3.893728E1,3.4119843E2,3.3544238E2,3.1909208E1,7.0280695E0],"tree_param":{"num_deleted":"0","num_feature":"25","num_nodes":"15","size_leaf_vector":"1"}},{"base_weights":[-1.9140437E-2,1.7976293E-1,-2.7457204E-2,3.8093543E-3,-1.968035E-1,6.257587E-1,-1.9718828E-2,1.8593992E-1,-3.3150455E-1,1.0011567E0,2.5272848E-2,-3.013248E-2,1.8930861E-1,-1.0152994E-1,1.505919E-1,-1.3722111E-1,-4.268674E-1,1.1420874E-1,2.8454676E-1,4.466379E-2,-1.3403519E-2,-9.475125E-2,1.5924454E-1,1.9708041E-2,-1.2149798E-1,-5.298957E-2,-1.3719192E-1],"categories":[],"categories_nodes":[],"categories_segments":[],"categories_sizes":[],"default_left":[0,0,0,0,0,0,0,0,0,0,0,0,0,0,0,0,0,0,0,0,0,0,0,0,0,0,0],"id":17,"left_children":[1,-1,3,5,7,9,11,13,15,17,-1,19,-1,21,-1,23,25,-1,-1,-1,-1,-1,-1,-1,-1,-1,-1],"loss_changes":[5.0940347E0,0E0,3.715471E0,8.668146E0,5.6388106E0,4.1079845E0,5.4090157E0,4.2754416E0,1.4984531E0,1.9355268E0,0E0,4.459545E0,0E0,5.3774633E0,0E0,2.6598322E0,2.1036863E0,0E0,0E0,0E0,0E0,0E0,0E0,0E0,0E0,0E0,0E0],"parents":[2147483647,0,0,2,2,3,3,4,4,5,5,6,6,7,7,8,8,9,9,11,11,13,13,15,15,16,16],"right_children":[2,-1,4,6,8,10,12,14,16,18,-1,20,-1,22,-1,24,26,-1,-1,-1,-1,-1,-1,-1,-1,-1,-1],"split_conditions":[-1.5161601E0,1.7976293E-1,1.02899E0,-1.0362787E0,-1.1641831E0,8.084846E-1,1.2558137E0,-6.944444E-2,-8.720935E-2,-3.305753E-1,2.5272848E-2,-7.317582E-1,1.8930861E-1,1.0116277E0,1.505919E-1,1.3055556E0,5.580306E-1,1.1420874E-1,2.8454676E-1,4.466379E-2,-1.3403519E-2,-9.475125E-2,1.5924454E-1,1.9708041E-2,-1.2149798E-1,-5.298957E-2,-1.3719192E-1],"split_indices":[4,0,7,8,12,5,2,22,2,17,0,16,0,2,0,22,24,0,0,0,0,0,0,0,0,0,0],"split_type":[0,0,0,0,0,0,0,0,0,0,0,0,0,0,0,0,0,0,0,0,0,0,0,0,0,0,0],"sum_hessian":[7.084475E2,6.7443323E0,7.017032E2,5.923441E2,1.093591E2,2.158571E1,5.7075836E2,2.8467705E1,8.0891396E1,1.2398059E1,9.187653E0,5.643067E2,6.451656E0,1.8364439E1,1.0103266E1,2.663759E1,5.4253807E1,5.2227945E0,7.1752644E0,6.7986496E1,4.9632022E2,1.3076748E1,5.2876906E0,1.741865E1,9.218942E0,2.9919632E1,2.4334175E1],"tree_param":{"num_deleted":"0","num_feature":"25","num_nodes":"27","size_leaf_vector":"1"}},{"base_weights":[5.2271164E-3,-5.711008E-2,1.5346074E-1,9.724404E-2,-1.3457122E-1,4.5350897E-1,4.1444197E-2,3.840484E-1,-2.308106E-2,-1.6364206E-1,2.6497856E-1,5.383085E-1,-8.8033125E-2,-1.456849E-1,1.00911826E-1,2.6370284E-1,2.3307061E-1,-8.889858E-2,6.84373E-1,8.661059E-2,-2.1259038E-1,4.5106816E-1,-8.149209E-2,2.0910388E-2,6.911667E-1,2.1374507E-1,-2.8628668E-1,1.063739E-1,-5.7020187E-2,-2.9798144E-2,1.848046E-1,8.916573E-2,1.99514E-1,-1.520112E-1,4.6013713E-2,-1.2694034E-1,-3.8243473E-2,2.3412157E-2,2.3075274E-1,1.1817747E-1,-1.2223779E-1,1.762395E-1,-1.8257262E-3,-3.8561065E-2,7.374971E-2,-1.4274037E-1,3.3716485E-2],"categories":[],"categories_nodes":[],"categories_segments":[],"categories_sizes":[],"default_left":[0,0,0,0,0,0,0,0,0,0,0,0,0,0,0,0,0,0,0,0,0,0,0,0,0,0,0,0,0,0,0,0,0,0,0,0,0,0,0,0,0,0,0,0,0,0,0],"id":18,"left_children":[1,3,5,7,9,11,13,15,17,19,21,23,-1,-1,25,27,-1,29,31,33,35,37,-1,39,41,43,45,-1,-1,-1,-1,-1,-1,-1,-1,-1,-1,-1,-1,-1,-1,-1,-1,-1,-1,-1,-1],"loss_changes":[6.858575E0,6.2473574E0,7.3850765E0,6.0253944E0,4.041339E0,4.3954916E0,6.913893E0,4.4200716E0,5.7276993E0,3.9728308E0,2.84777E0,4.303505E0,0E0,0E0,6.4621835E0,5.555549E0,0E0,5.5248075E0,7.0216465E-1,5.520552E0,3.4128408E0,3.964258E0,0E0,3.9584887E0,4.0463676E0,6.0228457E0,5.717184E0,0E0,0E0,0E0,0E0,0E0,0E0,0E0,0E0,0E0,0E0,0E0,0E0,0E0,0E0,0E0,0E0,0E0,0E0,0E0,0E0],"parents":[2147483647,0,0,1,1,2,2,3,3,4,4,5,5,6,6,7,7,8,8,9,9,10,10,11,11,14,14,15,15,17,17,18,18,19,19,20,20,21,21,23,23,24,24,25,25,26,26],"right_children":[2,4,6,8,10,12,14,16,18,20,22,24,-1,-1,26,28,-1,30,32,34,36,38,-1,40,42,44,46,-1,-1,-1,-1,-1,-1,-1,-1,-1,-1,-1,-1,-1,-1,-1,-1,-1,-1,-1,-1],"split_conditions":[2.0377544E-1,-1.8744339E-1,3.1856346E-1,-6.8559027E-1,1.5197552E0,1.5295923E0,-5.930943E-1,6.450658E-2,-6.802547E-1,-6.6811526E-1,1.13078795E-1,-6.1674935E-1,-8.8033125E-2,-1.456849E-1,9.0545326E-1,-1.7762232E-1,2.3307061E-1,4.2779198E-1,1.2998848E-1,-1.3839415E0,-5.2733004E-1,-1.956738E-2,-8.149209E-2,-2.902295E-1,3.8030493E-1,-1.0305185E0,1.50605375E-2,1.063739E-1,-5.7020187E-2,-2.9798144E-2,1.848046E-1,8.916573E-2,1.99514E-1,-1.520112E-1,4.6013713E-2,-1.2694034E-1,-3.8243473E-2,2.3412157E-2,2.3075274E-1,1.1817747E-1,-1.2223779E-1,1.762395E-1,-1.8257262E-3,-3.8561065E-2,7.374971E-2,-1.4274037E-1,3.3716485E-2],"split_indices":[1,10,1,20,15,5,4,5,1,21,1,21,0,0,5,5,0,3,4,21,4,10,0,7,20,12,16,0,0,0,0,0,0,0,0,0,0,0,0,0,0,0,0,0,0,0,0],"split_type":[0,0,0,0,0,0,0,0,0,0,0,0,0,0,0,0,0,0,0,0,0,0,0,0,0,0,0,0,0,0,0,0,0,0,0,0,0,0,0,0,0,0,0,0,0,0,0],"sum_hessian":[7.4222034E2,5.2249664E2,2.1972365E2,1.7459183E2,3.4790485E2,5.9725E1,1.5999866E2,5.1595806E1,1.22996025E2,3.243119E2,2.3592949E1,5.4408886E1,5.3161097E0,1.2099637E1,1.4789902E2,4.4143436E1,7.452372E0,1.12532074E2,1.0463949E1,5.3055553E1,2.7125632E2,1.8332127E1,5.2608223E0,1.24100685E1,4.1998817E1,1.1452744E2,3.3371567E1,3.0554123E1,1.3589312E1,1.06824E2,5.708074E0,5.1277966E0,5.3361526E0,7.390039E0,4.5665516E1,2.1280285E1,2.4997604E2,1.1926573E1,6.405554E0,6.539576E0,5.8704925E0,3.5093735E1,6.905084E0,2.88576E1,8.5669846E1,1.7887526E1,1.5484043E1],"tree_param":{"num_deleted":"0","num_feature":"25","num_nodes":"47","size_leaf_vector":"1"}},{"base_weights":[1.0661525E-2,-4.316603E-2,9.782785E-2,6.0590073E-2,-1.3393144E-1,5.029096E-1,5.6725815E-2,9.955078E-2,-5.1062393E-1,-2.0301783E-1,1.0503527E-1,7.4838173E-1,2.51221E-1,-4.448075E-1,8.814186E-2,2.0163043E-1,7.455668E-2,-3.062638E-2,-1.5404186E-1,-2.4991678E-1,1.572746E-1,-1.5796207E-1,2.3268194E-1,1.0731695E-1,2.2208565E-1,-2.3458945E-2,1.1695723E-1,-1.5349717E-1,-5.3332453E-3,-3.6426565E-1,1.2374097E-1,-1.2310576E-1,2.2450551E-2,-3.616716E-2,-1.1443042E-1,1.2077752E-1,-3.530995E-2,1.5478574E-1,-1.2715284E-2,-1.593034E-1,-1.7177522E-2,5.9098918E-2,-1.8672886E-3],"categories":[],"categories_nodes":[],"categories_segments":[],"categories_sizes":[],"default_left":[0,0,0,0,0,0,0,0,0,0,0,0,0,0,0,0,0,0,0,0,0,0,0,0,0,0,0,0,0,0,0,0,0,0,0,0,0,0,0,0,0,0,0],"id":19,"left_children":[1,3,5,7,9,11,13,15,17,19,21,23,25,27,29,-1,31,-1,-1,33,35,-1,37,-1,-1,-1,-1,-1,-1,39,41,-1,-1,-1,-1,-1,-1,-1,-1,-1,-1,-1,-1],"loss_changes":[3.522449E0,4.370987E0,4.7718267E0,4.8200865E0,4.087275E0,1.6299925E0,4.1002674E0,4.300286E0,1.0833263E0,3.245319E0,6.0106654E0,9.607835E-1,1.409689E0,1.7838192E0,3.9441924E0,0E0,3.9936252E0,0E0,0E0,3.9093428E0,2.9385333E0,0E0,6.9914618E0,0E0,0E0,0E0,0E0,0E0,0E0,1.9490125E0,4.6390285E0,0E0,0E0,0E0,0E0,0E0,0E0,0E0,0E0,0E0,0E0,0E0,0E0],"parents":[2147483647,0,0,1,1,2,2,3,3,4,4,5,5,6,6,7,7,8,8,9,9,10,10,11,11,12,12,13,13,14,14,16,16,19,19,20,20,22,22,29,29,30,30],"right_children":[2,4,6,8,10,12,14,16,18,20,22,24,26,28,30,-1,32,-1,-1,34,36,-1,38,-1,-1,-1,-1,-1,-1,40,42,-1,-1,-1,-1,-1,-1,-1,-1,-1,-1,-1,-1],"split_conditions":[2.511344E-1,-2.0590368E-1,-8.8979757E-1,7.98189E-1,6.8186784E-1,1.122046E0,-8.4885854E-1,-1.1037469E0,-1.0836319E0,7.4504787E-1,-3.9008036E-1,3.1910226E-1,-9.957446E-2,4.0618506E-1,-6.644607E-1,2.0163043E-1,-7.563413E-1,-3.062638E-2,-1.5404186E-1,1.7991918E-1,-7.86508E-1,-1.5796207E-1,9.142454E-1,1.0731695E-1,2.2208565E-1,-2.3458945E-2,1.1695723E-1,-1.5349717E-1,-5.3332453E-3,3.886342E-1,5.2671254E-1,-1.2310576E-1,2.2450551E-2,-3.616716E-2,-1.1443042E-1,1.2077752E-1,-3.530995E-2,1.5478574E-1,-1.2715284E-2,-1.593034E-1,-1.7177522E-2,5.9098918E-2,-1.8672886E-3],"split_indices":[0,6,1,17,9,0,1,20,15,5,17,24,20,15,9,0,19,0,0,1,12,0,9,0,0,0,0,0,0,0,0,0,0,0,0,0,0,0,0,0,0,0,0],"split_type":[0,0,0,0,0,0,0,0,0,0,0,0,0,0,0,0,0,0,0,0,0,0,0,0,0,0,0,0,0,0,0,0,0,0,0,0,0,0,0,0,0,0,0],"sum_hessian":[7.507312E2,4.6412466E2,2.8660654E2,2.1656543E2,2.4755922E2,2.6395533E1,2.60211E2,2.0274213E2,1.38233E1,1.9204044E2,5.551879E1,1.3356617E1,1.3038917E1,1.5333996E1,2.4487701E2,5.7934904E0,1.9694864E2,5.096112E0,8.727188E0,1.6992355E2,2.2116879E1,7.260477E0,4.8258312E1,7.3354278E0,6.021189E0,5.901849E0,7.1370673E0,9.234021E0,6.099975E0,1.7859121E1,2.270179E2,8.9213705E0,1.8802727E2,1.3307689E2,3.684666E1,9.73986E0,1.2377019E1,1.7914616E1,3.0343697E1,7.570147E0,1.0288974E1,1.0492683E2,1.22091064E2],"tree_param":{"num_deleted":"0","num_feature":"25","num_nodes":"43","size_leaf_vector":"1"}},{"base_weights":[1.1344762E-2,-1.3587658E-1,4.503218E-2,4.242248E-1,-2.3222508E-1,2.952024E-1,1.07228905E-2,8.8127935E-1,-2.3382675E-2,1.79731E-1,-2.821099E-1,2.204219E-1,1.7556024E-1,2.4214233E-1,-2.1086963E-2,8.721084E-2,2.9786152E-1,-5.7190135E-2,1.24201275E-1,-4.526897E-1,-1.5307425E-1,4.9831405E-2,7.918016E-1,5.265644E-1,-1.8046615E-1,7.772651E-1,-3.9453767E-2,-1.4809655E-2,-1.2988313E-1,6.6299723E-3,-1.002099E-1,-1.2221427E-2,1.7889254E-1,2.3857814E-1,1.0109346E-1,1.7999765E-1,-6.862286E-2,7.183497E-2,-9.7938836E-2,1.0903699E-1,2.2148728E-1,-1.1654546E-2,1.177137E-1],"categories":[],"categories_nodes":[],"categories_segments":[],"categories_sizes":[],"default_left":[0,0,0,0,0,0,0,0,0,0,0,0,0,0,0,0,0,0,0,0,0,0,0,0,0,0,0,0,0,0,0,0,0,0,0,0,0,0,0,0,0,0,0],"id":20,"left_children":[1,3,5,7,9,11,13,15,-1,17,19,-1,21,23,25,-1,-1,-1,-1,27,29,31,33,35,37,39,41,-1,-1,-1,-1,-1,-1,-1,-1,-1,-1,-1,-1,-1,-1,-1,-1],"loss_changes":[3.5544934E0,7.2027054E0,5.0060444E0,4.783633E0,2.3404818E0,6.238378E0,3.775766E0,2.5806885E0,0E0,2.2332988E0,2.2353716E0,0E0,4.6930237E0,7.4508667E0,6.6122656E0,0E0,0E0,0E0,0E0,2.6493025E0,3.3912344E0,4.273739E0,1.0689406E0,1.0068932E1,3.6217723E0,7.057271E-1,4.014383E0,0E0,0E0,0E0,0E0,0E0,0E0,0E0,0E0,0E0,0E0,0E0,0E0,0E0,0E0,0E0,0E0],"parents":[2147483647,0,0,1,1,2,2,3,3,4,4,5,5,6,6,7,7,9,9,10,10,12,12,13,13,14,14,19,19,20,20,21,21,22,22,23,23,24,24,25,25,26,26],"right_children":[2,4,6,8,10,12,14,16,-1,18,20,-1,22,24,26,-1,-1,-1,-1,28,30,32,34,36,38,40,42,-1,-1,-1,-1,-1,-1,-1,-1,-1,-1,-1,-1,-1,-1,-1,-1],"split_conditions":[-4.782385E-1,-4.1105577E-1,-5.223631E-1,3.9493956E-2,-1.06866E0,-7.979464E-1,-8.5685945E-1,-1.745708E-1,-2.3382675E-2,-3.5465115E-1,-1.3599183E-1,2.204219E-1,4.4767436E-1,3.4233156E-1,-1.2999148E0,8.721084E-2,2.9786152E-1,-5.7190135E-2,1.24201275E-1,-1.0890044E0,2.9113218E-1,1.2222222E0,-6.1785483E-1,3.1910226E-1,-1.1034659E0,1.5806347E-1,1.638889E0,-1.4809655E-2,-1.2988313E-1,6.6299723E-3,-1.002099E-1,-1.2221427E-2,1.7889254E-1,2.3857814E-1,1.0109346E-1,1.7999765E-1,-6.862286E-2,7.183497E-2,-9.7938836E-2,1.0903699E-1,2.2148728E-1,-1.1654546E-2,1.177137E-1],"split_indices":[9,11,7,20,20,17,1,18,0,2,8,0,2,19,8,0,0,0,0,12,19,22,7,24,12,7,22,0,0,0,0,0,0,0,0,0,0,0,0,0,0,0,0],"split_type":[0,0,0,0,0,0,0,0,0,0,0,0,0,0,0,0,0,0,0,0,0,0,0,0,0,0,0,0,0,0,0,0,0,0,0,0,0,0,0,0,0,0,0],"sum_hessian":[7.166896E2,1.3345279E2,5.8323676E2,1.9584047E1,1.13868744E2,7.033484E1,5.129019E2,1.0551871E1,9.032177E0,1.2297541E1,1.01571205E2,9.76638E0,6.0568462E1,6.1976604E1,4.5092532E2,5.5393796E0,5.012491E0,5.8302855E0,6.467255E0,4.3737064E1,5.783414E1,5.0310513E1,1.0257949E1,3.704396E1,2.4932642E1,1.0134915E1,4.407904E2,1.2782648E1,3.0954416E1,3.6629295E1,2.1204844E1,4.430886E1,6.0016527E0,5.011639E0,5.2463098E0,2.6907555E1,1.0136406E1,8.747147E0,1.6185495E1,5.0753465E0,5.0595694E0,4.2967044E2,1.1119975E1],"tree_param":{"num_deleted":"0","num_feature":"25","num_nodes":"43","size_leaf_vector":"1"}},{"base_weights":[7.312394E-3,9.593887E-2,-6.2307727E-2,1.2771404E-1,-2.7876487E-1,-3.9938515E-1,-3.0903427E-2,2.3422182E-2,3.1764948E-1,-5.942705E-1,4.780005E-2,-1.4776729E-1,-2.465599E-1,-5.47712E-1,-8.510101E-3,-4.354035E-1,1.2159709E-1,1.6708489E-1,8.475133E-1,-6.9460854E-2,-1.5460727E-1,7.211773E-2,-4.7822675E-1,-1.4274698E-1,-6.7995764E-2,4.007414E-1,-3.784594E-2,-1.1186467E-1,1.2006642E-2,1.0150032E-2,1.3204151E-1,-8.867349E-2,5.1742483E-2,7.510149E-2,2.1221176E-1,-1.4963487E-1,4.8174253E-3,-1.07236706E-1,1.4355294E-1,-3.1715455E-3,-9.0454146E-2],"categories":[],"categories_nodes":[],"categories_segments":[],"categories_sizes":[],"default_left":[0,0,0,0,0,0,0,0,0,0,0,0,0,0,0,0,0,0,0,0,0,0,0,0,0,0,0,0,0,0,0,0,0,0,0,0,0,0,0,0,0],"id":21,"left_children":[1,3,5,7,9,11,13,15,17,19,-1,-1,21,23,25,27,29,31,33,-1,-1,-1,35,-1,-1,37,39,-1,-1,-1,-1,-1,-1,-1,-1,-1,-1,-1,-1,-1,-1],"loss_changes":[4.5296288E0,3.8456068E0,4.3521543E0,5.8975754E0,4.0123253E0,1.5815487E0,4.3527117E0,8.658114E0,8.41836E0,5.5035114E-1,0E0,0E0,3.1362972E0,4.387498E-1,4.328114E0,1.5112453E0,5.8398733E0,3.6612194E0,1.734848E0,0E0,0E0,0E0,1.8703899E0,0E0,0E0,5.9898205E0,2.989344E0,0E0,0E0,0E0,0E0,0E0,0E0,0E0,0E0,0E0,0E0,0E0,0E0,0E0,0E0],"parents":[2147483647,0,0,1,1,2,2,3,3,4,4,5,5,6,6,7,7,8,8,9,9,12,12,13,13,14,14,15,15,16,16,17,17,18,18,22,22,25,25,26,26],"right_children":[2,4,6,8,10,12,14,16,18,20,-1,-1,22,24,26,28,30,32,34,-1,-1,-1,36,-1,-1,38,40,-1,-1,-1,-1,-1,-1,-1,-1,-1,-1,-1,-1,-1,-1],"split_conditions":[-1.52263E-1,1.2684944E0,-6.479763E-1,1.8678124E-1,7.623897E-1,-6.106069E-1,-2.2755117E0,-1.9517158E-1,5.526919E-1,7.9837716E-1,4.780005E-2,-1.4776729E-1,-1.697018E-1,4.2698437E-1,-6.3039494E-1,-6.6132754E-2,8.991659E-1,-6.843052E-1,-4.198057E-1,-6.9460854E-2,-1.5460727E-1,7.211773E-2,3.1085363E-1,-1.4274698E-1,-6.7995764E-2,-2.58589E-1,5.311732E-1,-1.1186467E-1,1.2006642E-2,1.0150032E-2,1.3204151E-1,-8.867349E-2,5.1742483E-2,7.510149E-2,2.1221176E-1,-1.4963487E-1,4.8174253E-3,-1.07236706E-1,1.4355294E-1,-3.1715455E-3,-9.0454146E-2],"split_indices":[0,13,8,1,24,6,12,19,8,14,0,0,4,6,7,5,11,4,19,0,0,0,6,0,0,21,1,0,0,0,0,0,0,0,0,0,0,0,0,0,0],"split_type":[0,0,0,0,0,0,0,0,0,0,0,0,0,0,0,0,0,0,0,0,0,0,0,0,0,0,0,0,0,0,0,0,0,0,0,0,0,0,0,0,0],"sum_hessian":[7.341033E2,3.2296564E2,4.1113763E2,2.9772263E2,2.5243015E1,3.503352E1,3.7610413E2,1.9219633E2,1.0552629E2,1.5518713E1,9.724301E0,1.1933628E1,2.3099892E1,1.5613774E1,3.6049036E2,3.3872078E1,1.5832425E2,8.218185E1,2.3344446E1,5.1547227E0,1.0363991E1,6.5462384E0,1.6553654E1,1.0116028E1,5.4977465E0,2.4106916E1,3.3638345E2,2.8599205E1,5.272875E0,1.3792972E2,2.0394535E1,9.486489E0,7.269536E1,5.453026E0,1.789142E1,1.1413247E1,5.140406E0,5.6067185E0,1.8500196E1,3.1759802E2,1.8785427E1],"tree_param":{"num_deleted":"0","num_feature":"25","num_nodes":"41","size_leaf_vector":"1"}},{"base_weights":[1.2074785E-2,-1.7956227E-1,3.8154215E-2,-2.3913465E-1,1.0086569E-1,2.6643459E-2,5.7343155E-1,-5.7394505E-1,-4.461141E-2,8.572131E-3,3.3480838E-1,1.6168942E-1,6.0762186E-2,-1.500993E-1,-6.7573236E-3,5.2726023E-2,-1.4790402E-1,2.1152748E-2,-4.6420395E-1,8.6748284E-1,1.0796648E-1,-2.5041556E-2,9.410612E-2,4.6620675E-4,7.1448065E-2,-1.6207106E-2,-1.593715E-1,1.1258147E-1,2.6418623E-1,-7.0901394E-2,5.798527E-2],"categories":[],"categories_nodes":[],"categories_segments":[],"categories_sizes":[],"default_left":[0,0,0,0,0,0,0,0,0,0,0,0,0,0,0,0,0,0,0,0,0,0,0,0,0,0,0,0,0,0,0],"id":22,"left_children":[1,3,5,7,-1,9,11,13,15,17,19,-1,-1,-1,-1,21,-1,23,25,27,29,-1,-1,-1,-1,-1,-1,-1,-1,-1,-1],"loss_changes":[3.7454221E0,3.4977214E0,4.064263E0,5.358511E0,0E0,3.5962079E0,7.455454E-1,2.1628838E0,3.2982025E0,3.6282208E0,4.3217072E0,0E0,0E0,0E0,0E0,3.010149E0,0E0,3.5471933E0,1.7498393E0,1.3498783E0,1.825235E0,0E0,0E0,0E0,0E0,0E0,0E0,0E0,0E0,0E0,0E0],"parents":[2147483647,0,0,1,1,2,2,3,3,5,5,6,6,7,7,8,8,9,9,10,10,15,15,17,17,18,18,19,19,20,20],"right_children":[2,4,6,8,-1,10,12,14,16,18,20,-1,-1,-1,-1,22,-1,24,26,28,30,-1,-1,-1,-1,-1,-1,-1,-1,-1,-1],"split_conditions":[0E0,1.2548162E0,2.1438081E0,6.59497E-1,1.0086569E-1,1.2588923E0,2.7474563E0,3.244149E-1,2.0334787E0,1.5605012E0,4.432198E-1,1.6168942E-1,6.0762186E-2,-1.500993E-1,-6.7573236E-3,5.1609325E-1,-1.4790402E-1,1.0988522E0,-5.982195E-1,5.442205E-1,6.4006305E-1,-2.5041556E-2,9.410612E-2,4.6620675E-4,7.1448065E-2,-1.6207106E-2,-1.593715E-1,1.1258147E-1,2.6418623E-1,-7.0901394E-2,5.798527E-2],"split_indices":[23,3,9,14,0,18,19,1,8,9,5,0,0,0,0,19,0,6,14,9,5,0,0,0,0,0,0,0,0,0,0],"split_type":[0,0,0,0,0,0,0,0,0,0,0,0,0,0,0,0,0,0,0,0,0,0,0,0,0,0,0,0,0,0,0],"sum_hessian":[7.494023E2,8.976364E1,6.596387E2,8.22725E1,7.4911475E0,6.4575854E2,1.3880093E1,3.0229641E1,5.2042854E1,6.0999384E2,3.576473E1,8.406362E0,5.473731E0,2.431104E1,5.9185996E0,4.527809E1,6.764766E0,5.9418835E2,1.5805502E1,1.0676512E1,2.5088217E1,3.150429E1,1.3773801E1,5.604454E2,3.3742985E1,6.700764E0,9.104738E0,5.622492E0,5.05402E0,6.8165054E0,1.8271711E1],"tree_param":{"num_deleted":"0","num_feature":"25","num_nodes":"31","size_leaf_vector":"1"}},{"base_weights":[1.1973793E-2,-1.3485701E-2,2.8329363E-1,3.5388067E-2,-1.9976248E-1,5.6064004E-1,-2.0010135E-1,-4.304704E-2,1.5236858E-1,-2.637816E-1,1.3758302E-1,2.2612362E-1,1.0601763E0,9.955093E-2,-5.014149E-1,1.275393E-1,-6.1968252E-2,6.1859626E-1,6.681093E-2,1.2629871E-1,-3.2352632E-1,-2.658474E-1,7.739619E-1,8.865216E-1,3.025363E-1,-1.319343E-1,-5.6065354E-2,1.5578835E-1,-1.6563024E-2,3.886178E-2,1.9504075E-1,2.7032726E-2,-5.1843878E-2,1.34411E-1,-6.2425278E-2,4.5397367E-2,-7.6545015E-2,-1.2186529E-1,8.204104E-3,2.4747771E-1,7.3930256E-2,2.2519663E-1,1.4837943E-1],"categories":[],"categories_nodes":[],"categories_segments":[],"categories_sizes":[],"default_left":[0,0,0,0,0,0,0,0,0,0,0,0,0,0,0,0,0,0,0,0,0,0,0,0,0,0,0,0,0,0,0,0,0,0,0,0,0,0,0,0,0,0,0],"id":23,"left_children":[1,3,5,7,9,11,13,15,17,19,-1,21,23,-1,25,-1,27,29,31,33,35,37,39,41,-1,-1,-1,-1,-1,-1,-1,-1,-1,-1,-1,-1,-1,-1,-1,-1,-1,-1,-1],"loss_changes":[4.912731E0,5.919418E0,8.180303E0,4.7259164E0,7.326965E0,6.477023E0,4.481207E0,3.7505965E0,8.246229E0,2.9283905E0,0E0,6.2616878E0,9.7123146E-1,0E0,4.330809E-1,0E0,3.7906365E0,4.171278E0,3.2732618E0,3.5461898E0,2.1334724E0,1.145329E0,1.824307E0,3.382845E-1,0E0,0E0,0E0,0E0,0E0,0E0,0E0,0E0,0E0,0E0,0E0,0E0,0E0,0E0,0E0,0E0,0E0,0E0,0E0],"parents":[2147483647,0,0,1,1,2,2,3,3,4,4,5,5,6,6,7,7,8,8,9,9,11,11,12,12,14,14,16,16,17,17,18,18,19,19,20,20,21,21,22,22,23,23],"right_children":[2,4,6,8,10,12,14,16,18,20,-1,22,24,-1,26,-1,28,30,32,34,36,38,40,42,-1,-1,-1,-1,-1,-1,-1,-1,-1,-1,-1,-1,-1,-1,-1,-1,-1,-1,-1],"split_conditions":[1.0116277E0,2.1637617E-1,7.87905E-1,1.14362605E-1,1.2069513E0,-1.2054931E-1,-1.1832286E0,-1.0416666E0,-3.0255717E-1,-6.479326E-1,1.3758302E-1,-9.7222215E-1,6.022579E-1,9.955093E-2,1.0527143E0,1.275393E-1,-1.5161601E0,3.5127157E-1,1.2725708E0,-1.5496637E-1,-6.6811526E-1,-1.9121866E-1,-2.9660398E-1,2.6498446E-1,3.025363E-1,-1.319343E-1,-5.6065354E-2,1.5578835E-1,-1.6563024E-2,3.886178E-2,1.9504075E-1,2.7032726E-2,-5.1843878E-2,1.34411E-1,-6.2425278E-2,4.5397367E-2,-7.6545015E-2,-1.2186529E-1,8.204104E-3,2.4747771E-1,7.3930256E-2,2.2519663E-1,1.4837943E-1],"split_indices":[2,1,4,21,1,7,12,22,17,6,0,22,21,0,1,0,4,21,7,12,21,21,8,15,0,0,0,0,0,0,0,0,0,0,0,0,0,0,0,0,0,0,0],"split_type":[0,0,0,0,0,0,0,0,0,0,0,0,0,0,0,0,0,0,0,0,0,0,0,0,0,0,0,0,0,0,0,0,0,0,0,0,0,0,0,0,0,0,0],"sum_hessian":[7.111898E2,6.50185E2,6.100479E1,5.150542E2,1.3513078E2,3.876344E1,2.2241356E1,3.0832614E2,2.0672807E2,1.25636696E2,9.49409E0,2.3221819E1,1.5541619E1,6.9107475E0,1.5330607E1,8.810226E0,2.9951593E2,3.204847E1,1.7467961E2,1.668583E1,1.0895087E2,1.2236397E1,1.0985421E1,1.052322E1,5.0183997E0,1.020864E1,5.1219673E0,5.8793144E0,2.936366E2,1.3035376E1,1.9013096E1,1.4627774E2,2.8401875E1,7.5669675E0,9.118861E0,6.923663E0,1.0202721E2,6.0871453E0,6.149252E0,5.7320285E0,5.253392E0,5.4822555E0,5.040964E0],"tree_param":{"num_deleted":"0","num_feature":"25","num_nodes":"43","size_leaf_vector":"1"}},{"base_weights":[4.3689115E-3,-1.2684878E-2,3.4154966E-1,9.911035E-3,-2.8495076E-1,-8.9678824E-2,6.697439E-1,-4.3061797E-2,1.986158E-1,-3.9749694E-1,9.4088085E-2,-8.099711E-2,5.779816E-2,3.948023E-2,8.467878E-1,-1.8252851E-1,4.0161893E-2,-1.4769363E-1,2.6112586E-1,1.9531075E-2,-4.9416226E-1,9.5260054E-2,-6.95651E-2,2.639177E-1,1.07556604E-1,-9.961092E-2,-1.3046392E-2,1.5998761E-1,3.1816897E-3,1.0970785E-1,2.7128793E-2,-5.7264533E-2,-1.347407E-1],"categories":[],"categories_nodes":[],"categories_segments":[],"categories_sizes":[],"default_left":[0,0,0,0,0,0,0,0,0,0,0,0,0,0,0,0,0,0,0,0,0,0,0,0,0,0,0,0,0,0,0,0,0],"id":24,"left_children":[1,3,5,7,9,11,13,15,17,19,21,-1,-1,-1,23,25,27,-1,29,-1,31,-1,-1,-1,-1,-1,-1,-1,-1,-1,-1,-1,-1],"loss_changes":[4.2007403E0,4.27799E0,4.977869E0,6.4184914E0,2.2734594E0,1.6013956E0,1.7106295E0,5.819223E0,7.8590894E0,1.9439211E0,1.8204205E0,0E0,0E0,0E0,1.9622622E0,6.4914517E0,5.635326E0,0E0,4.475645E0,0E0,1.0752478E0,0E0,0E0,0E0,0E0,0E0,0E0,0E0,0E0,0E0,0E0,0E0,0E0],"parents":[2147483647,0,0,1,1,2,2,3,3,4,4,5,5,6,6,7,7,8,8,9,9,10,10,14,14,15,15,16,16,18,18,20,20],"right_children":[2,4,6,8,10,12,14,16,18,20,22,-1,-1,-1,24,26,28,-1,30,-1,32,-1,-1,-1,-1,-1,-1,-1,-1,-1,-1,-1,-1],"split_conditions":[1.3002136E0,5.311732E-1,1.704964E-1,2.2381881E-1,4.1662282E-1,1.7515513E0,-4.1271546E-1,-3.4883685E-2,-1.0089061E0,-4.198057E-1,6.983024E-1,-8.099711E-2,5.779816E-2,3.948023E-2,1.5717299E0,-1.5496637E-1,-7.0885533E-1,-1.4769363E-1,-2.2050625E-1,1.9531075E-2,-4.3954375E-1,9.5260054E-2,-6.95651E-2,2.639177E-1,1.07556604E-1,-9.961092E-2,-1.3046392E-2,1.5998761E-1,3.1816897E-3,1.0970785E-1,2.7128793E-2,-5.7264533E-2,-1.347407E-1],"split_indices":[24,1,5,1,16,16,1,2,8,19,16,0,0,0,4,12,7,0,18,0,9,0,0,0,0,0,0,0,0,0,0,0,0],"split_type":[0,0,0,0,0,0,0,0,0,0,0,0,0,0,0,0,0,0,0,0,0,0,0,0,0,0,0,0,0,0,0,0,0],"sum_hessian":[7.305253E2,6.953615E2,3.5163834E1,6.4207983E2,5.3281673E1,1.5198413E1,1.9965422E1,5.0134726E2,1.4073256E2,4.1082874E1,1.21988E1,8.41698E0,6.781433E0,5.35003E0,1.4615392E1,1.8736044E2,3.1398682E2,9.200827E0,1.3153172E2,6.776806E0,3.430607E1,6.6290574E0,5.5697427E0,6.7693315E0,7.8460608E0,5.576247E1,1.3159798E2,1.0723145E1,3.0326367E2,4.5223274E1,8.630845E1,1.3141838E1,2.1164228E1],"tree_param":{"num_deleted":"0","num_feature":"25","num_nodes":"33","size_leaf_vector":"1"}},{"base_weights":[-8.124473E-3,6.34823E-2,-7.593029E-2,7.8509636E-2,-1.455074E-1,-3.8220814E-1,-3.529214E-2,3.3639953E-2,3.179242E-1,2.1166408E-2,-4.5211276E-1,2.1400632E-1,-7.689392E-2,-1.06319726E-1,1.1675628E-1,6.1219685E-2,4.8728532E-1,-5.458356E-1,-2.9474454E-2,-2.4174322E-1,6.914371E-1,-1.3138111E-1,1.1106815E-1,2.9787868E-3,-9.726821E-2,4.801499E-2,-8.861011E-3,5.345126E-2,-1.0797087E-1,1.9684216E-1,6.0290422E-2,-1.449509E-1,-6.264421E-2,8.109938E-2,-1.0223298E-1,2.2958903E-2,1.8039738E-1,2.6068414E-2,-4.3870665E-2,-6.4449986E-3,1.1826611E-1],"categories":[],"categories_nodes":[],"categories_segments":[],"categories_sizes":[],"default_left":[0,0,0,0,0,0,0,0,0,0,0,0,0,0,0,0,0,0,0,0,0,0,0,0,0,0,0,0,0,0,0,0,0,0,0,0,0,0,0,0,0],"id":25,"left_children":[1,3,5,7,-1,9,11,13,15,-1,17,19,21,23,25,27,29,31,-1,33,35,37,39,-1,-1,-1,-1,-1,-1,-1,-1,-1,-1,-1,-1,-1,-1,-1,-1,-1,-1],"loss_changes":[3.637798E0,4.095191E0,4.7897263E0,3.8374617E0,0E0,1.518384E0,3.5238144E0,3.499896E0,2.4510722E0,0E0,1.1562233E0,1.0573782E1,2.9821506E0,4.736184E0,3.2612543E0,2.4264257E0,3.0328665E0,1.0330238E0,0E0,3.7048585E0,2.1726465E0,4.29644E0,4.118301E0,0E0,0E0,0E0,0E0,0E0,0E0,0E0,0E0,0E0,0E0,0E0,0E0,0E0,0E0,0E0,0E0,0E0,0E0],"parents":[2147483647,0,0,1,1,2,2,3,3,5,5,6,6,7,7,8,8,10,10,11,11,12,12,13,13,14,14,15,15,16,16,17,17,19,19,20,20,21,21,22,22],"right_children":[2,4,6,8,-1,10,12,14,16,-1,18,20,22,24,26,28,30,32,-1,34,36,38,40,-1,-1,-1,-1,-1,-1,-1,-1,-1,-1,-1,-1,-1,-1,-1,-1,-1,-1],"split_conditions":[-7.618524E-2,1.0930232E0,-4.9465364E-1,1.5162297E-1,-1.455074E-1,-9.1055304E-1,-7.0957994E-1,-3.408427E-1,-3.9887473E-1,2.1166408E-2,2.0292804E0,5.187802E-1,1.0147777E0,-9.18161E-1,-1.7458294E-2,4.722222E-1,3.2683834E-1,1.9379283E-1,-2.9474454E-2,-8.8979757E-1,-1.5277775E-1,-1.6962302E-1,4.195425E-1,2.9787868E-3,-9.726821E-2,4.801499E-2,-8.861011E-3,5.345126E-2,-1.0797087E-1,1.9684216E-1,6.0290422E-2,-1.449509E-1,-6.264421E-2,8.109938E-2,-1.0223298E-1,2.2958903E-2,1.8039738E-1,2.6068414E-2,-4.3870665E-2,-6.4449986E-3,1.1826611E-1],"split_indices":[4,2,7,14,0,7,13,12,4,0,19,24,18,12,18,22,14,13,0,1,22,7,1,0,0,0,0,0,0,0,0,0,0,0,0,0,0,0,0,0,0],"split_type":[0,0,0,0,0,0,0,0,0,0,0,0,0,0,0,0,0,0,0,0,0,0,0,0,0,0,0,0,0,0,0,0,0,0,0,0,0,0,0,0,0],"sum_hessian":[7.4922186E2,3.6439758E2,3.8482428E2,3.5722437E2,7.1732116E0,4.5072666E1,3.3975162E2,3.008482E2,5.637615E1,5.711157E0,3.9361507E1,4.858433E1,2.9116727E2,1.12092926E2,1.887553E2,2.2412886E1,3.396326E1,3.0298836E1,9.062674E0,2.48581E1,2.3726233E1,2.2573285E2,6.543442E1,8.348755E1,2.8605375E1,1.1179841E2,7.695689E1,1.6801403E1,5.611482E0,1.0768741E1,2.319452E1,1.9658354E1,1.064048E1,6.8909526E0,1.7967148E1,5.0314918E0,1.869474E1,5.142772E1,1.7430513E2,4.9665478E1,1.5768938E1],"tree_param":{"num_deleted":"0","num_feature":"25","num_nodes":"41","size_leaf_vector":"1"}},{"base_weights":[-5.297936E-3,-1.313485E-2,1.5048495E-1,1.4172699E-1,-1.9275693E-2,-2.6536997E-2,1.009135E-1,9.55587E-3,-1.3395417E-1,-9.52203E-3,3.8358152E-2,5.0048616E-2,-3.9015383E-2],"categories":[],"categories_nodes":[],"categories_segments":[],"categories_sizes":[],"default_left":[0,0,0,0,0,0,0,0,0,0,0,0,0],"id":26,"left_children":[1,3,-1,-1,5,7,-1,9,11,-1,-1,-1,-1],"loss_changes":[3.8573005E0,2.849862E0,0E0,0E0,2.4267333E0,2.585562E0,0E0,4.6337595E0,3.0683804E0,0E0,0E0,0E0,0E0],"parents":[2147483647,0,0,1,1,4,4,5,5,7,7,8,8],"right_children":[2,4,-1,-1,6,8,-1,10,12,-1,-1,-1,-1],"split_conditions":[3.1845524E0,-1.0348479E0,1.5048495E-1,1.4172699E-1,1.2069513E0,2.1985815E-1,1.009135E-1,6.738906E-2,-1.3106699E0,-9.52203E-3,3.8358152E-2,5.0048616E-2,-3.9015383E-2],"split_indices":[5,1,0,0,1,1,0,1,12,0,0,0,0],"split_type":[0,0,0,0,0,0,0,0,0,0,0,0,0],"sum_hessian":[6.902965E2,6.8279767E2,7.4988194E0,6.108044E0,6.7668964E2,6.6689E2,9.799599E0,4.9917087E2,1.6771918E2,3.787194E2,1.20451485E2,1.982998E1,1.478892E2],"tree_param":{"num_deleted":"0","num_feature":"25","num_nodes":"13","size_leaf_vector":"1"}},{"base_weights":[7.585017E-3,-3.2403193E-2,1.00271285E-1,7.5782784E-3,-2.0095818E-1,4.0134335E-1,-5.9521697E-3,-4.426223E-3,1.5393394E-1,1.9109444E-1,-3.017032E-1,2.5390974E-1,7.465102E-1,-2.1958673E-1,1.1528788E-1,-1.8238658E-2,1.364719E-1,1.9048391E-1,-2.0373128E-1,-4.5078376E-1,-2.7702576E-3,4.042516E-1,-9.93558E-2,9.675493E-1,5.6395322E-2,-3.030791E-2,-6.3986886E-1,-1.3801757E-1,1.7908095E-1,5.4284353E-3,-4.9518477E-2,2.7857792E-2,-1.3874039E-1,-4.5798477E-2,-1.5053116E-1,-5.9394285E-2,1.14830025E-1,-6.851403E-2,1.1543385E-1,1.7191368E-1,2.3861933E-1,1.509028E-1,-3.644756E-2,-1.0823524E-1,-1.4691725E-1,-1.5607447E-3,9.561536E-2],"categories":[],"categories_nodes":[],"categories_segments":[],"categories_sizes":[],"default_left":[0,0,0,0,0,0,0,0,0,0,0,0,0,0,0,0,0,0,0,0,0,0,0,0,0,0,0,0,0,0,0,0,0,0,0,0,0,0,0,0,0,0,0,0,0,0,0],"id":27,"left_children":[1,3,5,7,9,11,13,15,-1,17,19,21,23,25,27,29,-1,-1,31,33,35,37,-1,39,-1,41,43,-1,45,-1,-1,-1,-1,-1,-1,-1,-1,-1,-1,-1,-1,-1,-1,-1,-1,-1,-1],"loss_changes":[2.7108397E0,3.4433951E0,7.050063E0,3.551601E0,3.869644E0,2.9245768E0,4.220962E0,3.6258261E0,0E0,5.5745726E0,3.4733238E0,4.3699636E0,1.8286543E0,4.69341E0,5.070119E0,3.736204E0,0E0,0E0,1.9297547E0,3.146905E0,3.8949845E0,3.359109E0,0E0,2.8433704E-1,0E0,4.248865E0,1.2022972E-1,0E0,4.8405247E0,0E0,0E0,0E0,0E0,0E0,0E0,0E0,0E0,0E0,0E0,0E0,0E0,0E0,0E0,0E0,0E0,0E0,0E0],"parents":[2147483647,0,0,1,1,2,2,3,3,4,4,5,5,6,6,7,7,9,9,10,10,11,11,12,12,13,13,14,14,15,15,18,18,19,19,20,20,21,21,23,23,25,25,26,26,28,28],"right_children":[2,4,6,8,10,12,14,16,-1,18,20,22,24,26,28,30,-1,-1,32,34,36,38,-1,40,-1,42,44,-1,46,-1,-1,-1,-1,-1,-1,-1,-1,-1,-1,-1,-1,-1,-1,-1,-1,-1,-1],"split_conditions":[2.0377544E-1,7.556809E-1,3.1856346E-1,1.3193592E0,-1.4128987E0,2.7349895E-1,-1.8879792E-1,1.121507E0,1.5393394E-1,-2.0184809E-1,1.02844E0,3.8030493E-1,6.2331253E-1,3.1403476E-1,-1.8690271E0,1.173305E-1,1.364719E-1,1.9048391E-1,3.237886E-1,-1.0403409E-1,1.0689721E0,-7.52793E-1,-9.93558E-2,1.0119379E-1,5.6395322E-2,-3.486725E-1,-1E0,-1.3801757E-1,4.5857617E-1,5.4284353E-3,-4.9518477E-2,2.7857792E-2,-1.3874039E-1,-4.5798477E-2,-1.5053116E-1,-5.9394285E-2,1.14830025E-1,-6.851403E-2,1.1543385E-1,1.7191368E-1,2.3861933E-1,1.509028E-1,-3.644756E-2,-1.0823524E-1,-1.4691725E-1,-1.5607447E-3,9.561536E-2],"split_indices":[1,9,1,14,12,1,15,20,0,1,8,20,13,5,12,13,0,0,7,8,7,24,0,20,0,20,22,0,20,0,0,0,0,0,0,0,0,0,0,0,0,0,0,0,0,0,0],"split_type":[0,0,0,0,0,0,0,0,0,0,0,0,0,0,0,0,0,0,0,0,0,0,0,0,0,0,0,0,0,0,0,0,0,0,0,0,0,0,0,0,0,0,0,0,0,0,0],"sum_hessian":[7.313907E2,5.1095154E2,2.2043913E2,4.1299445E2,9.795707E1,5.7486534E1,1.629526E2,4.061936E2,6.8008456E0,2.0024687E1,7.793238E1,4.028852E1,1.7198013E1,5.8994595E1,1.0395801E2,3.9769928E2,8.494326E0,7.187669E0,1.2837019E1,5.199756E1,2.593482E1,3.3340687E1,6.947832E0,1.1781135E1,5.416878E0,4.0680363E1,1.8314234E1,8.003535E0,9.5954475E1,3.3034332E2,6.735596E1,7.3549156E0,5.482103E0,2.7152365E1,2.4845196E1,1.718314E1,8.751679E0,5.3410563E0,2.7999632E1,5.826464E0,5.954671E0,6.5107193E0,3.4169643E1,5.1595926E0,1.315464E1,5.681636E1,3.9138115E1],"tree_param":{"num_deleted":"0","num_feature":"25","num_nodes":"47","size_leaf_vector":"1"}},{"base_weights":[-9.123245E-3,7.6934874E-2,-8.2710445E-2,1.0561833E-1,-3.3645585E-1,-5.1755625E-1,-3.8498357E-2,2.0969287E-1,8.169081E-3,-5.672005E-1,2.2379296E-2,-6.0658824E-1,4.935276E-4,-3.8389337E-1,-8.71021E-3,7.90555E-2,4.7328898E-1,-4.4757947E-2,3.758445E-1,-8.662002E-2,-1.3985705E-1,-8.110395E-2,-1.3909075E-1,-5.4911286E-1,-3.0235713E-3,1.7498894E-1,-6.7105204E-2,4.3092415E-2,-6.942653E-2,1.80528E-1,7.707284E-2,-6.3525476E-2,1.0543389E-2,-7.035679E-2,1.5405911E-1,-1.45448E-1,-4.424735E-2,-7.920798E-3,1.0736415E-1,-3.784072E-2,2.3387063E-2],"categories":[],"categories_nodes":[],"categories_segments":[],"categories_sizes":[],"default_left":[0,0,0,0,0,0,0,0,0,0,0,0,0,0,0,0,0,0,0,0,0,0,0,0,0,0,0,0,0,0,0,0,0,0,0,0,0,0,0,0,0],"id":28,"left_children":[1,3,5,7,9,11,13,15,17,19,-1,21,-1,23,25,27,29,31,33,-1,-1,-1,-1,35,-1,37,39,-1,-1,-1,-1,-1,-1,-1,-1,-1,-1,-1,-1,-1,-1],"loss_changes":[4.6237316E0,3.9908044E0,7.566633E0,3.1918175E0,2.2260966E0,1.6812496E0,3.6757476E0,5.240285E0,3.1630747E0,2.059102E-1,0E0,3.3038425E-1,0E0,1.7324176E0,3.5282693E0,5.1015034E0,2.0978308E0,3.404873E0,5.041588E0,0E0,0E0,0E0,0E0,9.010067E-1,0E0,5.555543E0,4.8996E0,0E0,0E0,0E0,0E0,0E0,0E0,0E0,0E0,0E0,0E0,0E0,0E0,0E0,0E0],"parents":[2147483647,0,0,1,1,2,2,3,3,4,4,5,5,6,6,7,7,8,8,9,9,11,11,13,13,14,14,15,15,16,16,17,17,18,18,23,23,25,25,26,26],"right_children":[2,4,6,8,10,12,14,16,18,20,-1,22,-1,24,26,28,30,32,34,-1,-1,-1,-1,36,-1,38,40,-1,-1,-1,-1,-1,-1,-1,-1,-1,-1,-1,-1,-1,-1],"split_conditions":[-1.3004161E-1,6.682465E-1,-5.57395E-1,-2.1896933E-1,1.0400443E0,7.124327E-1,-4.9465364E-1,-5.7658136E-2,1.914105E-1,-3.006595E-1,2.2379296E-2,-5.4387075E-1,4.935276E-4,5.4227614E-1,-3.6957502E-1,-2.5184754E-1,-7.495621E-1,-7.5659454E-1,1.0006311E-1,-8.662002E-2,-1.3985705E-1,-8.110395E-2,-1.3909075E-1,6.682465E-1,-3.0235713E-3,3.963353E-1,7.877675E-1,4.3092415E-2,-6.942653E-2,1.80528E-1,7.707284E-2,-6.3525476E-2,1.0543389E-2,-7.035679E-2,1.5405911E-1,-1.45448E-1,-4.424735E-2,-7.920798E-3,1.0736415E-1,-3.784072E-2,2.3387063E-2],"split_indices":[4,8,9,9,17,17,7,7,8,0,0,17,0,18,18,7,4,21,9,0,0,0,0,8,0,17,15,0,0,0,0,0,0,0,0,0,0,0,0,0,0],"split_type":[0,0,0,0,0,0,0,0,0,0,0,0,0,0,0,0,0,0,0,0,0,0,0,0,0,0,0,0,0,0,0,0,0,0,0,0,0,0,0,0,0],"sum_hessian":[7.301148E2,3.365402E2,3.935746E2,3.147085E2,2.1831694E1,3.6316757E1,3.5725784E2,1.5217758E2,1.6253091E2,1.4339204E1,7.4924893E0,3.100583E1,5.310926E0,2.83591E1,3.2889874E2,1.017558E2,5.0421783E1,1.4208333E2,2.0447592E1,5.197026E0,9.142178E0,5.4143834E0,2.5591448E1,1.9597364E1,8.761735E0,7.932992E1,2.4956882E2,7.798995E1,2.3765848E1,1.1476112E1,3.894567E1,3.8477833E1,1.036055E2,6.7554007E0,1.3692192E1,1.4037825E1,5.559541E0,4.827841E1,3.1051504E1,1.53489E2,9.607982E1],"tree_param":{"num_deleted":"0","num_feature":"25","num_nodes":"41","size_leaf_vector":"1"}},{"base_weights":[8.197653E-3,-1.1105332E-2,2.990536E-1,5.8083776E-2,-1.4441673E-1,4.035262E-1,-6.371155E-2,3.474556E-1,2.0635566E-2,-1.9399714E-1,8.911762E-2,5.373669E-1,-3.7087467E-2,5.071751E-1,-1.3536237E-1,-1.2564799E-1,7.841538E-2,7.948218E-2,-2.7296335E-1,4.2246094E-1,-1.3505372E-1,2.5075031E-2,7.480504E-1,1.6889149E-1,4.912338E-3,1.8399252E-2,-6.345348E-2,4.6446994E-2,-2.253584E-3,-1.864161E-2,1.8951665E-1,-6.309895E-2,5.2480843E-2,2.9187414E-3,2.206533E-1,1.142562E-1,-7.3033795E-2,6.548354E-2,2.2891283E-1],"categories":[],"categories_nodes":[],"categories_segments":[],"categories_sizes":[],"default_left":[0,0,0,0,0,0,0,0,0,0,0,0,0,0,0,0,0,0,0,0,0,0,0,0,0,0,0,0,0,0,0,0,0,0,0,0,0,0,0],"id":29,"left_children":[1,3,5,7,9,11,-1,13,15,17,19,21,-1,23,-1,25,27,29,31,33,35,-1,37,-1,-1,-1,-1,-1,-1,-1,-1,-1,-1,-1,-1,-1,-1,-1,-1],"loss_changes":[3.902129E0,6.0117774E0,2.706174E0,4.6496706E0,2.5786247E0,2.8495588E0,0E0,7.729343E0,3.2112522E0,3.9671884E0,2.914928E0,2.6423273E0,0E0,5.8789816E0,0E0,3.943534E0,3.3944874E0,5.5858655E0,1.7624197E0,3.944054E0,3.26978E0,0E0,2.8757572E0,0E0,0E0,0E0,0E0,0E0,0E0,0E0,0E0,0E0,0E0,0E0,0E0,0E0,0E0,0E0,0E0],"parents":[2147483647,0,0,1,1,2,2,3,3,4,4,5,5,7,7,8,8,9,9,10,10,11,11,13,13,15,15,16,16,17,17,18,18,19,19,20,20,22,22],"right_children":[2,4,6,8,10,12,-1,14,16,18,20,22,-1,24,-1,26,28,30,32,34,36,-1,38,-1,-1,-1,-1,-1,-1,-1,-1,-1,-1,-1,-1,-1,-1,-1,-1],"split_conditions":[1.0581396E0,2.1511619E-1,2.1438081E0,-8.5685945E-1,8.493042E-1,1.058454E0,-6.371155E-2,1.025585E0,-1.0573201E-1,-5.783269E-1,6.264308E-1,-2.4408032E-1,-3.7087467E-2,4.7037867E-1,-1.3536237E-1,-3.155704E-1,3.2432654E-3,5.615607E-1,3.1121078E0,4.432198E-1,-2.9437742E-4,2.5075031E-2,-9.1666657E-1,1.6889149E-1,4.912338E-3,1.8399252E-2,-6.345348E-2,4.6446994E-2,-2.253584E-3,-1.864161E-2,1.8951665E-1,-6.309895E-2,5.2480843E-2,2.9187414E-3,2.206533E-1,1.142562E-1,-7.3033795E-2,6.548354E-2,2.2891283E-1],"split_indices":[2,2,9,1,18,18,0,9,10,11,5,18,0,15,0,18,19,21,19,5,9,0,22,0,0,0,0,0,0,0,0,0,0,0,0,0,0,0,0],"split_type":[0,0,0,0,0,0,0,0,0,0,0,0,0,0,0,0,0,0,0,0,0,0,0,0,0,0,0,0,0,0,0,0,0,0,0,0,0,0,0],"sum_hessian":[6.9501245E2,6.517633E2,4.3249146E1,4.290751E2,2.2268819E2,3.6825027E1,6.4241204E0,4.915909E1,3.7991602E2,1.8369089E2,3.8997303E1,2.990098E1,6.924046E0,4.229691E1,6.86218E0,1.0756974E2,2.7234628E2,4.11563E1,1.4253459E2,1.5678286E1,2.331902E1,1.0000661E1,1.990032E1,2.6547806E1,1.5749103E1,4.8279408E1,5.9290333E1,1.05844536E2,1.6650174E2,3.413351E1,7.0227923E0,1.3630092E2,6.2336764E0,9.423854E0,6.2544312E0,5.5154138E0,1.7803606E1,8.510517E0,1.1389803E1],"tree_param":{"num_deleted":"0","num_feature":"25","num_nodes":"39","size_leaf_vector":"1"}},{"base_weights":[-6.9207395E-3,-1.7541803E-2,3.2560247E-1,-8.583425E-3,-4.6339935E-1,1.383189E-1,2.046548E-1,-1.3492513E-1,2.2470638E-2,-5.5959623E-2,-1.6932225E-1,-1.1214284E-1,4.6629068E-1,-3.8213927E-1,1.9163495E-2,2.6228273E-1,-2.1875013E-2,4.3122843E-2,1.7078109E-1,1.8718762E-2,-9.618138E-2,1.7215036E-1,-8.3365E-3,2.1671093E-1,4.5316856E-2,5.4678626E-2,-9.413186E-3],"categories":[],"categories_nodes":[],"categories_segments":[],"categories_sizes":[],"default_left":[0,0,0,0,0,0,0,0,0,0,0,0,0,0,0,0,0,0,0,0,0,0,0,0,0,0,0],"id":30,"left_children":[1,3,5,7,9,11,-1,13,15,-1,-1,-1,17,19,21,23,25,-1,-1,-1,-1,-1,-1,-1,-1,-1,-1],"loss_changes":[2.5306652E0,2.7733777E0,2.6444912E0,2.6706767E0,9.103229E-1,3.7450395E0,0E0,5.115988E0,5.8107963E0,0E0,0E0,0E0,1.0188544E0,1.7020149E0,3.81754E0,3.171711E0,2.8813915E0,0E0,0E0,0E0,0E0,0E0,0E0,0E0,0E0,0E0,0E0],"parents":[2147483647,0,0,1,1,2,2,3,3,4,4,5,5,7,7,8,8,12,12,13,13,14,14,15,15,16,16],"right_children":[2,4,6,8,10,12,-1,14,16,-1,-1,-1,18,20,22,24,26,-1,-1,-1,-1,-1,-1,-1,-1,-1,-1],"split_conditions":[2.0491438E0,1.5717299E0,2.2805247E0,-5.5998003E-1,-3.320255E-1,3.631019E-1,2.046548E-1,-3.9288172E-1,-6.4280236E-1,-5.5959623E-2,-1.6932225E-1,-1.1214284E-1,1E0,-6.3039494E-1,-3.8733125E-1,-4.9999997E-1,-5.57395E-1,4.3122843E-2,1.7078109E-1,1.8718762E-2,-9.618138E-2,1.7215036E-1,-8.3365E-3,2.1671093E-1,4.5316856E-2,5.4678626E-2,-9.413186E-3],"split_indices":[7,4,9,5,12,19,0,3,3,0,0,0,23,7,20,2,9,0,0,0,0,0,0,0,0,0,0],"split_type":[0,0,0,0,0,0,0,0,0,0,0,0,0,0,0,0,0,0,0,0,0,0,0,0,0,0,0],"sum_hessian":[7.165323E2,6.9435974E2,2.217255E1,6.8068933E2,1.3670428E1,1.7139717E1,5.0328336E0,1.342955E2,5.463938E2,8.543062E0,5.1273665E0,5.655835E0,1.1483881E1,5.1562122E1,8.273338E1,8.526554E1,4.6112827E2,6.4492908E0,5.0345902E0,6.6972246E0,4.48649E1,5.683823E0,7.704956E1,5.19332E0,8.007222E1,3.425506E1,4.268732E2],"tree_param":{"num_deleted":"0","num_feature":"25","num_nodes":"27","size_leaf_vector":"1"}},{"base_weights":[2.1327185E-2,-2.4526818E-1,3.4288395E-2,-4.0392184E-1,5.0588574E-2,1.2808236E-1,2.9120957E-2,-1.613656E-1,-1.5553372E-1,8.486538E-2,-7.222294E-2,5.6410536E-2,-7.4640654E-2,5.1346917E-2,-1.0393223E-1,-2.4642313E-2,1.2754881E-1,1.3214006E-1,-3.1677112E-1,-1.1235548E-2,1.3080773E-1,7.7659026E-2,2.0265132E-2,-1.5530305E-1,4.3738097E-2,-1.09643705E-1,2.3668108E-3],"categories":[],"categories_nodes":[],"categories_segments":[],"categories_sizes":[],"default_left":[0,0,0,0,0,0,0,0,0,0,0,0,0,0,0,0,0,0,0,0,0,0,0,0,0,0,0],"id":31,"left_children":[1,3,5,7,9,-1,11,13,-1,-1,-1,15,17,-1,-1,19,21,23,25,-1,-1,-1,-1,-1,-1,-1,-1],"loss_changes":[2.5730486E0,1.6206644E0,2.0843766E0,1.784688E0,1.6406378E0,0E0,1.9926832E0,1.7047921E0,0E0,0E0,0E0,3.2127147E0,7.3373184E0,0E0,0E0,4.6988387E0,2.2739005E0,5.015599E0,4.4018517E0,0E0,0E0,0E0,0E0,0E0,0E0,0E0,0E0],"parents":[2147483647,0,0,1,1,2,2,3,3,4,4,6,6,7,7,11,11,12,12,15,15,16,16,17,17,18,18],"right_children":[2,4,6,8,10,-1,12,14,-1,-1,-1,16,18,-1,-1,20,22,24,26,-1,-1,-1,-1,-1,-1,-1,-1],"split_conditions":[-1.1817261E0,-9.8536307E-1,-1.3413075E0,7.49452E-2,-1.2855197E0,1.2808236E-1,7.109389E-1,-1.3431388E0,-1.5553372E-1,8.486538E-2,-7.222294E-2,-1.2999545E-1,-1.9430299E-1,5.1346917E-2,-1.0393223E-1,7.98189E-1,-1.8357636E0,7.7600825E-1,9.626936E-1,-1.1235548E-2,1.3080773E-1,7.7659026E-2,2.0265132E-2,-1.5530305E-1,4.3738097E-2,-1.09643705E-1,2.3668108E-3],"split_indices":[24,4,21,20,24,0,8,8,0,0,0,5,20,0,0,17,12,8,21,0,0,0,0,0,0,0,0],"split_type":[0,0,0,0,0,0,0,0,0,0,0,0,0,0,0,0,0,0,0,0,0,0,0,0,0,0,0],"sum_hessian":[7.446258E2,3.451827E1,7.101075E2,2.246772E1,1.2050548E1,6.3948827E0,7.0371265E2,1.2913624E1,9.554097E0,6.365497E0,5.6850505E0,5.5717664E2,1.4653598E2,5.790572E0,7.123051E0,2.604413E2,2.9673532E2,7.9038994E1,6.7496994E1,2.4945345E2,1.0987874E1,3.544124E1,2.612941E2,6.206395E0,7.2832596E1,4.201319E1,2.5483803E1],"tree_param":{"num_deleted":"0","num_feature":"25","num_nodes":"27","size_leaf_vector":"1"}},{"base_weights":[-1.0168196E-2,-1.7942825E-2,1.6166583E-1,-3.8454823E-2,1.9755843E-1,4.0679327E-3,-2.1881014E-1,3.6451283E-1,-4.3549666E-1,-4.9713342E-3,1.3046888E-1,-2.7592975E-1,9.217789E-2,1.2398971E-1,6.136522E-1,-1.8529177E-2,-1.4659598E-1,1.4173046E-1,-2.8671164E-3,2.9353293E-2,-6.857452E-2,-7.266287E-2,1.129595E-1,2.127804E-1,7.2392E-2],"categories":[],"categories_nodes":[],"categories_segments":[],"categories_sizes":[],"default_left":[0,0,0,0,0,0,0,0,0,0,0,0,0,0,0,0,0,0,0,0,0,0,0,0,0],"id":32,"left_children":[1,3,-1,5,7,9,11,13,15,17,-1,19,-1,21,23,-1,-1,-1,-1,-1,-1,-1,-1,-1,-1],"loss_changes":[4.132432E0,3.0190916E0,0E0,4.7827797E0,6.274764E0,2.780437E0,4.433987E0,2.8144488E0,1.0956349E0,2.8425841E0,0E0,2.1093311E0,0E0,4.5355735E0,2.4374962E0,0E0,0E0,0E0,0E0,0E0,0E0,0E0,0E0,0E0,0E0],"parents":[2147483647,0,0,1,1,3,3,4,4,5,5,6,6,7,7,8,8,9,9,11,11,13,13,14,14],"right_children":[2,4,-1,6,8,10,12,14,16,18,-1,20,-1,22,24,-1,-1,-1,-1,-1,-1,-1,-1,-1,-1],"split_conditions":[1.9556307E0,1.0116277E0,1.6166583E-1,2.1985815E-1,9.534846E-1,9.406791E-1,1.2069513E0,-2.232479E-2,1.0613084E-1,-1.0348479E0,1.3046888E-1,-8.8228774E-1,9.217789E-2,-1E0,3.718565E-1,-1.8529177E-2,-1.4659598E-1,1.4173046E-1,-2.8671164E-3,2.9353293E-2,-6.857452E-2,-7.266287E-2,1.129595E-1,2.127804E-1,7.2392E-2],"split_indices":[13,2,0,1,17,10,1,7,6,1,0,17,0,22,0,0,0,0,0,0,0,0,0,0,0],"split_type":[0,0,0,0,0,0,0,0,0,0,0,0,0,0,0,0,0,0,0,0,0,0,0,0,0],"sum_hessian":[6.898663E2,6.829804E2,6.885867E0,6.23627E2,5.9353397E1,5.0465045E2,1.1897657E2,4.6968987E1,1.2384409E1,4.9728162E2,7.368825E0,1.0940047E2,9.576104E0,2.390245E1,2.3066538E1,5.2248116E0,7.1595974E0,6.2188454E0,4.9106277E2,1.1060462E1,9.8340004E1,1.115118E1,1.2751269E1,9.538193E0,1.3528345E1],"tree_param":{"num_deleted":"0","num_feature":"25","num_nodes":"25","size_leaf_vector":"1"}},{"base_weights":[-1.9206105E-3,6.0013875E-2,-7.109125E-2,9.687455E-2,-2.7691793E-1,-1.2418062E-1,1.591844E-1,4.6239447E-2,3.7430003E-1,-3.8733274E-1,4.0557567E-2,-1.4917575E-1,4.6932825E-1,2.3925154E-1,-8.355756E-2,-3.8111635E-2,2.0092471E-1,2.233246E-1,2.6987246E-1,-5.976905E-1,-1.6249123E-1,-1.1055935E-1,-4.5398325E-1,2.5733676E-2,1.6246843E-1,1.1508351E-2,5.7565385E-1,-5.1401425E-2,1.7458972E-2,1.0933112E-1,8.7263435E-4,-4.024027E-5,1.04760654E-1,-1.4397436E-1,-9.245256E-2,-1.2390811E-1,1.0543906E-1,-8.112118E-2,-1.1209244E-2,-1.3046493E-1,-3.5213523E-2,-4.5581017E-2,9.664669E-2,1.8924592E-1,4.0019017E-2],"categories":[],"categories_nodes":[],"categories_segments":[],"categories_sizes":[],"default_left":[0,0,0,0,0,0,0,0,0,0,0,0,0,0,0,0,0,0,0,0,0,0,0,0,0,0,0,0,0,0,0,0,0,0,0,0,0,0,0,0,0,0,0,0,0],"id":33,"left_children":[1,3,5,7,9,11,13,15,17,19,-1,21,23,25,-1,27,29,-1,31,33,35,37,39,-1,-1,41,43,-1,-1,-1,-1,-1,-1,-1,-1,-1,-1,-1,-1,-1,-1,-1,-1,-1,-1],"loss_changes":[3.0461695E0,4.6593165E0,4.106586E0,4.750145E0,1.9107721E0,4.0499363E0,2.7828403E0,3.7313628E0,3.6824737E0,1.4150643E0,0E0,3.082941E0,1.1320446E0,4.211259E0,0E0,4.530301E0,6.2216463E0,0E0,2.7207117E0,1.9815493E-1,4.006762E0,3.6436844E0,1.354711E0,0E0,0E0,3.2810388E0,2.701559E0,0E0,0E0,0E0,0E0,0E0,0E0,0E0,0E0,0E0,0E0,0E0,0E0,0E0,0E0,0E0,0E0,0E0,0E0],"parents":[2147483647,0,0,1,1,2,2,3,3,4,4,5,5,6,6,7,7,8,8,9,9,11,11,12,12,13,13,15,15,16,16,18,18,19,19,20,20,21,21,22,22,25,25,26,26],"right_children":[2,4,6,8,10,12,14,16,18,20,-1,22,24,26,-1,28,30,-1,32,34,36,38,40,-1,-1,42,44,-1,-1,-1,-1,-1,-1,-1,-1,-1,-1,-1,-1,-1,-1,-1,-1,-1,-1],"split_conditions":[3.8482383E-2,1.0829818E0,7.5581384E-1,2.993884E-1,8.284113E-1,1.870368E0,1.2088249E0,2.4418607E-1,2.5625113E-1,-8.333333E-1,4.0557567E-2,8.8964045E-1,-3.833444E-1,6.022579E-1,-8.355756E-2,3.4722224E-1,-4.7566086E-2,2.233246E-1,9.611623E-1,4.9098536E-1,7.170984E-2,-1.609906E-1,1.3957219E0,2.5733676E-2,1.6246843E-1,8.7755156E-1,4.9846804E-1,-5.1401425E-2,1.7458972E-2,1.0933112E-1,8.7263435E-4,-4.024027E-5,1.04760654E-1,-1.4397436E-1,-9.245256E-2,-1.2390811E-1,1.0543906E-1,-8.112118E-2,-1.1209244E-2,-1.3046493E-1,-3.5213523E-2,-4.5581017E-2,9.664669E-2,1.8924592E-1,4.0019017E-2],"split_indices":[11,10,2,6,20,7,7,2,4,22,0,21,12,21,0,22,12,0,7,3,15,15,21,0,0,20,3,0,0,0,0,0,0,0,0,0,0,0,0,0,0,0,0,0,0],"split_type":[0,0,0,0,0,0,0,0,0,0,0,0,0,0,0,0,0,0,0,0,0,0,0,0,0,0,0,0,0,0,0,0,0,0,0,0,0,0,0,0,0,0,0,0,0],"sum_hessian":[7.11037E2,3.7514114E2,3.3589584E2,3.3815146E2,3.698968E1,2.72967E2,6.2928837E1,2.85965E2,5.218648E1,2.99253E1,7.06438E0,2.6194025E2,1.1026767E1,5.49622E1,7.9666386E0,1.8505667E2,1.0090832E2,6.975837E0,4.5210644E1,1.5455316E1,1.4469985E1,2.3249379E2,2.9446466E1,5.0580845E0,5.968683E0,3.2778008E1,2.2184193E1,6.869596E1,1.163607E2,3.8934086E1,6.197423E1,2.0440472E1,2.4770172E1,1.0377602E1,5.0777135E0,8.832746E0,5.63724E0,4.0897003E1,1.9159679E2,1.8952269E1,1.0494199E1,2.1711456E1,1.1066551E1,1.2243174E1,9.941019E0],"tree_param":{"num_deleted":"0","num_feature":"25","num_nodes":"45","size_leaf_vector":"1"}},{"base_weights":[-7.181535E-3,6.597376E-2,-8.8065274E-2,-1.4977683E-1,7.97763E-2,-7.3968604E-2,-1.3954908E-1,2.0213956E-1,-1.5819719E-2,-1.4984962E-1,9.277953E-2,6.518122E-2,3.8296238E-1,-8.111773E-2,1.7622958E-1,-9.405161E-2,-5.668594E-1,2.0599051E-1,-2.65464E-1,-1.1280993E-1,2.8979072E-2,3.1372804E-2,1.31073E-1,-1.1066434E-1,-8.143675E-3,1.7648742E-1,1.5506352E-2,-1.5382946E-2,-1.5116122E-1,-4.364821E-2,-1.6072428E-1,6.40609E-2,-3.1764444E-2,3.2112967E-2,-1.389213E-1],"categories":[],"categories_nodes":[],"categories_segments":[],"categories_sizes":[],"default_left":[0,0,0,0,0,0,0,0,0,0,0,0,0,0,0,0,0,0,0,0,0,0,0,0,0,0,0,0,0,0,0,0,0,0,0],"id":34,"left_children":[1,3,5,-1,7,9,-1,11,13,15,17,19,21,23,25,27,29,31,33,-1,-1,-1,-1,-1,-1,-1,-1,-1,-1,-1,-1,-1,-1,-1,-1],"loss_changes":[4.299044E0,4.056768E0,2.7634993E0,0E0,4.384122E0,4.2603836E0,0E0,4.0708017E0,2.6387837E0,5.384013E0,4.271224E0,3.962659E0,3.8930635E0,2.9538112E0,3.6055455E0,2.7326336E0,1.8652668E0,2.7097826E0,4.0859213E0,0E0,0E0,0E0,0E0,0E0,0E0,0E0,0E0,0E0,0E0,0E0,0E0,0E0,0E0,0E0,0E0],"parents":[2147483647,0,0,1,1,2,2,4,4,5,5,7,7,8,8,9,9,10,10,11,11,12,12,13,13,14,14,15,15,16,16,17,17,18,18],"right_children":[2,4,6,-1,8,10,-1,12,14,16,18,20,22,24,26,28,30,32,34,-1,-1,-1,-1,-1,-1,-1,-1,-1,-1,-1,-1,-1,-1,-1,-1],"split_conditions":[1.033117E-2,-1.1817261E0,1.660083E0,-1.4977683E-1,-2.0141451E-1,7.67328E-1,-1.3954908E-1,1.376257E-1,-1.745708E-1,4.4486463E-1,7.965115E-1,-6.5483546E-1,2.8696716E-1,-8.1906605E-1,-1.3850664E0,3.7515185E0,2.674096E-1,1.5605012E0,2.2537693E-1,-1.1280993E-1,2.8979072E-2,3.1372804E-2,1.31073E-1,-1.1066434E-1,-8.143675E-3,1.7648742E-1,1.5506352E-2,-1.5382946E-2,-1.5116122E-1,-4.364821E-2,-1.6072428E-1,6.40609E-2,-3.1764444E-2,3.2112967E-2,-1.389213E-1],"split_indices":[18,24,24,0,14,14,0,11,18,14,2,7,20,5,12,19,18,9,15,0,0,0,0,0,0,0,0,0,0,0,0,0,0,0,0],"split_type":[0,0,0,0,0,0,0,0,0,0,0,0,0,0,0,0,0,0,0,0,0,0,0,0,0,0,0,0,0,0,0,0,0,0,0],"sum_hessian":[7.2653674E2,3.8149478E2,3.4504196E2,6.7095637E0,3.7478522E2,3.3669595E2,8.34603E0,1.6437627E2,2.1040894E2,2.3139651E2,1.0529943E2,9.353767E1,7.083861E1,1.5702354E2,5.3385395E1,2.0409512E2,2.7301382E1,8.001576E1,2.528367E1,9.969783E0,8.356789E1,3.5275833E1,3.556277E1,1.3939263E1,1.4308429E2,7.278742E0,4.6106655E1,1.971634E2,6.931717E0,9.376265E0,1.7925117E1,6.3099323E1,1.691644E1,1.2193748E1,1.3089923E1],"tree_param":{"num_deleted":"0","num_feature":"25","num_nodes":"35","size_leaf_vector":"1"}},{"base_weights":[-2.579458E-3,-2.2498723E-2,2.2000507E-1,1.4878634E-2,-1.8148565E-1,4.830434E-1,-2.120414E-1,-4.2546564E-3,2.9951543E-1,-2.2570515E-1,2.896021E-1,2.2477567E-1,8.556137E-1,-5.1181966E-1,5.814129E-2,4.6135873E-2,-2.4046288E-1,1.1460317E-1,2.68859E-1,1.2188856E-1,-2.9858726E-1,1.8821238E-1,-6.98468E-2,5.8020693E-1,-4.908581E-2,1.9857019E-1,1.5147682E-1,-1.522162E-1,-6.998531E-2,-2.5366921E-2,1.9269431E-2,1.0849849E-1,-6.488321E-2,8.9087844E-2,-8.548216E-2,1.13105014E-1,-5.7516474E-2,-9.341976E-2,-2.8599316E-2,1.9683893E-1,4.525784E-2],"categories":[],"categories_nodes":[],"categories_segments":[],"categories_sizes":[],"default_left":[0,0,0,0,0,0,0,0,0,0,0,0,0,0,0,0,0,0,0,0,0,0,0,0,0,0,0,0,0,0,0,0,0,0,0,0,0,0,0,0,0],"id":35,"left_children":[1,3,5,7,9,11,13,15,17,19,21,23,25,27,-1,29,31,33,-1,35,37,-1,-1,39,-1,-1,-1,-1,-1,-1,-1,-1,-1,-1,-1,-1,-1,-1,-1,-1,-1],"loss_changes":[3.0876727E0,3.7984953E0,6.501439E0,2.8185492E0,2.5349631E0,3.4202652E0,3.1518617E0,5.772231E0,5.815198E0,2.8181515E0,3.84592E0,3.402986E0,1.5899277E-1,4.975562E-1,0E0,2.941508E0,4.140717E0,4.303432E0,0E0,3.103551E0,2.123413E0,0E0,0E0,1.496938E0,0E0,0E0,0E0,0E0,0E0,0E0,0E0,0E0,0E0,0E0,0E0,0E0,0E0,0E0,0E0,0E0,0E0],"parents":[2147483647,0,0,1,1,2,2,3,3,4,4,5,5,6,6,7,7,8,8,9,9,10,10,11,11,12,12,13,13,15,15,16,16,17,17,19,19,20,20,23,23],"right_children":[2,4,6,8,10,12,14,16,18,20,22,24,26,28,-1,30,32,34,-1,36,38,-1,-1,40,-1,-1,-1,-1,-1,-1,-1,-1,-1,-1,-1,-1,-1,-1,-1,-1,-1],"split_conditions":[1.0232556E0,2.1637617E-1,7.87905E-1,6.220929E-1,1.2069513E0,-2.232479E-2,1.5348054E0,2.3255804E-1,1.393247E-1,-8.203365E-1,2.1601534E-2,7.094798E-2,4.4021302E-1,5.8126706E-1,5.814129E-2,-6.6158533E-1,-4.793672E-1,3.4621847E-1,2.68859E-1,-4.0132895E-1,-7.06378E-2,1.8821238E-1,-6.98468E-2,8.434405E-1,-4.908581E-2,1.9857019E-1,1.5147682E-1,-1.522162E-1,-6.998531E-2,-2.5366921E-2,1.9269431E-2,1.0849849E-1,-6.488321E-2,8.9087844E-2,-8.548216E-2,1.13105014E-1,-5.7516474E-2,-9.341976E-2,-2.8599316E-2,1.9683893E-1,4.525784E-2],"split_indices":[2,1,4,2,1,7,7,2,14,17,9,17,9,8,0,3,3,13,0,6,7,0,0,3,0,0,0,0,0,0,0,0,0,0,0,0,0,0,0,0,0],"split_type":[0,0,0,0,0,0,0,0,0,0,0,0,0,0,0,0,0,0,0,0,0,0,0,0,0,0,0,0,0,0,0,0,0,0,0,0,0,0,0,0,0],"sum_hessian":[6.963944E2,6.391977E2,5.719671E1,5.175328E2,1.2166494E2,3.5551544E1,2.1645166E1,4.84941E2,3.259174E1,1.1122759E2,1.0437342E1,2.100244E1,1.4549105E1,1.3381682E1,8.263483E0,3.9968146E2,8.525955E1,2.7356089E1,5.235652E0,1.9278605E1,9.194899E1,5.3142896E0,5.1230516E0,1.1797493E1,9.2049465E0,9.387781E0,5.1613245E0,6.3130784E0,7.0686045E0,8.4697426E1,3.1498404E2,6.7590694E0,7.850048E1,1.7215014E1,1.0141075E1,9.42625E0,9.852353E0,4.94884E1,4.2460594E1,6.074862E0,5.7226305E0],"tree_param":{"num_deleted":"0","num_feature":"25","num_nodes":"41","size_leaf_vector":"1"}},{"base_weights":[-1.9883595E-3,1.454733E-1,-1.041114E-2,-1.6253161E-1,2.302214E-2,-2.9348388E-1,1.5363663E-1,2.9425448E-1,-2.474679E-3,-5.600998E-1,-2.1583873E-1,-2.6111573E-1,6.1397094E-1,-8.5436955E-2,5.577312E-1,7.5077616E-2,-1.0717422E-1,-6.225205E-2,-1.3869022E-1,-6.9707274E-2,2.2328231E-2,-1.0430321E-1,8.508171E-2,2.0711534E-1,6.1326925E-2,-8.6753875E-2,7.103317E-2,1.61096E-1,3.4284346E-2,-1.3841568E-1,1.9194212E-2,-9.9940635E-2,-1.1099604E-2],"categories":[],"categories_nodes":[],"categories_segments":[],"categories_sizes":[],"default_left":[0,0,0,0,0,0,0,0,0,0,0,0,0,0,0,0,0,0,0,0,0,0,0,0,0,0,0,0,0,0,0,0,0],"id":36,"left_children":[1,-1,3,5,7,9,11,13,15,17,19,21,23,25,27,29,31,-1,-1,-1,-1,-1,-1,-1,-1,-1,-1,-1,-1,-1,-1,-1,-1],"loss_changes":[4.1061096E0,0E0,3.5697758E0,5.2364607E0,3.9794364E0,1.8505917E0,7.0736213E0,4.9467406E0,4.270944E0,4.9556255E-1,2.4890816E0,2.9578886E0,2.0565605E0,2.7422936E0,2.3126183E0,3.332825E0,4.4643464E0,0E0,0E0,0E0,0E0,0E0,0E0,0E0,0E0,0E0,0E0,0E0,0E0,0E0,0E0,0E0,0E0],"parents":[2147483647,0,0,2,2,3,3,4,4,5,5,6,6,7,7,8,8,9,9,10,10,11,11,12,12,13,13,14,14,15,15,16,16],"right_children":[2,-1,4,6,8,10,12,14,16,18,20,22,24,26,28,30,32,-1,-1,-1,-1,-1,-1,-1,-1,-1,-1,-1,-1,-1,-1,-1,-1],"split_conditions":[-9.017062E-1,1.454733E-1,-5.43713E-1,1.2706731E-2,-5.57395E-1,-6.534285E-1,-2.0617887E-1,-1.4259754E-1,7.111783E-2,-4.977918E-1,4.2448983E-1,-1.3667108E-1,3.720929E-1,-3.0819768E-1,2.6778236E-1,-1.3839415E0,-9.507214E-2,-6.225205E-2,-1.3869022E-1,-6.9707274E-2,2.2328231E-2,-1.0430321E-1,8.508171E-2,2.0711534E-1,6.1326925E-2,-8.6753875E-2,7.103317E-2,1.61096E-1,3.4284346E-2,-1.3841568E-1,1.9194212E-2,-9.9940635E-2,-1.1099604E-2],"split_indices":[13,0,5,3,9,18,15,21,0,17,21,9,2,7,10,21,17,0,0,0,0,0,0,0,0,0,0,0,0,0,0,0,0],"split_type":[0,0,0,0,0,0,0,0,0,0,0,0,0,0,0,0,0,0,0,0,0,0,0,0,0,0,0,0,0,0,0,0,0],"sum_hessian":[7.104975E2,8.610161E0,7.018874E2,1.2646264E2,5.7542474E2,8.942471E1,3.7037926E1,4.943856E1,5.2598615E2,2.0160328E1,6.926439E1,1.948497E1,1.7552956E1,2.0254408E1,2.9184153E1,3.0216803E2,2.2381815E2,5.174053E0,1.4986275E1,5.13438E1,1.7920588E1,1.4467368E1,5.0176015E0,8.328977E0,9.223979E0,1.1450342E1,8.804065E0,1.9399134E1,9.785021E0,6.1871247E0,2.959809E2,2.9443542E1,1.943746E2],"tree_param":{"num_deleted":"0","num_feature":"25","num_nodes":"33","size_leaf_vector":"1"}},{"base_weights":[5.34312E-3,1.1980526E-2,-1.3925752E-1,5.814961E-3,1.8577985E-1,-7.009947E-2,6.007845E-2,3.7284005E-1,-9.568979E-2,5.9544545E-1,2.8561931E-2,1.6024978E-1,1.0661739E-2,-1.1567027E-1,-1.5359295E-2,-2.8030764E-2,1.7696735E-1,1.08744584E-1,1.4506076E-3],"categories":[],"categories_nodes":[],"categories_segments":[],"categories_sizes":[],"default_left":[0,0,0,0,0,0,0,0,0,0,0,0,0,0,0,0,0,0,0],"id":37,"left_children":[1,3,-1,5,-1,7,9,11,13,15,17,-1,-1,-1,-1,-1,-1,-1,-1],"loss_changes":[3.1621022E0,3.7953713E0,0E0,2.9219058E0,0E0,3.3516026E0,6.979169E0,1.9843016E0,2.939135E0,3.9611635E0,4.100638E0,0E0,0E0,0E0,0E0,0E0,0E0,0E0,0E0],"parents":[2147483647,0,0,1,1,3,3,5,5,6,6,7,7,8,8,9,9,10,10],"right_children":[2,4,-1,6,-1,8,10,12,14,16,18,-1,-1,-1,-1,-1,-1,-1,-1],"split_conditions":[2.25776E0,3.8772368E0,-1.3925752E-1,-1.4736395E-1,1.8577985E-1,-1.4373525E0,-7.152382E-2,1.1823409E-1,-1.06866E0,-5.015908E-1,-9.204062E-1,1.6024978E-1,1.0661739E-2,-1.1567027E-1,-1.5359295E-2,-2.8030764E-2,1.7696735E-1,1.08744584E-1,1.4506076E-3],"split_indices":[8,18,0,0,0,16,0,3,20,11,1,0,0,0,0,0,0,0,0],"split_type":[0,0,0,0,0,0,0,0,0,0,0,0,0,0,0,0,0,0,0],"sum_hessian":[7.215385E2,7.1436316E2,7.1753283E0,7.092944E2,5.0687885E0,2.9566208E2,4.1363232E2,1.6143974E1,2.795181E2,2.2990206E1,3.9064212E2,7.401643E0,8.742332E0,1.3891985E1,2.6562613E2,5.6477423E0,1.7342463E1,1.6824636E1,3.7381747E2],"tree_param":{"num_deleted":"0","num_feature":"25","num_nodes":"19","size_leaf_vector":"1"}},{"base_weights":[-1.22706685E-2,1.3262552E-1,-1.7969621E-2,1.2182759E-1,-2.3557073E-2,1.002417E-2,-1.19009025E-1,-5.6137876E-3,1.8256196E-1,-5.600939E-1,-7.4741624E-2,5.5458106E-2,-7.508998E-3,-7.361546E-2,-1.4204799E-1,3.199756E-2,-4.7291733E-2],"categories":[],"categories_nodes":[],"categories_segments":[],"categories_sizes":[],"default_left":[0,0,0,0,0,0,0,0,0,0,0,0,0,0,0,0,0],"id":38,"left_children":[1,-1,3,-1,5,7,9,11,-1,13,15,-1,-1,-1,-1,-1,-1],"loss_changes":[2.447615E0,0E0,2.209861E0,0E0,2.1252859E0,6.508434E0,3.3690119E0,3.8109534E0,0E0,3.618865E-1,5.215775E0,0E0,0E0,0E0,0E0,0E0,0E0],"parents":[2147483647,0,0,2,2,4,4,5,5,6,6,7,7,9,9,10,10],"right_children":[2,-1,4,-1,6,8,10,12,-1,14,16,-1,-1,-1,-1,-1,-1],"split_conditions":[-1.230031E0,1.3262552E-1,-1.5161601E0,1.2182759E-1,5.804488E-1,1.638889E0,-9.318257E-1,-8.5685945E-1,1.8256196E-1,-6.9469905E-1,-2.3090811E-1,5.5458106E-2,-7.508998E-3,-7.361546E-2,-1.4204799E-1,3.199756E-2,-4.7291733E-2],"split_indices":[3,0,4,0,19,22,14,1,0,12,15,0,0,0,0,0,0],