tree
version=v4
num_class=3
num_tree_per_iteration=3
label_index=0
max_feature_idx=24
objective=multiclass num_class:3
feature_names=Column_0 Column_1 Column_2 Column_3 Column_4 Column_5 Column_6 Column_7 Column_8 Column_9 Column_10 Column_11 Column_12 Column_13 Column_14 Column_15 Column_16 Column_17 Column_18 Column_19 Column_20 Column_21 Column_22 Column_23 Column_24
feature_infos=[-6.1721959114074707:2.0165770053863525] [-1.0261609554290771:12.186487197875977] [-1.3222627639770508:9.6280965805053711] [-5.1716742515563965:0.84256494045257568] [-4.254279613494873:2.9817957878112793] [-7.7135729789733887:8.3022336959838867] [-1.0908154249191284:12.446979522705078] [-2.3976590633392334:1.1006370782852173] [-1:1] [-3.1473426818847656:1.1763665676116943] [-0.25050920248031616:1.2159959077835083] [-11.22266960144043:0] [-6.4544315338134766:2.2873518466949463] [-1.9027776718139648:1.8055555820465088] [-1.2914210557937622:10.878437995910645] [-6.898435115814209:2.4843881130218506] [-0.82788926362991333:7.2467751502990723] [-0.80883967876434326:1.4453037977218628] [-3.5761687755584717:2.4627165794372559] [-0.90825420618057251:1.6839405298233032] [-4.8615970611572266:4.2159724235534668] [-2.544896125793457:1.4843486547470093] [-2.0963373184204102:8.0579414367675781] [-1.0655620098114014:17.25981330871582] [-1.3022756576538086:3.5886473655700684]
tree_sizes=967 963 957 982 988 987 890 994 984 992 877 992 992 998 973 986 907 995 984 999 991 968 905 1008 995 995 980 990 995 991 995 1007 892 897 993 978 991 1004 994 993 998 1000 988 1014 975 997 953 993 1000 1000 1003 997 901 997 986 897 894 995 1000 974 958 898 996 997 1001 981 995 897 995 999 980 987 891 1002 999 889 1007 887 688 995 894 689 1004 996 992 980 1003 790 665 992 997 999 994 691 777 979 897 896 999 1003 691 995 1005 1003 999 997 891 974 980 999 992 996 695 1007 693 996 1000 998 673 993 689 770 902 782 895 947 989 896 1002 1000 1005 894 997 892 998 998 670 1005 879 1002 1003 984 977 1001 676 692 991 984 769 996 795 1008 975 994 773 670 987 892 1000 968 1007 790 989 691 1000 986 690 996 989 767 882 679 992 676 684 790 987 785 1008 991 997 1009 993 573 997 995 888 796 895 789 795 982 1002 583 967 690 792 990 789 970 988 680 893 881 887 587 892 881 893 999 881 1010 682 680 776 880 882 1001 991 683 879 989 785 662 988 683 572 887 991 845 993 988 661 989 891 1001 1001 971 781 979 989 1001 987 864 676 986 987 755 651 569 885 882 645 675 1003 994 572 974 650 759 672 999 787 1002 786 657 976 893 674 978 660 661 1003 887 653 1006 994 988 759 786 976 991 683 679 969 976 987 852 997 974 760 887 885 886 889 762 982 777 564 993 766 884 991 962 757 997 971 758 982 995 960 988 679 762 968 573 884 991 882 875 980 679 757 890 996 892 893 1004 979 682 976 679 988 1006 762 864 763 993 996 973 782 783 987 863 989 662 863 968 882 889 777 994 673 985 955 978 993 989 866 993 985 1009 960 892 685 992 574 999 987 991 991 677 985 756 986 684 882 950 893 894 992 982 1000 974 989 996 886 679 883 675 789 861 993 994 878 970 779 982 758 681 689 995 996 875 989 878 674 867 989 675 965 989 882 970 995 1000 1001 688 657 988 684 990 967 988 888 965 991 661 972 884 987 989 767 664 563 987 990 878 682 871 980 956 869 678 681 658 1000 986 679 978 883 680 971 755 661 892 764 986 763 891 977 964 987 998 884 989 889 885 994 659 991 999 890 956 971 796 987 888 756 887 984 880 977 891 982 885 978 962 987 885 988 966 972 896 975 790 996 997 887 888 959 995 995 741 998 973 997 984 862 966 862 894 958 782 885 989 976 677 757 760 995 994 888 876 576 876 682 980 959 974 987 881 674 979 966 779 987 976 886 959 884 952 990 789 866 996 678 893 678 993 870 756 885 664 999 998 784 996 886 875 778 991 999 996 882 767 993 996 892 989 975 993 988 763 998 881 984 998 988 998 991 756 982 986 986 677 1001 983 867 845 680 1000 955 892 764 874 992 986 881 995 995 981 991 973 994 883 971 992 996 893 675 989 982 882 992 993 890 780 987 883 779 969 682 958 887 884 947 756 886 978 685 1001 991 988 891 972 660 892 992 967 873 872 787 945 994 686 784 760 867 1001 990 966 1001 966 877 974 978 977 963 888 995 995 972 995 965 897 992 682 890 993 866 782 687 861 787 885 889 994 684 999 988 883 882 1002 976 879 682 679 877 574 999 876 972 683 774 981 997 785 992 683 878 996 991 873 982 783 891 880 885 995 891 887 994 995 923 987 992 765 980 975 865 977 988 984 685 1000 1003 987 888 979 993 1000 767 854 989 991 965 564 924 879 970 683 664 968 991 888 995 995 882 985 880 882 993 767 677 686 987 944 1001 885 980 680 891 888 758 875 790 979 890 870 883 890 677 950 656 883 978 887 981 994 768 859 787 898 1001 977 881 646 865 662 988 884 995 990 785 982 988 889 888 967 881 861 883 992 684 995 987 981 974 993 996 989 897 992 967 893 888 955 891 988 881 991 884 977 974 991 987 878 993 964 888 976 663 888 887 659 999 890 662 973 884 996 998 1004 1003 683 967 994 999 969 683 971 891 664 887 986 664 997 992 657 892 891 664 992 968 662 562 981 996 972 980 889 891 783 880 981 872 971 967 867 769 891 783 769 563 995 998 977 991 885 891 893 892 992 885 664 848 892 789 1002 860 958 995 976 580 735 996 986 974 892 979 971 895 979 990 895 865 989 998 974 995 884 664 990 1001 580 972 990 1000 980 657 945 995 998 965 782 999 889 994 996 997 989 886 999 874 888 778 992 1002 682 1001 681 589 1005 886 680 964 783 881 998 974 683 974 893 684 891 998 983 894 993 891 992 867 973 778 988 997 984 886 874 990 888 992 996 955 864 993 998 681 984 983 897 942 1001 886 990 885 978 978 882 679 956 891 681 784 971 664 989 1004 685 566 1001 862 899 894 763 990 764 974 763 998 948 787 986 983 1000 868 891 1005 887 875 993 877 582 991 763 988 995 888 966 997 986 845 981 975 760 989 750 989 1001 1004 992 969 993 867 996 979 1004 872 968 873 997 987 876 962 893 947 998 854 986 1002 990 993 999 887 892 964 657 992 788 964 997 887 991 659 995 892 963 787 993 996 996 766 965 891 890 992 972 981 997 1001 866 981 997 874 980 977 991 891 893 872 956 967 886 958 761 970 890 891 963 972 892 867 894 958 996 866 900 996 997 979 974 973 977 840 1003 965 984 873 996 899 883 968 993 888 994 969 984 686 981 986 997 997 995 761 779 992 988 964 768 977 872 998 885 996 871 888 771 1000 964 880 1003 992 974 986 982 971 970 987 979 979 979 788 880 966 892 968 688 865 1004 971 785 985 960 887 955 887 883 998 967 1001 974 975 993 885 979 1006 874 974 962 1000 885 997 892 1001 880 980 878 864 895 890 1001 874 1005 988 670 949 788 887 779 991 764 965 788 1007 998 999 890 684 882 957 977 899 1004 990 998 680 974 976 1005 1001 773 952 983 881 947 992 986 664 994 888 971 874 1001 980 885 870 1004 980 870 1008 979 890 961 792 988 894 873 882 688 984 893 786 891 887 897 891 970 890 891 865 969 993 975 984 897 989 1001 976 893 860 762 959 967 992 885 977 951 970 895 565 896 972 896 970 998 868 971 870 983 971 983 565 888 879 993 897 968 996 979 858 1001 965 979 993

Tree=0
num_leaves=8
num_cat=0
split_feature=11 7 11 9 2 15 11
split_gain=18.3795 19.8163 13.8402 12.3961 11.3028 10.1302 8.20654
threshold=-1.0000000180025095e-35 0.34296670556068426 -4.8407127857208243 -1.1491541862487791 -0.016318485140800473 0.17475742846727374 -2.6075797080993648
decision_type=2 2 2 2 2 2 2
left_child=1 6 -3 5 -5 -2 -1
right_child=3 2 -4 4 -6 -7 -8
leaf_value=-1.1112599232419547 -1.1337392896570229 -1.0115056611891164 -1.1005965885735827 -1.1050124468725839 -1.0834896562773182 -1.0717469637103756 -1.1376213510443023
leaf_weight=67.58245000243187 55.940424561500549 7.3370825052261344 52.418929308652878 190.92109218239784 172.73743310570717 11.372264266014097 132.03927180171013
leaf_count=208 148 23 168 586 525 32 388
internal_value=-1.10685 -1.1196 -1.08919 -1.09918 -1.09473 -1.12292 -1.12881
internal_weight=690.349 259.378 59.756 430.971 363.659 67.3127 199.622
internal_count=2078 787 191 1291 1111 180 596
is_linear=0
shrinkage=1


Tree=1
num_leaves=8
num_cat=0
split_feature=6 13 5 19 24 18 13
split_gain=31.1518 26.3117 12.1331 10.5884 6.91086 6.67673 6.18434
threshold=0.27562442421913153 0.29861110448837286 -0.53699535131454457 0.62801656126976024 -0.36810630559921259 -0.47045765817165369 -1.3958332538604734
decision_type=2 2 2 2 2 2 2
left_child=1 6 -3 5 -5 -2 -1
right_child=3 2 -4 4 -6 -7 -8
leaf_value=-1.1235057671073587 -1.1365106295142928 -1.1021072165010874 -1.0608660353574006 -1.0627109687632283 -1.1040220955565512 -1.1094117466294688 -1.0923249154991543
leaf_weight=26.296271309256554 47.955866456031799 29.688988775014877 183.35477495193481 24.33493760228157 37.385729089379311 127.66644506156445 218.97963750362396
leaf_count=86 169 92 486 65 116 410 654
internal_value=-1.09153 -1.0823 -1.06671 -1.10935 -1.08806 -1.11695 -1.09576
internal_weight=695.663 458.32 213.044 237.343 61.7207 175.622 245.276
internal_count=2078 1318 578 760 181 579 740
is_linear=0
shrinkage=1


Tree=2
num_leaves=8
num_cat=0
split_feature=14 4 2 24 7 24 12
split_gain=20.2075 12.4603 11.1908 10.7841 9.08375 8.02317 2.85942
threshold=0.4611936360597611 -1.3558037877082822 0.5982731580734254 0.10804450511932374 0.64798033237457286 1.3669615983963015 1.2048493623733523
decision_type=2 2 2 2 2 2 2
left_child=1 6 3 -2 -3 -4 -1
right_child=2 4 5 -5 -6 -7 -8
leaf_value=-1.1433522639563733 -1.0511306500800814 -1.102275238703347 -1.1162487024401653 -1.0878072005387303 -1.0524816291607171 -1.0595648052591371 -1.0955909152472774
leaf_weight=32.972752153873444 59.956493616104126 469.81080710887909 39.724565744400024 61.336545944213867 13.711503863334654 11.713199973106383 4.3727319836616507
leaf_count=81 214 1368 114 198 48 42 13
internal_value=-1.09751 -1.10347 -1.07955 -1.06949 -1.10081 -1.10289 -1.13721
internal_weight=693.599 520.868 172.731 121.293 483.522 51.4378 37.3455
internal_count=2078 1510 568 412 1416 156 94
is_linear=0
shrinkage=1


Tree=3
num_leaves=8
num_cat=0
split_feature=16 2 17 17 2 2 24
split_gain=18.921 19.6122 15.3217 11.9727 8.75669 10.1112 6.0012
threshold=-0.7570684254169463 -0.023001569323241707 0.31602214276790624 1.2972375154495241 -0.22810015827417371 1.1324592232704165 -0.31542506814002985
decision_type=2 2 2 2 2 2 2
left_child=4 3 -3 -2 6 -6 -1
right_child=1 2 -4 -5 5 -7 -8
leaf_value=0.082856530364041156 -0.010321160950872122 0.0091225994078808544 0.045389012076744499 0.026860182227374126 -0.048087766221952995 -0.0098311771042427325 -0.001633546704083007
leaf_weight=4.1307053416967383 268.55518847703934 212.47771774232388 54.33755062520504 35.767280280590057 49.422568067908287 55.646479710936546 9.871596083045004
leaf_count=12 834 642 165 106 145 150 24
internal_value=0 0.0045872 0.0165984 -0.0058763 -0.021961 -0.028049 0.0221303
internal_weight=690.209 571.138 266.815 304.322 119.071 105.069 14.0023
internal_count=2078 1747 807 940 331 295 36
is_linear=0
shrinkage=0.0606001


Tree=4
num_leaves=8
num_cat=0
split_feature=6 9 24 18 12 24 20
split_gain=27.9804 19.2703 10.3774 9.03843 7.00915 6.80636 4.71042
threshold=0.27562442421913153 -1.1222911477088926 -0.48687320947647089 -0.79912588000297535 1.3989190459251406 -0.36810630559921259 2.6321028470993046
decision_type=2 2 2 2 2 2 2
left_child=1 2 -1 6 -3 -5 -2
right_child=3 4 -4 5 -6 -7 -8
leaf_value=-0.0003088080137620426 -0.048572710337566494 -0.0004799109472629024 0.043277237730732179 0.0097541090755738757 0.030171573345434209 -0.017371439035837617 0.018547083434191654
leaf_weight=25.974908620119095 39.340683236718178 328.65371473133564 75.802094697952271 42.821075081825256 29.700220227241516 149.53737160563469 3.7321029156446448
leaf_count=79 142 970 190 128 79 480 10
internal_value=0 0.00868231 0.0319559 -0.017 0.00200808 -0.0112223 -0.0422468
internal_weight=695.562 460.131 101.777 235.431 358.354 192.358 43.0728
internal_count=2078 1318 269 760 1049 608 152
is_linear=0
shrinkage=0.0606001


Tree=5
num_leaves=8
num_cat=0
split_feature=0 11 19 19 2 19 5
split_gain=17.525 13.66 10.1685 8.09694 24.7831 8.80726 6.45338
threshold=0.13500674813985827 -0.018360390327870842 0.98372274637222301 0.61431768536567699 -0.011715319938957689 1.4897392988204958 -0.84772995114326466
decision_type=2 2 2 2 2 2 2
left_child=3 2 -2 4 -1 -5 -3
right_child=1 6 -4 5 -6 -7 -8
leaf_value=0.043921250561693409 -0.0019167542309869374 0.044946032051902902 0.049785361254219798 -0.0067544735496046565 0.0025279757091027514 0.085297700380551095 -0.023390017195390835
leaf_weight=75.997413814067841 113.62006801366806 4.9487432688474646 15.758670002222059 122.3245961368084 180.11100760102272 3.839593678712844 176.86558596789837
leaf_count=264 326 18 54 361 561 15 479
internal_value=0 -0.0106695 0.00424546 0.0086975 0.0149029 -0.00373427 -0.0213956
internal_weight=693.466 311.193 129.379 382.273 256.108 126.164 181.814
internal_count=2078 877 380 1201 825 376 497
is_linear=0
shrinkage=0.0606001


Tree=6
num_leaves=7
num_cat=0
split_feature=16 11 11 18 7 19
split_gain=16.9433 13.3223 15.6843 8.72624 6.82738 11.4575
threshold=-0.7570684254169463 -1.0000000180025095e-35 -5.4140632152557364 0.64774763584136974 -0.77901834249496449 -0.45590715110301966
decision_type=2 2 2 2 2 2
left_child=4 2 -2 -3 -1 -6
right_child=1 3 -4 -5 5 -7
leaf_value=-0.057426805141333026 0.051357441467853655 0.01603685860917569 -0.012428001341889962 -0.0075692060632118179 -0.019840121849272068 0.068257280378723292
leaf_weight=16.502533346414566 15.089021563529966 291.35516829788685 195.56262524425983 70.263242408633232 95.631650254130363 5.5791453123092642
leaf_count=57 47 881 604 215 258 16
internal_value=0 0.00431182 -0.00774158 0.0113914 -0.0209259 -0.0147263
internal_weight=689.983 572.27 210.652 361.618 117.713 101.211
internal_count=2078 1747 651 1096 331 274
is_linear=0
shrinkage=0.0606001


Tree=7
num_leaves=8
num_cat=0
split_feature=16 9 9 6 18 24 24
split_gain=35.7057 12.7486 8.41032 7.49074 6.42601 6.31106 3.73343
threshold=-0.38374976813793177 -0.46621379256248469 0.84119704365730297 -0.76463347673416127 -0.25814335048198694 -0.43479332327842707 -0.63381087779998768
decision_type=2 2 2 2 2 2 2
left_child=3 4 -3 6 -2 -5 -1
right_child=1 2 -4 5 -6 -7 -8
leaf_value=-0.0049267545174356839 -0.043226913214439278 -0.00932770678507144 0.012243059829179465 -0.0042240701081085325 -0.0020751112133122825 0.021820130800549863 0.051998594811344327
leaf_weight=4.0645200610160819 54.004480764269829 324.43935108184814 82.673182785511017 44.400250926613808 20.259524866938591 131.69734509289265 33.72303818166256
leaf_count=11 192 1011 229 134 63 357 81
internal_value=0 -0.00917006 -0.00489417 0.0205819 -0.0322973 0.0151354 0.0453236
internal_weight=695.262 481.377 407.113 213.885 74.264 176.098 37.7876
internal_count=2078 1495 1240 583 255 491 92
is_linear=0
shrinkage=0.0606001


Tree=8
num_leaves=8
num_cat=0
split_feature=14 1 19 24 0 2 1
split_gain=17.0546 11.4345 9.93953 9.00554 7.49208 8.32581 7.54436
threshold=0.4611936360597611 0.30965799093246466 -0.41232103109359736 -0.50264874100685109 0.26614719629287725 -0.8238009214401244 0.83817511796951305
decision_type=2 2 2 2 2 2 2
left_child=4 3 -3 -2 5 -1 -6
right_child=1 2 -4 -5 6 -7 -8
leaf_value=-0.025272608952562458 0.11183970569780166 0.047761804537613056 0.00074662199189118328 0.031355067831587272 -0.016295125803669614 0.0048118904944532467 0.037772820216503716
leaf_weight=38.785354435443878 6.3704706877470008 19.399988532066345 115.02002304792404 33.789850622415543 214.22705966234207 256.02155143022537 9.6229737848043424
leaf_count=107 27 69 356 116 586 784 33
internal_value=0 0.0163906 0.00771258 0.0448414 -0.00550288 0.000776913 -0.0138644
internal_weight=693.237 174.58 134.42 40.1603 518.657 294.807 223.85
internal_count=2078 568 425 143 1510 891 619
is_linear=0
shrinkage=0.0606001


Tree=9
num_leaves=8
num_cat=0
split_feature=11 11 4 16 16 12 18
split_gain=15.3142 11.8852 13.9565 11.3032 10.6297 13.5553 11.7816
threshold=-1.0000000180025095e-35 -2.6075797080993648 -0.7309669256210326 1.028273403644562 -0.34477083384990687 0.026406030170619491 0.64774763584136974
decision_type=2 2 2 2 2 2 2
left_child=1 2 -1 -3 5 -2 -6
right_child=4 3 -4 -5 6 -7 -8
leaf_value=0.056804972893558701 -0.026698061207335654 -0.026718141160136061 -0.0051416055564603626 0.019919262150289916 0.019796450562491293 0.011147216952078733 -0.0096397883056084811
leaf_weight=16.446484237909317 66.133756071329117 151.3644226193428 67.566366970539093 21.250031903386116 232.24759997427464 72.200594782829285 62.490274697542191
leaf_count=48 185 453 214 72 707 202 197
internal_value=0 -0.0117233 0.0067781 -0.0208486 0.00695609 -0.00679884 0.0134832
internal_weight=689.7 256.627 84.0129 172.614 433.072 138.334 294.738
internal_count=2078 787 262 525 1291 387 904
is_linear=0
shrinkage=0.0606001


Tree=10
num_leaves=7
num_cat=0
split_feature=14 1 10 0 5 14
split_gain=28.1767 19.9882 11.9573 8.76051 7.74553 6.08062
threshold=0.13744302093982699 -0.60452443361282338 -0.24297444522380826 1.52725225687027 0.062032544985413558 -1.0805518031120298
decision_type=2 2 2 2 2 2
left_child=2 -2 5 -3 -4 -1
right_child=1 3 4 -5 -6 -7
leaf_value=0.073918483457658751 0.071397967583760505 -0.020944670166848998 -0.0063675756838176651 0.030676894538123986 0.013378656302211651 0.021115174742788567
leaf_weight=8.9354379475116712 9.2599332183599454 249.78241699934006 155.06314148008823 12.296000778675078 136.53733879327774 122.97381080687046
leaf_count=18 20 826 471 31 383 329
internal_value=0 -0.0152707 0.00973961 -0.018434 0.00280744 0.0248939
internal_weight=694.848 271.338 423.51 262.078 291.6 131.909
internal_count=2078 877 1201 857 854 347
is_linear=0
shrinkage=0.0606001


Tree=11
num_leaves=8
num_cat=0
split_feature=0 4 11 3 24 1 21
split_gain=14.7417 14.7586 12.3807 11.3509 8.77962 7.69222 4.35713
threshold=0.13500674813985827 -1.055892765522003 -0.018360390327870842 -0.31432199478149409 1.7862112522125246 -0.099557936191558824 -0.21399633586406705
decision_type=2 2 2 2 2 2 2
left_child=1 4 5 -3 -1 -2 -4
right_child=2 3 6 -5 -6 -7 -8
leaf_value=-0.025163642431361412 -0.011881415278364983 -0.0047754561230617179 0.011435677938128689 0.020416008129066156 0.059558582707665307 0.017737193900020688 -0.022931190366945013
leaf_weight=58.96640519797802 57.807822600007057 90.096358805894852 13.858529776334761 230.54101499915123 4.658032923936843 71.433664292097092 165.57215178012848
leaf_count=168 160 267 42 748 18 220 455
internal_value=0 0.00794373 -0.00983813 0.0132725 -0.0185642 0.00432771 -0.0201559
internal_weight=692.934 384.262 308.672 320.637 63.6244 129.241 179.431
internal_count=2078 1201 877 1015 186 380 497
is_linear=0
shrinkage=0.0606001


Tree=12
num_leaves=8
num_cat=0
split_feature=19 2 17 17 2 6 19
split_gain=14.3871 16.9299 13.8057 10.5953 8.44684 6.25702 4.58987
threshold=-0.45590715110301966 -0.023001569323241707 0.15248619019985202 1.2795579433441164 -0.22810015827417371 -0.0048953664954751721 -0.53123241662979115
decision_type=2 2 2 2 2 2 2
left_child=4 3 -3 -2 5 -1 -6
right_child=1 2 -4 -5 6 -7 -8
leaf_value=-0.0057731900647549038 -0.010334517562432076 0.004147797658585267 0.032574375697856824 0.022704154911554152 -0.019786115472961181 0.075912528775681151 -0.056656922464890409
leaf_weight=8.54511810839176 263.35487960278988 167.70157460868359 102.19285087287426 40.846727296710014 85.805181249976158 5.2522697299718848 15.555484861135481
leaf_count=20 820 494 307 122 251 16 48
internal_value=0 0.00392761 0.0149955 -0.00582442 -0.0195352 0.0240683 -0.0256919
internal_weight=689.254 574.096 269.894 304.202 115.158 13.7974 101.361
internal_count=2078 1743 801 942 335 36 299
is_linear=0
shrinkage=0.0606001


Tree=13
num_leaves=8
num_cat=0
split_feature=6 6 9 5 7 24 9
split_gain=21.5512 14.0869 8.3282 6.62891 5.51946 5.85392 1.25119
threshold=-0.76463347673416127 0.27562442421913153 -1.6968045830726621 -0.72778093814849842 0.17436881363391879 -0.21146370470523831 -1.7615739107131956
decision_type=2 2 2 2 2 2 2
left_child=4 2 -2 -3 5 -1 -6
right_child=1 3 -4 -5 6 -7 -8
leaf_value=-0.0090006308005125702 0.023620524696133956 -0.031324206602503318 -3.6797027300683931e-05 -0.0083474992454629516 0.093986006298039687 0.041119153129857693 0.047790613443212011
leaf_weight=12.120821401476858 64.375128909945488 66.439032033085823 347.64375087618828 164.12026956677437 6.397074118256568 24.654013141989708 8.4440000653266889
leaf_count=34 168 234 1024 526 11 61 20
internal_value=-3.82421e-07 -0.00305862 0.00361243 -0.0150682 0.0376118 0.0240465 0.0695081
internal_weight=694.194 642.578 412.019 230.559 51.6159 36.7748 14.8411
internal_count=2078 1952 1192 760 126 95 31
is_linear=0
shrinkage=0.0606001


Tree=14
num_leaves=8
num_cat=0
split_feature=0 11 18 18 19 19 7
split_gain=13.2672 11.3558 10.1009 14.7599 7.66408 7.15737 4.69594
threshold=0.13500674813985827 -1.0242189764976499 0.67144346237182628 -0.43857702612876887 0.98372274637222301 0.61431768536567699 -0.34217378497123713
decision_type=2 2 2 2 2 2 2
left_child=2 4 3 -1 -2 -4 -3
right_child=1 6 5 -5 -6 -7 -8
leaf_value=0.019804455440596912 0.002029359862961645 -0.006986518599549415 0.05281080267391023 -0.0059898291685876268 0.056172491776334349 0 -0.024892222626046234
leaf_weight=132.53476822376251 71.570628494024277 106.69983516633511 28.534361988306046 209.48165510594845 11.192021444439886 14.818430975079535 117.70908604562283
leaf_count=431 213 310 101 626 39 43 315
internal_value=0 -0.00936843 0.00751275 0.00394664 0.00965193 0.0351036 -0.0164777
internal_weight=692.541 307.172 385.369 342.016 82.7626 43.3528 224.409
internal_count=2078 877 1201 1057 252 144 625
is_linear=0
shrinkage=0.0606001


Tree=15
num_leaves=8
num_cat=0
split_feature=8 6 9 7 18 9 23
split_gain=14.0994 15.5772 14.1308 11.9191 10.1304 6.06016 4.9747
threshold=1.0000000180025095e-35 1.053456783294678 -0.60967513918876637 0.71533638238906871 -0.54356190562248219 -1.0148439407348631 2.8808523416519169
decision_type=2 2 2 2 2 2 2
left_child=2 3 5 -2 -4 -1 -3
right_child=1 6 4 -5 -6 -7 -8
leaf_value=-0.015564166158406908 0.084587255372971903 -0.0085899160739052842 -0.014342862469075845 -0.0041080317837314034 0.006349828997333864 -0.054830956192717592 0.036315201375433079
leaf_weight=106.20787745714188 20.430349141359333 33.540754348039627 112.31819857656956 7.0199497789144507 379.64003379642963 17.431766837835312 12.197901695966719
leaf_count=305 61 114 347 22 1133 57 39
internal_value=0 0.0251381 -0.00298279 0.0611964 0.00158127 -0.021302 0.00297006
internal_weight=688.787 73.189 615.598 27.4503 491.958 123.64 45.7387
internal_count=2078 236 1842 83 1480 362 153
is_linear=0
shrinkage=0.0606001


Tree=16
num_leaves=7
num_cat=0
split_feature=10 8 18 24 11 11
split_gain=21.121 10.6996 7.54327 7.51376 7.0862 5.50612
threshold=-0.24297444522380826 1.0000000180025095e-35 1.1148344278335574 -0.48687320947647089 -1.0000000180025095e-35 -0.59481751918792714
decision_type=2 2 2 2 2 2
left_child=2 4 3 -1 -2 -3
right_child=1 5 -4 -5 -6 -7
leaf_value=-0.0039113419158432437 0.0072383882112211318 -0.055896023908288808 -0.058335748360179802 0.031513509941694551 -0.0077539409990918743 -0.016323909241078852
leaf_weight=26.568079546093941 184.66975530982018 19.072518959641457 3.9867492169141761 103.97577372193336 307.24465052783489 48.001513689756393
leaf_count=79 550 76 14 255 949 155
internal_value=-7.83968e-06 -0.00522678 0.0215116 0.0241452 -0.00208273 -0.0279423
internal_weight=693.519 558.988 134.531 130.544 491.914 67.074
internal_count=2078 1730 348 334 1499 231
is_linear=0
shrinkage=0.0606001


Tree=17
num_leaves=8
num_cat=0
split_feature=9 4 1 1 13 4 10
split_gain=12.1865 14.7746 9.17002 6.25851 5.97343 8.68438 0.452057
threshold=0.96264719963073742 -1.055892765522003 -0.13328330218791959 0.047200316563248641 0.70138886570930492 0.27744831144809728 0.19425779581069949
decision_type=2 2 2 2 2 2 2
left_child=1 3 -3 -1 5 -2 -6
right_child=4 2 -4 -5 6 -7 -8
leaf_value=-0.036242300027635635 0.02718827609048079 -0.0026407819152867115 0.013047283262393895 -0.0044465956494640548 -0.025583389314896825 -0.047940384283634133 -0.055534690387373159
leaf_weight=45.070906519889832 12.37739419937134 244.03923182189465 306.00138759613037 49.300725966691971 5.5514257699251202 10.109401836991308 19.619647413492203
leaf_count=121 40 723 953 150 15 28 48
internal_value=3.7205e-08 0.00221867 0.00604934 -0.0198721 -0.029513 -0.0057073 -0.0498628
internal_weight=692.07 644.412 550.041 94.3716 47.6579 22.4868 25.1711
internal_count=2078 1947 1676 271 131 68 63
is_linear=0
shrinkage=0.0606001


Tree=18
num_leaves=8
num_cat=0
split_feature=8 14 4 19 6 20 14
split_gain=12.5783 14.8364 11.7186 18.038 11.6815 9.15295 5.33463
threshold=1.0000000180025095e-35 1.2193757295608523 -1.1423755288124082 -0.2678165584802627 -0.71712777018547047 -0.94537249207496632 1.9415844678878786
decision_type=2 2 2 2 2 2 2
left_child=2 5 4 -4 -1 -2 -3
right_child=1 6 3 -5 -6 -7 -8
leaf_value=-0.0236987848512226 0.013086218795442245 -0.018396104113924644 -0.024788090025033883 0.00049767694925204596 0.032810441890588633 0.092216604317667553 0.021571439462497653
leaf_weight=17.017723470926285 9.4928312003612536 21.11645495891571 138.89719216525555 401.05090540647507 57.516652345657349 14.841325670480726 28.397357523441315
leaf_count=46 30 72 433 1199 164 41 93
internal_value=0 0.0236264 -0.00283092 -0.00597071 0.0196152 0.0623521 0.00410068
internal_weight=688.33 73.848 614.482 539.948 74.5344 24.3342 49.5138
internal_count=2078 236 1842 1632 210 71 165
is_linear=0
shrinkage=0.0606001


Tree=19
num_leaves=8
num_cat=0
split_feature=16 13 14 20 14 7 6
split_gain=23.4994 13.953 9.55018 7.99814 7.51092 7.12025 4.10405
threshold=-0.38374976813793177 0.5347222387790681 -0.027497616596519944 -0.13746543973684308 0.13744302093982699 -1.3246006369590757 0.39449474215507513
decision_type=2 2 2 2 2 2 2
left_child=2 4 5 -3 -2 -1 -4
right_child=1 3 6 -5 -6 -7 -8
leaf_value=-0.034371738008343519 -0.0028600923294587596 -0.0083192588054849578 -0.05956143005812959 0.023489498725483518 -0.02097191476976756 0.021888919077106012 0.010415988861158009
leaf_weight=8.2676538825035077 144.81174144148827 48.351208329200745 8.2413915842771512 69.808676406741142 210.7454186975956 198.45046839118004 4.1289611607789984
leaf_count=30 443 150 30 186 716 511 12
internal_value=-1.61523e-05 -0.00763634 0.0163613 0.0102989 -0.0136567 0.0195248 -0.0346014
internal_weight=692.806 473.717 219.088 118.16 355.557 206.718 12.3704
internal_count=2078 1495 583 336 1159 541 42
is_linear=0
shrinkage=0.0606001


Tree=20
num_leaves=8
num_cat=0
split_feature=4 1 12 10 1 10 4
split_gain=10.89 8.1243 8.84998 7.8585 5.98552 3.25882 3.04549
threshold=-1.055892765522003 -0.093436941504478441 1.4110578894615176 1.200476408004761 1.2765809893608095 -0.028283058665692803 -1.3558037877082822
decision_type=2 2 2 2 2 2 2
left_child=4 3 -3 -2 6 -6 -1
right_child=1 2 -4 -5 5 -7 -8
leaf_value=-0.034856310532795615 -0.0058071240888190306 0.013285143240234942 -0.019895362792324484 0.067219927364305737 0.038887274895831068 -0.020981762152684137 -0.0091863693319751156
leaf_weight=50.296416983008385 278.75316347181797 281.47437317669392 32.440026089549065 5.4029595404863349 9.014973506331442 4.7168597579002371 29.598437085747719
leaf_count=136 819 878 90 20 32 15 88
internal_value=6.23455e-06 0.00304581 0.00978518 -0.00432613 -0.0191719 0.0167998 -0.0256277
internal_weight=691.697 598.071 313.914 284.156 93.6267 13.7318 79.8949
internal_count=2078 1807 968 839 271 47 224
is_linear=0
shrinkage=0.0606001


Tree=21
num_leaves=8
num_cat=0
split_feature=19 2 15 19 2 24 2
split_gain=11.099 14.7488 13.0257 8.64996 8.22668 5.79277 4.47527
threshold=-0.45590715110301966 -0.023001569323241707 1.5124056935310366 0.60532751679420482 -0.22810015827417371 -0.31542506814002985 0.32070696353912359
decision_type=2 2 2 2 2 2 2
left_child=4 3 -3 -2 5 -1 -6
right_child=1 2 -4 -5 6 -7 -8
leaf_value=0.085709821099851966 -0.018804094782742243 0.011465494833761108 0.096584203651597408 0.0021878783848099216 -0.045976097080922103 0 -0.015556945302457699
leaf_weight=4.0683013349771491 115.22661428153515 265.06742133200169 6.7761276066303244 188.43197885155678 25.341160044074059 9.5248111188411695 73.229134008288383
leaf_count=12 381 781 20 561 83 24 216
internal_value=0 0.00341821 0.0136923 -0.00571149 -0.0174132 0.025943 -0.0236212
internal_weight=687.666 575.502 271.844 303.659 112.163 13.5931 98.5703
internal_count=2078 1743 801 942 335 36 299
is_linear=0
shrinkage=0.0606001


Tree=22
num_leaves=7
num_cat=0
split_feature=16 0 22 18 18 24
split_gain=20.7584 10.1435 13.2055 9.89604 6.17579 6.27589
threshold=-0.38374976813793177 0.16772848367691043 -0.064156040549278245 -0.18389263749122617 1.1148344278335574 -0.48687320947647089
decision_type=2 2 2 2 2 2
left_child=4 2 -2 -3 5 -1
right_child=1 3 -4 -5 -6 -7
leaf_value=-0.0024656785879048205 -0.028501278615246723 0.025838923858299563 -0.0028410111856770484 -0.0054887207983683305 -0.057801544673157658 0.022190863267835648
leaf_weight=46.900621235370636 129.59327802062035 54.798973903059959 175.31200356781483 111.88741019368172 3.9619421809911719 169.47036860883236
leaf_count=135 451 143 561 340 14 434
internal_value=-2.84615e-05 -0.00723318 -0.0138208 0.00469197 0.015294 0.0167504
internal_weight=691.925 471.592 304.905 166.686 220.333 216.371
internal_count=2078 1495 1012 483 583 569
is_linear=0
shrinkage=0.0606001


Tree=23
num_leaves=8
num_cat=0
split_feature=9 1 18 15 3 1 18
split_gain=11.4044 10.4181 12.7739 6.97096 4.47273 3.84753 1.08302
threshold=0.96264719963073742 -0.13328330218791959 -0.43857702612876887 1.0000000180025095e-35 -0.19813269376754758 1.0000000180025095e-35 -0.63908356428146351
decision_type=2 2 2 2 2 2 2
left_child=1 3 -3 -1 6 -6 -2
right_child=4 2 -4 -5 5 -7 -8
leaf_value=0.0023351182131958132 -0.01141254357363327 0.027886438258957487 0.0020485331824798376 -0.016742971653837001 0.016156863403922098 -0.039370454305478898 -0.049709501738713455
leaf_weight=146.81961394846439 4.8270788490772274 96.048919811844826 269.12878258526325 132.09881949424744 11.455448210239412 7.3377344757318488 23.511234939098358
leaf_count=440 14 321 804 382 38 18 61
internal_value=9.76516e-06 0.00214714 0.00890653 -0.00662743 -0.0287088 -0.00448629 -0.0439756
internal_weight=691.228 644.096 365.178 278.918 47.1315 18.7932 28.3383
internal_count=2078 1947 1125 822 131 56 75
is_linear=0
shrinkage=0.0606001


Tree=24
num_leaves=8
num_cat=0
split_feature=11 11 0 8 12 8 20
split_gain=11.6846 11.0382 7.06804 6.52163 15.0895 7.56298 6.11809
threshold=-0.01430521300062537 -2.6075797080993648 -0.73013237118720997 1.0000000180025095e-35 -1.4391959905624387 -1.0000000180025095e-35 0.42238014936447149
decision_type=2 2 2 2 2 2 2
left_child=1 6 -3 5 -5 -2 -1
right_child=3 2 -4 4 -6 -7 -8
leaf_value=0.018460974856941058 0.011970312458557657 0.006167232425490215 -0.025312155068785071 -0.019742100748193794 0.05269166414797042 -0.0048634287603019806 -0.016990794090689182
leaf_weight=58.084018036723137 193.0776891708374 31.107877627015114 136.82103630900383 15.600979328155516 30.368834376335144 196.81581717729568 25.210729449987411
leaf_count=182 587 100 422 48 87 572 80
internal_value=0 -0.0103774 -0.0193556 0.00602923 0.027662 0.00341965 0.00747296
internal_weight=687.087 251.224 167.929 435.863 45.9698 389.894 83.2947
internal_count=2078 784 522 1294 135 1159 262
is_linear=0
shrinkage=0.0606001


Tree=25
num_leaves=8
num_cat=0
split_feature=0 6 5 22 6 11 2
split_gain=17.7815 13.0819 9.75415 6.06747 7.33594 4.0125 3.70662
threshold=-0.78043970465660084 -0.76463347673416127 -1.100582420825958 0.78791058063507091 1.3191182017326357 -1.0000000180025095e-35 -1.0043427944183347
decision_type=2 2 2 2 2 2 2
left_child=3 5 -3 6 -5 -2 -1
right_child=1 2 -4 4 -6 -7 -8
leaf_value=0.01757732006045009 0.053907612511931435 -0.035809184619150787 0.0032772559900388081 0.025783463317689159 -0.035965501995338982 0.018151213660119875 -0.032666900594784318
leaf_weight=5.1579987555742255 21.374319225549698 24.486039370298386 496.41451275348663 18.389862388372425 11.308489188551901 30.910051912069321 83.052685901522636
leaf_count=15 46 91 1448 55 40 78 305
internal_value=-3.97738e-05 0.0043392 0.00139438 -0.0214935 0.00153214 0.0332299 -0.0294778
internal_weight=691.094 573.185 520.901 117.909 29.6984 52.2844 88.2107
internal_count=2078 1663 1539 415 95 124 320
is_linear=0
shrinkage=0.0606001


Tree=26
num_leaves=8
num_cat=0
split_feature=9 1 10 15 10 19 20
split_gain=10.5176 9.39582 11.5589 6.42571 4.48136 4.5625 1.96107
threshold=0.96264719963073742 -0.13328330218791959 1.0731754899024966 1.0000000180025095e-35 1.1618815064430239 1.4323927164077761 -0.57968792319297779
decision_type=2 2 2 2 2 2 2
left_child=1 3 -3 -1 6 -6 -2
right_child=4 2 -4 -5 5 -7 -8
leaf_value=0.0022772278780393064 0 0.0053550026645400898 0.046857809713933912 -0.016070914900571592 0.042481286068814836 -0.022846440920742863 -0.05102521763540676
leaf_weight=146.85539290308952 3.9086024016141918 339.42844849824905 26.735090911388397 131.1260669529438 5.1522391140460995 14.837285026907919 22.618745297193527
leaf_count=440 13 1034 91 382 17 44 57
internal_value=1.00679e-05 0.00205142 0.00845222 -0.00630437 -0.0277619 -0.00485969 -0.0441639
internal_weight=690.662 644.145 366.164 277.981 46.5169 19.9895 26.5273
internal_count=2078 1947 1125 822 131 61 70
is_linear=0
shrinkage=0.0606001


Tree=27
num_leaves=8
num_cat=0
split_feature=4 19 12 19 19 24 9
split_gain=10.5328 16.7262 8.80553 8.11214 9.11295 7.67438 6.80341
threshold=-0.98685047030448902 -0.25630445778369898 1.2510747313499453 -0.45590715110301966 -0.30112423002719874 0.034451395273208625 -0.45336256921291346
decision_type=2 2 2 2 2 2 2
left_child=3 2 -2 5 -5 -1 -3
right_child=1 6 -4 4 -6 -7 -8
leaf_value=0.012899862584261989 -0.022531088426987176 0.040703593171265609 0.058006872584421582 0.058634749000335606 0.013263076439258463 -0.052460556421755185 0.0014764166183378197
leaf_weight=17.931836485862735 154.99506898224354 16.930970430374146 4.9382789134979239 24.228876516222954 54.76745268702507 10.084338665008543 402.56168845295906
leaf_count=48 500 51 15 71 158 26 1209
internal_value=0 -0.0031976 -0.0198852 0.0174888 0.0274899 -0.00996174 0.00311717
internal_weight=686.439 579.426 159.933 107.013 78.9963 28.0162 419.493
internal_count=2078 1775 515 303 229 74 1260
is_linear=0
shrinkage=0.0606001


Tree=28
num_leaves=8
num_cat=0
split_feature=14 6 1 6 7 2 1
split_gain=17.0802 10.7655 9.2979 8.67373 5.74447 4.20226 4.06649
threshold=0.4477620422840119 -0.76463347673416127 0.7733442783355714 0.27562442421913153 0.17436881363391879 0.68768581748008739 0.39360173046588903
decision_type=2 2 2 2 2 2 2
left_child=1 4 -3 5 -1 -2 -5
right_child=3 2 -4 6 -6 -7 -8
leaf_value=0.017701010647406454 -0.0054057815996989243 0.0044220335656803356 -0.031831038624041963 -0.043933207302288904 0.063267650594159688 0.036508910850509536 -0.018216056814919144
leaf_weight=37.779158636927605 31.869799762964249 447.18386770784855 27.419634878635406 33.878824263811111 15.075694814324377 11.779477417469023 85.197858616709709
leaf_count=95 103 1282 95 137 30 30 306
internal_value=-4.72233e-05 0.00521762 0.0022783 -0.0172358 0.0311708 0.00547167 -0.0257338
internal_weight=690.184 527.458 474.604 162.726 52.8549 43.6493 119.077
internal_count=2078 1502 1377 576 125 133 443
is_linear=0
shrinkage=0.0606001


Tree=29
num_leaves=8
num_cat=0
split_feature=4 0 23 6 6 13 17
split_gain=9.79314 12.0137 6.15382 5.05004 4.52055 4.86751 4.20968
threshold=-1.055892765522003 0.13500674813985827 -0.30206912755966181 0.34235543012619024 0.88173857331275951 0.24305555969476703 -0.11712705716490744
decision_type=2 2 2 2 2 2 2
left_child=4 2 -2 -3 6 -6 -1
right_child=1 3 -4 -5 5 -7 -8
leaf_value=0.01108900416403035 0.02706058408528781 -0.01033475446078109 0.0063734761208911498 0.011136508102304619 -0.01872921218712726 0.040333413173234349 -0.03112540421399099
leaf_weight=9.2153009474277479 68.054387137293816 223.94281780719757 257.50311912596226 48.086709156632423 11.452081620693209 8.8900895714759809 63.013937130570412
leaf_count=30 225 643 790 149 35 31 175
internal_value=1.84122e-05 0.00289065 0.010768 -0.00645995 -0.0182829 0.00611171 -0.0254428
internal_weight=690.158 597.587 325.558 272.03 92.5714 20.3422 72.2292
internal_count=2078 1807 1015 792 271 66 205
is_linear=0
shrinkage=0.0606001


Tree=30
num_leaves=8
num_cat=0
split_feature=4 6 17 1 3 13 24
split_gain=9.32723 9.00955 8.53137 17.6258 8.58732 7.17874 4.62004
threshold=-0.98685047030448902 -0.71712777018547047 1.2795579433441164 -0.23546519130468366 -0.64831408858299244 0.43750001490116125 -0.76887348294258107
decision_type=2 2 2 2 2 2 2
left_child=1 6 4 -4 -2 -3 -1
right_child=2 5 3 -5 -6 -7 -8
leaf_value=0.030167360288326592 0.0075362079076060429 0.031748741075291458 0.05848470428545522 -0.015054080454196527 -0.0098730927006523781 -0.023018677726423357 -0.03335551270986728
leaf_weight=5.1926089376211193 140.39191375672817 75.997604578733444 23.730442345142365 23.339428871870041 390.71194024384022 9.42418125271797 16.926318034529686
leaf_count=13 419 216 66 72 1218 27 47
internal_value=1.12341e-05 0.0164225 -0.00300682 0.0216119 -0.00523115 0.025445 -0.017442
internal_weight=685.714 107.541 578.174 47.0699 531.104 85.4218 22.1189
internal_count=2078 303 1775 138 1637 243 60
is_linear=0
shrinkage=0.0606001


Tree=31
num_leaves=8
num_cat=0
split_feature=14 9 9 19 5 11 2
split_gain=15.4568 7.80036 10.6348 8.40693 6.92284 5.64857 3.33175
threshold=0.4477620422840119 -0.34638634324073786 -0.35983216762542719 -0.13613057136535642 -0.50569918751716603 -0.84105905890464772 0.68768581748008739
decision_type=2 2 2 2 2 2 2
left_child=1 2 -1 -3 6 -6 -2
right_child=4 3 -4 -5 5 -7 -8
leaf_value=0.012074596586804447 -0.045889896629775377 -0.023123620321228743 0.094978434276293419 0.0034586370205718789 -0.033825583466904195 -0.00014572281837983402 -0.011249625887378619
leaf_weight=182.40436445176601 34.631268844008446 51.366728067398071 5.8835326284170142 288.37937384843826 23.609649509191513 85.836221680045128 17.094254523515701
leaf_count=488 143 164 12 838 91 280 62
internal_value=-6.24716e-05 0.00492108 0.014816 -0.000503099 -0.0165142 -0.0076223 -0.0348824
internal_weight=689.205 528.034 188.288 339.746 161.171 109.446 51.7255
internal_count=2078 1502 500 1002 576 371 205
is_linear=0
shrinkage=0.0606001


Tree=32
num_leaves=7
num_cat=0
split_feature=0 1 11 12 10 18
split_gain=8.954 8.1479 7.63723 6.71193 5.95953 6.04442
threshold=0.35338588058948522 -0.127094030380249 -0.97597664594650257 0.33702501654624945 1.2104516029357912 -1.6316379904747007
decision_type=2 2 2 2 2 2
left_child=4 3 -3 -2 5 -1
right_child=1 2 -4 -5 -6 -7
leaf_value=0.03518973007533352 -0.038353838067254731 0.023419674818928853 -0.011408443247722213 -0.0068334823076055809 0.062373227447447069 0.0021432251747584979
leaf_weight=21.336933210492134 50.876569271087646 37.126529544591904 60.585015654563904 52.184517964720726 6.4080482721328726 461.03071747720242
leaf_count=72 131 117 168 160 23 1407
internal_value=2.08222e-05 -0.0107206 0.00161851 -0.022615 0.00447702 0.00365413
internal_weight=689.548 200.773 97.7115 103.061 488.776 482.368
internal_count=2078 576 285 291 1502 1479
is_linear=0
shrinkage=0.0606001


Tree=33
num_leaves=7
num_cat=0
split_feature=11 7 2 11 3 10
split_gain=10.2792 13.4556 9.64292 9.13635 7.19392 6.84107
threshold=-0.01430521300062537 0.34296670556068426 -1.0916463136672971 -4.8407127857208243 -0.37153634428977961 -0.16687492281198499
decision_type=2 2 2 2 2 2
left_child=1 4 -2 -3 -1 -4
right_child=2 3 5 -5 -6 -7
leaf_value=-0.0064485017654422848 0.092321071077231379 0.075329157503046223 -0.0081026227680791214 0.005293122403348025 -0.030478999314193685 0.0092187668493820592
leaf_weight=101.04303441941738 4.6102231293916693 7.9683912694454184 112.20973481237888 51.990504086017609 88.013356313109398 319.36048869788647
leaf_count=319 14 23 335 167 275 945
internal_value=1.8752e-05 -0.00977211 0.00565725 0.0150387 -0.0177549 0.00466583
internal_weight=685.196 249.015 436.18 59.9589 189.056 431.57
internal_count=2078 784 1294 190 594 1280
is_linear=0
shrinkage=0.0606001


Tree=34
num_leaves=8
num_cat=0
split_feature=0 6 5 17 22 17 1
split_gain=14.2 10.0903 8.38178 6.18122 5.71404 7.2838 5.23939
threshold=-0.78043970465660084 -0.76463347673416127 -1.100582420825958 -0.13038671761751172 0.78791058063507091 0.25414365530014044 2.0178515911102299
decision_type=2 2 2 2 2 2 2
left_child=4 3 -3 -2 6 -6 -1
right_child=1 2 -4 -5 5 -7 -8
leaf_value=-0.036275674131181657 -0.025637366404239113 -0.033887352106199468 0.0029037555475403772 0.036667208333449379 -0.041861663269182767 0.023543678223132841 -0.000816239031342176
leaf_weight=63.640945807099342 6.2135404348373404 23.709503799676895 496.96738933026791 46.887776166200638 8.8637279719114321 20.35225909948349 21.757801339030266
leaf_count=241 19 91 1448 105 37 58 79
internal_value=-6.64381e-05 0.00379356 0.00118315 0.0289543 -0.0195624 0.00292358 -0.0274962
internal_weight=688.393 573.778 520.677 53.1013 114.615 29.216 85.3987
internal_count=2078 1663 1539 124 415 95 320
is_linear=0
shrinkage=0.0606001


Tree=35
num_leaves=8
num_cat=0
split_feature=14 1 4 11 4 4 3
split_gain=8.59445 11.0481 9.08912 7.92223 5.26384 4.38784 2.55997
threshold=0.4611936360597611 0.30965799093246466 -1.3558037877082822 -0.86877053976058949 -1.041928708553314 0.27744831144809728 -0.88469266891479481
decision_type=2 2 2 2 2 2 2
left_child=2 4 6 -3 -2 -4 -1
right_child=1 3 5 -5 -6 -7 -8
leaf_value=-0.016492047260747281 0 0.028239248333966765 0.0028787870874942478 -0.0051511674414201703 0.050664354949869657 -0.0090191325818932896 -0.052111260024072403
leaf_weight=18.041320100426674 9.3269948512315732 34.576943978667259 288.7549694776535 103.64049001038074 31.919804900884628 186.36959280073643 16.28217439353466
leaf_count=50 30 118 874 307 113 542 44
internal_value=1.72623e-05 0.0114486 -0.00396964 0.00306161 0.0389848 -0.00174477 -0.0340813
internal_weight=688.912 179.464 509.448 138.217 41.2468 475.125 34.3235
internal_count=2078 568 1510 425 143 1416 94
is_linear=0
shrinkage=0.0606001


Tree=36
num_leaves=8
num_cat=0
split_feature=8 6 7 4 3 21 2
split_gain=9.84824 12.3992 9.07913 8.5267 11.0952 8.32413 7.72844
threshold=1.0000000180025095e-35 1.053456783294678 0.71533638238906871 -1.1423755288124082 -0.61668500304222096 -1.07088166475296 1.4599530100822451
decision_type=2 2 2 2 2 2 2
left_child=3 2 -2 5 -5 -1 -3
right_child=1 6 -4 4 -6 -7 -8
leaf_value=-0.021294203056068193 0.071696659192333992 -0.012161602096356314 -0.0047600975498102048 0.0080488812206320759 -0.010949741433221223 0.027181094392320377 0.046556053031524929
leaf_weight=16.114612519741058 21.527422472834591 35.60349540412426 7.0566053837537757 160.36554914712906 373.97777487337589 59.222063720226288 10.59686443209648
leaf_count=44 61 121 22 475 1157 166 32
internal_value=2.91528e-05 0.0208021 0.0521286 -0.00248686 -0.00520829 0.0165221 0.000910004
internal_weight=684.464 74.7844 28.584 609.68 534.343 75.3367 46.2004
internal_count=2078 236 83 1842 1632 210 153
is_linear=0
shrinkage=0.0606001


Tree=37
num_leaves=8
num_cat=0
split_feature=12 12 3 3 12 18 19
split_gain=11.4949 10.0796 6.07806 6.05893 5.86331 4.92917 4.8574
threshold=-0.49148175120353693 -0.19664693623781201 -0.32680454850196833 -0.37153634428977961 -0.29294228553771967 -0.0893881320953369 -0.45590715110301966
decision_type=2 2 2 2 2 2 2
left_child=2 4 3 -1 -2 -4 -3
right_child=1 6 5 -5 -6 -7 -8
leaf_value=-0.0025821818128425925 0.012244471318860545 0.013977959839455541 -0.029675471513124749 0.066422839888526097 0.046207159979434129 -0.0045103543405808763 -0.0028366736696780206
leaf_weight=25.591441288590435 72.28287972509861 76.691905602812767 79.22980360686779 5.5108064562082282 26.580097526311874 48.117030084133148 353.34574055671692
leaf_count=80 200 193 300 12 64 159 1070
internal_value=-8.19835e-05 0.00417691 -0.0144255 0.00911048 0.0216179 -0.0203406 0.00011524
internal_weight=687.35 528.901 158.449 31.1022 98.863 127.347 430.038
internal_count=2078 1527 551 92 264 459 1263
is_linear=0
shrinkage=0.0606001


Tree=38
num_leaves=8
num_cat=0
split_feature=9 4 9 1 3 14 7
split_gain=9.37303 9.94998 7.03104 5.05112 4.21488 4.30615 0.872362
threshold=0.96264719963073742 -1.055892765522003 -2.4039885997772212 1.2765809893608095 -0.3394330739974975 -0.070196285843849168 -1.6831836700439451
decision_type=2 2 2 2 2 2 2
left_child=1 3 -3 -1 6 -6 -2
right_child=4 2 -4 -5 5 -7 -8
leaf_value=-0.02277943364416047 -0.013305203243672025 0.073578519211960416 0.0042971688047421068 0.016240624520232623 0.022301580338682108 -0.029588890826928192 -0.052229580022323863
leaf_weight=76.852003008127213 4.2378376871347454 5.3976972550153723 546.61341980099678 13.769389346241949 9.6224563270807284 14.033301696181296 17.719523951411247
leaf_count=224 13 20 1656 47 33 38 47
internal_value=2.23797e-05 0.00193826 0.00502325 -0.0166099 -0.0264665 -0.00759276 -0.0457456
internal_weight=688.246 642.633 552.011 90.6214 45.6131 23.6558 21.9574
internal_count=2078 1947 1676 271 131 71 60
is_linear=0
shrinkage=0.0606001


Tree=39
num_leaves=8
num_cat=0
split_feature=11 7 11 11 15 7 12
split_gain=9.24293 12.3424 8.09476 6.41321 5.18336 12.9524 10.6747
threshold=-0.01430521300062537 0.34296670556068426 -4.8407127857208243 -2.6075797080993648 0.13859455287456515 0.66472098231315624 -0.29294228553771967
decision_type=2 2 2 2 2 2 2
left_child=1 3 -3 -1 6 -6 -2
right_child=4 2 -4 -5 5 -7 -8
leaf_value=-0.0013680759952171533 0.0098220020265069093 0.070714374812637967 0.0051406196024480376 -0.025243566356695647 0.018135583590471679 -0.047237922979410964 -0.015105452644894402
leaf_weight=65.403479278087616 160.47202889621258 8.0807176232337934 52.026298895478249 121.87276212871075 160.38354359567165 11.729160085320471 103.84364603459835
leaf_count=208 486 23 167 386 455 43 310
internal_value=2.2262e-05 -0.00930303 0.0143877 -0.0170216 0.00535701 0.0135386 0
internal_weight=683.812 247.383 60.107 187.276 436.428 172.113 264.316
internal_count=2078 784 190 594 1294 498 796
is_linear=0
shrinkage=0.0606001


Tree=40
num_leaves=8
num_cat=0
split_feature=0 17 7 15 20 2 17
split_gain=12.764 6.73795 8.14834 6.10606 6.36176 4.69691 0.35031
threshold=0.26614719629287725 0.077348042279481902 -1.0357450246810911 -2.0082209110260005 2.6321028470993046 0.048240195959806449 0.54806634783744823
decision_type=2 2 2 2 2 2 2
left_child=3 2 -2 6 -5 -3 -1
right_child=1 5 -4 4 -6 -7 -8
leaf_value=-0.051095229367414285 -0.01282691275807632 0.001275525666502444 0.021735026219222308 -0.0059129422450784844 0.070315145474614579 -0.040577095173657034 -0.014762623477646749
leaf_weight=11.616237029433249 28.77950456738472 57.849848091602325 161.68580482900143 408.0000367462635 3.9428521692752829 11.591577202081679 3.0961167216300955
leaf_count=51 86 169 406 1309 10 35 12
internal_value=-7.20939e-05 0.0104817 0.0163993 -0.00655112 -0.00511882 -0.00544751 -0.0449903
internal_weight=686.562 259.907 190.465 426.655 411.943 69.4414 14.7124
internal_count=2078 696 492 1382 1319 204 63
is_linear=0
shrinkage=0.0606001


Tree=41
num_leaves=8
num_cat=0
split_feature=14 2 2 19 19 19 15
split_gain=7.62675 7.74737 7.04332 6.23411 5.49713 5.12451 2.04729
threshold=0.4611936360597611 -0.91735699772834767 0.5982731580734254 0.71650543808937084 0.12997185438871386 0.98372274637222301 -0.57993656396865834
decision_type=2 2 2 2 2 2 2
left_child=1 6 3 -2 -4 -3 -1
right_child=2 5 4 -5 -6 -7 -8
leaf_value=-0.010669373119699095 0.015649789321564828 -0.0041871672516939707 0.0035095096245921953 0.088306761336287315 -0.040813233629382453 0.016242727688785666 -0.051069990659697279
leaf_weight=8.7759839147329348 123.22574210166931 433.68666183948517 38.484113708138466 4.5774237662553778 13.620982825756071 49.982889890670776 15.296808823943136
leaf_count=24 394 1288 119 18 37 159 39
internal_value=1.9311e-05 -0.00374912 0.0107683 0.0184701 -0.00771965 -0.00203017 -0.0372952
internal_weight=687.651 507.742 179.908 127.803 52.1051 483.67 24.0728
internal_count=2078 1510 568 412 156 1447 63
is_linear=0
shrinkage=0.0606001


Tree=42
num_leaves=8
num_cat=0
split_feature=8 6 12 9 2 2 2
split_gain=8.75165 11.4309 11.5152 8.85571 10.9687 8.73916 5.77399
threshold=1.0000000180025095e-35 1.5584438443183901 -1.6222597956657407 -0.60967513918876637 -0.023001569323241707 -0.22810015827417371 1.4599530100822451
decision_type=2 2 2 2 2 2 2
left_child=3 2 -2 5 -5 -1 -3
right_child=1 6 -4 4 -6 -7 -8
leaf_value=0.027732485796578502 -0.019843965667473158 -0.018205548456156791 0.060523968565258622 -0.0068656275905609352 0.011347435848844475 -0.023454824243101909 0.035847039534363911
leaf_weight=13.467549696564673 7.8857537209987631 27.743130445480347 29.783672600984573 273.26909886300564 217.93060767650604 103.3328905403614 9.635855019092558
leaf_count=37 27 93 87 851 629 325 29
internal_value=2.56009e-05 0.0195686 0.043137 -0.00235442 0.00117276 -0.0173581 -0.00366397
internal_weight=683.049 75.0484 37.6694 608 491.2 116.8 37.379
internal_count=2078 236 114 1842 1480 362 122
is_linear=0
shrinkage=0.0606001


Tree=43
num_leaves=8
num_cat=0
split_feature=16 13 22 6 24 12 13
split_gain=12.6478 8.93089 8.30251 6.47177 4.70383 8.43303 5.07633
threshold=-0.38374976813793177 0.5347222387790681 -0.064156040549278245 -0.35919423401355738 -0.48687320947647089 0.037317557260394103 -0.076388876885175691
decision_type=2 2 2 2 2 2 2
left_child=4 2 -2 -3 5 -1 -6
right_child=1 3 -4 -5 6 -7 -8
leaf_value=0.0064333334948351653 -0.021738806965118984 0.030699300730701984 -0.0025448701086697553 -0.00031822916897477667 -0.0030046326155567472 -0.060335754267907271 0.021696871033651963
leaf_weight=39.329421579837799 146.82644101977348 33.951506376266479 196.17959819734097 85.404455780982971 37.339909568428993 8.2837991863489133 138.4144077450037
leaf_count=110 520 82 639 254 108 26 339
internal_value=-8.03869e-05 -0.00583096 -0.0108253 0.00834379 0.0117269 -0.00482494 0.0163305
internal_weight=685.73 462.362 343.006 119.356 223.368 47.6132 175.754
internal_count=2078 1495 1159 336 583 136 447
is_linear=0
shrinkage=0.0606001


Tree=44
num_leaves=8
num_cat=0
split_feature=9 13 24 7 13 13 20
split_gain=8.71891 7.47382 8.28669 5.69473 5.17641 2.99797 2.40494
threshold=0.96264719963073742 1.3125000000000002 0.29756854474544531 0.62699949741363536 0.70138886570930492 -0.36805552244186396 -0.57968792319297779
decision_type=2 2 2 2 2 2 2
left_child=1 3 -3 -1 5 -2 -6
right_child=4 2 -4 -5 6 -7 -8
leaf_value=-0.0020045167666157388 -0.014745752861030546 0.063699071449818651 -0.015290395794452558 0.013290646032091021 0 0.043248941558901674 -0.05435365266532477
leaf_weight=512.9894422441721 18.067737817764286 14.279253214597704 6.7785907983779898 108.00841397047043 3.7923574596643475 3.8404679596424094 19.33541351556778
leaf_count=1534 54 52 17 344 13 14 50
internal_value=2.42216e-05 0.00186398 0.0373173 0.000623294 -0.0256955 -0.00350375 -0.0457276
internal_weight=687.092 642.056 21.0578 620.998 45.036 21.9082 23.1278
internal_count=2078 1947 69 1878 131 68 63
is_linear=0
shrinkage=0.0606001


Tree=45
num_leaves=8
num_cat=0
split_feature=11 7 4 11 14 14 4
split_gain=8.30669 11.0236 10.939 7.01689 4.57257 8.26105 7.96504
threshold=-0.01430521300062537 0.34296670556068426 0.84048604965209972 -4.8407127857208243 -0.38876873254775995 -0.35260330140590662 0.38612315058708196
decision_type=2 2 2 2 2 2 2
left_child=1 2 -1 -3 6 -6 -2
right_child=4 3 -4 -5 5 -7 -8
leaf_value=-0.022970384610976814 -0.014510937262929187 0.065581941771251637 0.015801548949502336 0.0047828906899521758 0.057233541701794573 0.0070477467446562045 0.016777092112455077
leaf_weight=153.60149133205414 90.553787782788277 8.1715963482856733 31.624220460653305 52.125286996364594 12.658411026000975 289.26510539650917 44.100196808576584
leaf_count=501 262 23 93 167 36 866 130
internal_value=2.79287e-05 -0.00885695 -0.0162334 0.0134465 0.00507341 0.009236 -0.00410414
internal_weight=682.1 245.523 185.226 60.2969 436.578 301.924 134.654
internal_count=2078 784 594 190 1294 902 392
is_linear=0
shrinkage=0.0606001


Tree=46
num_leaves=8
num_cat=0
split_feature=16 13 7 13 7 15 7
split_gain=11.2424 8.15884 6.60559 5.3665 4.95483 5.3943 2.062
threshold=-0.38374976813793177 0.5347222387790681 -1.0443711280822752 -0.7986110746860503 -1.3246006369590757 -0.61732241511344899 -1.4264008998870847
decision_type=2 2 2 2 2 2 2
left_child=4 3 -3 -2 6 -6 -1
right_child=1 2 -4 -5 5 -7 -8
leaf_value=0 0 -0.028260921783594881 0.013638586504441526 -0.015961983090850076 0.064473228737788851 0.010918269151409112 -0.059070625954608193
leaf_weight=3.3222801387310028 120.55287957191467 15.602130979299544 103.94618578255177 220.47386196255684 7.2687205970287314 208.43049445748329 4.8849900066852552
leaf_count=11 380 48 288 779 16 537 19
internal_value=-9.52174e-05 -0.00554051 0.00797952 -0.0103423 0.01101 0.0128436 -0.0343049
internal_weight=684.482 460.575 119.548 341.027 223.906 215.699 8.20727
internal_count=2078 1495 336 1159 583 553 30
is_linear=0
shrinkage=0.0606001


Tree=47
num_leaves=8
num_cat=0
split_feature=18 7 20 16 5 16 22
split_gain=6.09877 6.32459 5.67266 6.04293 5.35328 4.94422 1.01507
threshold=-1.6316379904747007 0.9611213505268098 1.2201544642448428 0.68460059165954601 -0.74905139207839955 2.9536098241806035 -0.13428349792957303
decision_type=2 2 2 2 2 2 2
left_child=1 6 4 -4 -2 -3 -1
right_child=2 5 3 -5 -6 -7 -8
leaf_value=0.038429240173272629 0.0093639177195624177 -0.020188563224416593 0.0020802732810341323 0.049544341048287817 -0.0051662360751001018 0.056497566968643498 0.097382551020224084
leaf_weight=3.716386616230011 113.20032726228237 8.8956979215145093 27.789102777838707 16.090116932988167 507.79874376952648 4.5425599962472907 4.4402980655431765
leaf_count=12 358 25 82 58 1508 17 18
internal_value=3.66071e-05 0.0316992 -0.000963904 0.0200212 -0.0024829 0.00436208 0.0737071
internal_weight=686.473 21.5949 664.878 43.8792 620.999 13.4383 8.15668
internal_count=2078 72 2006 140 1866 42 30
is_linear=0
shrinkage=0.0606001


Tree=48
num_leaves=8
num_cat=0
split_feature=11 7 17 13 17 11 11
split_gain=7.60275 10.2733 7.42701 7.35689 6.87199 6.49109 5.87824
threshold=-0.01430521300062537 0.34296670556068426 1.2972375154495241 -0.92361101508140553 1.093922555446625 -4.8407127857208243 -2.6075797080993648
decision_type=2 2 2 2 2 2 2
left_child=1 6 4 -4 -2 -3 -1
right_child=2 5 3 -5 -6 -7 -8
leaf_value=-0.00065433094468670013 0.0054592513304258005 0.063012499093503038 0.055359294066320383 -0.0080602133801138693 -0.019842322534078249 0.0046316083200016976 -0.023670213959281781
leaf_weight=64.866622745990753 364.01693306863308 8.210469573736189 19.836942344903949 9.3037905842065793 43.905855119228363 52.18413083255291 118.99551340937614
leaf_count=208 1078 23 56 29 131 167 386
internal_value=3.5691e-05 -0.00849467 0.00485167 0.0344262 0.00268114 0.0129886 -0.0156682
internal_weight=681.32 244.257 437.064 29.1407 407.923 60.3946 183.862
internal_count=2078 784 1294 85 1209 190 594
is_linear=0
shrinkage=0.0606001


Tree=49
num_leaves=8
num_cat=0
split_feature=0 13 7 21 17 22 4
split_gain=10.2873 5.87555 5.95167 5.37756 4.95743 7.64685 6.33414
threshold=0.26614719629287725 -0.95138883590698231 -1.0357450246810911 0.54261460900306713 -0.13922648876905439 0.21201986074447635 -0.3317395001649856
decision_type=2 2 2 2 2 2 2
left_child=4 3 -3 -2 6 -6 -1
right_child=1 2 -4 -5 5 -7 -8
leaf_value=-0.04879340035956467 -0.043556272805419662 -0.011574542429371185 0.016073937769930029 0.01432590642436907 -0.010101552470587482 0.0086247543497637112 -0.0096698465853243733
leaf_weight=20.032709151506424 13.90241912007332 32.253643453121185 205.18617305159569 9.4190678894519788 196.74242736399174 134.09376649558544 71.848002091050148
leaf_count=88 44 95 529 28 642 407 245
internal_value=-0.000112155 0.00932078 0.0122271 -0.0193127 -0.00598137 -0.00244775 -0.0184634
internal_weight=683.478 260.761 237.44 23.3215 422.717 330.836 91.8807
internal_count=2078 696 624 72 1382 1049 333
is_linear=0
shrinkage=0.0606001


Tree=50
num_leaves=8
num_cat=0
split_feature=9 6 15 15 19 19 7
split_gain=8.04281 7.37695 11.6126 5.37148 3.81844 3.99585 0.902166
threshold=0.96264719963073742 0.62972301244735729 -0.97831997275352467 0.87601938843727123 1.3135346174240115 1.4323927164077761 0.0054448219016194352
decision_type=2 2 2 2 2 2 2
left_child=1 3 -3 -1 6 -6 -2
right_child=4 2 -4 -5 5 -7 -8
leaf_value=-0.0044082656634584407 -0.045835264908989391 -0.0094156791365901018 0.025598235616373744 0.013724229554952999 0.039949379553980605 -0.021099663512940584 -0.0056389121883127641
leaf_weight=419.68260064721107 21.052343994379047 52.160086408257484 100.08472976088524 69.608906775712967 5.2332640290260342 14.441088303923605 3.6601495146751395
leaf_count=1245 60 155 329 218 17 44 10
internal_value=4.56964e-05 0.00180353 0.0134658 -0.00178392 -0.024846 -0.00370177 -0.0407662
internal_weight=685.923 641.536 152.245 489.292 44.3868 19.6744 24.7125
internal_count=2078 1947 484 1463 131 61 70
is_linear=0
shrinkage=0.0606001


Tree=51
num_leaves=8
num_cat=0
split_feature=4 10 10 17 0 15 10
split_gain=6.97324 11.8093 8.46928 6.73927 8.7731 5.88562 5.42732
threshold=-1.1423755288124082 -0.16687492281198499 1.0731754899024966 0.16132596135139468 -1.4439901709556577 -0.34170748293399805 -0.028283058665692803
decision_type=2 2 2 2 2 2 2
left_child=3 5 -3 6 -5 -2 -1
right_child=1 2 -4 4 -6 -7 -8
leaf_value=-0.001388864754094878 -0.051549200580205769 0.0054881974618575012 -0.016915558037714034 -0.017416302241925873 0.063002718514476044 -0.013302710864084017 0.055913596290874744
leaf_weight=52.919365063309669 17.97568179666996 402.52787920832634 72.92169751226902 6.1860320121049908 19.14763568341732 102.14494369924068 6.6951990425586692
leaf_count=148 68 1216 231 19 53 324 19
internal_value=4.20162e-05 -0.00224446 0.00200561 0.0163064 0.0425466 -0.0192315 0.00476144
internal_weight=680.518 595.57 475.45 84.9482 25.3337 120.121 59.6146
internal_count=2078 1839 1447 239 72 392 167
is_linear=0
shrinkage=0.0606001


Tree=52
num_leaves=7
num_cat=0
split_feature=16 18 12 12 16 15
split_gain=9.7564 6.01555 5.81257 5.4384 5.27515 4.5279
threshold=-0.43315957486629481 1.1148344278335574 -0.50756618380546559 -0.19664693623781201 -0.45621749758720392 -0.78550681471824635
decision_type=2 2 2 2 2 2
left_child=1 4 5 -4 -1 -2
right_child=2 -3 3 -5 -6 -7
leaf_value=0.0095402727413637575 -0.0076343849125135666 -0.060193799616007744 0.014818269767134384 -0.0042821112717352063 0.044248008313897844 -0.03207018185778799
leaf_weight=171.86011213064194 92.572490274906158 4.0440177321434012 67.493387117981911 286.32295675575733 18.224806860089302 42.045978978276253
leaf_count=438 335 14 192 896 44 159
internal_value=-0.000119189 0.0113386 -0.0047172 -0.000576691 0.0129956 -0.015437
internal_weight=682.564 194.129 488.435 353.816 190.085 134.618
internal_count=2078 496 1582 1088 482 494
is_linear=0
shrinkage=0.0606001


Tree=53
num_leaves=8
num_cat=0
split_feature=0 14 1 2 10 2 10
split_gain=6.90497 6.96878 8.18421 5.5677 4.90874 10.3676 8.15504
threshold=0.35338588058948522 -0.37914422154426569 -0.1960419416427612 0.46249891817569738 1.0731754899024966 -0.89693099260330189 0.29035231471061712
decision_type=2 2 2 2 2 2 2
left_child=4 3 -3 -2 6 -6 -1
right_child=1 2 -4 -5 5 -7 -8
leaf_value=0.0087558368243946649 -0.01148230789362671 -0.020737006332699207 0.013465214206782497 -0.045237296501556452 -0.032161339797216533 0.043315031554196567 -0.007883507535937747
leaf_weight=274.00853426754475 60.380015388131142 40.878132730722427 68.700646474957466 27.191526561975479 8.3771867305040342 28.076394662261009 177.70732523500919
leaf_count=860 176 117 213 70 21 94 527
internal_value=4.63531e-05 -0.00949207 0.000508835 -0.0222348 0.00394244 0.025363 0.00216312
internal_weight=685.32 197.15 109.579 87.5715 488.169 36.4536 451.716
internal_count=2078 576 330 246 1502 115 1387
is_linear=0
shrinkage=0.0606001


Tree=54
num_leaves=8
num_cat=0
split_feature=8 6 12 1 13 8 1
split_gain=7.41556 10.602 7.86678 6.75037 11.1134 9.49344 5.30876
threshold=1.0000000180025095e-35 1.053456783294678 -1.6222597956657407 -0.15442713350057599 -1.381944417953491 -1.0000000180025095e-35 2.952707171440125
decision_type=2 2 2 2 2 2 2
left_child=3 2 -2 4 -1 -5 -3
right_child=1 6 -4 5 -6 -7 -8
leaf_value=0.048527752875421049 -0.014716824691458958 -0.015280280034831544 0.062127102043834204 0.00010392779296046859 0.0011619135810361897 -0.021395609907740143 0.027584961083275687
leaf_weight=19.50133815407753 5.6175385564565685 29.820971935987473 23.499400198459625 187.48019695281982 273.47823338210583 123.98373885452747 16.365674734115601
leaf_count=60 19 104 64 583 812 387 49
internal_value=4.70843e-05 0.0179992 0.0465827 -0.0021568 0.00439876 -0.00839025 0
internal_weight=679.747 75.3036 29.1169 604.444 292.98 311.464 46.1866
internal_count=2078 236 83 1842 872 970 153
is_linear=0
shrinkage=0.0606001


Tree=55
num_leaves=7
num_cat=0
split_feature=0 13 5 13 12 1
split_gain=9.04653 8.03503 6.26085 5.81815 6.37274 4.5347
threshold=-0.78043970465660084 -1.4097221493721006 -1.100582420825958 -1.0763888359069822 0.0045525953173637399 -0.099557936191558824
decision_type=2 2 2 2 2 2
left_child=3 5 -3 -1 -5 -2
right_child=1 2 -4 4 -6 -7
leaf_value=0.04808634607311444 -0.050293561829818166 -0.026612698832848444 0.0059938267891147248 -0.025330110406466988 0.017826819855357289 -0.0019791544506910191
leaf_weight=4.6847701370716086 15.459445789456369 22.285997524857521 520.24314112961292 89.970961302518845 13.956382468342779 14.960741505026816
leaf_count=12 54 88 1472 355 48 49
internal_value=-0.00013124 0.00287803 0.00461198 -0.0161893 -0.0193234 -0.0272885
internal_weight=681.561 572.949 542.529 108.612 103.927 30.4202
internal_count=2078 1663 1560 415 403 103
is_linear=0
shrinkage=0.0606001


Tree=56
num_leaves=7
num_cat=0
split_feature=0 11 22 2 6 6
split_gain=6.44904 5.6479 9.04919 4.71117 4.59218 3.32813
threshold=0.35338588058948522 -1.0117171406745908 -0.068068534135818468 -1.0916463136672971 0.69950592517852794 -0.80291157960891713
decision_type=2 2 2 2 2 2
left_child=3 2 -2 -1 -3 -5
right_child=1 4 -4 5 -6 -7
leaf_value=-0.045564962693163576 0.030293726587375683 -0.019906928019593744 -0.016777062428565137 -0.019283743662950041 0.01529678247156193 0.0056519855984709178
leaf_weight=6.8391079902648917 29.362096041440964 122.33287297189236 30.004926830530167 20.115755945444107 14.564463838934897 461.50195011496544
leaf_count=18 96 354 82 55 44 1429
internal_value=5.32312e-05 -0.00919138 0.00615975 0.00381164 -0.0160016 0.00456387
internal_weight=684.721 196.264 59.367 488.457 136.897 481.618
internal_count=2078 576 178 1502 398 1484
is_linear=0
shrinkage=0.0606001


Tree=57
num_leaves=8
num_cat=0
split_feature=8 14 16 8 16 2 2
split_gain=6.72307 10.5527 10.9348 5.58065 11.4613 10.8038 5.1001
threshold=1.0000000180025095e-35 1.2193757295608523 1.6294263005256655 -1.0000000180025095e-35 0.37222065031528478 -0.98464384675025929 0.38212469220161444
decision_type=2 2 2 2 2 2 2
left_child=3 2 -2 4 -1 -5 -3
right_child=1 6 -4 5 -6 -7 -8
leaf_value=0.0159143418545914 0.067925671609863916 -0.01761965994132007 -0.031547812949840104 0.048408579439673527 -0.0084258382360244983 -0.009805615090780458 0.02102998546558036
leaf_weight=146.60870383679867 20.79828238487244 26.006087556481361 4.6691985875368109 11.989277228713034 136.59993393719196 308.3130786716938 23.986766830086708
leaf_count=435 55 90 16 32 427 948 75
internal_value=5.44112e-05 0.0171279 0.0488246 -0.00204759 0.00410117 -0.00754948 0.000509248
internal_weight=678.971 75.4603 25.4675 603.511 283.209 320.302 49.9929
internal_count=2078 236 71 1842 862 980 165
is_linear=0
shrinkage=0.0606001


Tree=58
num_leaves=8
num_cat=0
split_feature=6 0 12 12 7 7 9
split_gain=9.01376 7.55355 12.8927 4.95147 4.92246 4.23459 0.389163
threshold=-0.76463347673416127 0.105454009026289 -0.21054547280073163 0.54543945193290722 0.17436881363391879 -1.0000000180025095e-35 -1.7615739107131956
decision_type=2 2 2 2 2 2 2
left_child=4 3 -3 -2 5 -1 -6
right_child=1 2 -4 -5 6 -7 -8
leaf_value=0.021896113489295276 -0.0062140296221388008 0.036511590224489514 -0.00018909663723102002 -0.033196341840307009 0.068781544604920655 -0.026748524541237859 0.037374451901014752
leaf_weight=30.229904010891911 301.6960958763957 40.443941235542297 256.87893056869507 27.744388401508331 6.7476113438606253 7.9909057617187527 8.8588231503963453
leaf_count=72 1022 97 725 108 11 23 20
internal_value=-0.000140167 -0.00221572 0.00474109 -0.00855764 0.0236053 0.0111429 0.0525745
internal_weight=680.591 626.763 297.323 329.44 53.8272 38.2208 15.6064
internal_count=2078 1952 822 1130 126 95 31
is_linear=0
shrinkage=0.0606001


Tree=59
num_leaves=8
num_cat=0
split_feature=9 13 0 0 13 6 10
split_gain=7.28586 6.51785 7.58158 5.36567 4.52446 4.35488 0.478965
threshold=0.96264719963073742 1.3125000000000002 0.35338588058948522 1.6349227428436282 0.70138886570930492 -0.36222621798515314 0.19425779581069949
decision_type=2 2 2 2 2 2 2
left_child=1 2 -1 -3 5 -2 -6
right_child=4 3 -4 -5 6 -7 -8
leaf_value=0.0043444929496455611 0.032695587029745621 0.060419436602135175 -0.011350135571150289 0 -0.018883991098082215 -0.023754102837952658 -0.049514107201439402
leaf_weight=470.65276658535004 7.5252525955438641 12.341918572783472 148.50517772138119 9.0422664284706098 5.0856557488441494 14.263043254613875 16.712268128991127
leaf_count=1449 27 44 429 25 15 41 48
internal_value=5.47535e-05 0.00171789 0.000545242 0.0345637 -0.0238641 -0.0032489 -0.043423
internal_weight=684.128 640.542 619.158 21.3842 43.5862 21.7883 21.7979
internal_count=2078 1947 1878 69 131 68 63
is_linear=0
shrinkage=0.0606001


Tree=60
num_leaves=8
num_cat=0
split_feature=4 19 9 7 17 12 19
split_gain=6.51798 11.3061 7.38476 6.90016 5.95152 9.0316 3.88061
threshold=-1.1423755288124082 -0.25630445778369898 -0.45336256921291346 -0.77901834249496449 0.16132596135139468 -0.88477367162704457 0.017989082261919979
decision_type=2 2 2 2 2 2 2
left_child=4 3 -3 -2 6 -6 -1
right_child=1 2 -4 -5 5 -7 -8
leaf_value=0 -0.052855686830049695 0.039198098469475466 0.0011461469332229026 -0.011362655530324246 0 0.072213961319744752 0.052032599975349439
leaf_weight=53.581706508994102 16.785461455583572 19.635471194982529 411.5270753800869 145.41558559238911 11.214483767747881 14.265213936567305 5.6991824805736533
leaf_count=151 68 58 1240 473 35 37 16
internal_value=5.96749e-05 -0.00215537 0.00293472 -0.01581 0.0158009 0.0403633 0.00484961
internal_weight=678.124 593.364 431.163 162.201 84.7606 25.4797 59.2809
internal_count=2078 1839 1298 541 239 72 167
is_linear=0
shrinkage=0.0606001


Tree=61
num_leaves=7
num_cat=0
split_feature=16 15 20 15 24 17
split_gain=7.39966 5.24967 5.26159 4.27169 7.02144 0.352538
threshold=-0.38374976813793177 -2.0082209110260005 2.6321028470993046 -0.6397772729396819 -0.48687320947647089 0.54806634783744823
decision_type=2 2 2 2 2 2
left_child=3 5 -3 -1 -5 -2
right_child=1 2 -4 4 -6 -7
leaf_value=0.056482859074397172 -0.048702537433180884 -0.0041457352887323742 0.063150489650837 -0.014560777079120265 0.012627504920567424 -0.012135241321996965
leaf_weight=6.7406832277774802 10.306536369025705 436.51123180985451 4.1958814412355414 42.795655578374863 175.90310469269753 2.9848605245351783
leaf_count=15 51 1421 11 124 444 12
internal_value=-0.000146901 -0.00463358 -0.00344601 0.00879386 0.00720785 -0.042183
internal_weight=679.438 453.999 440.707 225.439 218.699 13.2914
internal_count=2078 1495 1432 583 568 63
is_linear=0
shrinkage=0.0606001


Tree=62
num_leaves=8
num_cat=0
split_feature=4 0 10 7 1 13 4
split_gain=6.58822 6.60987 10.502 7.66664 5.02127 4.08904 2.81215
threshold=-1.055892765522003 0.13500674813985827 -0.13942427188158033 0.25756251811981207 1.2765809893608095 0.31249998509883886 -1.3558037877082822
decision_type=2 2 2 2 2 2 2
left_child=4 2 -2 -3 6 -6 -1
right_child=1 3 -4 -5 5 -7 -8
leaf_value=-0.030742659355572157 0.030333965440304464 -0.00071704575799584104 0.0027721234591175704 -0.032109194724232112 -0.0069437544276365042 0.058923528560769142 -0.0055359744142144335
leaf_weight=46.922030970454216 63.359628736972809 232.49235181510448 265.95799435675144 32.750439032912254 8.2358627468347532 5.3616461753845206 28.375984609127045
leaf_count=136 207 707 808 85 27 20 88
internal_value=5.61102e-05 0.0023879 0.00814477 -0.00468082 -0.0152917 0.0176866 -0.0215381
internal_weight=683.456 594.56 329.318 265.243 88.8955 13.5975 75.298
internal_count=2078 1807 1015 792 271 47 224
is_linear=0
shrinkage=0.0606001


Tree=63
num_leaves=8
num_cat=0
split_feature=4 10 10 24 1 3 9
split_gain=5.78289 9.13817 6.9207 4.7489 4.34087 3.90744 2.33733
threshold=-0.98685047030448902 -0.16687492281198499 1.0731754899024966 1.1252671480178835 -0.88776046037673939 0.076755460351705565 -0.7172151207923888
decision_type=2 2 2 2 2 2 2
left_child=3 4 -3 5 -2 -1 -5
right_child=1 2 -4 6 -6 -7 -8
leaf_value=0.005357395648729296 0.017568027203568343 0.0046156053543644996 -0.015810989456278495 0.0066861121249372673 -0.022078677813203142 0.031879108203386561 -0.032103792533503275
leaf_weight=41.533613950014114 10.636500239372252 387.55333043634892 71.991852045059204 10.511211246252062 99.347425550222397 44.795908391475677 10.789039373397825
leaf_count=119 31 1172 231 30 341 121 33
internal_value=5.77256e-05 -0.00234605 0.00136771 0.0129646 -0.0180437 0.0193792 -0.0120265
internal_weight=677.159 569.529 459.545 107.63 109.984 86.3295 21.3003
internal_count=2078 1775 1403 303 372 240 63
is_linear=0
shrinkage=0.0606001


Tree=64
num_leaves=8
num_cat=0
split_feature=0 12 15 0 12 15 12
split_gain=7.30311 6.42254 7.02746 6.76462 4.79078 8.63301 5.78991
threshold=-0.78043970465660084 0.18851510435342791 0.36179172992706304 0.35338588058948522 0.0045525953173637399 -0.0058358658570796243 -1.9241712689399717
decision_type=2 2 2 2 2 2 2
left_child=4 3 -3 -2 6 -6 -1
right_child=1 2 -4 -5 5 -7 -8
leaf_value=0.0078425971386863105 0.003733831387480009 -0.020514012489523392 0.0015809663271264592 0.025865345033167446 0.080244755002406368 -0.016667166728792013 -0.028058347504153678
leaf_weight=20.289042457938194 240.7595831155777 71.825302138924599 194.3589369058609 65.361522078514099 5.1102377772331247 8.9651419967412913 71.760127186775208
leaf_count=81 722 221 565 155 13 36 285
internal_value=-0.000151767 0.00252497 -0.00430652 0.00853336 -0.0147755 0.01729 -0.0199174
internal_weight=678.43 572.305 266.184 306.121 106.125 14.0754 92.0492
internal_count=2078 1663 786 877 415 49 366
is_linear=0
shrinkage=0.0606001


Tree=65
num_leaves=8
num_cat=0
split_feature=4 19 15 19 1 7 19
split_gain=5.88589 7.32218 14.3328 8.95799 7.12718 3.52038 2.34741
threshold=-1.3093490600585935 0.61431768536567699 -0.0058358658570796243 0.80709984898567211 1.2765809893608095 0.83948683738708507 0.017989082261919979
decision_type=2 2 2 2 2 2 2
left_child=4 2 -2 -3 5 -1 -6
right_child=1 3 -4 -5 6 -7 -8
leaf_value=-0.037582337117818991 0.020231441667492488 -0.016068041667428028 -0.0033503589670603202 0.007646970303370978 0.037682097332020985 0 -0.016573230836367889
leaf_weight=37.245477795600891 169.89979128539562 142.9785254150629 210.80786857008934 97.529413178563118 9.397810682654379 11.376635059714316 3.5583350062370291
leaf_count=107 541 416 628 304 33 37 12
internal_value=6.28001e-05 0.00186568 0.00712048 -0.00636465 -0.0177633 -0.0285839 0.0211602
internal_weight=682.794 621.216 380.708 240.508 61.5783 48.6221 12.9561
internal_count=2078 1889 1169 720 189 144 45
is_linear=0
shrinkage=0.0606001


Tree=66
num_leaves=8
num_cat=0
split_feature=11 7 4 11 15 7 18
split_gain=6.26715 8.65961 9.64686 5.39817 5.32177 11.628 9.55231
threshold=-0.01430521300062537 0.34296670556068426 0.84048604965209972 -4.8407127857208243 0.13859455287456515 0.66472098231315624 0.85145747661590587
decision_type=2 2 2 2 2 2 2
left_child=1 2 -1 -3 6 -6 -2
right_child=4 3 -4 -5 5 -7 -8
leaf_value=-0.02098367507772143 0.0017782449312509674 0.057715897497904387 0.015538660388487535 0.004271779675631567 0.017007956878341352 -0.045662116972186403 -0.04886035003399531
leaf_weight=148.66278137266636 249.20709007978439 8.1606506109237653 31.596112534403801 52.107453748583794 160.85866737365723 11.427028194069861 14.376742094755171
leaf_count=501 749 23 93 167 455 43 47
internal_value=5.81114e-05 -0.00776124 -0.0144615 0.0119235 0.00442188 0.0127102 -0.000918147
internal_weight=676.397 240.527 180.259 60.2681 435.87 172.286 263.584
internal_count=2078 784 594 190 1294 498 796
is_linear=0
shrinkage=0.0606001


Tree=67
num_leaves=7
num_cat=0
split_feature=6 0 12 15 17 14
split_gain=7.6513 5.72424 11.4679 7.83708 4.59068 4.81891
threshold=-0.76463347673416127 0.105454009026289 -0.21054547280073163 0.77767488360404979 -0.13038671761751172 -0.58060538768768299
decision_type=2 2 2 2 2 2
left_child=4 3 -3 -2 -1 -6
right_child=1 2 -4 -5 5 -7
leaf_value=-0.025661543566084955 -0.0051541786633568119 0.033740048381432304 -0.00071740531824526863 -0.044316609951440357 0.007789746733126073 0.047582812762151164
leaf_weight=6.1237525045871726 305.28961087763309 40.871058017015457 257.32832387089729 20.154530182480812 23.707691743969917 23.9703718572855
leaf_count=19 1047 97 725 83 56 51
internal_value=-0.000152232 -0.00207565 0.00394273 -0.00765431 0.0217233 0.0282819
internal_weight=677.445 623.644 298.199 325.444 53.8018 47.6781
internal_count=2078 1952 822 1130 126 107
is_linear=0
shrinkage=0.0606001


Tree=68
num_leaves=8
num_cat=0
split_feature=9 13 1 10 13 1 10
split_gain=6.67989 6.02078 8.30378 6.67257 4.11393 3.35065 0.47744
threshold=0.96264719963073742 1.3125000000000002 0.19117148220539096 1.0731754899024966 0.70138886570930492 0.0076646865345537671 0.19425779581069949
decision_type=2 2 2 2 2 2 2
left_child=1 3 -3 -1 5 -2 -6
right_child=4 2 -4 -5 6 -7 -8
leaf_value=-0.0014150842687356824 0.015117055795509787 0.070425330157609836 -0.0029025185459603153 0.020745255486743181 -0.017722154229819605 -0.032660909877584868 -0.048409347339459959
leaf_weight=563.03561225533485 12.904167503118517 10.825149834156038 10.72020800411701 54.615190163254738 5.0045018047094372 8.9259813129901868 16.046391382813454
leaf_count=1708 44 40 29 170 15 24 48
internal_value=6.27904e-05 0.00164793 0.0330937 0.000512873 -0.023036 -0.00350831 -0.0422026
internal_weight=682.077 639.196 21.5454 617.651 42.881 21.8301 21.0509
internal_count=2078 1947 69 1878 131 68 63
is_linear=0
shrinkage=0.0606001


Tree=69
num_leaves=8
num_cat=0
split_feature=8 14 16 3 2 15 2
split_gain=5.82307 9.54283 9.93596 6.56914 10.2103 7.75947 4.41363
threshold=1.0000000180025095e-35 1.2193757295608523 1.6294263005256655 -0.61668500304222096 -0.84802782535552967 0.3464833945035935 0.38212469220161444
decision_type=2 2 2 2 2 2 2
left_child=3 2 -2 5 -5 -1 -3
right_child=1 6 -4 4 -6 -7 -8
leaf_value=0.019172887891907894 0.064045521629662497 -0.016913016670968676 -0.03092216640726949 0.024501808423163896 -0.0090407097978553695 -0.0059102382218838559 0.019133367343797482
leaf_weight=98.81287756562233 20.941335618495945 25.763155430555344 4.6317839920520774 36.148250102996826 383.38464079797268 81.760446354746819 24.00190731883049
leaf_count=294 55 90 16 107 1193 248 75
internal_value=5.41139e-05 0.0159552 0.0459836 -0.00190902 -0.00609641 0.00770188 5.38834e-05
internal_weight=675.444 75.3382 25.5731 600.106 419.533 180.573 49.7651
internal_count=2078 236 71 1842 1300 542 165
is_linear=0
shrinkage=0.0606001


Tree=70
num_leaves=8
num_cat=0
split_feature=16 19 7 19 7 3 7
split_gain=6.01645 4.93053 5.48465 5.12181 4.21071 7.81174 1.99008
threshold=-0.38374976813793177 0.16669028252363208 -0.34217378497123713 0.21249654889106753 -1.3246006369590757 -2.2367479801177974 -1.4264008998870847
decision_type=2 2 2 2 2 2 2
left_child=4 2 -2 -3 6 -6 -1
right_child=1 3 -4 -5 5 -7 -8
leaf_value=0 -0.037805152189844836 0.039247734118277713 -0.0074864756426364842 -0.0011617649842936427 0.059086224653460945 0.0068004113197420663 -0.05860637606250297
leaf_weight=3.319908931851387 26.987360760569572 11.921963438391684 133.40707115083933 278.57892933487892 11.141506910324095 206.27763846516609 4.8318396955728513
leaf_count=11 100 27 495 873 21 532 19
internal_value=-0.000132336 -0.00420492 -0.012735 0.000434736 0.00791394 0.00959711 -0.034084
internal_weight=676.466 450.895 160.394 290.501 225.571 217.419 8.15175
internal_count=2078 1495 595 900 583 553 30
is_linear=0
shrinkage=0.0606001


Tree=71
num_leaves=8
num_cat=0
split_feature=18 2 14 19 19 2 22
split_gain=5.14334 6.92834 9.62547 5.64774 5.07556 3.7691 2.61454
threshold=-1.6316379904747007 -0.85958203673362721 0.61034473776817333 -0.53123241662979115 0.98372274637222301 0.44938930869102484 -0.23299670219421384
decision_type=2 2 2 2 2 2 2
left_child=3 2 -2 5 -3 -1 -5
right_child=1 4 -4 6 -6 -7 -8
leaf_value=0.040752788319697565 -0.03982195922385131 -0.00089096318683623695 0.035763433613164551 0.023301883688021229 0.019609049277824808 -0.029098174112787051 0.092670691594120433
leaf_weight=4.7724057734012622 32.462121233344078 572.04254539310932 7.288141429424285 4.9108377993106842 47.920439913868904 6.748965710401535 5.2775848507881147
leaf_count=17 87 1740 25 16 154 18 21
internal_value=4.69241e-05 -0.000878877 -0.0253922 0.0290433 0.000662067 0 0.0617229
internal_weight=681.423 659.713 39.7503 21.7098 619.963 11.5214 10.1884
internal_count=2078 2006 112 72 1894 35 37
is_linear=0
shrinkage=0.0606001


Tree=72
num_leaves=7
num_cat=0
split_feature=11 11 2 2 16 17
split_gain=5.64787 7.71932 7.35543 7.22507 7.012 5.15012
threshold=-0.01430521300062537 -2.6075797080993648 -0.26976948976516718 -1.0916463136672971 1.028273403644562 1.2972375154495241
decision_type=2 2 2 2 2 2
left_child=1 2 -1 -2 -3 -5
right_child=3 4 -4 5 -6 -7
leaf_value=-0.024581059416921996 0.077032563014097749 -0.020423867542070633 0.017947190447833029 0.0014922005311152242 0.016261434772698136 0.028437768646235394
leaf_weight=19.280560955405235 4.8887924402952185 136.09092162549496 62.003354921936989 402.95587430894375 21.555708140134811 27.986271560192108
leaf_count=66 14 450 196 1199 72 81
internal_value=4.94012e-05 -0.00740551 0.00758713 0.0041851 -0.0152689 0.00329578
internal_weight=674.761 238.931 81.2839 435.831 157.647 430.942
internal_count=2078 784 262 1294 522 1280
is_linear=0
shrinkage=0.0606001


Tree=73
num_leaves=8
num_cat=0
split_feature=14 13 14 12 13 21 21
split_gain=6.4828 7.07097 6.03941 5.13766 4.9407 4.41157 4.34805
threshold=0.81252950429916393 -1.4097221493721006 1.3167665600776675 -1.2021105289459226 -0.32638886570930475 0.45931659638881689 -1.0806540846824644
decision_type=2 2 2 2 2 2 2
left_child=1 5 6 -3 -4 -1 -2
right_child=2 3 4 -5 -6 -7 -8
leaf_value=-0.044635366537660086 -0.0013111937420233295 -0.026948222860064871 0.036855319783074506 0.0049615923184782463 -0.010284939789849259 0.0013081957060543758 -0.045785560922132762
leaf_weight=18.477340325713161 12.718450903892515 18.94843989610672 9.9378213584423047 532.45987436175346 43.374588213860989 11.613696798682211 28.063157916069031
leaf_count=67 53 71 31 1519 177 37 123
internal_value=-0.000129678 0.00222744 -0.0149091 0.00382322 -0.00106221 -0.0262511 -0.0324591
internal_weight=675.593 581.499 94.094 551.408 53.3124 30.091 40.7816
internal_count=2078 1694 384 1590 208 104 176
is_linear=0
shrinkage=0.0606001


Tree=74
num_leaves=8
num_cat=0
split_feature=6 19 4 1 7 6 1
split_gain=5.38676 11.6234 8.39323 8.27688 5.47637 4.99381 3.54952
threshold=0.62972301244735729 0.37348799407482153 -1.3558037877082822 0.31904304027557379 0.61838316917419445 1.3191182017326357 1.2765809893608095
decision_type=2 2 2 2 2 2 2
left_child=2 3 6 -2 -4 -3 -1
right_child=1 5 4 -5 -6 -7 -8
leaf_value=-0.037829748731613662 0.048701236230059772 0.0027647347581162816 -0.0027005418812589554 0.010127972483218034 0.020434501047539393 -0.031430487354163962 0.012777118695254061
leaf_weight=32.859543651342392 32.095626577734947 41.982751980423927 442.24865461885929 61.400506258010864 40.915965586900711 24.082028403878212 5.2919875234365454
leaf_count=97 113 130 1331 198 129 63 17
internal_value=4.88798e-05 0.00981913 -0.00290231 0.0236243 -0.000694873 -0.00940573 -0.0302488
internal_weight=680.877 159.561 521.316 93.4961 483.165 66.0648 38.1515
internal_count=2078 504 1574 311 1460 193 114
is_linear=0
shrinkage=0.0606001


Tree=75
num_leaves=7
num_cat=0
split_feature=8 17 4 21 17 24
split_gain=5.21308 8.16575 5.99459 8.63214 6.82576 5.7382
threshold=1.0000000180025095e-35 1.0099446177482607 -1.1574904918670652 -1.07088166475296 1.2795579433441164 0.64435797929763805
decision_type=2 2 2 2 2 2
left_child=2 5 3 -1 -4 -2
right_child=1 -3 4 -5 -6 -7
leaf_value=-0.02485558845235385 0.034787512041121953 -0.053467546753844679 -0.006295307870214554 0.025508422464422476 0.0176432261513641 -0.00015851360001024208
leaf_weight=15.526766970753668 42.808301076292992 5.6469479501247397 478.28515343368053 57.150504231452942 47.703598439693451 26.888490825891495
leaf_count=42 132 20 1501 161 138 84
internal_value=6.38585e-05 0.0151079 -0.00179618 0.0144445 -0.00408197 0.02102
internal_weight=674.01 75.3437 598.666 72.6773 525.989 69.6968
internal_count=2078 236 1842 203 1639 216
is_linear=0
shrinkage=0.0606001


Tree=76
num_leaves=8
num_cat=0
split_feature=6 14 18 22 14 20 22
split_gain=6.51028 4.57194 7.19092 4.34023 3.60143 3.47516 2.23603
threshold=-0.76463347673416127 0.81252950429916393 -0.16905268281698224 -0.064156040549278245 -0.58060538768768299 0.1835153475403786 -0.22716347873210904
decision_type=2 2 2 2 2 2 2
left_child=4 3 -3 -2 6 -6 -1
right_child=1 2 -4 -5 5 -7 -8
leaf_value=-0.018333561067854321 -0.0060531091325686402 -0.035714512957226788 -0.00069389593082121431 0.0050385191901939526 0.0088652437422173207 0.053651035827945684 0.018109987393453715
leaf_weight=10.280514001846315 227.67575560510159 35.566526085138321 57.597977310419083 299.99120515584946 12.684796541929247 16.058462336659431 14.739817187190054
leaf_count=28 688 173 211 880 33 32 33
internal_value=-0.000150271 -0.001934 -0.0143078 0.000212766 0.0200294 0.0346946 0.00228858
internal_weight=674.595 620.831 93.1645 527.667 53.7636 28.7433 25.0203
internal_count=2078 1952 384 1568 126 65 61
is_linear=0
shrinkage=0.0606001


Tree=77
num_leaves=7
num_cat=0
split_feature=9 4 9 1 10 24
split_gain=6.13822 6.32466 6.6589 4.13247 3.12754 3.18357
threshold=0.96264719963073742 -1.055892765522003 -2.4039885997772212 1.2765809893608095 1.2104516029357912 1.2026948332786562
decision_type=2 2 2 2 2 2
left_child=1 3 -3 -1 5 -2
right_child=4 2 -4 -5 -6 -7
leaf_value=-0.019478342151470807 -0.036757514020979556 0.070139399965999577 0.0032746561731107167 0.016042531258876194 0.025254735175300951 0.0046511160393312842
leaf_weight=72.814205780625343 30.516559153795242 5.4830167889595023 545.95448634028435 13.691356867551802 4.0673756301403037 7.6413599997758856
leaf_count=224 95 20 1656 47 14 22
internal_value=5.48925e-05 0.00156788 0.00398768 -0.0136042 -0.0222668 -0.0279237
internal_weight=680.168 637.943 551.438 86.5056 42.2253 38.1579
internal_count=2078 1947 1676 271 131 117
is_linear=0
shrinkage=0.0606001


Tree=78
num_leaves=5
num_cat=0
split_feature=6 17 3 0
split_gain=5.12506 4.95797 4.99669 0.44296
threshold=-0.89782825112342823 -0.79337009787559498 -0.67124533653259266 0.88048958778381359
decision_type=2 2 2 2
left_child=-1 3 -3 -2
right_child=1 2 -4 -5
leaf_value=-0.045190166987990284 -0.053332888513701458 0.010602884327246768 -0.0016325694217899386 -0.014485263912141047
leaf_weight=8.9780006855726224 6.3086565285921079 162.45817920565605 492.02672281861305 3.5017345994710922
leaf_count=27 25 483 1533 10
internal_value=5.05257e-05 0.000698945 0.0013734 -0.0418195
internal_weight=673.273 664.295 654.485 9.81039
internal_count=2078 2051 2016 35
is_linear=0
shrinkage=0.0606001


Tree=79
num_leaves=8
num_cat=0
split_feature=6 5 20 14 12 20 5
split_gain=6.01842 4.68468 5.09787 3.31454 4.08746 3.16558 3.0854
threshold=-0.76463347673416127 -1.1924173831939695 -1.0822902321815489 -0.58060538768768299 0.30210378766059881 0.1835153475403786 -1.6951261758804319
decision_type=2 2 2 2 2 2 2
left_child=3 6 -3 4 -1 -5 -2
right_child=1 2 -4 5 -6 -7 -8
leaf_value=-0.020120652900614145 -0.0036641995549137442 0.02198402827625236 -0.0018085652214919784 0.0085338348885286679 0.02858778593409067 0.051348832302763305 -0.035709294639346682
leaf_weight=13.148614391684534 23.669112086296082 35.131822764873505 537.41817829012871 12.694485798478128 11.87977275252342 16.118842557072639 23.691243559122086
leaf_count=35 99 110 1645 33 26 32 98
internal_value=-0.000142955 -0.00186274 -0.000309102 0.0192418 0.00218013 0.0332883 -0.0201701
internal_weight=673.752 619.91 572.55 53.8417 25.0284 28.8133 47.3604
internal_count=2078 1952 1755 126 61 65 197
is_linear=0
shrinkage=0.0606001


Tree=80
num_leaves=7
num_cat=0
split_feature=18 10 10 19 2 2
split_gain=4.80674 6.16894 5.83142 11.2756 10.3806 3.87614
threshold=-0.57694074511528004 -0.20449157804250714 1.0731754899024966 0.61431768536567699 -0.63815852999687184 2.5668696165084843
decision_type=2 2 2 2 2 2
left_child=1 -1 3 -2 -4 -3
right_child=2 5 4 -5 -6 -7
leaf_value=0.089005304100027591 0.00055449499879054245 0.0098212732664457996 -0.022346232307229704 -0.02091939766304694 0.035462660912852495 -0.049767223576144388
leaf_weight=3.5221471935510626 371.61763308942318 131.146658167243 16.308965355157852 117.60302132368088 35.301879912614822 3.9562844038009635
leaf_count=14 1127 412 48 349 115 13
internal_value=6.079e-05 0.0101551 -0.00248886 -0.00456725 0.0167826 0.00789249
internal_weight=679.457 138.625 540.831 489.221 51.6108 135.103
internal_count=2078 439 1639 1476 163 425
is_linear=0
shrinkage=0.0606001


Tree=81
num_leaves=5
num_cat=0
split_feature=6 4 9 17
split_gain=4.73775 5.71075 7.22705 4.15485
threshold=-0.89782825112342823 -0.98685047030448902 -0.0068300184793770305 0.15248619019985202
decision_type=2 2 2 2
left_child=-1 3 -3 -2
right_child=1 2 -4 -5
leaf_value=-0.044113795709919724 0.0040479017439249256 -0.010352964142519612 0.0037305908008838629 0.029565464640958005
leaf_weight=8.7179268896579725 65.802557438611984 219.1969990581274 340.77592425048351 38.49836602807045
leaf_count=27 183 733 1025 110
internal_value=3.05857e-05 0.0006468 -0.00174551 0.0136833
internal_weight=672.992 664.274 559.973 104.301
internal_count=2078 2051 1758 293
is_linear=0
shrinkage=0.0606001


Tree=82
num_leaves=8
num_cat=0
split_feature=13 12 7 1 1 9 9
split_gain=5.45886 5.29075 5.78631 4.34264 3.97683 4.97145 0.485947
threshold=-1.4097221493721006 -0.61062186956405629 -1.0546944737434385 0.015035822521895172 -0.099557936191558824 0.27842268347740179 0.23672188073396686
decision_type=2 2 2 2 2 2 2
left_child=4 3 -3 -2 6 -6 -1
right_child=1 2 -4 -5 5 -7 -8
leaf_value=-0.015609901372063051 -0.032468881107042977 -0.017525067081109649 0.0054948550572568207 -0.0039834017935325219 -0.053600709918750968 0.020628987436376853 -0.05468418187557611
leaf_weight=3.2221790552139309 26.370434314012527 43.273011147975922 487.99871835112572 85.828505806624889 4.7775944620370856 10.150574758648871 11.595443964004515
leaf_count=13 103 138 1400 333 20 29 42
internal_value=-0.000120641 0.00102266 0.00357796 -0.0108839 -0.025493 -0.00188795 -0.0477265
internal_weight=673.216 643.471 531.272 112.199 29.7458 14.9282 14.8176
internal_count=2078 1974 1538 436 104 49 55
is_linear=0
shrinkage=0.0606001


Tree=83
num_leaves=8
num_cat=0
split_feature=9 6 15 10 13 6 18
split_gain=5.67877 5.26726 10.0026 5.74655 3.62107 3.75805 0.601562
threshold=0.96264719963073742 0.62972301244735729 -0.97831997275352467 1.0731754899024966 0.70138886570930492 -0.36222621798515314 0.74408006668090831
decision_type=2 2 2 2 2 2 2
left_child=1 3 -3 -1 5 -2 -6
right_child=4 2 -4 -5 6 -7 -8
leaf_value=-0.0038829786829128023 0.029356922182346496 -0.01000686068716285 0.022483931387728848 0.01739125853987137 -0.046947595773609858 -0.02284440375226892 -0.013609640608463418
leaf_weight=432.32694259285927 7.6807507723569897 51.936148643493652 101.09211936593056 52.000532507896423 15.25477881729603 14.021034613251684 4.6282129138708106
leaf_count=1303 27 155 329 160 48 41 15
internal_value=5.8384e-05 0.00150597 0.0113203 -0.00155299 -0.0215844 -0.00336513 -0.0403251
internal_weight=678.941 637.356 153.028 484.327 41.5848 21.7018 19.883
internal_count=2078 1947 484 1463 131 68 63
is_linear=0
shrinkage=0.0606001


Tree=84
num_leaves=8
num_cat=0
split_feature=10 10 15 4 15 12 12
split_gain=4.47794 7.09539 8.53729 6.38615 8.60071 6.75812 5.44692
threshold=1.0731754899024966 1.0499418377876284 -1.1992353200912473 0.33450450003147131 0.33251649141311651 1.8619757890701296 0.18851510435342791
decision_type=2 2 2 2 2 2 2
left_child=1 6 -3 5 -5 -2 -1
right_child=3 2 -4 4 -6 -7 -8
leaf_value=-0.0039005212125560423 -0.03628174749440928 -0.003003127929333571 0.083841100250164238 -0.020569892606933968 0.046809773674983846 0.054244344652498867 0.0081157995409529751
leaf_weight=362.55021840333939 39.499716863036156 7.3480601906776419 8.3082693219184858 16.021339341998104 11.9487147629261 3.0327532440423957 223.58683554828167
leaf_count=1129 143 21 22 45 32 11 675
internal_value=3.79007e-05 0.00176247 0.0419403 -0.0143704 0.0075175 -0.0292441 0.00064787
internal_weight=672.296 601.793 15.6563 70.5025 27.9701 42.5325 586.137
internal_count=2078 1847 43 231 77 154 1804
is_linear=0
shrinkage=0.0606001


Tree=85
num_leaves=8
num_cat=0
split_feature=13 12 12 21 13 22 17
split_gain=5.08086 4.86099 5.36856 4.05692 3.34597 2.89903 2.31068
threshold=-1.4097221493721006 -0.61062186956405629 0.18851510435342791 0.45931659638881689 0.28472222387790685 -0.040191009640693658 1.1116020679473879
decision_type=2 2 2 2 2 2 2
left_child=3 4 -3 6 -2 -5 -1
right_child=1 2 -4 5 -6 -7 -8
leaf_value=0 -0.015393264614886238 0.0092573840896492659 -0.0028896346312192573 0.028238778511585894 0.011731702292586101 -0.032687542732390912 -0.054198506185332791
leaf_weight=3.8048073053360048 92.167656131088734 277.57995437085629 253.90143291652203 6.8463479578495026 19.437948241829872 4.7377942651510221 14.02102918922901
leaf_count=12 372 785 753 20 64 17 55
internal_value=-0.000125448 0.000970947 0.0034154 -0.0247489 -0.010476 0.00146701 -0.0428883
internal_weight=672.497 643.087 531.481 29.41 111.606 11.5841 17.8258
internal_count=2078 1974 1538 104 436 37 67
is_linear=0
shrinkage=0.0606001


Tree=86
num_leaves=8
num_cat=0
split_feature=0 19 6 19 19 18 18
split_gain=4.71159 6.12228 7.89353 6.48519 6.11921 9.74594 6.77766
threshold=0.35338588058948522 0.23207103461027148 0.55432832241058361 0.59594765305519115 -0.35306102037429804 0.35434080660343176 -1.6316379904747007
decision_type=2 2 2 2 2 2 2
left_child=4 2 -2 -3 5 -1 -6
right_child=1 3 -4 -5 6 -7 -8
leaf_value=0.007854624576823897 -0.025247376300680344 0.032372313599333437 0.028244354744662161 -0.0054721605338016333 0.053104561962323805 0.058797967150334848 -0.0014783392356430972
leaf_weight=86.148878991603851 84.672620058059692 21.155961588025093 11.081948682665823 74.878113523125648 8.4608884453773481 16.722449600696564 375.13844779133797
leaf_count=270 239 68 36 233 30 59 1143
internal_value=5.58618e-05 -0.0079546 -0.0188191 0.00266645 0.00325789 0.0163791 -0.000208848
internal_weight=678.259 191.789 95.7546 96.0341 486.471 102.871 383.599
internal_count=2078 576 275 301 1502 329 1173
is_linear=0
shrinkage=0.0606001


Tree=87
num_leaves=6
num_cat=0
split_feature=17 16 7 23 15
split_gain=4.4842 4.41397 7.9041 5.39549 0.633227
threshold=-0.79337009787559498 -0.14109260588884351 -1.3646069169044492 0.14893308281898501 0.38722807168960577
decision_type=2 2 2 2 2
left_child=4 3 -3 -2 -1
right_child=1 2 -4 -5 -6
leaf_value=-0.051891449289048659 -0.0089497970376302347 0.064673995284956778 0.0035706554882408543 0.0136138420963836 -0.0072950656811969165
leaf_weight=6.7313251048326475 231.34070838987827 7.9155614823102942 376.83336579799652 46.099239557981491 2.8900763392448425
leaf_count=24 734 22 1148 139 11
internal_value=3.62129e-05 0.000666581 0.00489554 -0.00512213 -0.040831
internal_weight=671.81 662.189 384.749 277.44 9.6214
internal_count=2078 2043 1170 873 35
is_linear=0
shrinkage=0.0606001


Tree=88
num_leaves=5
num_cat=0
split_feature=15 14 20 4
split_gain=5.56243 4.49893 4.4827 0.872233
threshold=-2.0082209110260005 -1.2311519980430601 2.6321028470993046 0.068027596920728697
decision_type=2 2 2 2
left_child=3 -2 -3 -1
right_child=1 2 -4 -5
leaf_value=-0.047830352428502199 0.056000115895692579 -0.00025348522068615714 0.061758868214376157 0
leaf_weight=10.146664313971995 5.2625518143177024 649.97508184611797 4.2274539917707434 2.1538606435060492
leaf_count=55 9 1995 11 8
internal_value=-0.000116926 0.00060717 0.000122672 -0.040386
internal_weight=671.766 659.465 654.203 12.3005
internal_count=2078 2015 2006 63
is_linear=0
shrinkage=0.0606001


Tree=89
num_leaves=8
num_cat=0
split_feature=20 2 4 2 3 21 0
split_gain=4.39597 7.70791 4.79811 4.38626 3.78564 2.44886 2.27966
threshold=-1.5981752276420591 0.35090687870979315 -1.3093490600585935 -0.85958203673362721 0.60323765873909008 -1.0912021398544309 -0.87256398797035206
decision_type=2 2 2 2 2 2 2
left_child=1 4 5 -4 -1 -2 -3
right_child=2 6 3 -5 -6 -7 -8
leaf_value=0.091970006300740509 0.0097738264385307822 -0.017049886237500637 -0.018140833003467537 0.0020421862795552258 0.010855824845035502 -0.024765092436972308 0.035372227962428969
leaf_weight=6.692941755056383 8.1440844386816007 11.31454662978649 42.404265284538269 558.44179704785347 4.0342787802219391 42.55705438554287 4.0061993896961203
leaf_count=27 26 36 123 1705 13 134 14
internal_value=4.90326e-05 0.024451 -0.000897192 0.000580612 0.0637146 -0.018797 -0.00186588
internal_weight=677.595 26.048 651.547 600.846 10.7272 50.7011 15.3207
internal_count=2078 90 1988 1828 40 160 50
is_linear=0
shrinkage=0.0606001


Tree=90
num_leaves=8
num_cat=0
split_feature=8 6 12 3 17 9 15
split_gain=4.86353 9.37016 8.41726 5.70231 9.48909 7.57512 3.7237
threshold=1.0000000180025095e-35 1.5584438443183901 -1.6222597956657407 -0.61668500304222096 0.15248619019985202 0.97542461752891552 -2.0082209110260005
decision_type=2 2 2 2 2 2 2
left_child=3 2 -2 5 -5 -1 -3
right_child=1 6 -4 4 -6 -7 -8
leaf_value=0.0030686494575237048 -0.018616893314315052 0.018781197441700082 0.050280273811703843 -0.015167345106060335 0.0030906808439683988 0.046168116404789919 -0.02098905220475749
leaf_weight=163.99526777863503 7.7295997440814963 12.899874940514563 30.36850394308567 201.35816341638565 214.16095438599586 16.597230345010757 24.258845090866089
leaf_count=500 27 42 87 630 670 42 80
internal_value=2.95243e-05 0.014568 0.0357422 -0.00177239 -0.00570775 0.00716464 -0.00660801
internal_weight=671.368 75.2568 38.0981 596.112 415.519 180.592 37.1587
internal_count=2078 236 114 1842 1300 542 122
is_linear=0
shrinkage=0.0606001


Tree=91
num_leaves=8
num_cat=0
split_feature=7 12 12 16 16 12 7
split_gain=4.7264 5.66452 8.57745 3.05853 3.74251 3.00064 0.903868
threshold=-1.0546944737434385 -0.49148175120353693 -0.18680012971162793 0.085643567144870772 1.0000000180025095e-35 -2.0661550760269161 -1.3989641070365904
decision_type=2 2 2 2 2 2 2
left_child=3 5 -3 4 -1 -2 -5
right_child=1 2 -4 6 -6 -7 -8
leaf_value=-0.016277293573856436 0.015488042298348312 0.020379667502162323 0.00028120057352568555 -0.015196596766670414 0.039485246521181558 -0.012567024590888723 -0.055313855279716273
leaf_weight=31.073970094323158 15.06135832518339 98.56616336107254 382.92260393500328 4.9886228889226905 4.921680510044097 124.83330230414867 8.8746320903301221
leaf_count=96 63 255 1129 15 13 469 38
internal_value=-0.000116429 0.0012934 0.00444189 -0.0180812 -0.008 -0.0093894 -0.0425543
internal_weight=671.242 621.383 481.489 49.8589 35.9957 139.895 13.8633
internal_count=2078 1916 1384 162 109 532 53
is_linear=0
shrinkage=0.0606001


Tree=92
num_leaves=8
num_cat=0
split_feature=9 7 9 12 3 1 7
split_gain=5.1418 5.59401 7.35384 4.14073 3.98307 3.21678 0.534395
threshold=0.96264719963073742 -1.0546944737434385 -0.01113699236884713 1.4494518637657168 -0.3394330739974975 1.0000000180025095e-35 -1.4927971363067625
decision_type=2 2 2 2 2 2 2
left_child=1 2 -1 -3 6 -6 -2
right_child=4 3 -4 -5 5 -7 -8
leaf_value=0.058596986248678241 -0.01430067225753792 0.0010856897039862499 0.0032152592728837475 -0.022605198982050403 0.012884388257969859 -0.03665216177813814 -0.047474771998709704
leaf_weight=14.066633597016333 4.4115974605083492 568.25655730068684 25.708869203925133 28.367060288786888 14.862915605306627 6.9310516715049735 14.640082359313963
leaf_count=49 14 1735 83 80 53 18 46
internal_value=5.51293e-05 0.00142481 0.0234064 -8.41717e-06 -0.0207332 -0.0019863 -0.0409827
internal_weight=677.245 636.399 39.7755 596.624 40.8456 21.794 19.0517
internal_count=2078 1947 132 1815 131 71 60
is_linear=0
shrinkage=0.0606001


Tree=93
num_leaves=5
num_cat=0
split_feature=6 17 2 6
split_gain=4.45577 4.30038 4.18735 0.378477
threshold=-0.89782825112342823 -0.79337009787559498 -0.011715319938957689 0.26109699904918676
decision_type=2 2 2 2
left_child=-1 3 -3 -2
right_child=1 2 -4 -5
leaf_value=-0.043421896036595992 -0.050780005924243352 -0.0037439258162989351 0.0059519252632685678 -0.013044617415584756
leaf_weight=8.4656499624252302 6.0686798691749555 315.33686873316765 337.30869953334332 3.3381569087505341
leaf_count=27 20 999 1017 15
internal_value=2.28376e-05 0.00061527 0.00123516 -0.0398258
internal_weight=670.518 662.052 652.646 9.40684
internal_count=2078 2051 2016 35
is_linear=0
shrinkage=0.0606001


Tree=94
num_leaves=6
num_cat=0
split_feature=15 13 22 1 17
split_gain=5.22907 4.967 4.64425 3.60232 0.855719
threshold=-2.0082209110260005 -1.4097221493721006 -0.022927726618945595 -0.099557936191558824 0.95690599083900463
decision_type=2 2 2 2 2
left_child=4 3 -3 -2 -1
right_child=1 2 -4 -5 -6
leaf_value=-0.047187916049810943 -0.045742781246195338 -0.0036626471533331168 0.0067337162616926318 -0.0014958004792985106 0
leaf_weight=9.8577759787440282 14.134270682930948 300.11967048048973 329.55615489184856 14.855106651782988 2.1145518273115149
leaf_count=55 55 926 985 49 8
internal_value=-0.000108483 0.000583851 0.00174537 -0.0238582 -0.0396901
internal_weight=670.638 658.665 629.676 28.9894 11.9723
internal_count=2078 2015 1911 104 63
is_linear=0
shrinkage=0.0606001


Tree=95
num_leaves=8
num_cat=0
split_feature=0 17 1 14 23 21 12
split_gain=4.29803 8.5105 5.78439 5.67844 7.46908 5.09483 4.41247
threshold=0.35338588058948522 -0.76685079932212818 0.63306239247322094 -0.37914422154426569 -0.16028504818677899 0.56459617614746105 0.33702501654624945
decision_type=2 2 2 2 2 2 2
left_child=1 2 -1 6 -5 -3 -2
right_child=3 5 -4 4 -6 -7 -8
leaf_value=0.082221167664837752 -0.038532924540458681 0 0.015965394216331492 0.023560086735480101 -0.010000937099965761 0.032609509430248845 -0.0086535294154020202
leaf_weight=7.6675026118755367 29.481594771146774 444.3781373500824 16.004648089408875 37.068137392401695 70.14688204228878 18.188018083572388 53.851007148623466
leaf_count=30 81 1360 50 124 206 62 165
internal_value=5.38509e-05 0.00310776 0.0385152 -0.00762698 0.00141558 0.00124401 -0.019503
internal_weight=676.786 486.238 23.6722 190.548 107.215 462.566 83.3326
internal_count=2078 1502 80 576 330 1422 246
is_linear=0
shrinkage=0.0606001


Tree=96
num_leaves=7
num_cat=0
split_feature=11 11 2 2 15 15
split_gain=4.65802 7.32575 6.69767 6.1419 5.37006 4.46847
threshold=-0.01430521300062537 -2.6075797080993648 -0.26976948976516718 -1.0916463136672971 0.13859455287456515 -0.57993656396865834
decision_type=2 2 2 2 2 2
left_child=1 2 -1 -2 -5 -3
right_child=3 5 -4 4 -6 -7
leaf_value=-0.023171764959785655 0.070431597687375627 0.0065273824677310709 0.017729331287690817 -0.0025228221225700293 0.011262958207661261 -0.019462332566569127
leaf_weight=18.882286161184311 4.9659067690372458 28.636455595493317 61.630741983652115 257.53115071356297 171.85706025362015 126.65908958017826
leaf_count=66 14 94 196 784 496 428
internal_value=2.61462e-05 -0.0067977 0.00786297 0.00377968 0.00294694 -0.0145338
internal_weight=670.163 235.809 80.513 434.354 429.388 155.296
internal_count=2078 784 262 1294 1280 522
is_linear=0
shrinkage=0.0606001


Tree=97
num_leaves=7
num_cat=0
split_feature=6 11 14 7 11 4
split_gain=4.86895 3.92496 3.77154 3.66638 4.00172 2.28108
threshold=-0.81297215819358815 -4.8407127857208243 0.81252950429916393 0.30071562528610235 -1.0000000180025095e-35 -0.39774182438850397
