{"learner":{"attributes":{"scikit_learn":"{\"_estimator_type\": \"classifier\"}"},"feature_names":[],"feature_types":[],"gradient_booster":{"model":{"cats":{"enc":[],"feature_segments":[],"sorted_idx":[]},"gbtree_model_param":{"num_parallel_tree":"1","num_trees":"927"},"iteration_indptr":[0,3,6,9,12,15,18,21,24,27,30,33,36,39,42,45,48,51,54,57,60,63,66,69,72,75,78,81,84,87,90,93,96,99,102,105,108,111,114,117,120,123,126,129,132,135,138,141,144,147,150,153,156,159,162,165,168,171,174,177,180,183,186,189,192,195,198,201,204,207,210,213,216,219,222,225,228,231,234,237,240,243,246,249,252,255,258,261,264,267,270,273,276,279,282,285,288,291,294,297,300,303,306,309,312,315,318,321,324,327,330,333,336,339,342,345,348,351,354,357,360,363,366,369,372,375,378,381,384,387,390,393,396,399,402,405,408,411,414,417,420,423,426,429,432,435,438,441,444,447,450,453,456,459,462,465,468,471,474,477,480,483,486,489,492,495,498,501,504,507,510,513,516,519,522,525,528,531,534,537,540,543,546,549,552,555,558,561,564,567,570,573,576,579,582,585,588,591,594,597,600,603,606,609,612,615,618,621,624,627,630,633,636,639,642,645,648,651,654,657,660,663,666,669,672,675,678,681,684,687,690,693,696,699,702,705,708,711,714,717,720,723,726,729,732,735,738,741,744,747,750,753,756,759,762,765,768,771,774,777,780,783,786,789,792,795,798,801,804,807,810,813,816,819,822,825,828,831,834,837,840,843,846,849,852,855,858,861,864,867,870,873,876,879,882,885,888,891,894,897,900,903,906,909,912,915,918,921,924,927],"tree_info":[0,1,2,0,1,2,0,1,2,0,1,2,0,1,2,0,1,2,0,1,2,0,1,2,0,1,2,0,1,2,0,1,2,0,1,2,0,1,2,0,1,2,0,1,2,0,1,2,0,1,2,0,1,2,0,1,2,0,1,2,0,1,2,0,1,2,0,1,2,0,1,2,0,1,2,0,1,2,0,1,2,0,1,2,0,1,2,0,1,2,0,1,2,0,1,2,0,1,2,0,1,2,0,1,2,0,1,2,0,1,2,0,1,2,0,1,2,0,1,2,0,1,2,0,1,2,0,1,2,0,1,2,0,1,2,0,1,2,0,1,2,0,1,2,0,1,2,0,1,2,0,1,2,0,1,2,0,1,2,0,1,2,0,1,2,0,1,2,0,1,2,0,1,2,0,1,2,0,1,2,0,1,2,0,1,2,0,1,2,0,1,2,0,1,2,0,1,2,0,1,2,0,1,2,0,1,2,0,1,2,0,1,2,0,1,2,0,1,2,0,1,2,0,1,2,0,1,2,0,1,2,0,1,2,0,1,2,0,1,2,0,1,2,0,1,2,0,1,2,0,1,2,0,1,2,0,1,2,0,1,2,0,1,2,0,1,2,0,1,2,0,1,2,0,1,2,0,1,2,0,1,2,0,1,2,0,1,2,0,1,2,0,1,2,0,1,2,0,1,2,0,1,2,0,1,2,0,1,2,0,1,2,0,1,2,0,1,2,0,1,2,0,1,2,0,1,2,0,1,2,0,1,2,0,1,2,0,1,2,0,1,2,0,1,2,0,1,2,0,1,2,0,1,2,0,1,2,0,1,2,0,1,2,0,1,2,0,1,2,0,1,2,0,1,2,0,1,2,0,1,2,0,1,2,0,1,2,0,1,2,0,1,2,0,1,2,0,1,2,0,1,2,0,1,2,0,1,2,0,1,2,0,1,2,0,1,2,0,1,2,0,1,2,0,1,2,0,1,2,0,1,2,0,1,2,0,1,2,0,1,2,0,1,2,0,1,2,0,1,2,0,1,2,0,1,2,0,1,2,0,1,2,0,1,2,0,1,2,0,1,2,0,1,2,0,1,2,0,1,2,0,1,2,0,1,2,0,1,2,0,1,2,0,1,2,0,1,2,0,1,2,0,1,2,0,1,2,0,1,2,0,1,2,0,1,2,0,1,2,0,1,2,0,1,2,0,1,2,0,1,2,0,1,2,0,1,2,0,1,2,0,1,2,0,1,2,0,1,2,0,1,2,0,1,2,0,1,2,0,1,2,0,1,2,0,1,2,0,1,2,0,1,2,0,1,2,0,1,2,0,1,2,0,1,2,0,1,2,0,1,2,0,1,2,0,1,2,0,1,2,0,1,2,0,1,2,0,1,2,0,1,2,0,1,2,0,1,2,0,1,2,0,1,2,0,1,2,0,1,2,0,1,2,0,1,2,0,1,2,0,1,2,0,1,2,0,1,2,0,1,2,0,1,2,0,1,2,0,1,2,0,1,2,0,1,2,0,1,2,0,1,2,0,1,2,0,1,2,0,1,2,0,1,2,0,1,2,0,1,2,0,1,2,0,1,2,0,1,2,0,1,2,0,1,2,0,1,2,0,1,2,0,1,2,0,1,2,0,1,2,0,1,2,0,1,2,0,1,2,0,1,2,0,1,2,0,1,2,0,1,2,0,1,2,0,1,2,0,1,2,0,1,2,0,1,2,0,1,2,0,1,2,0,1,2,0,1,2,0,1,2,0,1,2,0,1,2,0,1,2,0,1,2,0,1,2,0,1,2,0,1,2,0,1,2,0,1,2,0,1,2,0,1,2,0,1,2,0,1,2,0,1,2,0,1,2,0,1,2,0,1,2,0,1,2,0,1,2,0,1,2,0,1,2,0,1,2,0,1,2,0,1,2,0,1,2,0,1,2,0,1,2,0,1,2,0,1,2,0,1,2,0,1,2,0,1,2,0,1,2,0,1,2,0,1,2,0,1,2,0,1,2,0,1,2,0,1,2,0,1,2,0,1,2,0,1,2,0,1,2,0,1,2,0,1,2,0,1,2,0,1,2,0,1,2,0,1,2,0,1,2,0,1,2,0,1,2],"trees":[{"base_weights":[-6.8373177E-3,-4.6673335E-2,5.472845E-1,8.870157E-2,-1.5839015E-1,2.593502E-1,4.2611156E-2,-8.948686E-2,4.4291537E-2,-6.1483983E-2,4.378772E-2],"categories":[],"categories_nodes":[],"categories_segments":[],"categories_sizes":[],"default_left":[0,0,0,0,0,0,0,0,0,0,0],"id":0,"left_children":[1,3,5,7,9,-1,-1,-1,-1,-1,-1],"loss_changes":[1.2556958E1,8.026195E0,7.2475348E0,9.945521E0,8.9838505E0,0E0,0E0,0E0,0E0,0E0,0E0],"parents":[2147483647,0,0,1,1,2,2,3,3,4,4],"right_children":[2,4,6,8,10,-1,-1,-1,-1,-1,-1],"split_conditions":[5.351605E-1,0E0,4.8059326E-1,-4.7628984E-1,6.3942856E-1,2.593502E-1,4.2611156E-2,-8.948686E-2,4.4291537E-2,-6.1483983E-2,4.378772E-2],"split_indices":[3,0,15,9,1,0,0,0,0,0,0],"split_type":[0,0,0,0,0,0,0,0,0,0,0],"sum_hessian":[5.6885724E2,5.307047E2,3.815253E1,2.3994588E2,2.9075882E2,1.6174034E1,2.1978497E1,4.0344265E1,1.9960162E2,2.2844833E2,6.2310493E1],"tree_param":{"num_deleted":"0","num_feature":"25","num_nodes":"11","size_leaf_vector":"1"}},{"base_weights":[3.2017897E-3,3.6776182E-1,-5.8030833E-2,-8.584037E-2,5.689206E-1,-1.3633652E-1,2.3004897E-1,-1.5323983E-1,9.014826E-2,1.9520308E-1,3.0913841E-2,-1.3549611E-1,-2.0015359E-2,1.1772957E-1,-2.5283378E-2],"categories":[],"categories_nodes":[],"categories_segments":[],"categories_sizes":[],"default_left":[0,0,0,0,0,0,0,0,0,0,0,0,0,0,0],"id":1,"left_children":[1,3,5,7,9,11,13,-1,-1,-1,-1,-1,-1,-1,-1],"loss_changes":[1.2922934E1,7.596408E0,1.1181145E1,6.2258353E0,5.760687E0,8.87812E0,8.782614E0,0E0,0E0,0E0,0E0,0E0,0E0,0E0,0E0],"parents":[2147483647,0,0,1,1,2,2,3,3,4,4,5,5,6,6],"right_children":[2,4,6,8,10,12,14,-1,-1,-1,-1,-1,-1,-1,-1],"split_conditions":[-1.0542952E0,-7.333042E-1,6.5200615E-1,8.99614E-1,2.6946312E-1,-8.2918984E-1,6.350539E-2,-1.5323983E-1,9.014826E-2,1.9520308E-1,3.0913841E-2,-1.3549611E-1,-2.0015359E-2,1.1772957E-1,-2.5283378E-2],"split_indices":[3,1,11,10,22,5,15,0,0,0,0,0,0,0,0],"split_type":[0,0,0,0,0,0,0,0,0,0,0,0,0,0,0],"sum_hessian":[5.789075E2,8.325182E1,4.9565567E2,2.5577026E1,5.7674797E1,3.8972174E2,1.0593393E2,1.1690267E1,1.3886761E1,3.8228916E1,1.944588E1,4.55222E1,3.4419952E2,6.060447E1,4.5329456E1],"tree_param":{"num_deleted":"0","num_feature":"25","num_nodes":"15","size_leaf_vector":"1"}},{"base_weights":[-1.3971728E-3,2.582011E-1,-3.322609E-2,-7.2805814E-2,4.1866308E-1,7.8550423E-4,-6.0285952E-2,1.6713288E-1,-4.9153008E-2],"categories":[],"categories_nodes":[],"categories_segments":[],"categories_sizes":[],"default_left":[0,0,0,0,0,0,0,0,0],"id":2,"left_children":[1,-1,3,5,7,-1,-1,-1,-1],"loss_changes":[1.903564E1,0E0,9.868693E0,6.651722E0,7.1872797E0,0E0,0E0,0E0,0E0],"parents":[2147483647,0,0,2,2,3,3,4,4],"right_children":[2,-1,4,6,8,-1,-1,-1,-1],"split_conditions":[-1.2329624E0,2.582011E-1,1.1946198E0,3.7115833E-1,1.5314372E-1,7.8550423E-4,-6.0285952E-2,1.6713288E-1,-4.9153008E-2],"split_indices":[5,0,20,3,5,0,0,0,0],"split_type":[0,0,0,0,0,0,0,0,0],"sum_hessian":[5.6845874E2,1.669281E1,5.517659E2,5.073303E2,4.443564E1,3.5217477E2,1.5515553E2,3.1236055E1,1.3199581E1],"tree_param":{"num_deleted":"0","num_feature":"25","num_nodes":"9","size_leaf_vector":"1"}},{"base_weights":[1.8480623E-2,1.9676004E-1,-1.3051729E-1,7.454578E-1,1.1665243E-1,-2.7757245E-1,1.4208493E-1,7.720017E-2,2.3882073E-1,1.33254705E-2,1.648166E-1,-7.740778E-2,6.502979E-2,1.0506058E-1,-4.9237978E-2],"categories":[],"categories_nodes":[],"categories_segments":[],"categories_sizes":[],"default_left":[0,0,0,0,0,0,0,0,0,0,0,0,0,0,0],"id":3,"left_children":[1,3,5,7,9,11,13,-1,-1,-1,-1,-1,-1,-1,-1],"loss_changes":[1.5061661E1,1.1346518E1,1.2381876E1,3.2106895E0,7.7907763E0,4.0703754E0,1.0579202E1,0E0,0E0,0E0,0E0,0E0,0E0,0E0,0E0],"parents":[2147483647,0,0,1,1,2,2,3,3,4,4,5,5,6,6],"right_children":[2,4,6,8,10,12,14,-1,-1,-1,-1,-1,-1,-1,-1],"split_conditions":[0E0,-4.824474E-1,5.876102E-1,-5.508549E-1,5.1080847E-1,9.3413115E-1,-3.068906E-1,7.720017E-2,2.3882073E-1,1.33254705E-2,1.648166E-1,-7.740778E-2,6.502979E-2,1.0506058E-1,-4.9237978E-2],"split_indices":[0,6,1,11,3,12,12,0,0,0,0,0,0,0,0],"split_type":[0,0,0,0,0,0,0,0,0,0,0,0,0,0,0],"sum_hessian":[5.670109E2,2.5814023E2,3.088707E2,3.288614E1,2.2525407E2,2.0063708E2,1.0823361E2,1.1318769E1,2.1567368E1,2.0244258E2,2.2811502E1,1.8768489E2,1.2952207E1,5.903097E1,4.9202637E1],"tree_param":{"num_deleted":"0","num_feature":"25","num_nodes":"15","size_leaf_vector":"1"}},{"base_weights":[1.8438324E-2,-1.5200152E-1,1.47692E-1,2.1541792E-1,-2.2121803E-1,5.0397515E-1,1.02958485E-1,1.6017522E-1,-1.3837034E-2,-1.08925626E-1,-2.0554818E-2,1.9900787E-1,7.658524E-4,-5.067198E-2,4.1844044E-2],"categories":[],"categories_nodes":[],"categories_segments":[],"categories_sizes":[],"default_left":[0,0,0,0,0,0,0,0,0,0,0,0,0,0,0],"id":4,"left_children":[1,3,5,7,9,11,13,-1,-1,-1,-1,-1,-1,-1,-1],"loss_changes":[1.2995345E1,6.470103E0,5.346822E0,4.7820387E0,6.5392103E0,5.732398E0,6.2027206E0,0E0,0E0,0E0,0E0,0E0,0E0,0E0,0E0],"parents":[2147483647,0,0,1,1,2,2,3,3,4,4,5,5,6,6],"right_children":[2,4,6,8,10,12,14,-1,-1,-1,-1,-1,-1,-1,-1],"split_conditions":[0E0,-1.2473161E0,-7.2727853E-1,3.7311918E-1,-4.3962333E-1,-2.9106525E-1,-6.023648E-1,1.6017522E-1,-1.3837034E-2,-1.08925626E-1,-2.0554818E-2,1.9900787E-1,7.658524E-4,-5.067198E-2,4.1844044E-2],"split_indices":[0,10,24,16,21,12,12,0,0,0,0,0,0,0,0],"split_type":[0,0,0,0,0,0,0,0,0,0,0,0,0,0,0],"sum_hessian":[5.898937E2,2.54413E2,3.3548068E2,4.0330105E1,2.1408289E2,3.7422928E1,2.9805777E2,1.5476245E1,2.4853863E1,8.1903786E1,1.321791E2,2.3235163E1,1.4187765E1,5.3294056E1,2.447637E2],"tree_param":{"num_deleted":"0","num_feature":"25","num_nodes":"15","size_leaf_vector":"1"}},{"base_weights":[-1.7075565E-2,3.604781E-1,-7.152968E-2,2.2037387E-1,1.9241309E-1,1.5071553E-1,-8.9091465E-2,5.6077857E-3,2.0120457E-1,-2.8433725E-2,7.930888E-2],"categories":[],"categories_nodes":[],"categories_segments":[],"categories_sizes":[],"default_left":[0,0,0,0,0,0,0,0,0,0,0],"id":5,"left_children":[1,3,5,-1,7,-1,9,-1,-1,-1,-1],"loss_changes":[1.2170207E1,6.724962E0,6.2219124E0,0E0,6.034588E0,0E0,5.52784E0,0E0,0E0,0E0,0E0],"parents":[2147483647,0,0,1,1,2,2,4,4,6,6],"right_children":[2,4,6,-1,8,-1,10,-1,-1,-1,-1],"split_conditions":[-8.718858E-1,-1.383308E-1,-7.216632E-1,2.2037387E-1,0E0,1.5071553E-1,9.622074E-1,5.6077857E-3,2.0120457E-1,-2.8433725E-2,7.930888E-2],"split_indices":[14,3,23,0,0,0,10,0,0,0,0],"split_type":[0,0,0,0,0,0,0,0,0,0,0],"sum_hessian":[5.919548E2,7.4615234E1,5.1733954E2,1.7804247E1,5.681099E1,1.2935035E1,5.0440448E2,4.4705887E1,1.2105101E1,4.7378824E2,3.0616251E1],"tree_param":{"num_deleted":"0","num_feature":"25","num_nodes":"11","size_leaf_vector":"1"}},{"base_weights":[-2.2690934E-3,-2.7573828E-2,4.3653193E-1,1.5879882E-2,-3.054966E-1,2.1978402E-1,-2.0591963E-2,-1.0003362E-2,6.10953E-2,-1.1121457E-1,-2.6092889E-2],"categories":[],"categories_nodes":[],"categories_segments":[],"categories_sizes":[],"default_left":[0,0,0,0,0,0,0,0,0,0,0],"id":6,"left_children":[1,3,5,7,9,-1,-1,-1,-1,-1,-1],"loss_changes":[6.390296E0,6.571331E0,7.4748836E0,6.1968775E0,2.1565442E0,0E0,0E0,0E0,0E0,0E0,0E0],"parents":[2147483647,0,0,1,1,2,2,3,3,4,4],"right_children":[2,4,6,8,10,-1,-1,-1,-1,-1,-1],"split_conditions":[5.478793E-1,7.290986E-1,3.081395E-1,5.9312457E-1,2.0014797E-1,2.1978402E-1,-2.0591963E-2,-1.0003362E-2,6.10953E-2,-1.1121457E-1,-2.6092889E-2],"split_indices":[3,14,19,1,10,0,0,0,0,0,0],"split_type":[0,0,0,0,0,0,0,0,0,0,0],"sum_hessian":[5.7550824E2,5.4412946E2,3.1378782E1,4.705571E2,7.3572395E1,1.6691994E1,1.4686788E1,3.785234E2,9.203367E1,4.2336163E1,3.1236233E1],"tree_param":{"num_deleted":"0","num_feature":"25","num_nodes":"11","size_leaf_vector":"1"}},{"base_weights":[-2.770386E-2,4.4547904E-2,-2.8835106E-1,9.758095E-3,3.835528E-1,4.5654062E-2,-4.731947E-1,1.5461748E-2,-7.8803524E-2,1.7635818E-1,1.0391807E-2,-7.1587995E-2,1.0352949E-1,-1.3446155E-1,-1.2975602E-3],"categories":[],"categories_nodes":[],"categories_segments":[],"categories_sizes":[],"default_left":[0,0,0,0,0,0,0,0,0,0,0,0,0,0,0],"id":7,"left_children":[1,3,5,7,9,11,13,-1,-1,-1,-1,-1,-1,-1,-1],"loss_changes":[1.0940762E1,5.36469E0,7.7846594E0,7.246255E0,4.826802E0,5.685743E0,2.8090134E0,0E0,0E0,0E0,0E0,0E0,0E0,0E0,0E0],"parents":[2147483647,0,0,1,1,2,2,3,3,4,4,5,5,6,6],"right_children":[2,4,6,8,10,12,14,-1,-1,-1,-1,-1,-1,-1,-1],"split_conditions":[4.5201984E-1,6.763778E-1,-2.7362356E-1,6.427274E-1,3.9759243E-1,4.088844E-1,9.20684E-1,1.5461748E-2,-7.8803524E-2,1.7635818E-1,1.0391807E-2,-7.1587995E-2,1.0352949E-1,-1.3446155E-1,-1.2975602E-3],"split_indices":[6,17,15,13,5,3,15,0,0,0,0,0,0,0,0],"split_type":[0,0,0,0,0,0,0,0,0,0,0,0,0,0,0],"sum_hessian":[5.8095966E2,4.548693E2,1.2609037E2,4.1253372E2,4.233556E1,4.4920612E1,8.116976E1,3.5536288E2,5.7170834E1,2.1392757E1,2.09428E1,2.3679121E1,2.1241493E1,7.0091064E1,1.1078698E1],"tree_param":{"num_deleted":"0","num_feature":"25","num_nodes":"15","size_leaf_vector":"1"}},{"base_weights":[4.2869795E-2,5.8027023E-1,-7.1329754E-3,8.061541E-1,3.6183055E-2,3.0521014E-1,-3.866829E-2,2.540311E-1,1.1153245E-1,-9.808389E-3,1.6262554E-1,4.7050957E-3,-9.974687E-2],"categories":[],"categories_nodes":[],"categories_segments":[],"categories_sizes":[],"default_left":[0,0,0,0,0,0,0,0,0,0,0,0,0],"id":8,"left_children":[1,3,5,7,-1,9,11,-1,-1,-1,-1,-1,-1],"loss_changes":[1.508808E1,4.6752605E0,5.0597925E0,2.5182056E0,0E0,5.796809E0,9.905978E0,0E0,0E0,0E0,0E0,0E0,0E0],"parents":[2147483647,0,0,1,1,2,2,3,3,5,5,6,6],"right_children":[2,4,6,8,-1,10,12,-1,-1,-1,-1,-1,-1],"split_conditions":[-1.0645883E0,8.8346416E-1,-1.1976715E0,-1.0958868E0,3.6183055E-2,-2.413595E-1,6.2151706E-1,2.540311E-1,1.1153245E-1,-9.808389E-3,1.6262554E-1,4.7050957E-3,-9.974687E-2],"split_indices":[8,22,16,14,0,9,7,0,0,0,0,0,0],"split_type":[0,0,0,0,0,0,0,0,0,0,0,0,0],"sum_hessian":[5.614898E2,4.779687E1,5.1369293E2,3.1411577E1,1.6385294E1,4.7108105E1,4.665848E2,1.9084652E1,1.2326925E1,2.393764E1,2.3170465E1,4.0311923E2,6.346558E1],"tree_param":{"num_deleted":"0","num_feature":"25","num_nodes":"13","size_leaf_vector":"1"}},{"base_weights":[3.1600976E-3,3.5267004E-1,-4.6979044E-2,-6.932446E-2,4.7585854E-1,-2.892817E-1,4.884573E-3,2.4563262E-1,7.0357434E-2,-1.0098971E-2,-1.5560722E-1,1.898557E-1,-4.459177E-3],"categories":[],"categories_nodes":[],"categories_segments":[],"categories_sizes":[],"default_left":[0,0,0,0,0,0,0,0,0,0,0,0,0],"id":9,"left_children":[1,3,5,-1,7,9,11,-1,-1,-1,-1,-1,-1],"loss_changes":[9.694356E0,5.427067E0,6.079729E0,0E0,5.7697363E0,7.280604E0,7.045344E0,0E0,0E0,0E0,0E0,0E0,0E0],"parents":[2147483647,0,0,1,1,2,2,4,4,5,5,6,6],"right_children":[2,4,6,-1,8,10,12,-1,-1,-1,-1,-1,-1],"split_conditions":[-1E0,-4.5479706E-1,-6.373404E-1,-6.932446E-2,-2.589572E-1,-5.6173507E-2,-9.339897E-1,2.4563262E-1,7.0357434E-2,-1.0098971E-2,-1.5560722E-1,1.898557E-1,-4.459177E-3],"split_indices":[0,1,18,0,1,9,15,0,0,0,0,0,0],"split_type":[0,0,0,0,0,0,0,0,0,0,0,0,0],"sum_hessian":[5.5320044E2,6.940336E1,4.837971E2,1.1279942E1,5.8123413E1,8.529686E1,3.985002E2,1.5447624E1,4.267579E1,4.954387E1,3.5752995E1,1.1606556E1,3.8689368E2],"tree_param":{"num_deleted":"0","num_feature":"25","num_nodes":"13","size_leaf_vector":"1"}},{"base_weights":[-1.929239E-2,-2.785388E-1,2.8706023E-2,-3.942939E-1,6.1753184E-2,4.687474E-1,-1.47070475E-2,-7.227907E-2,-1.807377E-1,1.5916656E-1,4.2617816E-2,-1.2608365E-2,7.728974E-2],"categories":[],"categories_nodes":[],"categories_segments":[],"categories_sizes":[],"default_left":[0,0,0,0,0,0,0,0,0,0,0,0,0],"id":10,"left_children":[1,3,5,7,-1,9,11,-1,-1,-1,-1,-1,-1],"loss_changes":[7.137786E0,5.495915E0,9.246261E0,2.513463E0,0E0,2.29677E0,5.308144E0,0E0,0E0,0E0,0E0,0E0,0E0],"parents":[2147483647,0,0,1,1,2,2,3,3,5,5,6,6],"right_children":[2,4,6,8,-1,10,12,-1,-1,-1,-1,-1,-1],"split_conditions":[-7.7664113E-1,9.6234465E-1,-6.843014E-1,-9.1579825E-1,6.1753184E-2,-5.3331524E-1,7.162182E-1,-7.227907E-2,-1.807377E-1,1.5916656E-1,4.2617816E-2,-1.2608365E-2,7.728974E-2],"split_indices":[21,15,17,21,0,12,17,0,0,0,0,0,0],"split_type":[0,0,0,0,0,0,0,0,0,0,0,0,0],"sum_hessian":[5.7361945E2,8.9611984E1,4.8400745E2,7.354423E1,1.6067753E1,4.3462708E1,4.4054474E2,5.6851456E1,1.6692774E1,2.7064451E1,1.6398254E1,3.9646902E2,4.4075714E1],"tree_param":{"num_deleted":"0","num_feature":"25","num_nodes":"13","size_leaf_vector":"1"}},{"base_weights":[1.2099532E-3,3.6214668E-1,-4.3845594E-2,1.945266E-1,2.066823E-1,-2.0331775E-1,1.4404991E-2,1.17342636E-1,-6.503623E-2,1.3289082E-1,-6.548842E-2,4.076787E-2,-2.4249872E-2],"categories":[],"categories_nodes":[],"categories_segments":[],"categories_sizes":[],"default_left":[0,0,0,0,0,0,0,0,0,0,0,0,0],"id":11,"left_children":[1,3,5,-1,7,9,11,-1,-1,-1,-1,-1,-1],"loss_changes":[9.667463E0,4.4043493E0,4.9094367E0,0E0,6.182562E0,6.646124E0,6.6313987E0,0E0,0E0,0E0,0E0,0E0,0E0],"parents":[2147483647,0,0,1,1,2,2,4,4,5,5,6,6],"right_children":[2,4,6,-1,8,10,12,-1,-1,-1,-1,-1,-1],"split_conditions":[-9.750136E-1,-1.383308E-1,-4.3264732E-1,1.945266E-1,5.080493E-1,-7.0430195E-1,-7.350672E-2,1.17342636E-1,-6.503623E-2,1.3289082E-1,-6.548842E-2,4.076787E-2,-2.4249872E-2],"split_indices":[14,3,12,0,11,23,11,0,0,0,0,0,0],"split_type":[0,0,0,0,0,0,0,0,0,0,0,0,0],"sum_hessian":[5.944744E2,6.5972595E1,5.2850183E2,1.7535568E1,4.8437023E1,1.413979E2,3.871039E2,3.076209E1,1.7674932E1,1.1064713E1,1.3033319E2,1.654558E2,2.2164812E2],"tree_param":{"num_deleted":"0","num_feature":"25","num_nodes":"13","size_leaf_vector":"1"}},{"base_weights":[2.5862273E-2,1.614852E-1,-9.0109855E-2,5.73334E-1,1.0118857E-1,1.1839242E-1,-1.3027823E-1,2.9784856E-2,1.9841255E-1,-1.1255299E-1,3.6813073E-2,-4.0009513E-2,1.16665155E-1],"categories":[],"categories_nodes":[],"categories_segments":[],"categories_sizes":[],"default_left":[0,0,0,0,0,0,0,0,0,0,0,0,0],"id":12,"left_children":[1,3,5,7,9,-1,11,-1,-1,-1,-1,-1,-1],"loss_changes":[8.798011E0,6.402947E0,6.926504E0,3.4845152E0,6.113862E0,0E0,5.544844E0,0E0,0E0,0E0,0E0,0E0,0E0],"parents":[2147483647,0,0,1,1,2,2,3,3,4,4,6,6],"right_children":[2,4,6,8,10,-1,12,-1,-1,-1,-1,-1,-1],"split_conditions":[0E0,-4.824474E-1,-6.730472E-1,-4.220208E-1,-2.2508924E-1,1.1839242E-1,9.498199E-1,2.9784856E-2,1.9841255E-1,-1.1255299E-1,3.6813073E-2,-4.0009513E-2,1.16665155E-1],"split_indices":[0,6,9,8,20,0,7,0,0,0,0,0,0],"split_type":[0,0,0,0,0,0,0,0,0,0,0,0,0],"sum_hessian":[5.593681E2,2.5783936E2,3.0152872E2,3.292806E1,2.249113E2,1.9789297E1,2.8173944E2,1.1231467E1,2.1696592E1,1.7988337E1,2.0692296E2,2.673643E2,1.43751545E1],"tree_param":{"num_deleted":"0","num_feature":"25","num_nodes":"13","size_leaf_vector":"1"}},{"base_weights":[-2.6716225E-2,-1.01234935E-1,1.9671187E-1,-1.8261105E-1,6.4750984E-2,-1.3447024E-1,3.449864E-1,-3.465365E-2,-1.7415814E-1,1.1416391E-1,-1.9672567E-3,3.7565026E-2,-1.158771E-1,1.371521E-1,-9.243913E-3],"categories":[],"categories_nodes":[],"categories_segments":[],"categories_sizes":[],"default_left":[0,0,0,0,0,0,0,0,0,0,0,0,0,0,0],"id":13,"left_children":[1,3,5,7,9,11,13,-1,-1,-1,-1,-1,-1,-1,-1],"loss_changes":[9.511201E0,5.786282E0,7.016045E0,6.290534E0,4.09936E0,4.2792234E0,8.047103E0,0E0,0E0,0E0,0E0,0E0,0E0,0E0,0E0],"parents":[2147483647,0,0,1,1,2,2,3,3,4,4,5,5,6,6],"right_children":[2,4,6,8,10,12,14,-1,-1,-1,-1,-1,-1,-1,-1],"split_conditions":[5.521742E-1,4.3914148E-1,-2.1067673E-1,4.1379493E-1,-8.1868327E-1,-5.9478533E-1,4.9391437E-1,-3.465365E-2,-1.7415814E-1,1.1416391E-1,-1.9672567E-3,3.7565026E-2,-1.158771E-1,1.371521E-1,-9.243913E-3],"split_indices":[11,14,13,2,18,13,4,0,0,0,0,0,0,0,0],"split_type":[0,0,0,0,0,0,0,0,0,0,0,0,0,0,0],"sum_hessian":[5.7125793E2,4.2838208E2,1.4287584E2,2.8745477E2,1.4092732E2,4.4185116E1,9.869073E1,2.663909E2,2.1063862E1,2.169724E1,1.1923009E2,2.3852098E1,2.033302E1,6.3384464E1,3.530626E1],"tree_param":{"num_deleted":"0","num_feature":"25","num_nodes":"15","size_leaf_vector":"1"}},{"base_weights":[-1.1259378E-2,1.8995069E-1,-6.668388E-2,2.9567048E-2,4.9201283E-1,-1.5622334E-1,6.0107376E-2,5.881928E-2,-8.069088E-2,2.0200223E-1,5.894245E-2,-2.6658917E-2,-1.376944E-1,3.0192807E-2,-1.261305E-1],"categories":[],"categories_nodes":[],"categories_segments":[],"categories_sizes":[],"default_left":[0,0,0,0,0,0,0,0,0,0,0,0,0,0,0],"id":14,"left_children":[1,3,5,7,9,11,13,-1,-1,-1,-1,-1,-1,-1,-1],"loss_changes":[6.3852167E0,5.990556E0,5.096388E0,6.064506E0,3.568428E0,5.075823E0,6.6853375E0,0E0,0E0,0E0,0E0,0E0,0E0,0E0,0E0],"parents":[2147483647,0,0,1,1,2,2,3,3,4,4,5,5,6,6],"right_children":[2,4,6,8,10,12,14,-1,-1,-1,-1,-1,-1,-1,-1],"split_conditions":[-5.562686E-1,3.3591238E-1,1.06292725E-1,9.061432E-2,-3.1945247E-2,6.689364E-1,1.8805546E0,5.881928E-2,-8.069088E-2,2.0200223E-1,5.894245E-2,-2.6658917E-2,-1.376944E-1,3.0192807E-2,-1.261305E-1],"split_indices":[5,16,15,16,22,5,15,0,0,0,0,0,0,0,0],"split_type":[0,0,0,0,0,0,0,0,0,0,0,0,0,0,0],"sum_hessian":[5.725641E2,1.23654724E2,4.4890936E2,8.0769295E1,4.288543E1,2.631054E2,1.8580396E2,5.0922585E1,2.984671E1,1.8576395E1,2.4309034E1,2.3530447E2,2.7800934E1,1.6747408E2,1.8329891E1],"tree_param":{"num_deleted":"0","num_feature":"25","num_nodes":"15","size_leaf_vector":"1"}},{"base_weights":[-2.5239239E-2,-6.714938E-2,2.6366544E-1,3.713675E-2,-1.5376636E-1,-3.9113387E-2,6.9102234E-1,-4.5744255E-2,5.2165933E-2,-5.7729885E-2,2.4138898E-2,7.26917E-2,-6.44585E-2,2.6653576E-1,9.31905E-2],"categories":[],"categories_nodes":[],"categories_segments":[],"categories_sizes":[],"default_left":[0,0,0,0,0,0,0,0,0,0,0,0,0,0,0],"id":15,"left_children":[1,3,5,7,9,11,13,-1,-1,-1,-1,-1,-1,-1,-1],"loss_changes":[6.7305937E0,4.3850946E0,9.112342E0,8.613314E0,5.4229574E0,3.081006E0,3.583826E0,0E0,0E0,0E0,0E0,0E0,0E0,0E0,0E0],"parents":[2147483647,0,0,1,1,2,2,3,3,4,4,5,5,6,6],"right_children":[2,4,6,8,10,12,14,-1,-1,-1,-1,-1,-1,-1,-1],"split_conditions":[8.7143034E-1,-9.461975E-2,3.0548835E-1,-6.262462E-1,8.705115E-1,2.5700486E-1,1.304377E-1,-4.5744255E-2,5.2165933E-2,-5.7729885E-2,2.4138898E-2,7.26917E-2,-6.44585E-2,2.6653576E-1,9.31905E-2],"split_indices":[4,21,22,18,9,6,3,0,0,0,0,0,0,0,0],"split_type":[0,0,0,0,0,0,0,0,0,0,0,0,0,0,0],"sum_hessian":[5.558782E2,4.854553E2,7.042286E1,2.2026187E2,2.6519342E2,4.121933E1,2.9203531E1,9.682344E1,1.2343844E2,2.0059557E2,6.4597855E1,1.6483644E1,2.4735683E1,1.2909231E1,1.62943E1],"tree_param":{"num_deleted":"0","num_feature":"25","num_nodes":"15","size_leaf_vector":"1"}},{"base_weights":[-3.6126528E-2,-5.2422635E-2,1.6940847E-1,-4.9570925E-3,-2.8685042E-1,3.482355E-3,-1.4612274E-1,3.5924744E-2,-9.426272E-2],"categories":[],"categories_nodes":[],"categories_segments":[],"categories_sizes":[],"default_left":[0,0,0,0,0,0,0,0,0],"id":16,"left_children":[1,3,-1,5,7,-1,-1,-1,-1],"loss_changes":[6.4733896E0,5.9587927E0,0E0,5.022828E0,3.7768512E0,0E0,0E0,0E0,0E0],"parents":[2147483647,0,0,1,1,3,3,4,4],"right_children":[2,4,-1,6,8,-1,-1,-1,-1],"split_conditions":[1.5120668E0,8.19866E-1,1.6940847E-1,1.2093022E0,-4.1060197E-1,3.482355E-3,-1.4612274E-1,3.5924744E-2,-9.426272E-2],"split_indices":[8,23,0,19,24,0,0,0,0],"split_type":[0,0,0,0,0,0,0,0,0],"sum_hessian":[5.4754266E2,5.3551385E2,1.2028847E1,4.4534338E2,9.017045E1,4.3135086E2,1.399253E1,1.646359E1,7.3706856E1],"tree_param":{"num_deleted":"0","num_feature":"25","num_nodes":"9","size_leaf_vector":"1"}},{"base_weights":[-2.9869736E-3,2.861787E-2,-3.2403252E-1,-4.808826E-3,2.995286E-1,-4.5051152E-1,-1.3698483E-2,3.7438856E-3,-1.0470513E-1,1.2535983E-1,1.27149215E-2,-1.634206E-1,-6.9281325E-2],"categories":[],"categories_nodes":[],"categories_segments":[],"categories_sizes":[],"default_left":[0,0,0,0,0,0,0,0,0,0,0,0,0],"id":17,"left_children":[1,3,5,7,9,11,-1,-1,-1,-1,-1,-1,-1],"loss_changes":[5.7394934E0,4.6633196E0,1.7202268E0,3.87053E0,2.9514098E0,1.245801E0,0E0,0E0,0E0,0E0,0E0,0E0,0E0],"parents":[2147483647,0,0,1,1,2,2,3,3,4,4,5,5],"right_children":[2,4,6,8,10,12,-1,-1,-1,-1,-1,-1,-1],"split_conditions":[9.3279046E-1,1.102388E0,1.2817559E0,1.8113315E0,5.4962766E-1,6.350539E-2,-1.3698483E-2,3.7438856E-3,-1.0470513E-1,1.2535983E-1,1.27149215E-2,-1.634206E-1,-6.9281325E-2],"split_indices":[21,20,21,22,4,15,0,0,0,0,0,0,0],"split_type":[0,0,0,0,0,0,0,0,0,0,0,0,0],"sum_hessian":[5.6565704E2,5.1496234E2,5.069467E1,4.5840186E2,5.6560524E1,3.4452744E1,1.6241928E1,4.3758173E2,2.082011E1,3.057538E1,2.5985144E1,1.5162592E1,1.929015E1],"tree_param":{"num_deleted":"0","num_feature":"25","num_nodes":"13","size_leaf_vector":"1"}},{"base_weights":[-8.305239E-3,1.3181596E-1,-1.3175942E-1,5.99598E-1,6.370264E-2,-2.4228664E-1,1.1152261E-1,8.1888676E-2,2.1328114E-1,-7.586915E-3,8.576303E-2,-7.3239945E-2,4.4930205E-2,1.13148116E-1,-4.7774E-2],"categories":[],"categories_nodes":[],"categories_segments":[],"categories_sizes":[],"default_left":[0,0,0,0,0,0,0,0,0,0,0,0,0,0,0],"id":18,"left_children":[1,3,5,7,9,11,13,-1,-1,-1,-1,-1,-1,-1,-1],"loss_changes":[9.6768E0,8.3483095E0,7.996508E0,2.3799715E0,6.170865E0,4.8457527E0,9.916098E0,0E0,0E0,0E0,0E0,0E0,0E0,0E0,0E0],"parents":[2147483647,0,0,1,1,2,2,3,3,4,4,5,5,6,6],"right_children":[2,4,6,8,10,12,14,-1,-1,-1,-1,-1,-1,-1,-1],"split_conditions":[0E0,-4.824474E-1,6.235289E-1,-1.7929734E-1,5.3335017E-1,7.083911E-1,-1.5058604E-1,8.1888676E-2,2.1328114E-1,-7.586915E-3,8.576303E-2,-7.3239945E-2,4.4930205E-2,1.13148116E-1,-4.7774E-2],"split_indices":[0,6,1,12,1,12,9,0,0,0,0,0,0,0,0],"split_type":[0,0,0,0,0,0,0,0,0,0,0,0,0,0,0],"sum_hessian":[5.593995E2,2.6201312E2,2.9738635E2,3.3302334E1,2.2871077E2,2.044852E2,9.2901146E1,1.6710854E1,1.6591482E1,1.7176787E2,5.6942905E1,1.8078061E2,2.3704597E1,4.3401997E1,4.9499146E1],"tree_param":{"num_deleted":"0","num_feature":"25","num_nodes":"15","size_leaf_vector":"1"}},{"base_weights":[1.5664408E-4,-2.515751E-1,3.5785913E-2,-3.7352413E-1,6.105902E-2,2.951913E-1,-6.8429415E-3,-3.9458934E-2,-1.4712514E-1,1.2105166E-1,-1.9939808E-2,-3.1221915E-2,2.0422993E-2],"categories":[],"categories_nodes":[],"categories_segments":[],"categories_sizes":[],"default_left":[0,0,0,0,0,0,0,0,0,0,0,0,0],"id":19,"left_children":[1,3,5,7,-1,9,11,-1,-1,-1,-1,-1,-1],"loss_changes":[5.0240054E0,4.235119E0,5.4262276E0,2.677258E0,0E0,5.1447988E0,4.5567884E0,0E0,0E0,0E0,0E0,0E0,0E0],"parents":[2147483647,0,0,1,1,2,2,3,3,5,5,6,6],"right_children":[2,4,6,8,-1,10,12,-1,-1,-1,-1,-1,-1],"split_conditions":[-7.327815E-1,7.549238E-1,-1.0542952E0,-1.3993038E-1,6.105902E-2,3.2910216E-1,-1.078637E-2,-3.9458934E-2,-1.4712514E-1,1.2105166E-1,-1.9939808E-2,-3.1221915E-2,2.0422993E-2],"split_indices":[22,5,3,21,0,22,21,0,0,0,0,0,0],"split_type":[0,0,0,0,0,0,0,0,0,0,0,0,0],"sum_hessian":[5.6015106E2,6.945189E1,4.906992E2,5.5834908E1,1.3616984E1,6.925684E1,4.2144232E2,2.869512E1,2.7139786E1,4.5428474E1,2.3828365E1,1.8038226E2,2.4106007E2],"tree_param":{"num_deleted":"0","num_feature":"25","num_nodes":"13","size_leaf_vector":"1"}},{"base_weights":[6.6527085E-5,7.177048E-2,-1.9088182E-1,-2.3456234E-2,2.857947E-1,-4.482498E-1,-6.1625093E-3,6.18755E-2,-2.17278E-2,-3.9883267E-2,8.610367E-2,-2.6422362E-3,-1.3197857E-1,1.1133852E-1,-2.8108712E-2],"categories":[],"categories_nodes":[],"categories_segments":[],"categories_sizes":[],"default_left":[0,0,0,0,0,0,0,0,0,0,0,0,0,0,0],"id":20,"left_children":[1,3,5,7,9,11,13,-1,-1,-1,-1,-1,-1,-1,-1],"loss_changes":[7.9528985E0,8.606426E0,7.5386763E0,5.22524E0,3.7628145E0,2.5740852E0,4.587744E0,0E0,0E0,0E0,0E0,0E0,0E0,0E0,0E0],"parents":[2147483647,0,0,1,1,2,2,3,3,4,4,5,5,6,6],"right_children":[2,4,6,8,10,12,14,-1,-1,-1,-1,-1,-1,-1,-1],"split_conditions":[5.481458E-1,-1.339108E-2,7.2093016E-1,-6.316325E-1,-9.0511984E-1,5.6286985E-1,-5.112917E-1,6.18755E-2,-2.17278E-2,-3.9883267E-2,8.610367E-2,-2.6422362E-3,-1.3197857E-1,1.1133852E-1,-2.8108712E-2],"split_indices":[1,1,19,21,10,24,10,0,0,0,0,0,0,0,0],"split_type":[0,0,0,0,0,0,0,0,0,0,0,0,0,0,0],"sum_hessian":[5.808532E2,4.2228055E2,1.5857265E2,2.92249E2,1.3003157E2,6.62571E1,9.2315544E1,5.5802998E1,2.3644598E2,1.6379911E1,1.13651665E2,1.1179315E1,5.5077785E1,1.7605688E1,7.4709854E1],"tree_param":{"num_deleted":"0","num_feature":"25","num_nodes":"15","size_leaf_vector":"1"}},{"base_weights":[-1.2303393E-2,-4.2695984E-2,2.9449034E-1,-2.746582E-2,-1.5804775E-1,5.12417E-1,-2.0779375E-2,6.682485E-2,-1.3441797E-2,4.7419596E-2,2.229588E-1],"categories":[],"categories_nodes":[],"categories_segments":[],"categories_sizes":[],"default_left":[0,0,0,0,0,0,0,0,0,0,0],"id":21,"left_children":[1,3,5,7,-1,9,-1,-1,-1,-1,-1],"loss_changes":[5.21263E0,4.651468E0,4.1623936E0,4.044421E0,0E0,4.035739E0,0E0,0E0,0E0,0E0,0E0],"parents":[2147483647,0,0,1,1,2,2,3,3,5,5],"right_children":[2,4,6,8,-1,10,-1,-1,-1,-1,-1],"split_conditions":[5.2182406E-1,1.9381297E0,6.860465E-1,-1.2537102E0,-1.5804775E-1,3.7160075E-1,-2.0779375E-2,6.682485E-2,-1.3441797E-2,4.7419596E-2,2.229588E-1],"split_indices":[3,18,19,13,0,6,0,0,0,0,0],"split_type":[0,0,0,0,0,0,0,0,0,0,0],"sum_hessian":[5.590397E2,5.0865015E2,5.038952E1,4.9606732E2,1.258282E1,3.1994675E1,1.8394846E1,4.1359077E1,4.5470825E2,1.7685888E1,1.4308787E1],"tree_param":{"num_deleted":"0","num_feature":"25","num_nodes":"11","size_leaf_vector":"1"}},{"base_weights":[1.9590305E-3,-4.5577724E-2,2.3584779E-1,-8.1496775E-2,3.320923E-1,4.5879814E-1,1.8584259E-2,-2.5699635E-3,-6.21336E-2,1.3986452E-1,-4.203943E-2,1.5674914E-1,-1.8391145E-2,-7.414537E-2,1.0030061E-1],"categories":[],"categories_nodes":[],"categories_segments":[],"categories_sizes":[],"default_left":[0,0,0,0,0,0,0,0,0,0,0,0,0,0,0],"id":22,"left_children":[1,3,5,7,9,11,13,-1,-1,-1,-1,-1,-1,-1,-1],"loss_changes":[6.278274E0,6.366265E0,4.6202173E0,5.216066E0,4.8612146E0,4.497875E0,6.027575E0,0E0,0E0,0E0,0E0,0E0,0E0,0E0,0E0],"parents":[2147483647,0,0,1,1,2,2,3,3,4,4,5,5,6,6],"right_children":[2,4,6,8,10,12,14,-1,-1,-1,-1,-1,-1,-1,-1],"split_conditions":[7.1409667E-1,1.2957579E0,2.862022E-1,2.6773465E-1,4.1003698E-1,3.985998E-1,1.176578E0,-2.5699635E-3,-6.21336E-2,1.3986452E-1,-4.203943E-2,1.5674914E-1,-1.8391145E-2,-7.414537E-2,1.0030061E-1],"split_indices":[11,15,12,2,22,3,12,0,0,0,0,0,0,0,0],"split_type":[0,0,0,0,0,0,0,0,0,0,0,0,0,0,0],"sum_hessian":[5.6467865E2,4.6929645E2,9.53822E1,4.2853937E2,4.075706E1,4.7074997E1,4.830721E1,3.0293784E2,1.25601555E2,2.770483E1,1.305223E1,3.5248264E1,1.1826732E1,2.6510342E1,2.1796867E1],"tree_param":{"num_deleted":"0","num_feature":"25","num_nodes":"15","size_leaf_vector":"1"}},{"base_weights":[-2.4802588E-2,1.5369573E-1,-6.2222753E-2,2.680305E-1,-1.5077753E-1,-3.7371722E-1,-2.948487E-2,1.5520978E-1,4.045495E-2,-1.4852571E-1,-1.6474616E-2,-2.8506066E-3,-1.20810315E-1],"categories":[],"categories_nodes":[],"categories_segments":[],"categories_sizes":[],"default_left":[0,0,0,0,0,0,0,0,0,0,0,0,0],"id":23,"left_children":[1,3,5,7,-1,9,11,-1,-1,-1,-1,-1,-1],"loss_changes":[3.8528583E0,8.769414E0,4.862822E0,3.270862E0,0E0,3.2081504E0,3.566416E0,0E0,0E0,0E0,0E0,0E0,0E0],"parents":[2147483647,0,0,1,1,2,2,3,3,5,5,6,6],"right_children":[2,4,6,8,-1,10,12,-1,-1,-1,-1,-1,-1],"split_conditions":[-8.146869E-1,3.857368E-1,-1E0,-5.5439923E-2,-1.5077753E-1,-4.719023E-2,1.7803414E0,1.5520978E-1,4.045495E-2,-1.4852571E-1,-1.6474616E-2,-2.8506066E-3,-1.20810315E-1],"split_indices":[2,3,0,15,0,10,15,0,0,0,0,0,0],"split_type":[0,0,0,0,0,0,0,0,0,0,0,0,0],"sum_hessian":[5.768238E2,9.996754E1,4.768563E2,8.7002426E1,1.296511E1,4.5350925E1,4.3150534E2,1.9266916E1,6.7735504E1,2.5883059E1,1.9467867E1,4.1542734E2,1.6078007E1],"tree_param":{"num_deleted":"0","num_feature":"25","num_nodes":"13","size_leaf_vector":"1"}},{"base_weights":[-1.9457769E-2,-3.4740765E-2,1.1926191E-1,6.2288016E-2,-1.1682747E-1,2.0858163E-1,1.8689994E-3,-1.7217974E-1,-2.2129802E-2],"categories":[],"categories_nodes":[],"categories_segments":[],"categories_sizes":[],"default_left":[0,0,0,0,0,0,0,0,0],"id":24,"left_children":[1,3,-1,5,7,-1,-1,-1,-1],"loss_changes":[4.287336E0,4.296476E0,0E0,1.063198E1,4.5680394E0,0E0,0E0,0E0,0E0],"parents":[2147483647,0,0,1,1,3,3,4,4],"right_children":[2,4,-1,6,8,-1,-1,-1,-1],"split_conditions":[5.9195197E-1,0E0,1.1926191E-1,-4.498341E-1,-8.718858E-1,2.0858163E-1,1.8689994E-3,-1.7217974E-1,-2.2129802E-2],"split_indices":[3,0,0,12,14,0,0,0,0],"split_type":[0,0,0,0,0,0,0,0,0],"sum_hessian":[5.557676E2,5.3943475E2,1.6332813E1,2.4721716E2,2.922176E2,1.6071228E1,2.3114594E2,1.2814749E1,2.7940283E2],"tree_param":{"num_deleted":"0","num_feature":"25","num_nodes":"9","size_leaf_vector":"1"}},{"base_weights":[-1.9039735E-2,4.727851E-3,-4.400929E-1,-3.1706268E-1,2.5238123E-2,-1.5750968E-1,-6.275772E-2,-1.4461747E-1,-1.2693232E-2,3.0615376E-2,-1.0943885E-2],"categories":[],"categories_nodes":[],"categories_segments":[],"categories_sizes":[],"default_left":[0,0,0,0,0,0,0,0,0,0,0],"id":25,"left_children":[1,3,5,7,9,-1,-1,-1,-1,-1,-1],"loss_changes":[5.561932E0,3.4721644E0,1.1017432E0,2.270787E0,3.427939E0,0E0,0E0,0E0,0E0,0E0,0E0],"parents":[2147483647,0,0,1,1,2,2,3,3,4,4],"right_children":[2,4,6,8,10,-1,-1,-1,-1,-1,-1],"split_conditions":[1.2136059E0,-1.3054923E0,1.1253687E0,-2.8231362E-1,-1.143602E-1,-1.5750968E-1,-6.275772E-2,-1.4461747E-1,-1.2693232E-2,3.0615376E-2,-1.0943885E-2],"split_indices":[4,13,23,11,11,0,0,0,0,0,0],"split_type":[0,0,0,0,0,0,0,0,0,0,0],"sum_hessian":[5.5578094E2,5.2608453E2,2.969637E1,3.1522362E1,4.945622E2,1.4226941E1,1.5469427E1,1.5584807E1,1.5937555E1,2.0404128E2,2.9052094E2],"tree_param":{"num_deleted":"0","num_feature":"25","num_nodes":"11","size_leaf_vector":"1"}},{"base_weights":[4.373447E-3,4.1934498E-2,-3.344826E-1,-2.3152225E-1,6.861507E-2,-1.20388314E-1,-4.7891352E-1,-1.2573154E-2,-1.366016E-1,1.470132E-1,1.2859401E-2,2.1823414E-2,-7.889082E-2,-7.570113E-2,-1.5717661E-1],"categories":[],"categories_nodes":[],"categories_segments":[],"categories_sizes":[],"default_left":[0,0,0,0,0,0,0,0,0,0,0,0,0,0,0],"id":26,"left_children":[1,3,5,7,9,11,13,-1,-1,-1,-1,-1,-1,-1,-1],"loss_changes":[7.1272783E0,3.677905E0,1.7278414E0,2.6213853E0,3.961816E0,9.447911E-1,9.160681E-1,0E0,0E0,0E0,0E0,0E0,0E0,0E0,0E0],"parents":[2147483647,0,0,1,1,2,2,3,3,4,4,5,5,6,6],"right_children":[2,4,6,8,10,12,14,-1,-1,-1,-1,-1,-1,-1,-1],"split_conditions":[9.2010885E-1,-6.3042504E-1,7.717938E-1,3.9819095E-2,-6.179115E-1,7.0150584E-1,-4.8837206E-1,-1.2573154E-2,-1.366016E-1,1.470132E-1,1.2859401E-2,2.1823414E-2,-7.889082E-2,-7.570113E-2,-1.5717661E-1],"split_indices":[21,1,18,8,7,17,19,0,0,0,0,0,0,0,0],"split_type":[0,0,0,0,0,0,0,0,0,0,0,0,0,0,0],"sum_hessian":[5.5997766E2,5.040999E2,5.5877754E1,4.481172E1,4.592882E2,2.251022E1,3.336753E1,2.8797829E1,1.6013893E1,1.3703118E1,4.4558508E2,1.1020125E1,1.1490094E1,1.6170736E1,1.7196796E1],"tree_param":{"num_deleted":"0","num_feature":"25","num_nodes":"15","size_leaf_vector":"1"}},{"base_weights":[1.686749E-2,4.1811302E-1,-7.4885557E-3,-3.4411813E-3,1.700461E-1,-2.945824E-2,4.5897913E-1,1.1940512E-1,-1.1817357E-2,2.1100076E-2,1.9855428E-1],"categories":[],"categories_nodes":[],"categories_segments":[],"categories_sizes":[],"default_left":[0,0,0,0,0,0,0,0,0,0,0],"id":27,"left_children":[1,3,5,-1,-1,7,9,-1,-1,-1,-1],"loss_changes":[5.484372E0,3.8002706E0,5.4220347E0,0E0,0E0,4.8508916E0,3.0987139E0,0E0,0E0,0E0,0E0],"parents":[2147483647,0,0,1,1,2,2,5,5,6,6],"right_children":[2,4,6,-1,-1,8,10,-1,-1,-1,-1],"split_conditions":[-6.730472E-1,6.019903E-1,1.03988E0,-3.4411813E-3,1.700461E-1,-2.028096E0,2.1186635E-2,1.1940512E-1,-1.1817357E-2,2.1100076E-2,1.9855428E-1],"split_indices":[9,1,5,0,0,13,12,0,0,0,0],"split_type":[0,0,0,0,0,0,0,0,0,0,0],"sum_hessian":[5.6119E2,3.211539E1,5.290746E2,1.245762E1,1.9657768E1,5.0527707E2,2.3797504E1,1.7628035E1,4.8764905E2,1.1501056E1,1.2296448E1],"tree_param":{"num_deleted":"0","num_feature":"25","num_nodes":"11","size_leaf_vector":"1"}},{"base_weights":[2.0683698E-2,-5.9771832E-2,1.242236E-1,-5.250835E-1,-7.4272575E-3,-3.6333457E-2,3.2005367E-1,-7.647915E-2,-1.7205898E-1,3.6742326E-2,-2.7179662E-2,3.9144535E-2,-9.173423E-2,1.19262114E-1,1.5841782E-2],"categories":[],"categories_nodes":[],"categories_segments":[],"categories_sizes":[],"default_left":[0,0,0,0,0,0,0,0,0,0,0,0,0,0,0],"id":28,"left_children":[1,3,5,7,9,11,13,-1,-1,-1,-1,-1,-1,-1,-1],"loss_changes":[4.6845202E0,7.707575E0,7.7314177E0,1.1980648E0,4.6057844E0,8.906231E0,4.6789007E0,0E0,0E0,0E0,0E0,0E0,0E0,0E0,0E0],"parents":[2147483647,0,0,1,1,2,2,3,3,4,4,5,5,6,6],"right_children":[2,4,6,8,10,12,14,-1,-1,-1,-1,-1,-1,-1,-1],"split_conditions":[9.446925E-2,-6.500756E-1,-4.4807892E-2,-1.3594604E-1,-1.0321316E-1,-3.6056885E-1,3.8429436E-1,-7.647915E-2,-1.7205898E-1,3.6742326E-2,-2.7179662E-2,3.9144535E-2,-9.173423E-2,1.19262114E-1,1.5841782E-2],"split_indices":[16,5,3,23,11,24,16,0,0,0,0,0,0,0,0],"split_type":[0,0,0,0,0,0,0,0,0,0,0,0,0,0,0],"sum_hessian":[5.623432E2,3.1644785E2,2.4589534E2,3.199868E1,2.8444916E2,1.3511629E2,1.1077906E2,1.4402873E1,1.7595808E1,1.1282577E2,1.716234E2,8.548642E1,4.9629868E1,6.7279686E1,4.3499367E1],"tree_param":{"num_deleted":"0","num_feature":"25","num_nodes":"15","size_leaf_vector":"1"}},{"base_weights":[-9.40718E-3,2.825345E-1,-4.8761163E-2,1.4583647E-1,1.4176048E-1,-1.0077958E-1,1.0694457E-1,-2.4417507E-2,1.3967024E-1,-5.461111E-2,-2.505713E-3,6.692251E-2,-4.1585978E-2],"categories":[],"categories_nodes":[],"categories_segments":[],"categories_sizes":[],"default_left":[0,0,0,0,0,0,0,0,0,0,0,0,0],"id":29,"left_children":[1,3,5,-1,7,9,11,-1,-1,-1,-1,-1,-1],"loss_changes":[6.577819E0,2.9766107E0,4.086384E0,0E0,4.8151836E0,4.1602874E0,5.770287E0,0E0,0E0,0E0,0E0,0E0,0E0],"parents":[2147483647,0,0,1,1,2,2,4,4,5,5,6,6],"right_children":[2,4,6,-1,8,10,12,-1,-1,-1,-1,-1,-1],"split_conditions":[-8.525785E-1,2.260477E-1,4.585578E-1,1.4583647E-1,1.2363437E0,-1.01264946E-1,7.6535183E-1,-2.4417507E-2,1.3967024E-1,-5.461111E-2,-2.505713E-3,6.692251E-2,-4.1585978E-2],"split_indices":[5,12,2,0,20,9,5,0,0,0,0,0,0],"split_type":[0,0,0,0,0,0,0,0,0,0,0,0,0],"sum_hessian":[5.725284E2,6.8009544E1,5.0451886E2,2.1196321E1,4.681322E1,3.7817694E2,1.2634192E2,2.9908216E1,1.6905003E1,1.615656E2,2.1661134E2,7.902134E1,4.732058E1],"tree_param":{"num_deleted":"0","num_feature":"25","num_nodes":"13","size_leaf_vector":"1"}},{"base_weights":[7.392011E-3,2.0529881E-1,-5.819744E-2,-1.6017346E-1,3.1916934E-1,-2.8530475E-1,-1.4321256E-3,-1.24408185E-1,1.1366204E-1,1.6709184E-2,1.585931E-1,-3.997131E-2,-1.3145347E-1,-2.2037577E-2,4.8169073E-2],"categories":[],"categories_nodes":[],"categories_segments":[],"categories_sizes":[],"default_left":[0,0,0,0,0,0,0,0,0,0,0,0,0,0,0],"id":30,"left_children":[1,3,5,7,9,11,13,-1,-1,-1,-1,-1,-1,-1,-1],"loss_changes":[7.118252E0,5.6807303E0,5.309811E0,6.987806E0,8.526748E0,2.5215087E0,5.7411313E0,0E0,0E0,0E0,0E0,0E0,0E0,0E0,0E0],"parents":[2147483647,0,0,1,1,2,2,3,3,4,4,5,5,6,6],"right_children":[2,4,6,8,10,12,14,-1,-1,-1,-1,-1,-1,-1,-1],"split_conditions":[-3.8027987E-1,-8.328504E-1,-1.453138E-1,-5.440479E-1,1.9094956E-1,1.379074E-1,4.751918E-1,-1.24408185E-1,1.1366204E-1,1.6709184E-2,1.585931E-1,-3.997131E-2,-1.3145347E-1,-2.2037577E-2,4.8169073E-2],"split_indices":[12,17,12,12,1,6,9,0,0,0,0,0,0,0,0],"split_type":[0,0,0,0,0,0,0,0,0,0,0,0,0,0,0],"sum_hessian":[5.483762E2,1.3650172E2,4.118745E2,3.242674E1,1.0407499E2,8.236152E1,3.29513E2,2.0842915E1,1.1583824E1,5.879777E1,4.5277218E1,5.522508E1,2.7136438E1,2.2773207E2,1.0178094E2],"tree_param":{"num_deleted":"0","num_feature":"25","num_nodes":"15","size_leaf_vector":"1"}},{"base_weights":[-2.5926571E-2,7.396496E-2,-1.0771789E-1,1.8021782E-3,3.6084518E-1,-1.5531819E-1,-7.784831E-2,-1.3286918E-1,1.3956683E-2,-1.6825434E-3,1.5084535E-1,5.8983028E-2,-3.0979756E-2],"categories":[],"categories_nodes":[],"categories_segments":[],"categories_sizes":[],"default_left":[0,0,0,0,0,0,0,0,0,0,0,0,0],"id":31,"left_children":[1,3,5,7,9,-1,11,-1,-1,-1,-1,-1,-1],"loss_changes":[4.5168834E0,5.1524067E0,4.760272E0,5.9322624E0,4.6529665E0,0E0,4.407373E0,0E0,0E0,0E0,0E0,0E0,0E0],"parents":[2147483647,0,0,1,1,2,2,3,3,4,4,6,6],"right_children":[2,4,6,8,10,-1,12,-1,-1,-1,-1,-1,-1],"split_conditions":[-1.01264946E-1,6.251185E-1,-1.1554372E0,-7.1015626E-1,-4.0824023E-1,-1.5531819E-1,-7.7405566E-1,-1.3286918E-1,1.3956683E-2,-1.6825434E-3,1.5084535E-1,5.8983028E-2,-3.0979756E-2],"split_indices":[9,15,8,9,23,0,17,0,0,0,0,0,0],"split_type":[0,0,0,0,0,0,0,0,0,0,0,0,0],"sum_hessian":[5.528445E2,2.4888356E2,3.039609E2,1.9886136E2,5.002221E1,1.6383188E1,2.875777E2,1.830311E1,1.8055824E2,2.0388502E1,2.9633709E1,3.7876057E1,2.4970166E2],"tree_param":{"num_deleted":"0","num_feature":"25","num_nodes":"13","size_leaf_vector":"1"}},{"base_weights":[-3.6616478E-2,7.281304E-2,-1.3183981E-1,-5.0179385E-2,3.6272377E-1,-7.707411E-2,-1.4734612E-1,1.9963712E-2,-7.154369E-2,2.054961E-1,5.291767E-2,-1.5932286E-1,-1.0821744E-2],"categories":[],"categories_nodes":[],"categories_segments":[],"categories_sizes":[],"default_left":[0,0,0,0,0,0,0,0,0,0,0,0,0],"id":32,"left_children":[1,3,5,7,9,11,-1,-1,-1,-1,-1,-1,-1],"loss_changes":[5.8688455E0,9.344221E0,7.7145143E0,5.826239E0,5.4475985E0,5.087949E0,0E0,0E0,0E0,0E0,0E0,0E0,0E0],"parents":[2147483647,0,0,1,1,2,2,3,3,4,4,5,5],"right_children":[2,4,6,8,10,12,-1,-1,-1,-1,-1,-1,-1],"split_conditions":[-4.541294E-2,4.3597937E-1,6.4328134E-1,7.918816E-2,-3.3906263E-1,-6.3042504E-1,-1.4734612E-1,1.9963712E-2,-7.154369E-2,2.054961E-1,5.291767E-2,-1.5932286E-1,-1.0821744E-2],"split_indices":[5,16,16,16,4,1,0,0,0,0,0,0,0],"split_type":[0,0,0,0,0,0,0,0,0,0,0,0,0],"sum_hessian":[5.6321576E2,2.6205978E2,3.0115598E2,1.8399944E2,7.806035E1,2.6959103E2,3.1564955E1,1.1906164E2,6.4937805E1,1.8530762E1,5.9529583E1,1.4739328E1,2.548517E2],"tree_param":{"num_deleted":"0","num_feature":"25","num_nodes":"13","size_leaf_vector":"1"}},{"base_weights":[-1.9646777E-2,1.0896423E-1,-8.903628E-2,-2.4698345E-1,1.7309453E-1,-6.1260432E-2,-3.15596E-1,-1.3717838E-1,3.737162E-2,-8.798544E-3,7.639063E-2,-6.1191395E-2,-4.172947E-3,-1.103633E-1,6.1135E-3],"categories":[],"categories_nodes":[],"categories_segments":[],"categories_sizes":[],"default_left":[0,0,0,0,0,0,0,0,0,0,0,0,0,0,0],"id":33,"left_children":[1,3,5,7,9,11,13,-1,-1,-1,-1,-1,-1,-1,-1],"loss_changes":[4.923126E0,4.4131246E0,2.2549183E0,3.665564E0,4.71408E0,2.653512E0,1.7786679E0,0E0,0E0,0E0,0E0,0E0,0E0,0E0,0E0],"parents":[2147483647,0,0,1,1,2,2,3,3,4,4,5,5,6,6],"right_children":[2,4,6,8,10,12,14,-1,-1,-1,-1,-1,-1,-1,-1],"split_conditions":[-2.7694374E-1,-1.0658324E0,6.618398E-1,2.927227E-1,-1.9731429E-1,-6.197901E-1,6.3164663E-1,-1.3717838E-1,3.737162E-2,-8.798544E-3,7.639063E-2,-6.1191395E-2,-4.172947E-3,-1.103633E-1,6.1135E-3],"split_indices":[13,17,17,3,22,11,5,0,0,0,0,0,0,0,0],"split_type":[0,0,0,0,0,0,0,0,0,0,0,0,0,0,0],"sum_hessian":[5.516569E2,1.933288E2,3.5832816E2,2.9514116E1,1.6381468E2,3.1919534E2,3.9132786E1,1.6581858E1,1.2932258E1,6.5097946E1,9.8716736E1,6.0916523E1,2.5827884E2,2.8110773E1,1.1022012E1],"tree_param":{"num_deleted":"0","num_feature":"25","num_nodes":"15","size_leaf_vector":"1"}},{"base_weights":[1.7518913E-2,-9.172363E-2,9.41069E-2,-1.3477822E-1,1.0900212E-1,1.6361134E-1,7.0931256E-2,-4.6229973E-2,9.675428E-2,2.37158E-2,-8.8741936E-2],"categories":[],"categories_nodes":[],"categories_segments":[],"categories_sizes":[],"default_left":[0,0,0,0,0,0,0,0,0,0,0],"id":34,"left_children":[1,3,5,7,-1,-1,9,-1,-1,-1,-1],"loss_changes":[4.560448E0,5.177226E0,4.24524E0,5.8614836E0,0E0,0E0,3.4024262E0,0E0,0E0,0E0,0E0],"parents":[2147483647,0,0,1,1,2,2,3,3,6,6],"right_children":[2,4,6,8,-1,-1,10,-1,-1,-1,-1],"split_conditions":[-7.9559736E-2,3.1153164E0,-7.5805235E-1,8.42489E-1,1.0900212E-1,1.6361134E-1,1.1923397E0,-4.6229973E-2,9.675428E-2,2.37158E-2,-8.8741936E-2],"split_indices":[10,9,23,16,0,0,10,0,0,0,0],"split_type":[0,0,0,0,0,0,0,0,0,0,0],"sum_hessian":[5.450735E2,2.2464597E2,3.2042752E2,2.0792195E2,1.6724005E1,1.24842E1,3.079433E2,1.8885995E2,1.9061993E1,2.9073407E2,1.720923E1],"tree_param":{"num_deleted":"0","num_feature":"25","num_nodes":"11","size_leaf_vector":"1"}},{"base_weights":[3.4774756E-3,2.7063072E-1,-2.0669576E-2,-7.3329486E-2,6.235566E-1,9.907426E-2,-3.8941596E-2,-1.0645991E-1,6.602583E-2,2.1031392E-1,9.5912926E-2,-1.4655141E-3,-6.606587E-2],"categories":[],"categories_nodes":[],"categories_segments":[],"categories_sizes":[],"default_left":[0,0,0,0,0,0,0,0,0,0,0,0,0],"id":35,"left_children":[1,3,5,7,9,-1,11,-1,-1,-1,-1,-1,-1],"loss_changes":[3.6568387E0,5.704221E0,4.025999E0,2.9289668E0,1.2565155E0,0E0,3.7785492E0,0E0,0E0,0E0,0E0,0E0,0E0],"parents":[2147483647,0,0,1,1,2,2,3,3,4,4,6,6],"right_children":[2,4,6,8,10,-1,12,-1,-1,-1,-1,-1,-1],"split_conditions":[-1.176687E0,-2.1887374E-1,-1.5070364E0,-5.099583E-1,2.0791224E-1,9.907426E-2,4.6622908E-1,-1.0645991E-1,6.602583E-2,2.1031392E-1,9.5912926E-2,-1.4655141E-3,-6.606587E-2],"split_indices":[16,9,14,12,6,0,3,0,0,0,0,0,0],"split_type":[0,0,0,0,0,0,0,0,0,0,0,0,0],"sum_hessian":[5.66867E2,4.6989864E1,5.1987714E2,2.3797213E1,2.319265E1,2.1486689E1,4.9839044E2,1.1595557E1,1.2201656E1,1.16214075E1,1.1571242E1,4.3586615E2,6.2524292E1],"tree_param":{"num_deleted":"0","num_feature":"25","num_nodes":"13","size_leaf_vector":"1"}},{"base_weights":[1.1002272E-2,1.0716396E-1,-7.651763E-2,5.9210545E-1,3.611331E-2,1.417766E-1,-1.1146886E-1,2.4976325E-1,7.333285E-2,-8.697921E-2,1.9671626E-2,-1.3800367E-2,-9.059353E-2],"categories":[],"categories_nodes":[],"categories_segments":[],"categories_sizes":[],"default_left":[0,0,0,0,0,0,0,0,0,0,0,0,0],"id":36,"left_children":[1,3,5,7,9,-1,11,-1,-1,-1,-1,-1,-1],"loss_changes":[4.685599E0,9.140181E0,6.656711E0,4.223816E0,3.9650567E0,0E0,3.935629E0,0E0,0E0,0E0,0E0,0E0,0E0],"parents":[2147483647,0,0,1,1,2,2,3,3,4,4,6,6],"right_children":[2,4,6,8,10,-1,12,-1,-1,-1,-1,-1,-1],"split_conditions":[0E0,-4.824474E-1,-1.4146768E0,5.7767814E-1,-4.6244904E-1,1.417766E-1,-4.684081E-2,2.4976325E-1,7.333285E-2,-8.697921E-2,1.9671626E-2,-1.3800367E-2,-9.059353E-2],"split_indices":[0,6,10,15,1,0,23,0,0,0,0,0,0],"split_type":[0,0,0,0,0,0,0,0,0,0,0,0,0],"sum_hessian":[5.567448E2,2.6527563E2,2.9146918E2,3.3899746E1,2.313759E2,1.4798592E1,2.766706E2,1.3867925E1,2.0031822E1,2.34235E1,2.079524E2,2.2769847E2,4.897212E1],"tree_param":{"num_deleted":"0","num_feature":"25","num_nodes":"13","size_leaf_vector":"1"}},{"base_weights":[5.821462E-2,3.1707224E-2,3.4915793E-1,4.9754973E-3,4.2066714E-1,5.02395E-1,-2.365447E-2,5.758697E-3,-1.2465047E-1,1.7787851E-1,-3.2228936E-2,2.068038E-1,6.677087E-2],"categories":[],"categories_nodes":[],"categories_segments":[],"categories_sizes":[],"default_left":[0,0,0,0,0,0,0,0,0,0,0,0,0],"id":37,"left_children":[1,3,5,7,9,11,-1,-1,-1,-1,-1,-1,-1],"loss_changes":[4.3254437E0,5.344649E0,3.1964884E0,4.5472455E0,5.5297804E0,2.7260656E0,0E0,0E0,0E0,0E0,0E0,0E0,0E0],"parents":[2147483647,0,0,1,1,2,2,3,3,4,4,5,5],"right_children":[2,4,6,8,10,12,-1,-1,-1,-1,-1,-1,-1],"split_conditions":[1.3221806E0,8.42489E-1,8.5199213E-1,5.648704E-1,2.5281274E-1,-2.014467E-1,-2.365447E-2,5.758697E-3,-1.2465047E-1,1.7787851E-1,-3.2228936E-2,2.068038E-1,6.677087E-2],"split_indices":[15,16,12,3,15,10,0,0,0,0,0,0,0],"split_type":[0,0,0,0,0,0,0,0,0,0,0,0,0],"sum_hessian":[5.60861E2,5.140287E2,4.6832333E1,4.8097324E2,3.3055424E1,3.484462E1,1.1987714E1,4.642437E2,1.6729523E1,2.1334496E1,1.1720928E1,1.4106556E1,2.0738064E1],"tree_param":{"num_deleted":"0","num_feature":"25","num_nodes":"13","size_leaf_vector":"1"}},{"base_weights":[-1.358605E-3,5.105789E-2,-1.8680345E-1,1.9372283E-1,-2.0177167E-2,2.545907E-1,-2.860481E-1,-1.5542123E-2,7.7711806E-2,1.13848805E-1,-1.2975921E-2,-4.6098538E-2,1.6429847E-1,-4.4032406E-2,-1.2873678E-1],"categories":[],"categories_nodes":[],"categories_segments":[],"categories_sizes":[],"default_left":[0,0,0,0,0,0,0,0,0,0,0,0,0,0,0],"id":38,"left_children":[1,3,5,7,9,11,13,-1,-1,-1,-1,-1,-1,-1,-1],"loss_changes":[5.488675E0,4.4739046E0,5.4508314E0,4.615152E0,4.6310964E0,4.181191E0,2.5818844E0,0E0,0E0,0E0,0E0,0E0,0E0,0E0,0E0],"parents":[2147483647,0,0,1,1,2,2,3,3,4,4,5,5,6,6],"right_children":[2,4,6,8,10,12,14,-1,-1,-1,-1,-1,-1,-1,-1],"split_conditions":[5.9312457E-1,-2.605966E-1,-3.9282906E-1,-5.350107E-1,-6.359508E-1,-9.461975E-2,3.913522E-1,-1.5542123E-2,7.7711806E-2,1.13848805E-1,-1.2975921E-2,-4.6098538E-2,1.6429847E-1,-4.4032406E-2,-1.2873678E-1],"split_indices":[1,11,22,6,12,21,4,0,0,0,0,0,0,0,0],"split_type":[0,0,0,0,0,0,0,0,0,0,0,0,0,0,0],"sum_hessian":[5.646571E2,4.40226E2,1.24431076E2,1.4660834E2,2.9361768E2,2.2841711E1,1.0158936E2,4.7329254E1,9.927909E1,1.8561516E1,2.7505615E2,1.1044687E1,1.1797024E1,7.009098E1,3.149838E1],"tree_param":{"num_deleted":"0","num_feature":"25","num_nodes":"15","size_leaf_vector":"1"}},{"base_weights":[-2.7831718E-2,6.919894E-2,-1.1399501E-1,2.3912747E-1,-1.924965E-2,-1.9649395E-1,7.186516E-2,-3.3464022E-2,1.02556534E-1,-1.8012701E-1,8.940012E-3,-1.4948116E-1,-4.1512474E-2,1.3219126E-1,-1.4228353E-2],"categories":[],"categories_nodes":[],"categories_segments":[],"categories_sizes":[],"default_left":[0,0,0,0,0,0,0,0,0,0,0,0,0,0,0],"id":39,"left_children":[1,3,5,7,9,11,13,-1,-1,-1,-1,-1,-1,-1,-1],"loss_changes":[4.3708453E0,3.6957495E0,4.245871E0,5.6294165E0,6.4207783E0,2.1772532E0,5.148132E0,0E0,0E0,0E0,0E0,0E0,0E0,0E0,0E0],"parents":[2147483647,0,0,1,1,2,2,3,3,4,4,5,5,6,6],"right_children":[2,4,6,8,10,12,14,-1,-1,-1,-1,-1,-1,-1,-1],"split_conditions":[0E0,8.6931214E-2,6.1652744E-1,-6.195505E-1,-1.4843944E0,-1.176687E0,6.3369834E-1,-3.3464022E-2,1.02556534E-1,-1.8012701E-1,8.940012E-3,-1.4948116E-1,-4.1512474E-2,1.3219126E-1,-1.4228353E-2],"split_indices":[0,6,7,5,10,16,24,0,0,0,0,0,0,0,0],"split_type":[0,0,0,0,0,0,0,0,0,0,0,0,0,0,0],"sum_hessian":[5.227982E2,2.4589249E2,2.7690576E2,8.41748E1,1.617177E2,1.9177939E2,8.512636E1,2.7099957E1,5.7074837E1,1.1693035E1,1.5002466E2,1.2034713E1,1.7974467E2,1.853982E1,6.658654E1],"tree_param":{"num_deleted":"0","num_feature":"25","num_nodes":"15","size_leaf_vector":"1"}},{"base_weights":[-5.3253444E-3,-4.0519107E-2,1.6866529E-1,1.2219164E-1,-9.196487E-2,3.2753786E-1,-8.615018E-2,6.1649363E-2,-5.2078687E-2,-1.0267425E-1,-6.606601E-3,-3.776923E-2,1.07691735E-1],"categories":[],"categories_nodes":[],"categories_segments":[],"categories_sizes":[],"default_left":[0,0,0,0,0,0,0,0,0,0,0,0,0],"id":40,"left_children":[1,3,5,7,9,11,-1,-1,-1,-1,-1,-1,-1],"loss_changes":[3.3760457E0,3.8386562E0,7.651766E0,4.735998E0,7.3885155E0,3.7831492E0,0E0,0E0,0E0,0E0,0E0,0E0,0E0],"parents":[2147483647,0,0,1,1,2,2,3,3,4,4,5,5],"right_children":[2,4,6,8,10,12,-1,-1,-1,-1,-1,-1,-1],"split_conditions":[6.645359E-1,-4.9558932E-1,2.9842675E-1,2.915738E-1,-3.3568084E-1,-9.361507E-1,-8.615018E-2,6.1649363E-2,-5.2078687E-2,-1.0267425E-1,-6.606601E-3,-3.776923E-2,1.07691735E-1],"split_indices":[1,1,17,2,12,18,0,0,0,0,0,0,0],"split_type":[0,0,0,0,0,0,0,0,0,0,0,0,0],"sum_hessian":[5.513364E2,4.5857806E2,9.275836E1,1.1016194E2,3.4841614E2,7.1026E1,2.1732355E1,7.9532364E1,3.0629576E1,5.8004898E1,2.9041122E2,1.328138E1,5.774462E1],"tree_param":{"num_deleted":"0","num_feature":"25","num_nodes":"13","size_leaf_vector":"1"}},{"base_weights":[-2.6702484E-2,1.0263494E-1,-3.9904304E-2,2.767857E-1,-5.959667E-2,5.870696E-3,1.5479624E-1,-3.940135E-2,2.3371002E-3],"categories":[],"categories_nodes":[],"categories_segments":[],"categories_sizes":[],"default_left":[0,0,0,0,0,0,0,0,0],"id":41,"left_children":[1,-1,3,5,7,-1,-1,-1,-1],"loss_changes":[3.2887516E0,0E0,3.3954103E0,2.8463163E0,3.5683517E0,0E0,0E0,0E0,0E0],"parents":[2147483647,0,0,2,2,3,3,4,4],"right_children":[2,-1,4,6,8,-1,-1,-1,-1],"split_conditions":[-1.0348836E0,1.0263494E-1,-1.2534758E0,1.9186041E-1,0E0,5.870696E-3,1.5479624E-1,-3.940135E-2,2.3371002E-3],"split_indices":[19,0,8,19,0,0,0,0,0],"split_type":[0,0,0,0,0,0,0,0,0],"sum_hessian":[5.606285E2,1.6175997E1,5.4445245E2,3.1873102E1,5.1257935E2,1.8572048E1,1.3301054E1,2.0856166E2,3.0401773E2],"tree_param":{"num_deleted":"0","num_feature":"25","num_nodes":"9","size_leaf_vector":"1"}},{"base_weights":[-1.2337636E-2,9.9589646E-2,-7.61546E-2,-2.6727127E-2,2.940546E-1,-2.5691384E-1,-2.7966917E-2,8.0221765E-2,-3.030278E-2,-1.6880516E-2,1.0866191E-1,-1.5030776E-2,-1.0678568E-1,5.8596134E-2,-2.2070227E-2],"categories":[],"categories_nodes":[],"categories_segments":[],"categories_sizes":[],"default_left":[0,0,0,0,0,0,0,0,0,0,0,0,0,0,0],"id":42,"left_children":[1,3,5,7,9,11,13,-1,-1,-1,-1,-1,-1,-1,-1],"loss_changes":[3.75936E0,4.694607E0,2.919666E0,3.9518797E0,4.043417E0,2.4529805E0,4.3600435E0,0E0,0E0,0E0,0E0,0E0,0E0,0E0,0E0],"parents":[2147483647,0,0,1,1,2,2,3,3,4,4,5,5,6,6],"right_children":[2,4,6,8,10,12,14,-1,-1,-1,-1,-1,-1,-1,-1],"split_conditions":[-2.8068608E-1,-5.893137E-1,-6.4986783E-1,-1E0,-3.3455843E-1,-5.609574E-1,-2.9947677E-1,8.0221765E-2,-3.030278E-2,-1.6880516E-2,1.0866191E-1,-1.5030776E-2,-1.0678568E-1,5.8596134E-2,-2.2070227E-2],"split_indices":[13,13,18,0,18,8,11,0,0,0,0,0,0,0,0],"split_type":[0,0,0,0,0,0,0,0,0,0,0,0,0,0,0],"sum_hessian":[5.2631024E2,1.9111589E2,3.3519434E2,1.1585867E2,7.525721E1,7.055011E1,2.6464423E2,2.4880133E1,9.0978546E1,2.1819504E1,5.3437706E1,3.3562252E1,3.698786E1,4.9858604E1,2.1478561E2],"tree_param":{"num_deleted":"0","num_feature":"25","num_nodes":"15","size_leaf_vector":"1"}},{"base_weights":[1.1689796E-2,-2.7812308E-2,2.9618254E-1,1.3686459E-1,-4.2817168E-2,4.6073025E-1,-1.5494225E-2,-6.514576E-3,-1.2503217E-1,1.6717477E-1,2.8040199E-2],"categories":[],"categories_nodes":[],"categories_segments":[],"categories_sizes":[],"default_left":[0,0,0,0,0,0,0,0,0,0,0],"id":43,"left_children":[1,3,5,-1,7,9,-1,-1,-1,-1,-1],"loss_changes":[6.036797E0,4.138535E0,3.8713665E0,0E0,3.494601E0,3.4182453E0,0E0,0E0,0E0,0E0,0E0],"parents":[2147483647,0,0,1,1,2,2,4,4,5,5],"right_children":[2,4,6,-1,8,10,-1,-1,-1,-1,-1],"split_conditions":[8.4957004E-1,-7.786418E-1,1.184853E0,1.3686459E-1,9.331417E-1,5.061257E-1,-1.5494225E-2,-6.514576E-3,-1.2503217E-1,1.6717477E-1,2.8040199E-2],"split_indices":[21,23,21,0,24,5,0,0,0,0,0],"split_type":[0,0,0,0,0,0,0,0,0,0,0],"sum_hessian":[5.3717413E2,4.7168082E2,6.549333E1,1.1800743E1,4.5988007E2,4.491831E1,2.0575026E1,4.4432944E2,1.555063E1,2.750052E1,1.7417786E1],"tree_param":{"num_deleted":"0","num_feature":"25","num_nodes":"11","size_leaf_vector":"1"}},{"base_weights":[-6.6948174E-3,3.8631472E-1,-2.3216251E-2,3.973415E-2,1.51138E-1,-4.1627344E-3,-2.873773E-1,5.774235E-2,-7.2277393E-3,4.007188E-2,-1.3980788E-1],"categories":[],"categories_nodes":[],"categories_segments":[],"categories_sizes":[],"default_left":[0,0,0,0,0,0,0,0,0,0,0],"id":44,"left_children":[1,3,5,-1,-1,7,9,-1,-1,-1,-1],"loss_changes":[3.5743392E0,1.1408622E0,2.6589196E0,0E0,0E0,2.9749753E0,4.5069685E0,0E0,0E0,0E0,0E0],"parents":[2147483647,0,0,1,1,2,2,5,5,6,6],"right_children":[2,4,6,-1,-1,8,10,-1,-1,-1,-1],"split_conditions":[-1.2329624E0,-1.1012213E0,1.0755812E0,3.973415E-2,1.51138E-1,-1.176687E0,-6.548937E-2,5.774235E-2,-7.2277393E-3,4.007188E-2,-1.3980788E-1],"split_indices":[5,11,19,0,0,16,10,0,0,0,0],"split_type":[0,0,0,0,0,0,0,0,0,0,0],"sum_hessian":[5.5048425E2,2.2207794E1,5.282764E2,1.1203654E1,1.1004141E1,4.9273618E2,3.5540253E1,4.705716E1,4.4567902E2,1.3669566E1,2.1870686E1],"tree_param":{"num_deleted":"0","num_feature":"25","num_nodes":"11","size_leaf_vector":"1"}},{"base_weights":[-8.268874E-3,-2.4373718E-2,1.3863695E-1,-2.3462693E-3,-3.834767E-1,9.161347E-3,-5.591328E-2,-1.5919207E-1,-4.7058918E-2],"categories":[],"categories_nodes":[],"categories_segments":[],"categories_sizes":[],"default_left":[0,0,0,0,0,0,0,0,0],"id":45,"left_children":[1,3,-1,5,7,-1,-1,-1,-1],"loss_changes":[4.9179683E0,4.1044264E0,0E0,4.362321E0,1.5217328E0,0E0,0E0,0E0,0E0],"parents":[2147483647,0,0,1,1,3,3,4,4],"right_children":[2,4,-1,6,8,-1,-1,-1,-1],"split_conditions":[1.9918921E0,1.2622408E0,1.3863695E-1,7.3744583E-1,2.1264727E-1,9.161347E-3,-5.591328E-2,-1.5919207E-1,-4.7058918E-2],"split_indices":[15,15,0,11,9,0,0,0,0],"split_type":[0,0,0,0,0,0,0,0,0],"sum_hessian":[5.334815E2,5.188828E2,1.4598736E1,4.8889395E2,2.9988827E1,4.1573462E2,7.315933E1,1.2617608E1,1.7371218E1],"tree_param":{"num_deleted":"0","num_feature":"25","num_nodes":"9","size_leaf_vector":"1"}},{"base_weights":[-5.677726E-3,-2.7915327E-2,2.3081374E-1,-1.09421186E-1,-1.054253E-2,1.639793E-1,-3.442625E-2,-6.252465E-3,1.10998124E-1,8.309541E-2,-1.0352816E-1],"categories":[],"categories_nodes":[],"categories_segments":[],"categories_sizes":[],"default_left":[0,0,0,0,0,0,0,0,0,0,0],"id":46,"left_children":[1,3,5,-1,7,-1,9,-1,-1,-1,-1],"loss_changes":[2.8376007E0,3.575871E0,5.3686934E0,0E0,3.2609463E0,0E0,4.1574225E0,0E0,0E0,0E0,0E0],"parents":[2147483647,0,0,1,1,2,2,4,4,6,6],"right_children":[2,4,6,-1,8,-1,10,-1,-1,-1,-1],"split_conditions":[8.668121E-1,-7.5254226E-1,9.815388E-1,-1.09421186E-1,3.1153164E0,1.639793E-1,-4.2085588E-1,-6.252465E-3,1.10998124E-1,8.309541E-2,-1.0352816E-1],"split_indices":[10,12,10,0,9,0,5,0,0,0,0],"split_type":[0,0,0,0,0,0,0,0,0,0,0],"sum_hessian":[5.395701E2,4.9319443E2,4.637569E1,1.970975E1,4.7348468E2,1.7529963E1,2.8845726E1,4.5869803E2,1.4786627E1,1.4694317E1,1.415141E1],"tree_param":{"num_deleted":"0","num_feature":"25","num_nodes":"11","size_leaf_vector":"1"}},{"base_weights":[1.597921E-2,-8.623504E-2,1.0474925E-1,-1.2162582E-1,1.310771E-1,1.3249062E-1,-1.1729856E-1,-8.2267925E-2,-1.0515067E-2,2.0300388E-2,1.22939244E-1],"categories":[],"categories_nodes":[],"categories_segments":[],"categories_sizes":[],"default_left":[0,0,0,0,0,0,0,0,0,0,0],"id":47,"left_children":[1,3,5,7,-1,9,-1,-1,-1,-1,-1],"loss_changes":[5.027147E0,5.6471066E0,4.788018E0,4.093449E0,0E0,5.1925497E0,0E0,0E0,0E0,0E0,0E0],"parents":[2147483647,0,0,1,1,2,2,3,3,5,5],"right_children":[2,4,6,8,-1,10,-1,-1,-1,-1,-1],"split_conditions":[-9.951419E-2,8.1820744E-1,1.0596372E0,-4.853788E-1,1.310771E-1,1.1946198E0,-1.1729856E-1,-8.2267925E-2,-1.0515067E-2,2.0300388E-2,1.22939244E-1],"split_indices":[4,14,10,12,0,20,0,0,0,0,0],"split_type":[0,0,0,0,0,0,0,0,0,0,0],"sum_hessian":[5.540433E2,2.5752087E2,2.965224E2,2.4360677E2,1.3914116E1,2.8303293E2,1.3489451E1,6.577674E1,1.7783002E2,2.4922853E2,3.38044E1],"tree_param":{"num_deleted":"0","num_feature":"25","num_nodes":"11","size_leaf_vector":"1"}},{"base_weights":[-1.5428999E-2,8.2657695E-2,-1.0221712E-1,3.6161786E-1,3.3782754E-2,-2.1667483E-1,8.446804E-2,2.046356E-1,3.0390056E-2,-5.453064E-4,1.208837E-1,-2.5097076E-3,-7.396259E-2,8.154405E-2,-3.6692955E-2],"categories":[],"categories_nodes":[],"categories_segments":[],"categories_sizes":[],"default_left":[0,0,0,0,0,0,0,0,0,0,0,0,0,0,0],"id":48,"left_children":[1,3,5,7,9,11,13,-1,-1,-1,-1,-1,-1,-1,-1],"loss_changes":[4.5350413E0,3.4097443E0,6.039459E0,4.1794634E0,3.5098028E0,3.0494747E0,6.212117E0,0E0,0E0,0E0,0E0,0E0,0E0,0E0,0E0],"parents":[2147483647,0,0,1,1,2,2,3,3,4,4,5,5,6,6],"right_children":[2,4,6,8,10,12,14,-1,-1,-1,-1,-1,-1,-1,-1],"split_conditions":[0E0,-2.5539738E-3,5.876102E-1,-3.7045717E-1,5.166584E-1,-5.817644E-1,-2.2980161E-1,2.046356E-1,3.0390056E-2,-5.453064E-4,1.208837E-1,-2.5097076E-3,-7.396259E-2,8.154405E-2,-3.6692955E-2],"split_indices":[0,23,1,9,3,7,9,0,0,0,0,0,0,0,0],"split_type":[0,0,0,0,0,0,0,0,0,0,0,0,0,0,0],"sum_hessian":[5.327345E2,2.500883E2,2.826462E2,3.728412E1,2.1280418E2,1.7521866E2,1.0742754E2,1.2512468E1,2.4771648E1,1.9729929E2,1.5504902E1,5.0798756E1,1.2441991E2,5.2198475E1,5.5229065E1],"tree_param":{"num_deleted":"0","num_feature":"25","num_nodes":"15","size_leaf_vector":"1"}},{"base_weights":[6.9373213E-3,2.3427524E-1,-3.1956524E-2,1.9659072E-1,1.05483025E-1,-8.002973E-2,1.9495498E-1,-1.4871673E-1,6.108286E-2,5.0482443E-3,-3.8798925E-2,1.5295616E-1,9.905728E-3],"categories":[],"categories_nodes":[],"categories_segments":[],"categories_sizes":[],"default_left":[0,0,0,0,0,0,0,0,0,0,0,0,0],"id":49,"left_children":[1,3,5,-1,7,9,11,-1,-1,-1,-1,-1,-1],"loss_changes":[4.942711E0,5.9498515E0,5.206959E0,0E0,6.7635307E0,3.084029E0,5.5163507E0,0E0,0E0,0E0,0E0,0E0,0E0],"parents":[2147483647,0,0,1,1,2,2,4,4,5,5,6,6],"right_children":[2,4,6,-1,8,10,12,-1,-1,-1,-1,-1,-1],"split_conditions":[-1.0149363E0,-4.5424056E-1,7.1125144E-1,1.9659072E-1,-4.8006263E-1,-2.1510519E-1,8.42538E-1,-1.4871673E-1,6.108286E-2,5.0482443E-3,-3.8798925E-2,1.5295616E-1,9.905728E-3],"split_indices":[10,12,11,0,15,9,11,0,0,0,0,0,0],"split_type":[0,0,0,0,0,0,0,0,0,0,0,0,0],"sum_hessian":[5.590008E2,8.166451E1,4.773363E2,1.5144584E1,6.651993E1,3.9388773E2,8.3448586E1,1.1148185E1,5.5371746E1,1.7186508E2,2.2202264E2,2.2169594E1,6.1278996E1],"tree_param":{"num_deleted":"0","num_feature":"25","num_nodes":"13","size_leaf_vector":"1"}},{"base_weights":[-9.259964E-3,5.1337812E-2,-1.2883867E-1,3.8488322E-1,7.74698E-3,2.6073727E-1,-2.2124305E-1,1.4745096E-2,1.6281313E-1,-1.4068982E-2,4.38414E-2,5.9226286E-3,1.757758E-1,-9.613808E-2,-2.6244283E-2],"categories":[],"categories_nodes":[],"categories_segments":[],"categories_sizes":[],"default_left":[0,0,0,0,0,0,0,0,0,0,0,0,0,0,0],"id":50,"left_children":[1,3,5,7,9,11,13,-1,-1,-1,-1,-1,-1,-1,-1],"loss_changes":[3.9630544E0,5.2774644E0,6.6215982E0,3.784244E0,3.560729E0,3.7930574E0,2.8920856E0,0E0,0E0,0E0,0E0,0E0,0E0,0E0,0E0],"parents":[2147483647,0,0,1,1,2,2,3,3,4,4,5,5,6,6],"right_children":[2,4,6,8,10,12,14,-1,-1,-1,-1,-1,-1,-1,-1],"split_conditions":[5.509244E-1,-3.89694E-1,-3.8054845E-1,-1.1749339E-1,3.6585227E-1,4.333749E-1,6.115781E-1,1.4745096E-2,1.6281313E-1,-1.4068982E-2,4.38414E-2,5.9226286E-3,1.757758E-1,-9.613808E-2,-2.6244283E-2],"split_indices":[24,9,10,15,4,11,24,0,0,0,0,0,0,0,0],"split_type":[0,0,0,0,0,0,0,0,0,0,0,0,0,0,0],"sum_hessian":[5.469145E2,3.6297372E2,1.8394077E2,4.1953854E1,3.2101987E2,3.526478E1,1.48676E2,1.933218E1,2.2621674E1,2.3247652E2,8.854336E1,2.319115E1,1.20736265E1,5.9827866E1,8.884813E1],"tree_param":{"num_deleted":"0","num_feature":"25","num_nodes":"15","size_leaf_vector":"1"}},{"base_weights":[2.8286796E-2,3.4915376E-3,2.6975802E-1,3.2602556E-2,-2.5213525E-1,-5.6093377E-3,4.7252017E-1,4.5070812E-4,7.098895E-2,1.36230625E-2,-1.1755004E-1,2.0455046E-1,6.289941E-2],"categories":[],"categories_nodes":[],"categories_segments":[],"categories_sizes":[],"default_left":[0,0,0,0,0,0,0,0,0,0,0,0,0],"id":51,"left_children":[1,3,5,7,9,-1,11,-1,-1,-1,-1,-1,-1],"loss_changes":[3.2098172E0,3.61792E0,2.9616618E0,3.441567E0,3.4581878E0,0E0,2.2979727E0,0E0,0E0,0E0,0E0,0E0,0E0],"parents":[2147483647,0,0,1,1,2,2,3,3,4,4,6,6],"right_children":[2,4,6,8,10,-1,12,-1,-1,-1,-1,-1,-1],"split_conditions":[5.166584E-1,7.290986E-1,2.8201504E-2,6.551289E-1,1.304377E-1,-5.6093377E-3,5.57818E-1,4.5070812E-4,7.098895E-2,1.36230625E-2,-1.1755004E-1,2.0455046E-1,6.289941E-2],"split_indices":[3,14,12,5,3,0,3,0,0,0,0,0,0],"split_type":[0,0,0,0,0,0,0,0,0,0,0,0,0],"sum_hessian":[5.361005E2,4.8617783E2,4.9922714E1,4.3647202E2,4.970582E1,2.04351E1,2.9487614E1,3.896848E2,4.6787174E1,2.1064327E1,2.8641493E1,1.1079054E1,1.840856E1],"tree_param":{"num_deleted":"0","num_feature":"25","num_nodes":"13","size_leaf_vector":"1"}},{"base_weights":[3.0248528E-3,-3.794643E-1,2.5333498E-2,-1.9802442E-2,-1.3976584E-1,1.719671E-1,6.036195E-3,1.4108159E-2,-2.9218089E-2],"categories":[],"categories_nodes":[],"categories_segments":[],"categories_sizes":[],"default_left":[0,0,0,0,0,0,0,0,0],"id":52,"left_children":[1,3,5,-1,-1,-1,7,-1,-1],"loss_changes":[4.524419E0,1.6530976E0,6.520646E0,0E0,0E0,0E0,3.1261191E0,0E0,0E0],"parents":[2147483647,0,0,1,1,2,2,6,6],"right_children":[2,4,6,-1,-1,-1,8,-1,-1],"split_conditions":[-9.7673506E-1,-1.1622614E0,-1.2614815E0,-1.9802442E-2,-1.3976584E-1,1.719671E-1,4.1379493E-1,1.4108159E-2,-2.9218089E-2],"split_indices":[5,14,17,0,0,0,2,0,0],"split_type":[0,0,0,0,0,0,0,0,0],"sum_hessian":[5.302375E2,2.9221678E1,5.0101584E2,1.133017E1,1.7891508E1,1.3936476E1,4.8707935E2,3.4514993E2,1.4192943E2],"tree_param":{"num_deleted":"0","num_feature":"25","num_nodes":"9","size_leaf_vector":"1"}},{"base_weights":[9.488303E-3,1.4372984E-1,-5.6840543E-2,8.094318E-3,4.2951688E-1,-3.2961294E-2,-1.1205562E-1,1.4600202E-1,-1.834171E-2,6.3806966E-2,2.4062002E-1,-2.3086267E-3,-1.2094013E-1],"categories":[],"categories_nodes":[],"categories_segments":[],"categories_sizes":[],"default_left":[0,0,0,0,0,0,0,0,0,0,0,0,0],"id":53,"left_children":[1,3,5,7,9,11,-1,-1,-1,-1,-1,-1,-1],"loss_changes":[4.8578334E0,6.9936657E0,3.4803085E0,5.9319005E0,5.421611E0,3.7283506E0,0E0,0E0,0E0,0E0,0E0,0E0,0E0],"parents":[2147483647,0,0,1,1,2,2,3,3,4,4,5,5],"right_children":[2,4,6,8,10,12,-1,-1,-1,-1,-1,-1,-1],"split_conditions":[-2.858301E-1,3.6911365E-1,1.0238954E0,-8.3596164E-1,4.683095E-1,9.024266E-1,-1.1205562E-1,1.4600202E-1,-1.834171E-2,6.3806966E-2,2.4062002E-1,-2.3086267E-3,-1.2094013E-1],"split_indices":[22,7,21,13,17,16,0,0,0,0,0,0,0],"split_type":[0,0,0,0,0,0,0,0,0,0,0,0,0],"sum_hessian":[5.455734E2,1.8042174E2,3.651517E2,1.2235274E2,5.8069E1,3.44539E2,2.061269E1,1.5136167E1,1.0721657E2,4.435892E1,1.371008E1,3.2771884E2,1.6820168E1],"tree_param":{"num_deleted":"0","num_feature":"25","num_nodes":"13","size_leaf_vector":"1"}},{"base_weights":[-2.0040765E-3,1.626055E-1,-1.8452875E-2,-1.09735586E-1,-1.518163E-4,-2.8405504E-2,1.3537239E-2],"categories":[],"categories_nodes":[],"categories_segments":[],"categories_sizes":[],"default_left":[0,0,0,0,0,0,0],"id":54,"left_children":[1,-1,3,-1,5,-1,-1],"loss_changes":[5.7357287E0,0E0,4.0166945E0,0E0,3.1351714E0,0E0,0E0],"parents":[2147483647,0,0,2,2,4,4],"right_children":[2,-1,4,-1,6,-1,-1],"split_conditions":[-2.263999E0,1.626055E-1,-6.32116E-1,-1.09735586E-1,-2.9069766E-1,-2.8405504E-2,1.3537239E-2],"split_indices":[13,0,23,0,19,0,0],"split_type":[0,0,0,0,0,0,0],"sum_hessian":[5.2540515E2,1.2706773E1,5.1269836E2,2.1019697E1,4.9167868E2,1.5912921E2,3.3254947E2],"tree_param":{"num_deleted":"0","num_feature":"25","num_nodes":"7","size_leaf_vector":"1"}},{"base_weights":[5.1250844E-3,6.805995E-2,-1.1712954E-1,2.8263412E-2,6.2789696E-1,-8.569817E-3,-3.4235036E-1,1.5440689E-1,1.4586445E-4,9.571353E-2,2.1312787E-1,-1.945866E-2,1.1432196E-1,-1.48903895E-2,-1.10637724E-1],"categories":[],"categories_nodes":[],"categories_segments":[],"categories_sizes":[],"default_left":[0,0,0,0,0,0,0,0,0,0,0,0,0,0,0],"id":55,"left_children":[1,3,5,7,9,11,13,-1,-1,-1,-1,-1,-1,-1,-1],"loss_changes":[4.0865088E0,7.8118095E0,4.413144E0,5.435214E0,1.3280191E0,4.074408E0,1.7840691E0,0E0,0E0,0E0,0E0,0E0,0E0,0E0,0E0],"parents":[2147483647,0,0,1,1,2,2,3,3,4,4,5,5,6,6],"right_children":[2,4,6,8,10,12,14,-1,-1,-1,-1,-1,-1,-1,-1],"split_conditions":[2.6946312E-1,1.8547708E-1,3.348907E-1,-2.215735E0,1.448303E-1,6.520754E-1,-9.1034585E-1,1.5440689E-1,1.4586445E-4,9.571353E-2,2.1312787E-1,-1.945866E-2,1.1432196E-1,-1.48903895E-2,-1.10637724E-1],"split_indices":[22,22,9,10,4,10,18,0,0,0,0,0,0,0,0],"split_type":[0,0,0,0,0,0,0,0,0,0,0,0,0,0,0],"sum_hessian":[5.3112384E2,3.5062653E2,1.8049731E2,3.2735614E2,2.327039E1,1.2179188E2,5.8705437E1,1.442976E1,3.129264E2,1.165837E1,1.161202E1,1.059943E2,1.5797577E1,1.6251648E1,4.245379E1],"tree_param":{"num_deleted":"0","num_feature":"25","num_nodes":"15","size_leaf_vector":"1"}},{"base_weights":[2.3163625E-3,-2.606288E-1,2.3430405E-2,-1.1052317E-1,-1.5004833E-1,1.7394386E-1,7.3887873E-3,6.054148E-2,-1.0994193E-1,-1.1615282E-1,5.0054104E-3],"categories":[],"categories_nodes":[],"categories_segments":[],"categories_sizes":[],"default_left":[0,0,0,0,0,0,0,0,0,0,0],"id":56,"left_children":[1,3,5,7,-1,-1,9,-1,-1,-1,-1],"loss_changes":[3.0033007E0,2.1121705E0,5.497532E0,3.3828194E0,0E0,0E0,3.0485048E0,0E0,0E0,0E0,0E0],"parents":[2147483647,0,0,1,1,2,2,3,3,6,6],"right_children":[2,4,6,8,-1,-1,10,-1,-1,-1,-1],"split_conditions":[-7.1090686E-1,-7.4932873E-1,-6.329252E-1,-4.3075E-1,-1.5004833E-1,1.7394386E-1,-5.817644E-1,6.054148E-2,-1.0994193E-1,-1.1615282E-1,5.0054104E-3],"split_indices":[7,24,24,16,0,0,7,0,0,0,0],"split_type":[0,0,0,0,0,0,0,0,0,0,0],"sum_hessian":[5.4095636E2,4.0209118E1,5.0074722E2,2.8139286E1,1.2069833E1,1.1468395E1,4.8927884E2,1.3663519E1,1.4475767E1,1.2880831E1,4.76398E2],"tree_param":{"num_deleted":"0","num_feature":"25","num_nodes":"11","size_leaf_vector":"1"}},{"base_weights":[-2.327604E-2,-3.4109045E-2,1.0131261E-1,1.9368096E-1,-5.8419447E-2,1.3666771E-1,2.8107176E-3,-7.251658E-2,-8.632517E-3],"categories":[],"categories_nodes":[],"categories_segments":[],"categories_sizes":[],"default_left":[0,0,0,0,0,0,0,0,0],"id":57,"left_children":[1,3,-1,5,7,-1,-1,-1,-1],"loss_changes":[2.5085866E0,2.8728266E0,0E0,3.3044696E0,2.5839496E0,0E0,0E0,0E0,0E0],"parents":[2147483647,0,0,1,1,3,3,4,4],"right_children":[2,4,-1,6,8,-1,-1,-1,-1],"split_conditions":[1.9918921E0,-7.609266E-1,1.0131261E-1,-4.0868014E-1,-5.230681E-1,1.3666771E-1,2.8107176E-3,-7.251658E-2,-8.632517E-3],"split_indices":[15,22,0,24,22,0,0,0,0],"split_type":[0,0,0,0,0,0,0,0,0],"sum_hessian":[5.316826E2,5.1877924E2,1.2903372E1,5.0026604E1,4.6875266E2,1.673787E1,3.3288734E1,4.199938E1,4.2675327E2],"tree_param":{"num_deleted":"0","num_feature":"25","num_nodes":"9","size_leaf_vector":"1"}},{"base_weights":[-4.5500867E-2,-5.9067126E-2,1.23805664E-1,2.4003088E-2,-1.2301727E-1,-1.0132729E-2,8.02014E-2,-9.52163E-2,-2.0295402E-2],"categories":[],"categories_nodes":[],"categories_segments":[],"categories_sizes":[],"default_left":[0,0,0,0,0,0,0,0,0],"id":58,"left_children":[1,3,-1,5,7,-1,-1,-1,-1],"loss_changes":[3.9207022E0,2.7276607E0,0E0,4.405215E0,3.1017632E0,0E0,0E0,0E0,0E0],"parents":[2147483647,0,0,1,1,3,3,4,4],"right_children":[2,4,-1,6,8,-1,-1,-1,-1],"split_conditions":[4.3563576E0,-1.954434E-1,1.23805664E-1,3.6671475E-1,-5.599783E-2,-1.0132729E-2,8.02014E-2,-9.52163E-2,-2.0295402E-2],"split_indices":[9,20,0,16,20,0,0,0,0],"split_type":[0,0,0,0,0,0,0,0,0],"sum_hessian":[5.261374E2,5.134563E2,1.2681136E1,2.2334052E2,2.9011575E2,1.8370473E2,3.963578E1,3.8474102E1,2.5164165E2],"tree_param":{"num_deleted":"0","num_feature":"25","num_nodes":"9","size_leaf_vector":"1"}},{"base_weights":[1.2243579E-2,-1.4105217E-1,4.8695352E-2,6.3281484E-2,-3.6615756E-1,2.9792184E-1,1.5926978E-2,1.4044756E-1,-1.9714989E-2,-1.1462596E-1,-3.871084E-3,1.6268854E-1,3.5086628E-2,1.035363E-2,-7.34338E-2],"categories":[],"categories_nodes":[],"categories_segments":[],"categories_sizes":[],"default_left":[0,0,0,0,0,0,0,0,0,0,0,0,0,0,0],"id":59,"left_children":[1,3,5,7,9,11,13,-1,-1,-1,-1,-1,-1,-1,-1],"loss_changes":[3.0539439E0,4.829261E0,3.6059136E0,4.013941E0,1.755424E0,2.8982453E0,3.2184772E0,0E0,0E0,0E0,0E0,0E0,0E0,0E0,0E0],"parents":[2147483647,0,0,1,1,2,2,3,3,4,4,5,5,6,6],"right_children":[2,4,6,8,10,12,14,-1,-1,-1,-1,-1,-1,-1,-1],"split_conditions":[-4.5424056E-1,-3.2720292E-1,-2.8711215E-1,-2.5495255E-1,4.9080423E-1,-3.346061E-1,2.3773367E0,1.4044756E-1,-1.9714989E-2,-1.1462596E-1,-3.871084E-3,1.6268854E-1,3.5086628E-2,1.035363E-2,-7.34338E-2],"split_indices":[12,20,12,2,20,2,9,0,0,0,0,0,0,0,0],"split_type":[0,0,0,0,0,0,0,0,0,0,0,0,0,0,0],"sum_hessian":[5.465278E2,1.0499164E2,4.4153613E2,5.5035023E1,4.9956615E1,5.130737E1,3.9022876E2,1.2118161E1,4.291686E1,3.88409E1,1.1115714E1,1.5330368E1,3.5977E1,3.6023712E2,2.9991648E1],"tree_param":{"num_deleted":"0","num_feature":"25","num_nodes":"15","size_leaf_vector":"1"}},{"base_weights":[2.4719654E-2,-2.3992981E-1,4.574455E-2,3.7485466E-3,-3.967552E-1,-2.2647188E-3,1.7073509E-1,-1.763551E-1,-1.5561879E-2,-1.816764E-2,3.752656E-2,1.700852E-1,3.0177481E-2],"categories":[],"categories_nodes":[],"categories_segments":[],"categories_sizes":[],"default_left":[0,0,0,0,0,0,0,0,0,0,0,0,0],"id":60,"left_children":[1,3,5,-1,7,9,11,-1,-1,-1,-1,-1,-1],"loss_changes":[2.891712E0,1.5306704E0,2.889031E0,0E0,2.5345268E0,3.862985E0,3.3392327E0,0E0,0E0,0E0,0E0,0E0,0E0],"parents":[2147483647,0,0,1,1,2,2,4,4,5,5,6,6],"right_children":[2,4,6,-1,8,10,12,-1,-1,-1,-1,-1,-1],"split_conditions":[-1.1542944E0,-1.7732079E0,5.77393E-1,3.7485466E-3,-1.3010117E0,4.792209E-1,5.873031E-1,-1.763551E-1,-1.5561879E-2,-1.816764E-2,3.752656E-2,1.700852E-1,3.0177481E-2],"split_indices":[2,21,7,0,21,23,24,0,0,0,0,0,0],"split_type":[0,0,0,0,0,0,0,0,0,0,0,0,0],"sum_hessian":[5.1969696E2,3.824833E1,4.814486E2,1.4558697E1,2.3689634E1,3.4784155E2,1.3360704E2,1.207213E1,1.1617503E1,2.3785042E2,1.0999115E2,1.1249647E1,1.2235738E2],"tree_param":{"num_deleted":"0","num_feature":"25","num_nodes":"13","size_leaf_vector":"1"}},{"base_weights":[1.2897007E-2,4.148946E-1,-4.5391894E-3,1.7945345E-1,2.52079E-2,-4.9731914E-2,1.9082817E-1,-2.6010377E-2,5.5032462E-2,1.790276E-2,1.3821603E-1],"categories":[],"categories_nodes":[],"categories_segments":[],"categories_sizes":[],"default_left":[0,0,0,0,0,0,0,0,0,0,0],"id":61,"left_children":[1,3,5,-1,-1,7,9,-1,-1,-1,-1],"loss_changes":[3.7945552E0,2.2164176E0,4.581063E0,0E0,0E0,6.470596E0,4.2733746E0,0E0,0E0,0E0,0E0],"parents":[2147483647,0,0,1,1,2,2,5,5,6,6],"right_children":[2,4,6,-1,-1,8,10,-1,-1,-1,-1],"split_conditions":[-1.2614815E0,7.70293E-1,6.920823E-1,1.7945345E-1,2.52079E-2,6.645359E-1,7.795774E-1,-2.6010377E-2,5.5032462E-2,1.790276E-2,1.3821603E-1],"split_indices":[17,22,21,0,0,1,20,0,0,0,0],"split_type":[0,0,0,0,0,0,0,0,0,0,0],"sum_hessian":[5.413593E2,2.2504713E1,5.1885455E2,1.119814E1,1.1306573E1,4.213802E2,9.7474396E1,3.4968518E2,7.169501E1,7.398533E1,2.3489063E1],"tree_param":{"num_deleted":"0","num_feature":"25","num_nodes":"11","size_leaf_vector":"1"}},{"base_weights":[-9.381325E-3,1.3360125E-1,-7.281264E-2,-7.611584E-2,1.851416E-1,2.273662E-1,-1.07248046E-1,5.9528477E-2,-4.8542507E-2,1.7106111E-1,-1.8101567E-2,-1.450371E-1,-2.0801162E-2],"categories":[],"categories_nodes":[],"categories_segments":[],"categories_sizes":[],"default_left":[0,0,0,0,0,0,0,0,0,0,0,0,0],"id":62,"left_children":[1,3,5,-1,7,9,11,-1,-1,-1,-1,-1,-1],"loss_changes":[5.02088E0,3.8871918E0,3.9638987E0,0E0,3.329689E0,5.5681953E0,3.7552748E0,0E0,0E0,0E0,0E0,0E0,0E0],"parents":[2147483647,0,0,1,1,2,2,4,4,5,5,6,6],"right_children":[2,4,6,-1,8,10,12,-1,-1,-1,-1,-1,-1],"split_conditions":[-3.8594958E-1,-1.8073577E0,-1.176687E0,-7.611584E-2,3.985998E-1,1.7001745E-1,-5.8587515E-1,5.9528477E-2,-4.8542507E-2,1.7106111E-1,-1.8101567E-2,-1.450371E-1,-2.0801162E-2],"split_indices":[2,13,16,0,3,8,8,0,0,0,0,0,0],"split_type":[0,0,0,0,0,0,0,0,0,0,0,0,0],"sum_hessian":[5.5359607E2,1.7012094E2,3.8347516E2,1.771782E1,1.5240312E2,3.94637E1,3.4401144E2,1.3261722E2,1.9785915E1,1.5433125E1,2.4030575E1,1.538116E1,3.2863028E2],"tree_param":{"num_deleted":"0","num_feature":"25","num_nodes":"13","size_leaf_vector":"1"}},{"base_weights":[-7.4439705E-3,-1.2769859E-1,3.1035362E-2,-2.8146532E-1,2.3514036E-2,-1.1623683E-1,8.979681E-2,-1.1494629E-1,5.406211E-2,9.671706E-2,-3.8956534E-2,-7.580925E-2,9.820731E-2,1.4082709E-2,1.3051894E-1],"categories":[],"categories_nodes":[],"categories_segments":[],"categories_sizes":[],"default_left":[0,0,0,0,0,0,0,0,0,0,0,0,0,0,0],"id":63,"left_children":[1,3,5,7,9,11,13,-1,-1,-1,-1,-1,-1,-1,-1],"loss_changes":[2.3790772E0,2.897927E0,3.3707345E0,5.772264E0,4.2329965E0,1.101698E1,3.9921439E0,0E0,0E0,0E0,0E0,0E0,0E0,0E0,0E0],"parents":[2147483647,0,0,1,1,2,2,3,3,4,4,5,5,6,6],"right_children":[2,4,6,8,10,12,14,-1,-1,-1,-1,-1,-1,-1,-1],"split_conditions":[-5.4516584E-1,5.507139E-1,-3.0383682E-1,7.042465E-1,4.011628E-1,5.9863305E-1,9.8520356E-1,-1.1494629E-1,5.406211E-2,9.671706E-2,-3.8956534E-2,-7.580925E-2,9.820731E-2,1.4082709E-2,1.3051894E-1],"split_indices":[18,1,9,16,19,1,8,0,0,0,0,0,0,0,0],"split_type":[0,0,0,0,0,0,0,0,0,0,0,0,0,0,0],"sum_hessian":[5.1413745E2,1.246341E2,3.8950336E2,6.179516E1,6.2838947E1,1.11087585E2,2.7841577E2,4.505756E1,1.67376E1,2.0719595E1,4.211935E1,8.092803E1,3.0159554E1,2.5932346E2,1.9092316E1],"tree_param":{"num_deleted":"0","num_feature":"25","num_nodes":"15","size_leaf_vector":"1"}},{"base_weights":[1.1931327E-2,-2.7209517E-2,1.9889188E-1,-1.8470785E-1,4.699332E-2,-6.310664E-2,3.196889E-1,-5.8590904E-2,6.11454E-2,1.8243246E-2,-1.5181309E-1,2.056784E-2,1.410218E-1],"categories":[],"categories_nodes":[],"categories_segments":[],"categories_sizes":[],"default_left":[0,0,0,0,0,0,0,0,0,0,0,0,0],"id":64,"left_children":[1,3,5,7,9,-1,11,-1,-1,-1,-1,-1,-1],"loss_changes":[3.9163826E0,5.171877E0,5.099818E0,3.3000693E0,5.447633E0,0E0,4.3925767E0,0E0,0E0,0E0,0E0,0E0,0E0],"parents":[2147483647,0,0,1,1,2,2,3,3,4,4,6,6],"right_children":[2,4,6,8,10,-1,12,-1,-1,-1,-1,-1,-1],"split_conditions":[4.5961958E-1,-2.605966E-1,4.003439E-2,1.8421584E0,6.719244E-1,-6.310664E-2,-1.856603E-2,-5.8590904E-2,6.11454E-2,1.8243246E-2,-1.5181309E-1,2.056784E-2,1.410218E-1],"split_indices":[3,11,6,22,24,0,10,0,0,0,0,0,0],"split_type":[0,0,0,0,0,0,0,0,0,0,0,0,0],"sum_hessian":[5.351862E2,4.425391E2,9.264709E1,1.4172417E2,3.0081494E2,1.9413359E1,7.323373E1,1.26100815E2,1.5623348E1,2.889725E2,1.1842446E1,3.7974003E1,3.5259724E1],"tree_param":{"num_deleted":"0","num_feature":"25","num_nodes":"13","size_leaf_vector":"1"}},{"base_weights":[-6.8046637E-3,-3.6312137E-2,1.8352893E-1,2.4783002E-1,-6.0989548E-2,1.4491779E-1,7.544288E-2,1.1552793E-1,-2.7145835E-2,-8.865092E-3,-8.200984E-2,-8.551718E-2,4.839675E-2],"categories":[],"categories_nodes":[],"categories_segments":[],"categories_sizes":[],"default_left":[0,0,0,0,0,0,0,0,0,0,0,0,0],"id":65,"left_children":[1,3,5,7,9,-1,11,-1,-1,-1,-1,-1,-1],"loss_changes":[3.1598535E0,3.4155555E0,3.315309E0,3.0999641E0,3.045471E0,0E0,3.0683935E0,0E0,0E0,0E0,0E0,0E0,0E0],"parents":[2147483647,0,0,1,1,2,2,3,3,4,4,6,6],"right_children":[2,4,6,8,10,-1,12,-1,-1,-1,-1,-1,-1],"split_conditions":[7.6875377E-1,-1.176687E0,-3.0383682E-1,1.4380173E-1,6.2151706E-1,1.4491779E-1,-6.919977E-2,1.1552793E-1,-2.7145835E-2,-8.865092E-3,-8.200984E-2,-8.551718E-2,4.839675E-2],"split_indices":[14,16,9,8,7,0,9,0,0,0,0,0,0],"split_type":[0,0,0,0,0,0,0,0,0,0,0,0,0],"sum_hessian":[5.626255E2,4.871089E2,7.551662E1,3.892428E1,4.481846E2,1.5871902E1,5.964471E1,2.402164E1,1.4902639E1,4.1066727E2,3.751734E1,1.3298116E1,4.6346596E1],"tree_param":{"num_deleted":"0","num_feature":"25","num_nodes":"13","size_leaf_vector":"1"}},{"base_weights":[1.1985878E-3,6.376511E-2,-9.7026065E-2,3.9869517E-1,2.3870314E-2,-1.8036577E-1,9.0834044E-2,1.7244061E-2,2.0954345E-1,-5.36081E-2,1.9653136E-2,2.3903253E-2,-5.9037607E-2,1.05936356E-1,-6.6107507E-3],"categories":[],"categories_nodes":[],"categories_segments":[],"categories_sizes":[],"default_left":[0,0,0,0,0,0,0,0,0,0,0,0,0,0,0],"id":66,"left_children":[1,3,5,7,9,11,13,-1,-1,-1,-1,-1,-1,-1,-1],"loss_changes":[3.169771E0,4.210116E0,3.142185E0,5.001732E0,3.8227217E0,2.310902E0,2.4706054E0,0E0,0E0,0E0,0E0,0E0,0E0,0E0,0E0],"parents":[2147483647,0,0,1,1,2,2,3,3,4,4,5,5,6,6],"right_children":[2,4,6,8,10,12,14,-1,-1,-1,-1,-1,-1,-1,-1],"split_conditions":[2.8225395E-1,-1.2118195E0,7.457399E-1,-4.9248382E-1,-8.3436185E-1,-5.4539067E-1,3.8404635E-1,1.7244061E-2,2.0954345E-1,-5.36081E-2,1.9653136E-2,2.3903253E-2,-5.9037607E-2,1.05936356E-1,-6.6107507E-3],"split_indices":[14,13,5,5,8,9,8,0,0,0,0,0,0,0,0],"split_type":[0,0,0,0,0,0,0,0,0,0,0,0,0,0,0],"sum_hessian":[5.15781E2,3.1508203E2,2.0069896E2,3.3535995E1,2.8154602E2,1.3902417E2,6.167479E1,1.9456402E1,1.4079594E1,5.2984287E1,2.2856174E2,2.4662075E1,1.143621E2,1.5854984E1,4.5819805E1],"tree_param":{"num_deleted":"0","num_feature":"25","num_nodes":"15","size_leaf_vector":"1"}},{"base_weights":[2.8019754E-2,6.052392E-2,-1.4566225E-1,9.462227E-2,-1.5032825E-1,-4.160708E-1,1.3235368E-1,6.0002092E-2,7.899023E-3,4.110006E-2,-1.0757885E-1,-4.7595585E-3,-1.3519195E-1,-1.0608288E-1,8.7904185E-2],"categories":[],"categories_nodes":[],"categories_segments":[],"categories_sizes":[],"default_left":[0,0,0,0,0,0,0,0,0,0,0,0,0,0,0],"id":67,"left_children":[1,3,5,7,9,11,13,-1,-1,-1,-1,-1,-1,-1,-1],"loss_changes":[3.1042693E0,3.330215E0,6.5168104E0,3.7252324E0,5.885703E0,2.3369398E0,5.4325495E0,0E0,0E0,0E0,0E0,0E0,0E0,0E0,0E0],"parents":[2147483647,0,0,1,1,2,2,3,3,4,4,5,5,6,6],"right_children":[2,4,6,8,10,12,14,-1,-1,-1,-1,-1,-1,-1,-1],"split_conditions":[5.398997E-1,7.042465E-1,7.162182E-1,-5.079924E-1,2.2181585E-1,-3.6105075E-1,-2.8834176E-1,6.0002092E-2,7.899023E-3,4.110006E-2,-1.0757885E-1,-4.7595585E-3,-1.3519195E-1,-1.0608288E-1,8.7904185E-2],"split_indices":[17,16,17,4,9,15,9,0,0,0,0,0,0,0,0],"split_type":[0,0,0,0,0,0,0,0,0,0,0,0,0,0,0],"sum_hessian":[5.498769E2,4.631917E2,8.668518E1,3.987131E2,6.447861E1,4.3943806E1,4.2741375E1,1.17495834E2,2.8121725E2,3.063325E1,3.3845356E1,1.1099033E1,3.2844772E1,1.2201627E1,3.0539747E1],"tree_param":{"num_deleted":"0","num_feature":"25","num_nodes":"15","size_leaf_vector":"1"}},{"base_weights":[4.8679532E-3,2.215959E-2,-1.1975166E-1,2.3199652E-1,-2.993059E-3,8.930701E-2,-5.549496E-2,-1.0107177E-1,2.9977453E-3],"categories":[],"categories_nodes":[],"categories_segments":[],"categories_sizes":[],"default_left":[0,0,0,0,0,0,0,0,0],"id":68,"left_children":[1,3,-1,5,7,-1,-1,-1,-1],"loss_changes":[4.626368E0,2.771809E0,0E0,3.3819401E0,2.9087226E0,0E0,0E0,0E0,0E0],"parents":[2147483647,0,0,1,1,3,3,4,4],"right_children":[2,4,-1,6,8,-1,-1,-1,-1],"split_conditions":[1.8229442E0,-9.47595E-1,-1.1975166E-1,6.9206715E-1,-1.6619565E0,8.930701E-2,-5.549496E-2,-1.0107177E-1,2.9977453E-3],"split_indices":[15,8,0,4,3,0,0,0,0],"split_type":[0,0,0,0,0,0,0,0,0],"sum_hessian":[5.436184E2,5.2516724E2,1.8451141E1,5.6212463E1,4.689548E2,4.367566E1,1.25368E1,1.6822773E1,4.5213202E2],"tree_param":{"num_deleted":"0","num_feature":"25","num_nodes":"9","size_leaf_vector":"1"}},{"base_weights":[-7.1459827E-3,-1.07774176E-1,7.313454E-2,-4.390073E-2,-5.205137E-1,1.3115057E-1,3.6920954E-2,-2.7452411E-2,6.635067E-2,-6.915203E-2,-1.7276636E-1,7.603654E-4,1.1481118E-1],"categories":[],"categories_nodes":[],"categories_segments":[],"categories_sizes":[],"default_left":[0,0,0,0,0,0,0,0,0,0,0,0,0],"id":69,"left_children":[1,3,5,7,9,-1,11,-1,-1,-1,-1,-1,-1],"loss_changes":[4.123712E0,5.9718046E0,4.735474E0,4.175367E0,1.3248425E0,0E0,3.831329E0,0E0,0E0,0E0,0E0,0E0,0E0],"parents":[2147483647,0,0,1,1,2,2,3,3,4,4,6,6],"right_children":[2,4,6,8,10,-1,12,-1,-1,-1,-1,-1,-1],"split_conditions":[-1.143602E-1,7.509077E-1,-1.4507653E0,8.3011806E-2,2.9943597E-1,1.3115057E-1,1.03988E0,-2.7452411E-2,6.635067E-2,-6.915203E-2,-1.7276636E-1,7.603654E-4,1.1481118E-1],"split_indices":[11,14,10,2,5,0,5,0,0,0,0,0,0],"split_type":[0,0,0,0,0,0,0,0,0,0,0,0,0],"sum_hessian":[5.1045615E2,2.2652135E2,2.839348E2,1.9616405E2,3.035731E1,2.0698704E1,2.6323608E2,1.613159E2,3.4848133E1,1.3140805E1,1.7216505E1,2.4404956E2,1.9186543E1],"tree_param":{"num_deleted":"0","num_feature":"25","num_nodes":"13","size_leaf_vector":"1"}},{"base_weights":[-6.0321796E-3,-3.0283803E-1,1.4000675E-2,-1.3191037E-1,-1.1130856E-2,1.2989596E-1,-4.878591E-2,2.0491732E-2,1.645539E-1,-3.410718E-2,1.1285938E-2],"categories":[],"categories_nodes":[],"categories_segments":[],"categories_sizes":[],"default_left":[0,0,0,0,0,0,0,0,0,0,0],"id":70,"left_children":[1,3,5,-1,-1,7,9,-1,-1,-1,-1],"loss_changes":[3.1884387E0,2.04274E0,3.6553552E0,0E0,0E0,4.430936E0,2.7774296E0,0E0,0E0,0E0,0E0],"parents":[2147483647,0,0,1,1,2,2,5,5,6,6],"right_children":[2,4,6,-1,-1,8,10,-1,-1,-1,-1],"split_conditions":[-9.026118E-1,-1.0394029E-1,-3.5988614E-1,-1.3191037E-1,-1.1130856E-2,-3.3557338E-1,5.5863696E-1,2.0491732E-2,1.645539E-1,-3.410718E-2,1.1285938E-2],"split_indices":[22,3,7,0,0,1,24,0,0,0,0],"split_type":[0,0,0,0,0,0,0,0,0,0,0],"sum_hessian":[5.362443E2,3.3905254E1,5.0233905E2,1.7766981E1,1.6138275E1,1.7651569E2,3.2582336E2,1.6251103E2,1.4004659E1,1.670632E2,1.5876018E2],"tree_param":{"num_deleted":"0","num_feature":"25","num_nodes":"11","size_leaf_vector":"1"}},{"base_weights":[-1.2845801E-2,-1.697998E-1,2.5121618E-2,-1.752426E-1,-7.170663E-2,-1.8069626E-1,5.342394E-2,-9.793636E-2,2.3299092E-2,-1.3356547E-1,-1.2717316E-2,1.7699964E-2,-1.18736155E-1],"categories":[],"categories_nodes":[],"categories_segments":[],"categories_sizes":[],"default_left":[0,0,0,0,0,0,0,0,0,0,0,0,0],"id":71,"left_children":[1,3,5,-1,7,9,11,-1,-1,-1,-1,-1,-1],"loss_changes":[3.315287E0,5.775222E0,2.6094909E0,0E0,4.9953585E0,2.533522E0,3.9307492E0,0E0,0E0,0E0,0E0,0E0,0E0],"parents":[2147483647,0,0,1,1,2,2,4,4,5,5,6,6],"right_children":[2,4,6,-1,8,10,12,-1,-1,-1,-1,-1,-1],"split_conditions":[-8.8407403E-1,-2.1864377E-1,-1E0,-1.752426E-1,-3.7514204E-1,5.620005E-1,1.205554E0,-9.793636E-2,2.3299092E-2,-1.3356547E-1,-1.2717316E-2,1.7699964E-2,-1.18736155E-1],"split_indices":[10,23,0,0,1,6,21,0,0,0,0,0,0],"split_type":[0,0,0,0,0,0,0,0,0,0,0,0,0],"sum_hessian":[5.563367E2,1.0836502E2,4.4797162E2,1.6573036E1,9.179198E1,5.4154377E1,3.9381726E2,3.0982683E1,6.08093E1,1.4200108E1,3.995427E1,3.8062274E2,1.3194502E1],"tree_param":{"num_deleted":"0","num_feature":"25","num_nodes":"13","size_leaf_vector":"1"}},{"base_weights":[1.1068247E-2,-7.90476E-3,1.1886628E-1,-2.6677534E-2,1.01240635E-1,-1.9854011E-2,2.9926542E-2],"categories":[],"categories_nodes":[],"categories_segments":[],"categories_sizes":[],"default_left":[0,0,0,0,0,0,0],"id":72,"left_children":[1,3,-1,5,-1,-1,-1],"loss_changes":[4.462119E0,3.7708886E0,0E0,3.6787057E0,0E0,0E0,0E0],"parents":[2147483647,0,0,1,1,3,3],"right_children":[2,4,-1,6,-1,-1,-1],"split_conditions":[1.3629559E0,1.4595385E0,1.1886628E-1,5.9863305E-1,1.01240635E-1,-1.9854011E-2,2.9926542E-2],"split_indices":[11,4,0,1,0,0,0],"split_type":[0,0,0,0,0,0,0],"sum_hessian":[4.9760895E2,4.7840396E2,1.9204971E1,4.579298E2,2.0474174E1,3.3560117E2,1.2232864E2],"tree_param":{"num_deleted":"0","num_feature":"25","num_nodes":"7","size_leaf_vector":"1"}},{"base_weights":[-8.250522E-3,9.3052685E-3,-1.046534E-1,2.597827E-1,-1.3901281E-2,9.104759E-3,1.4242953E-1,3.007965E-3,-6.825378E-2],"categories":[],"categories_nodes":[],"categories_segments":[],"categories_sizes":[],"default_left":[0,0,0,0,0,0,0,0,0],"id":73,"left_children":[1,3,-1,5,7,-1,-1,-1,-1],"loss_changes":[3.8324797E0,2.915993E0,0E0,3.0298767E0,3.1665978E0,0E0,0E0,0E0,0E0],"parents":[2147483647,0,0,1,1,3,3,4,4],"right_children":[2,4,-1,6,8,-1,-1,-1,-1],"split_conditions":[1.751086E0,-1.3997816E0,-1.046534E-1,4.86228E-1,8.7954926E-1,9.104759E-3,1.4242953E-1,3.007965E-3,-6.825378E-2],"split_indices":[23,10,0,14,13,0,0,0,0],"split_type":[0,0,0,0,0,0,0,0,0],"sum_hessian":[5.227466E2,5.0165744E2,2.1089144E1,4.2537136E1,4.591203E2,2.5073648E1,1.7463488E1,4.1773114E2,4.1389156E1],"tree_param":{"num_deleted":"0","num_feature":"25","num_nodes":"9","size_leaf_vector":"1"}},{"base_weights":[3.7054552E-3,1.650334E-2,-8.836588E-2,8.7723516E-2,1.8596903E-3,-2.1276075E-2,1.600701E-2],"categories":[],"categories_nodes":[],"categories_segments":[],"categories_sizes":[],"default_left":[0,0,0,0,0,0,0],"id":74,"left_children":[1,3,-1,-1,5,-1,-1],"loss_changes":[2.537752E0,2.6287289E0,0E0,0E0,2.8288643E0,0E0,0E0],"parents":[2147483647,0,0,1,1,4,4],"right_children":[2,4,-1,-1,6,-1,-1],"split_conditions":[1.2456279E0,-1.0232557E0,-8.836588E-2,8.7723516E-2,0E0,-2.1276075E-2,1.600701E-2],"split_indices":[14,19,0,0,0,0,0],"split_type":[0,0,0,0,0,0,0],"sum_hessian":[5.458363E2,5.272619E2,1.8574429E1,2.1742838E1,5.0551904E2,2.1084145E2,2.946776E2],"tree_param":{"num_deleted":"0","num_feature":"25","num_nodes":"7","size_leaf_vector":"1"}},{"base_weights":[1.4850406E-2,-8.0245085E-2,2.6718961E-2,1.13116376E-1,-1.88549E-2,1.091486E-1,9.2616575E-3,-5.2547306E-2,6.551389E-3],"categories":[],"categories_nodes":[],"categories_segments":[],"categories_sizes":[],"default_left":[0,0,0,0,0,0,0,0,0],"id":75,"left_children":[1,-1,3,5,7,-1,-1,-1,-1],"loss_changes":[2.098734E0,0E0,1.9710104E0,4.3163533E0,2.908105E0,0E0,0E0,0E0,0E0],"parents":[2147483647,0,0,2,2,3,3,4,4],"right_children":[2,-1,4,6,8,-1,-1,-1,-1],"split_conditions":[-1.7090031E0,-8.0245085E-2,-2.886264E-1,-7.031915E-1,-6.419504E-2,1.091486E-1,9.2616575E-3,-5.2547306E-2,6.551389E-3],"split_indices":[4,0,13,14,13,0,0,0,0],"split_type":[0,0,0,0,0,0,0,0,0],"sum_hessian":[5.1798175E2,1.740302E1,5.005787E2,1.7286568E2,3.2771304E2,3.2079277E1,1.4078639E2,6.2022446E1,2.6569058E2],"tree_param":{"num_deleted":"0","num_feature":"25","num_nodes":"9","size_leaf_vector":"1"}},{"base_weights":[-9.916166E-4,6.0315922E-2,-1.8447049E-1,3.1712826E-2,4.16485E-1,-4.6779606E-1,-5.367329E-2,-6.428352E-4,9.5196396E-2,1.5731826E-1,1.617733E-2,-5.300956E-2,-1.439904E-1,5.2129194E-2,-4.801424E-2],"categories":[],"categories_nodes":[],"categories_segments":[],"categories_sizes":[],"default_left":[0,0,0,0,0,0,0,0,0,0,0,0,0,0,0],"id":76,"left_children":[1,3,5,7,9,11,13,-1,-1,-1,-1,-1,-1,-1,-1],"loss_changes":[5.832105E0,3.9590719E0,4.812118E0,4.3920956E0,2.2658834E0,1.2213593E0,3.3462148E0,0E0,0E0,0E0,0E0,0E0,0E0,0E0,0E0],"parents":[2147483647,0,0,1,1,2,2,3,3,4,4,5,5,6,6],"right_children":[2,4,6,8,10,12,14,-1,-1,-1,-1,-1,-1,-1,-1],"split_conditions":[4.04717E-1,3.418433E-1,2.3237053E-1,9.870788E-1,1.9966023E-1,-3.6709985E-1,-3.9534885E-1,-6.428352E-4,9.5196396E-2,1.5731826E-1,1.617733E-2,-5.300956E-2,-1.439904E-1,5.2129194E-2,-4.801424E-2],"split_indices":[2,2,4,11,11,23,19,0,0,0,0,0,0,0,0],"split_type":[0,0,0,0,0,0,0,0,0,0,0,0,0,0,0],"sum_hessian":[5.1847205E2,3.8861908E2,1.2985298E2,3.5973004E2,2.888904E1,4.101295E1,8.884003E1,3.2806512E2,3.1664936E1,1.7638006E1,1.1251035E1,1.3086731E1,2.792622E1,3.0893492E1,5.7946537E1],"tree_param":{"num_deleted":"0","num_feature":"25","num_nodes":"15","size_leaf_vector":"1"}},{"base_weights":[-3.476496E-2,-2.280762E-1,-7.855868E-3,6.104922E-2,-3.5985395E-1,2.3208363E-2,-1.9687334E-1,-1.3824153E-1,-4.342004E-2,-5.6874785E-3,5.205381E-2,-1.9826278E-2,-1.12595715E-1],"categories":[],"categories_nodes":[],"categories_segments":[],"categories_sizes":[],"default_left":[0,0,0,0,0,0,0,0,0,0,0,0,0],"id":77,"left_children":[1,3,5,-1,7,9,11,-1,-1,-1,-1,-1,-1],"loss_changes":[2.7895432E0,4.1145554E0,2.7640076E0,0E0,1.9056501E0,3.5345008E0,2.017387E0,0E0,0E0,0E0,0E0,0E0,0E0],"parents":[2147483647,0,0,1,1,2,2,4,4,5,5,6,6],"right_children":[2,4,6,-1,8,10,12,-1,-1,-1,-1,-1,-1],"split_conditions":[-1E0,-3.7111622E-1,9.6234465E-1,6.104922E-2,1.0626318E-3,4.585578E-1,5.722863E-1,-1.3824153E-1,-4.342004E-2,-5.6874785E-3,5.205381E-2,-1.9826278E-2,-1.12595715E-1],"split_indices":[0,7,15,0,7,2,2,0,0,0,0,0,0],"split_type":[0,0,0,0,0,0,0,0,0,0,0,0,0],"sum_hessian":[5.362619E2,6.552672E1,4.707352E2,1.4195772E1,5.1330944E1,4.0429156E2,6.644361E1,2.4367476E1,2.6963467E1,3.2453528E2,7.97563E1,4.5992035E1,2.045158E1],"tree_param":{"num_deleted":"0","num_feature":"25","num_nodes":"13","size_leaf_vector":"1"}},{"base_weights":[-1.652494E-2,-1.310539E-1,-2.5302286E-3,-3.3822277E-1,1.3498459E-2,-1.3138866E-1,-3.8020276E-2,-4.815683E-3,5.914117E-2],"categories":[],"categories_nodes":[],"categories_segments":[],"categories_sizes":[],"default_left":[0,0,0,0,0,0,0,0,0],"id":78,"left_children":[1,-1,3,5,7,-1,-1,-1,-1],"loss_changes":[3.8183498E0,0E0,2.7660215E0,8.444512E-1,3.6884804E0,0E0,0E0,0E0,0E0],"parents":[2147483647,0,0,2,2,3,3,4,4],"right_children":[2,-1,4,6,8,-1,-1,-1,-1],"split_conditions":[-8.288277E-1,-1.310539E-1,-1.0232557E0,8.0995046E-2,7.17024E-1,-1.3138866E-1,-3.8020276E-2,-4.815683E-3,5.914117E-2],"split_indices":[12,0,19,11,16,0,0,0,0],"split_type":[0,0,0,0,0,0,0,0,0],"sum_hessian":[5.2798395E2,1.3921565E1,5.1406244E2,2.34269E1,4.906355E2,1.1315193E1,1.2111708E1,4.2824527E2,6.2390247E1],"tree_param":{"num_deleted":"0","num_feature":"25","num_nodes":"9","size_leaf_vector":"1"}},{"base_weights":[1.744643E-3,3.8471527E-2,-2.4013714E-1,5.66919E-2,-1.0766826E-1,-4.8578447E-1,-8.463761E-3,9.819804E-3,1.3345742E-1,-5.3711757E-2,-1.7222235E-1,1.2718984E-1,-6.2404275E-2],"categories":[],"categories_nodes":[],"categories_segments":[],"categories_sizes":[],"default_left":[0,0,0,0,0,0,0,0,0,0,0,0,0],"id":79,"left_children":[1,3,5,7,-1,9,11,-1,-1,-1,-1,-1,-1],"loss_changes":[4.617374E0,3.918551E0,3.8992875E0,3.5372593E0,0E0,1.91083E0,4.5531497E0,0E0,0E0,0E0,0E0,0E0,0E0],"parents":[2147483647,0,0,1,1,2,2,3,3,5,5,6,6],"right_children":[2,4,6,8,-1,10,12,-1,-1,-1,-1,-1,-1],"split_conditions":[7.042465E-1,5.769596E-1,1.282892E-1,3.629431E0,-1.0766826E-1,-6.4996827E-1,1.0175837E-1,9.819804E-3,1.3345742E-1,-5.3711757E-2,-1.7222235E-1,1.2718984E-1,-6.2404275E-2],"split_indices":[16,3,21,9,0,2,9,0,0,0,0,0,0],"split_type":[0,0,0,0,0,0,0,0,0,0,0,0,0],"sum_hessian":[5.197658E2,4.5124902E2,6.851679E1,4.34633E2,1.661604E1,3.3255444E1,3.526135E1,4.2017752E2,1.4455461E1,1.4828146E1,1.8427298E1,1.1219313E1,2.4042038E1],"tree_param":{"num_deleted":"0","num_feature":"25","num_nodes":"13","size_leaf_vector":"1"}},{"base_weights":[4.3956516E-3,-1.639924E-1,3.7853908E-2,-9.3978584E-2,-1.5128753E-1,3.5386366E-1,-7.5439E-3,5.1342994E-2,-5.114414E-2,4.847988E-2,2.4232447E-1,3.587353E-3,-8.113635E-2],"categories":[],"categories_nodes":[],"categories_segments":[],"categories_sizes":[],"default_left":[0,0,0,0,0,0,0,0,0,0,0,0,0],"id":80,"left_children":[1,3,5,7,-1,9,11,-1,-1,-1,-1,-1,-1],"loss_changes":[3.0298533E0,2.8187463E0,6.4362493E0,2.6683075E0,0E0,5.5789714E0,2.8021994E0,0E0,0E0,0E0,0E0,0E0,0E0],"parents":[2147483647,0,0,1,1,2,2,3,3,5,5,6,6],"right_children":[2,4,6,8,-1,10,12,-1,-1,-1,-1,-1,-1],"split_conditions":[-5.6104857E-1,5.3907186E-1,-3.9392856E-1,-2.152008E-1,-1.5128753E-1,3.3172855E-1,1.0314705E0,5.1342994E-2,-5.114414E-2,4.847988E-2,2.4232447E-1,3.587353E-3,-8.113635E-2],"split_indices":[7,5,24,15,0,10,8,0,0,0,0,0,0],"split_type":[0,0,0,0,0,0,0,0,0,0,0,0,0],"sum_hessian":[5.377829E2,8.914344E1,4.4863947E2,7.717885E1,1.1964595E1,5.6355328E1,3.9228415E2,2.1122667E1,5.605618E1,4.516796E1,1.1187369E1,3.6709033E2,2.5193804E1],"tree_param":{"num_deleted":"0","num_feature":"25","num_nodes":"13","size_leaf_vector":"1"}},{"base_weights":[2.2247147E-2,-4.218047E-3,2.3619734E-1,1.07309766E-1,-2.0013383E-2,-3.8064435E-2,3.4375772E-1,2.9202169E-2,-1.660214E-2,-1.0452452E-2,1.2409368E-1],"categories":[],"categories_nodes":[],"categories_segments":[],"categories_sizes":[],"default_left":[0,0,0,0,0,0,0,0,0,0,0],"id":81,"left_children":[1,3,5,-1,7,-1,9,-1,-1,-1,-1],"loss_changes":[2.8130085E0,3.0788476E0,2.3005161E0,0E0,2.817551E0,0E0,2.6710105E0,0E0,0E0,0E0,0E0],"parents":[2147483647,0,0,1,1,2,2,4,4,6,6],"right_children":[2,4,6,-1,8,-1,10,-1,-1,-1,-1],"split_conditions":[5.046992E-1,-8.07985E-1,-5.465116E-1,1.07309766E-1,-4.245485E-1,-3.8064435E-2,1.5497331E-1,2.9202169E-2,-1.660214E-2,-1.0452452E-2,1.2409368E-1],"split_indices":[3,7,19,0,12,0,6,0,0,0,0],"split_type":[0,0,0,0,0,0,0,0,0,0,0],"sum_hessian":[4.9680185E2,4.4211337E2,5.4688484E1,1.5291471E1,4.268219E2,1.1796468E1,4.2892017E1,1.0887507E2,3.1794684E2,1.2629263E1,3.0262753E1],"tree_param":{"num_deleted":"0","num_feature":"25","num_nodes":"11","size_leaf_vector":"1"}},{"base_weights":[1.1416092E-3,-2.5078509E-2,2.1747884E-1,4.4039458E-2,-1.09740935E-1,3.5709032E-1,-5.2084457E-2,5.876015E-2,-1.8745286E-2,-1.5047169E-1,-1.5209568E-2,1.4981656E-1,1.1712199E-2],"categories":[],"categories_nodes":[],"categories_segments":[],"categories_sizes":[],"default_left":[0,0,0,0,0,0,0,0,0,0,0,0,0],"id":82,"left_children":[1,3,5,7,9,11,-1,-1,-1,-1,-1,-1,-1],"loss_changes":[3.025702E0,2.7839334E0,3.4568958E0,6.147319E0,5.142056E0,3.400415E0,0E0,0E0,0E0,0E0,0E0,0E0,0E0],"parents":[2147483647,0,0,1,1,2,2,3,3,4,4,5,5],"right_children":[2,4,6,8,10,12,-1,-1,-1,-1,-1,-1,-1],"split_conditions":[1.0451145E0,1.1405016E-1,1.243998E0,-2.7267867E-1,-1.0283044E-1,1.9038388E-1,-5.2084457E-2,5.876015E-2,-1.8745286E-2,-1.5047169E-1,-1.5209568E-2,1.4981656E-1,1.1712199E-2],"split_indices":[11,2,21,9,21,6,0,0,0,0,0,0,0],"split_type":[0,0,0,0,0,0,0,0,0,0,0,0,0],"sum_hessian":[5.334089E2,4.7574814E2,5.766075E1,2.619189E2,2.1382922E2,4.3513783E1,1.4146971E1,9.9920494E1,1.6199843E2,1.8589138E1,1.9524008E2,2.3959145E1,1.9554636E1],"tree_param":{"num_deleted":"0","num_feature":"25","num_nodes":"13","size_leaf_vector":"1"}},{"base_weights":[-4.592993E-3,5.6184802E-2,-8.312948E-2,-2.1813218E-2,2.049262E-1,6.1347216E-2,-1.1729098E-1,7.5654387E-3,-5.8696363E-2,3.2435086E-2,1.3744424E-1,-5.6006897E-2,1.7685133E-4],"categories":[],"categories_nodes":[],"categories_segments":[],"categories_sizes":[],"default_left":[0,0,0,0,0,0,0,0,0,0,0,0,0],"id":83,"left_children":[1,3,5,7,9,-1,11,-1,-1,-1,-1,-1,-1],"loss_changes":[2.5674202E0,3.517805E0,2.6674995E0,2.2707348E0,2.6960802E0,0E0,2.7779071E0,0E0,0E0,0E0,0E0,0E0,0E0],"parents":[2147483647,0,0,1,1,2,2,3,3,4,4,6,6],"right_children":[2,4,6,8,10,-1,12,-1,-1,-1,-1,-1,-1],"split_conditions":[1.5630293E-1,-2.2563872E-1,-1.0317198E0,8.089284E-1,4.3573314E-1,6.1347216E-2,-5.570465E-2,7.5654387E-3,-5.8696363E-2,3.2435086E-2,1.3744424E-1,-5.6006897E-2,1.7685133E-4],"split_indices":[13,13,14,15,23,0,4,0,0,0,0,0,0],"split_type":[0,0,0,0,0,0,0,0,0,0,0,0,0],"sum_hessian":[5.378739E2,3.0321893E2,2.3465497E2,1.989121E2,1.0430685E2,2.1846775E1,2.128082E2,1.6010947E2,3.8802628E1,8.650181E1,1.780504E1,1.0984677E2,1.02961426E2],"tree_param":{"num_deleted":"0","num_feature":"25","num_nodes":"13","size_leaf_vector":"1"}},{"base_weights":[-3.870143E-2,3.337257E-2,-1.1931123E-1,7.387421E-2,-2.3666771E-1,3.647914E-3,-1.9053295E-1,7.332097E-2,-1.436194E-3,-1.2013775E-1,7.169195E-3,-4.8424494E-2,6.344901E-2,-1.1158948E-1,-2.9243344E-2],"categories":[],"categories_nodes":[],"categories_segments":[],"categories_sizes":[],"default_left":[0,0,0,0,0,0,0,0,0,0,0,0,0,0,0],"id":84,"left_children":[1,3,5,7,9,11,13,-1,-1,-1,-1,-1,-1,-1,-1],"loss_changes":[2.9207413E0,2.9028375E0,2.0781913E0,4.1302466E0,2.3208113E0,4.446496E0,2.833016E0,0E0,0E0,0E0,0E0,0E0,0E0,0E0,0E0],"parents":[2147483647,0,0,1,1,2,2,3,3,4,4,5,5,6,6],"right_children":[2,4,6,8,10,12,14,-1,-1,-1,-1,-1,-1,-1,-1],"split_conditions":[2.6459122E-2,5.7774365E-1,-3.0246386E-1,-2.9937887E-1,5.586067E-1,-5.7183784E-1,-3.575384E-1,7.332097E-2,-1.436194E-3,-1.2013775E-1,7.169195E-3,-4.8424494E-2,6.344901E-2,-1.1158948E-1,-2.9243344E-2],"split_indices":[13,2,8,23,18,2,18,0,0,0,0,0,0,0,0],"split_type":[0,0,0,0,0,0,0,0,0,0,0,0,0,0,0],"sum_hessian":[5.027205E2,2.6541257E2,2.3730794E2,2.3079681E2,3.461574E1,8.7039894E1,1.5026804E2,6.048171E1,1.703151E2,1.776362E1,1.6852123E1,4.866717E1,3.837272E1,3.2079823E1,1.1818822E2],"tree_param":{"num_deleted":"0","num_feature":"25","num_nodes":"15","size_leaf_vector":"1"}},{"base_weights":[-1.7603349E-2,1.3730255E-1,-3.0802397E-2,1.5507287E-2,-1.7893046E-1,-6.042189E-3,4.9832933E-2,-7.0736125E-2,4.512573E-3],"categories":[],"categories_nodes":[],"categories_segments":[],"categories_sizes":[],"default_left":[0,0,0,0,0,0,0,0,0],"id":85,"left_children":[1,-1,3,5,7,-1,-1,-1,-1],"loss_changes":[3.9356909E0,0E0,3.4696949E0,2.8933363E0,2.588542E0,0E0,0E0,0E0,0E0],"parents":[2147483647,0,0,2,2,3,3,4,4],"right_children":[2,-1,4,6,8,-1,-1,-1,-1],"split_conditions":[-2.0228176E0,1.3730255E-1,5.77393E-1,9.5073324E-1,4.2432466E-1,-6.042189E-3,4.9832933E-2,-7.0736125E-2,4.512573E-3],"split_indices":[16,0,7,15,10,0,0,0,0],"split_type":[0,0,0,0,0,0,0,0,0],"sum_hessian":[5.173878E2,1.1584082E1,5.0580374E2,3.8533533E2,1.20468414E2,3.17385E2,6.795031E1,7.762019E1,4.284822E1],"tree_param":{"num_deleted":"0","num_feature":"25","num_nodes":"9","size_leaf_vector":"1"}},{"base_weights":[1.7515823E-2,-1.0859352E-1,7.855202E-2,2.6116306E-1,-1.8671893E-1,1.5101054E-1,4.7359195E-2,1.6197333E-1,-5.8573846E-2,4.7213376E-2,-6.432511E-2,-9.4341494E-2,1.8531928E-2],"categories":[],"categories_nodes":[],"categories_segments":[],"categories_sizes":[],"default_left":[0,0,0,0,0,0,0,0,0,0,0,0,0],"id":86,"left_children":[1,3,5,7,9,-1,11,-1,-1,-1,-1,-1,-1],"loss_changes":[4.05428E0,4.962439E0,5.933629E0,5.9563894E0,4.0313954E0,0E0,4.057576E0,0E0,0E0,0E0,0E0,0E0,0E0],"parents":[2147483647,0,0,1,1,2,2,3,3,4,4,6,6],"right_children":[2,4,6,8,10,-1,12,-1,-1,-1,-1,-1,-1],"split_conditions":[-2.7580178E-1,-2.6593003E-1,-2.2794063E-1,-3.3818293E-1,-3.97454E-1,1.5101054E-1,-4.853788E-1,1.6197333E-1,-5.8573846E-2,4.7213376E-2,-6.432511E-2,-9.4341494E-2,1.8531928E-2],"split_indices":[23,2,23,20,9,0,12,0,0,0,0,0,0],"split_type":[0,0,0,0,0,0,0,0,0,0,0,0,0],"sum_hessian":[5.267189E2,1.7178564E2,3.5493323E2,2.9965078E1,1.4182057E2,1.952151E1,3.3541174E2,1.6678202E1,1.3286876E1,2.344566E1,1.1837491E2,2.0484634E1,3.149271E2],"tree_param":{"num_deleted":"0","num_feature":"25","num_nodes":"13","size_leaf_vector":"1"}},{"base_weights":[2.1268323E-3,1.6874138E-1,-2.4562454E-2,3.8667688E-1,-1.8862475E-1,-5.4251693E-2,1.7663753E-1,1.4248993E-1,1.222604E-2,5.2751318E-2,-1.21387295E-1,-9.497207E-3,-1.284958E-1,9.6156806E-2,-2.0323694E-2],"categories":[],"categories_nodes":[],"categories_segments":[],"categories_sizes":[],"default_left":[0,0,0,0,0,0,0,0,0,0,0,0,0,0,0],"id":87,"left_children":[1,3,5,7,9,11,13,-1,-1,-1,-1,-1,-1,-1,-1],"loss_changes":[2.27288E0,5.4962263E0,2.631638E0,2.8527417E0,3.2917733E0,2.8075414E0,3.1534455E0,0E0,0E0,0E0,0E0,0E0,0E0,0E0,0E0],"parents":[2147483647,0,0,1,1,2,2,3,3,4,4,5,5,6,6],"right_children":[2,4,6,8,10,12,14,-1,-1,-1,-1,-1,-1,-1,-1],"split_conditions":[-1E0,1.5794121E0,5.973351E-1,9.850151E-2,-6.262462E-1,1.1957711E0,3.229943E-1,1.4248993E-1,1.222604E-2,5.2751318E-2,-1.21387295E-1,-9.497207E-3,-1.284958E-1,9.6156806E-2,-2.0323694E-2],"split_indices":[0,23,17,15,18,6,14,0,0,0,0,0,0,0,0],"split_type":[0,0,0,0,0,0,0,0,0,0,0,0,0,0,0],"sum_hessian":[5.1112436E2,7.0570465E1,4.405539E2,4.383699E1,2.6733473E1,3.8390463E2,5.6649273E1,2.7863787E1,1.5973205E1,1.151899E1,1.5214482E1,3.7153247E2,1.237216E1,3.0995432E1,2.565384E1],"tree_param":{"num_deleted":"0",